{"type":"LSTMTimeStep","options":{"inputSize":5,"hiddenLayers":[12,12,12],"outputSize":5,"learningRate":0.01,"decayRate":0.999,"smoothEps":1e-8,"regc":0.000001,"clipval":5},"hiddenLayers":[{"inputMatrix":{"rows":12,"columns":5,"weights":{"0":0.8526738882064819,"1":0.4130948781967163,"2":0.7578299641609192,"3":0.4190466105937958,"4":0.5467908978462219,"5":-0.4227989614009857,"6":-0.43931645154953003,"7":-0.38674691319465637,"8":-0.4401983618736267,"9":-0.37044447660446167,"10":0.5368247628211975,"11":0.46236079931259155,"12":0.003212832612916827,"13":0.800322949886322,"14":0.6761435866355896,"15":-0.32071587443351746,"16":-0.34781041741371155,"17":-0.3656964898109436,"18":-0.3187771439552307,"19":-0.32060012221336365,"20":-0.3301495611667633,"21":-0.3709523379802704,"22":-0.3451122045516968,"23":-0.3870712220668793,"24":-0.3288678228855133,"25":-0.6783742308616638,"26":-0.5950084924697876,"27":0.02150478959083557,"28":-1.4665073156356812,"29":-0.1876247674226761,"30":-0.30875125527381897,"31":-0.314487487077713,"32":-0.3631436824798584,"33":-0.29232755303382874,"34":-0.3524352014064789,"35":1.2990081310272217,"36":-0.16366547346115112,"37":-0.36392834782600403,"38":0.5889477729797363,"39":0.4886113405227661,"40":-0.6668593883514404,"41":-0.5077006220817566,"42":-0.5012977123260498,"43":-0.62884521484375,"44":-0.5906898975372314,"45":-0.4418681561946869,"46":-0.42669442296028137,"47":-0.5161299109458923,"48":-0.31928539276123047,"49":-0.3839329779148102,"50":0.024948759004473686,"51":-0.4913507103919983,"52":-0.6081717610359192,"53":-0.21618375182151794,"54":-0.27161073684692383,"55":-0.34968188405036926,"56":-0.37020373344421387,"57":-0.3937284052371979,"58":-0.35258668661117554,"59":-0.34422609210014343}},"inputHidden":{"rows":12,"columns":12,"weights":{"0":-2.8271636962890625,"1":-0.022002730518579483,"2":3.0996079444885254,"3":-0.02766771800816059,"4":0.007748132571578026,"5":-5.710174083709717,"6":0.0060798958875238895,"7":-2.5672731399536133,"8":-0.03708827495574951,"9":1.7917001247406006,"10":-0.003557728137820959,"11":-0.037612754851579666,"12":0.10407868027687073,"13":-0.023129122331738472,"14":-0.1514587551355362,"15":0.010436314158141613,"16":-0.00896206870675087,"17":0.10789264738559723,"18":0.02582957036793232,"19":0.16723597049713135,"20":0.010626381263136864,"21":0.0099212396889925,"22":0.051038194447755814,"23":0.018683331087231636,"24":-1.3398120403289795,"25":0.01796487718820572,"26":-1.0075628757476807,"27":0.0008072667988017201,"28":0.020347950980067253,"29":0.06837708503007889,"30":0.006170640233904123,"31":-0.9772915244102478,"32":-0.24812039732933044,"33":-0.35903123021125793,"34":0.20692110061645508,"35":0.02547074481844902,"36":-0.03329775109887123,"37":-0.02868996001780033,"38":0.01890387572348118,"39":0.05052892491221428,"40":0.003957180306315422,"41":-0.008222888223826885,"42":0.008639184758067131,"43":-0.013261036016047001,"44":0.03841228410601616,"45":0.006665002088993788,"46":0.01860743947327137,"47":0.004508608486503363,"48":-0.012467942200601101,"49":-0.01361881010234356,"50":-0.05113872140645981,"51":0.05649390071630478,"52":0.008401399478316307,"53":0.0222258809953928,"54":0.0032104188576340675,"55":-0.00749608688056469,"56":0.014792263507843018,"57":-0.04069697484374046,"58":0.033336788415908813,"59":-0.03819034993648529,"60":-0.4455460011959076,"61":0.2131102830171585,"62":2.559079885482788,"63":0.008002925664186478,"64":-0.025551149621605873,"65":5.100884437561035,"66":0.02271866239607334,"67":0.4628964364528656,"68":0.6029112339019775,"69":-0.12245956808328629,"70":0.12932749092578888,"71":-0.02841106988489628,"72":-0.07167165726423264,"73":0.02953687123954296,"74":0.007156413048505783,"75":0.021262167021632195,"76":0.042766023427248,"77":-0.05958572030067444,"78":0.010771842673420906,"79":0.010557422414422035,"80":0.007290537469089031,"81":0.019611243158578873,"82":0.02569718472659588,"83":-0.03767479211091995,"84":-2.136598587036133,"85":-0.0016604206757619977,"86":2.4305460453033447,"87":-0.022430887445807457,"88":0.018636062741279602,"89":-3.0902469158172607,"90":-0.025132382288575172,"91":-0.16194945573806763,"92":-0.3026444613933563,"93":-0.4623802602291107,"94":-0.05972455069422722,"95":0.019007131457328796,"96":-0.01871558092534542,"97":-0.004615866579115391,"98":0.08015540987253189,"99":0.03960556164383888,"100":-0.04256408289074898,"101":-0.21917453408241272,"102":0.03351467847824097,"103":-0.14417949318885803,"104":0.1697218269109726,"105":0.13719622790813446,"106":-0.13243848085403442,"107":0.04270266741514206,"108":-0.5499747395515442,"109":-0.015133826993405819,"110":-0.4771462380886078,"111":0.014778961427509785,"112":-0.022718941792845726,"113":0.7677509188652039,"114":-0.00795642752200365,"115":0.1578393429517746,"116":0.02063208445906639,"117":-0.6899109482765198,"118":-0.048490289598703384,"119":0.006587096024304628,"120":-0.048785556107759476,"121":0.008628545328974724,"122":0.023909607902169228,"123":0.009332171641290188,"124":0.015175673179328442,"125":0.002514074556529522,"126":-0.02022498846054077,"127":-0.012195069342851639,"128":0.007405975833535194,"129":-0.05355013906955719,"130":-0.029774915426969528,"131":0.026369711384177208,"132":-0.11873237788677216,"133":-0.035851869732141495,"134":0.020673727616667747,"135":0.014367308467626572,"136":0.03724342957139015,"137":-0.05607911944389343,"138":0.0039013135246932507,"139":-0.003165138652548194,"140":0.11416146904230118,"141":0.014109108597040176,"142":0.04589668661355972,"143":-0.010336766019463539}},"inputBias":{"rows":12,"columns":1,"weights":{"0":-4.458475112915039,"1":0.00151994323823601,"2":0.8816746473312378,"3":-0.01269509643316269,"4":-0.010771701112389565,"5":15.64918327331543,"6":-0.006437157280743122,"7":-2.7405471801757812,"8":0.1176847442984581,"9":-0.5192627310752869,"10":-0.5445687770843506,"11":-0.010088303126394749}},"forgetMatrix":{"rows":12,"columns":5,"weights":{"0":-0.24869848787784576,"1":-0.21344906091690063,"2":-0.28251245617866516,"3":-0.23113813996315002,"4":-0.26381543278694153,"5":-0.1561703383922577,"6":-0.1242213100194931,"7":-0.10585788637399673,"8":-0.11620590090751648,"9":-0.10754070430994034,"10":0.2966044545173645,"11":0.17690350115299225,"12":0.15595583617687225,"13":0.2703235149383545,"14":0.2500794231891632,"15":-0.1941286325454712,"16":-0.1582568883895874,"17":-0.15432049334049225,"18":-0.16507315635681152,"19":-0.17072997987270355,"20":-0.07054620236158371,"21":-0.041055116802453995,"22":-0.07276944071054459,"23":-0.05208408832550049,"24":-0.10898751020431519,"25":0.6419822573661804,"26":0.5723872780799866,"27":0.6820588111877441,"28":0.5722871422767639,"29":0.5803514719009399,"30":-0.016438666731119156,"31":-0.055679332464933395,"32":-0.011972662061452866,"33":0.012705104425549507,"34":-0.0604674369096756,"35":0.5950092673301697,"36":0.5705738067626953,"37":0.5133118629455566,"38":0.6440966129302979,"39":0.5862597823143005,"40":0.38256120681762695,"41":0.3519938290119171,"42":0.3690849542617798,"43":0.3759738802909851,"44":0.33247703313827515,"45":0.3023527264595032,"46":0.36361369490623474,"47":0.3407892882823944,"48":0.3468800485134125,"49":0.34274351596832275,"50":0.13735225796699524,"51":0.15622270107269287,"52":0.1736198365688324,"53":0.11765656620264053,"54":0.11557237803936005,"55":-0.16287767887115479,"56":-0.12976455688476562,"57":-0.08973779529333115,"58":-0.10734079778194427,"59":-0.1403150111436844}},"forgetHidden":{"rows":12,"columns":12,"weights":{"0":0.8112362027168274,"1":0.008354666642844677,"2":-0.5157929062843323,"3":-0.03592682629823685,"4":0.019298728555440903,"5":0.768681526184082,"6":-0.002820773981511593,"7":0.47236108779907227,"8":-0.19657978415489197,"9":0.014878441579639912,"10":-0.07015229761600494,"11":0.023727618157863617,"12":-0.008662709034979343,"13":0.007336001377552748,"14":-0.006820618640631437,"15":-0.017239563167095184,"16":-0.027285393327474594,"17":0.03375280648469925,"18":0.017964636906981468,"19":0.018841369077563286,"20":0.041270267218351364,"21":0.0180947408080101,"22":-0.020126555114984512,"23":0.023975934833288193,"24":-0.48516425490379333,"25":-0.003195918397977948,"26":-0.206244558095932,"27":0.038837794214487076,"28":-0.04336704686284065,"29":0.15062354505062103,"30":0.030276522040367126,"31":-0.9262711405754089,"32":0.03787415474653244,"33":-0.2207227647304535,"34":0.17801569402217865,"35":0.03715205192565918,"36":0.010157633572816849,"37":-0.0017191511578857899,"38":-0.03617355227470398,"39":-0.008882572874426842,"40":-0.013402249664068222,"41":-0.010363765992224216,"42":0.008013512939214706,"43":0.035109419375658035,"44":-0.04104777052998543,"45":0.001472585485316813,"46":0.03970245644450188,"47":-0.039646271616220474,"48":-0.019032565876841545,"49":0.01801920309662819,"50":-0.009119817987084389,"51":-0.028260594233870506,"52":0.0341189019382,"53":-0.027957018464803696,"54":-0.006055150181055069,"55":-0.03719515725970268,"56":-0.04168754070997238,"57":-0.036075279116630554,"58":0.04724084585905075,"59":-0.030609697103500366,"60":-0.5813546776771545,"61":-0.016512485221028328,"62":-0.16391295194625854,"63":0.011487356387078762,"64":0.023121263831853867,"65":-0.9492209553718567,"66":0.010457359254360199,"67":0.21889519691467285,"68":0.24160777032375336,"69":0.106155164539814,"70":0.18003231287002563,"71":0.012983277440071106,"72":0.0267384871840477,"73":-0.02292923629283905,"74":0.03653797507286072,"75":0.017504572868347168,"76":-0.03506627678871155,"77":-0.038515981286764145,"78":0.019521627575159073,"79":-0.01459412183612585,"80":-0.04099277779459953,"81":-0.00781745370477438,"82":-0.008911043405532837,"83":-0.03153368830680847,"84":-0.16472534835338593,"85":0.036903101950883865,"86":0.22384583950042725,"87":-0.03569737821817398,"88":-0.014758766628801823,"89":-0.16291740536689758,"90":0.032519157975912094,"91":-0.11971928924322128,"92":-0.020738689228892326,"93":0.03348136320710182,"94":-0.011323015205562115,"95":-0.02841191738843918,"96":-0.36922791600227356,"97":-0.04145987704396248,"98":0.008336016908288002,"99":-0.02515065297484398,"100":0.016140541061758995,"101":-0.40587517619132996,"102":0.040537092834711075,"103":-0.2519720494747162,"104":0.3139016032218933,"105":0.21785375475883484,"106":-0.21424609422683716,"107":0.03866732493042946,"108":0.03580731898546219,"109":-0.02052307315170765,"110":0.12368475645780563,"111":0.030532101169228554,"112":-0.002468475140631199,"113":0.13271857798099518,"114":0.029476214200258255,"115":-0.12403042614459991,"116":-0.01521323062479496,"117":0.13110026717185974,"118":-0.1386382281780243,"119":-0.018125824630260468,"120":0.036277223378419876,"121":-0.009221835993230343,"122":-0.010166236199438572,"123":-0.010395718738436699,"124":-0.023121237754821777,"125":-0.014355170540511608,"126":0.01595720276236534,"127":-0.0224525835365057,"128":-0.022427765652537346,"129":-0.024523593485355377,"130":0.007260242477059364,"131":-0.026223093271255493,"132":-0.038114264607429504,"133":-0.02830180525779724,"134":-0.00845864973962307,"135":0.049238476902246475,"136":0.010747082531452179,"137":0.00030677125323563814,"138":-0.02248779870569706,"139":0.04800647124648094,"140":-0.03524886444211006,"141":0.03238816186785698,"142":0.04380631446838379,"143":-0.004415423609316349}},"forgetBias":{"rows":12,"columns":1,"weights":{"0":0,"1":0,"2":0,"3":0,"4":0,"5":0,"6":0,"7":0,"8":0,"9":0,"10":0,"11":0}},"outputMatrix":{"rows":12,"columns":5,"weights":{"0":-0.3883606791496277,"1":-0.41244250535964966,"2":-0.2686992883682251,"3":-0.4547644853591919,"4":-0.3865857422351837,"5":-0.4559310972690582,"6":-0.37612834572792053,"7":-0.3842962682247162,"8":-0.4297628402709961,"9":-0.40642639994621277,"10":0.49880731105804443,"11":0.6157174110412598,"12":0.7084541320800781,"13":0.5596400499343872,"14":0.5454450249671936,"15":-0.36736607551574707,"16":-0.3424559235572815,"17":-0.36124318838119507,"18":-0.35701870918273926,"19":-0.36346474289894104,"20":-0.35965391993522644,"21":-0.31438925862312317,"22":-0.3482730984687805,"23":-0.3140769302845001,"24":-0.39026737213134766,"25":0.5597121715545654,"26":0.7140285968780518,"27":0.8254925608634949,"28":0.623472273349762,"29":0.6227463483810425,"30":-0.401960551738739,"31":-0.3773874342441559,"32":-0.4032101333141327,"33":-0.3890741765499115,"34":-0.3574560284614563,"35":1.4966988563537598,"36":0.251312792301178,"37":-0.12693674862384796,"38":0.9226361513137817,"39":0.8212673664093018,"40":-0.6425997614860535,"41":-0.504827082157135,"42":-0.4825287461280823,"43":-0.6665650606155396,"44":-0.5831730961799622,"45":0.21942664682865143,"46":0.2602447271347046,"47":0.40826550126075745,"48":0.26112809777259827,"49":0.25646981596946716,"50":0.006184252444654703,"51":-0.40292325615882874,"52":-0.5219531059265137,"53":-0.15351679921150208,"54":-0.22648504376411438,"55":-0.3900681436061859,"56":-0.3998681604862213,"57":-0.4267031252384186,"58":-0.41304972767829895,"59":-0.44717442989349365}},"outputHidden":{"rows":12,"columns":12,"weights":{"0":0.8763390183448792,"1":-0.019800256937742233,"2":-0.3789033591747284,"3":0.02659708447754383,"4":-0.002008037408813834,"5":2.2373690605163574,"6":0.003197011072188616,"7":0.4174683094024658,"8":-0.04107804223895073,"9":-2.29494309425354,"10":0.04100511968135834,"11":-0.009248189628124237,"12":0.08565282076597214,"13":-0.04213928058743477,"14":-0.13824261724948883,"15":0.013420730829238892,"16":0.07020950317382812,"17":0.1398840844631195,"18":-0.008616975508630276,"19":0.13888420164585114,"20":-0.014446987770497799,"21":0.001085188239812851,"22":0.006691242102533579,"23":0.008602439425885677,"24":0.05371876806020737,"25":0.007960286922752857,"26":0.11525435745716095,"27":0.03535051271319389,"28":-0.04344776272773743,"29":-0.1778799593448639,"30":-0.009638273157179356,"31":0.3160174787044525,"32":-0.22122426331043243,"33":-0.38653868436813354,"34":0.2114337980747223,"35":0.03123721480369568,"36":-0.02720745839178562,"37":-0.058882780373096466,"38":-0.043299101293087006,"39":0.06828760355710983,"40":0.11391028761863708,"41":0.010664042085409164,"42":0.06926732510328293,"43":0.10423470288515091,"44":0.026728466153144836,"45":-0.029169509187340736,"46":0.08111899346113205,"47":-0.08457894623279572,"48":0.0003851231012959033,"49":0.011010019108653069,"50":-0.0031020459719002247,"51":0.011593662202358246,"52":0.029871108010411263,"53":0.020000053569674492,"54":-0.003601696575060487,"55":0.0479426272213459,"56":-0.0027064355090260506,"57":0.013506807386875153,"58":0.02854149229824543,"59":-0.06008989363908768,"60":-0.21344181895256042,"61":0.025192931294441223,"62":-0.18786655366420746,"63":-0.03969298303127289,"64":-0.026211442425847054,"65":-0.41115885972976685,"66":0.040527600795030594,"67":0.17338041961193085,"68":0.2709650993347168,"69":-0.12635044753551483,"70":0.1411592811346054,"71":0.010515880770981312,"72":-0.06205363571643829,"73":-0.009181210771203041,"74":0.027515871450304985,"75":0.048048850148916245,"76":0.0344860814511776,"77":-0.060310836881399155,"78":0.006212471053004265,"79":0.03377363085746765,"80":0.0014737035380676389,"81":0.027592450380325317,"82":0.021998601034283638,"83":-0.04898432642221451,"84":-0.7290299534797668,"85":0.03393780067563057,"86":0.6545104384422302,"87":-0.04267963021993637,"88":0.011244934052228928,"89":-0.6244139075279236,"90":-0.008240798488259315,"91":0.7310181856155396,"92":-0.10563280433416367,"93":-0.29682162404060364,"94":-0.05719469487667084,"95":0.017461657524108887,"96":-1.2371697425842285,"97":-0.028443846851587296,"98":0.8574826717376709,"99":0.015166310593485832,"100":-0.030598092824220657,"101":-1.036787986755371,"102":-0.02041523903608322,"103":-0.798250675201416,"104":0.3330138027667999,"105":-0.13127785921096802,"106":-0.16071441769599915,"107":-0.018186276778578758,"108":0.14728443324565887,"109":-0.034365519881248474,"110":-0.0476536862552166,"111":-0.0330512672662735,"112":0.01875991001725197,"113":0.05280154570937157,"114":0.03790973871946335,"115":-0.01441621407866478,"116":-0.08785074204206467,"117":0.06004945933818817,"118":-0.056876830756664276,"119":0.048370517790317535,"120":0.0034531480632722378,"121":-0.005917023867368698,"122":0.0664072260260582,"123":-0.0674705058336258,"124":-0.0072806417010724545,"125":-0.004464240279048681,"126":-0.0017195147229358554,"127":-0.06915539503097534,"128":0.0037304998841136694,"129":0.03213848918676376,"130":-0.07275035977363586,"131":0.06863712519407272,"132":-0.1277809739112854,"133":-0.039062052965164185,"134":0.010269044898450375,"135":0.03574969246983528,"136":-0.009169754572212696,"137":-0.06475074589252472,"138":0.00415978254750371,"139":0.055285125970840454,"140":0.05984805151820183,"141":-0.018965616822242737,"142":0.0529945082962513,"143":-0.00902576744556427}},"outputBias":{"rows":12,"columns":1,"weights":{"0":0.43436598777770996,"1":0.0012305494165048003,"2":-0.2175617516040802,"3":-0.03502054512500763,"4":-0.009662266820669174,"5":0.19909244775772095,"6":-0.010258237831294537,"7":-0.8896615505218506,"8":-2.4673118591308594,"9":0.6224355101585388,"10":-0.42969655990600586,"11":-0.013382579199969769}},"cellActivationMatrix":{"rows":12,"columns":5,"weights":{"0":0.270664244890213,"1":0.23579533398151398,"2":0.24157260358333588,"3":0.29480355978012085,"4":0.26128119230270386,"5":-0.18034899234771729,"6":-0.21851305663585663,"7":-0.16561442613601685,"8":-0.13085517287254333,"9":-0.14839273691177368,"10":0.2835317850112915,"11":0.29550790786743164,"12":0.27067071199417114,"13":0.31684574484825134,"14":0.3267791271209717,"15":0.14441005885601044,"16":0.16924484074115753,"17":0.1768784523010254,"18":0.13494354486465454,"19":0.21037039160728455,"20":0.066306471824646,"21":0.07319877296686172,"22":0.107672780752182,"23":0.05337465554475784,"24":0.06420625746250153,"25":-0.3330440819263458,"26":-0.31272703409194946,"27":-0.35098838806152344,"28":-0.26774755120277405,"29":-0.2978995442390442,"30":0.056468311697244644,"31":0.08418931066989899,"32":0.06548216938972473,"33":0.07367411255836487,"34":0.08099005371332169,"35":-0.2932354211807251,"36":-0.2684033513069153,"37":-0.2648562788963318,"38":-0.23042111098766327,"39":-0.30026376247406006,"40":-0.2360614389181137,"41":-0.29394084215164185,"42":-0.30373796820640564,"43":-0.22804516553878784,"44":-0.2846381962299347,"45":0.31572067737579346,"46":0.3003537356853485,"47":0.35020360350608826,"48":0.3625292181968689,"49":0.3262692093849182,"50":-0.16059990227222443,"51":-0.14338767528533936,"52":-0.15804629027843475,"53":-0.15129753947257996,"54":-0.1196078211069107,"55":-0.16621583700180054,"56":-0.16024407744407654,"57":-0.17340581119060516,"58":-0.21283210813999176,"59":-0.13373146951198578}},"cellActivationHidden":{"rows":12,"columns":12,"weights":{"0":-0.3608991503715515,"1":0.024153875187039375,"2":0.43251845240592957,"3":-0.07698940485715866,"4":-0.01965857669711113,"5":-0.384196400642395,"6":0.0012306575663387775,"7":-0.4364263117313385,"8":-0.02543015591800213,"9":-0.04122177138924599,"10":-0.07293806225061417,"11":0.008882462978363037,"12":0.021366998553276062,"13":-0.03005271591246128,"14":-0.11340456455945969,"15":0.05997159332036972,"16":0.07165501266717911,"17":-0.02463151142001152,"18":0.032102808356285095,"19":0.08969297260046005,"20":-0.016935963183641434,"21":-0.017020266503095627,"22":0.10454653948545456,"23":-0.05771421268582344,"24":0.0047104316763579845,"25":-0.023541176691651344,"26":-0.2875201106071472,"27":-0.0043662432581186295,"28":-0.026451829820871353,"29":-0.19336311519145966,"30":-0.043045949190855026,"31":0.009636866860091686,"32":-0.03439811244606972,"33":0.010632195509970188,"34":0.04165737330913544,"35":0.035649921745061874,"36":0.006767663639038801,"37":0.1072731539607048,"38":0.13637952506542206,"39":-0.11484769731760025,"40":-0.10210815072059631,"41":0.03244645893573761,"42":-0.07610771059989929,"43":-0.12405815720558167,"44":0.028397519141435623,"45":0.054856326431035995,"46":-0.1386656016111374,"47":0.16185390949249268,"48":-0.0075796605087816715,"49":0.0031364858150482178,"50":0.0452314130961895,"51":0.013649553060531616,"52":-0.01410369947552681,"53":-0.022262131795287132,"54":0.0036346293054521084,"55":0.040215469896793365,"56":-0.020291095599532127,"57":0.01608096994459629,"58":0.00827905535697937,"59":-0.015480638481676579,"60":-0.1133575439453125,"61":-0.025778593495488167,"62":0.026579707860946655,"63":-0.0336078517138958,"64":-0.03405243530869484,"65":-0.14254100620746613,"66":0.0352344736456871,"67":-0.03859254717826843,"68":0.11431737244129181,"69":-0.03443988040089607,"70":-0.03099178522825241,"71":0.028047092258930206,"72":0.019844871014356613,"73":0.041571494191884995,"74":0.0280001200735569,"75":0.034971609711647034,"76":0.03404752165079117,"77":0.0074416534043848515,"78":0.002517979359254241,"79":0.003971482161432505,"80":-0.013786672614514828,"81":-0.01504804752767086,"82":-0.010630992241203785,"83":0.031489528715610504,"84":-0.21444229781627655,"85":-0.04352114349603653,"86":0.1254924088716507,"87":0.030785085633397102,"88":0.025574278086423874,"89":-0.29908132553100586,"90":-0.006423145532608032,"91":-0.014149474911391735,"92":-0.015140837989747524,"93":0.004163606092333794,"94":0.01197835523635149,"95":-0.05189144238829613,"96":0.024297766387462616,"97":-0.015009782277047634,"98":-0.027053378522396088,"99":0.009729357436299324,"100":0.037238121032714844,"101":0.030909646302461624,"102":-0.04200541228055954,"103":0.0540231391787529,"104":0.029320085421204567,"105":-0.03361131623387337,"106":-0.043904975056648254,"107":0.023254133760929108,"108":-0.0024356315843760967,"109":0.07051841169595718,"110":0.08946423977613449,"111":-0.025008460506796837,"112":-0.05424248054623604,"113":-0.24472345411777496,"114":0.00954869668930769,"115":-0.1104380413889885,"116":-0.008670930750668049,"117":-0.1366036981344223,"118":-0.024138299748301506,"119":0.08399428427219391,"120":0.007281868252903223,"121":-0.034811872988939285,"122":0.023619472980499268,"123":0.03049587458372116,"124":-0.019175775349140167,"125":-0.010791256092488766,"126":0.036834340542554855,"127":-0.028876114636659622,"128":-0.004427300300449133,"129":0.0036217200104147196,"130":-0.025373565033078194,"131":-0.02820451185107231,"132":-0.002846149727702141,"133":-0.07249439507722855,"134":-0.044572487473487854,"135":0.023296257480978966,"136":0.10066335648298264,"137":-0.03843838348984718,"138":0.030300289392471313,"139":0.02200997993350029,"140":-0.011231081560254097,"141":0.015222451649606228,"142":0.025430912151932716,"143":-0.0322316512465477}},"cellActivationBias":{"rows":12,"columns":1,"weights":{"0":0.05328662320971489,"1":-0.0374390110373497,"2":0.273403525352478,"3":0.06510575115680695,"4":0.0018657256150618196,"5":-0.059205424040555954,"6":0.0013931943103671074,"7":-0.30022454261779785,"8":-0.09680155664682388,"9":0.3390478193759918,"10":-0.0017092187190428376,"11":-0.03992250934243202}}},{"inputMatrix":{"rows":12,"columns":12,"weights":{"0":-1.325562596321106,"1":-0.0012537785805761814,"2":-0.14761455357074738,"3":-0.04466858506202698,"4":0.009689279831945896,"5":-2.6657373905181885,"6":-0.0027318012434989214,"7":3.758683443069458,"8":-1.4740222692489624,"9":-2.1770505905151367,"10":1.0777260065078735,"11":-0.04361002892255783,"12":2.701355218887329,"13":-0.01746845431625843,"14":-2.3969626426696777,"15":-0.037642814218997955,"16":-0.024759726598858833,"17":-3.3428094387054443,"18":-0.005759014282375574,"19":1.2383743524551392,"20":1.0269027948379517,"21":-0.7214807868003845,"22":0.2898830771446228,"23":-0.03483957797288895,"24":-0.07380065321922302,"25":-0.02337007410824299,"26":-1.2085199356079102,"27":0.005713713355362415,"28":-0.004843782167881727,"29":-1.9739205837249756,"30":0.03550882264971733,"31":1.8819290399551392,"32":0.260731041431427,"33":-0.23929841816425323,"34":-0.03399369493126869,"35":0.01444332581013441,"36":2.725066900253296,"37":-0.12373454123735428,"38":-1.266309142112732,"39":0.09325914084911346,"40":0.05514134094119072,"41":-9.111635208129883,"42":0.005325917154550552,"43":1.4724739789962769,"44":2.111654043197632,"45":2.3736231327056885,"46":-0.9129607081413269,"47":-0.06528797000646591,"48":0.20397214591503143,"49":0.027869006618857384,"50":1.2421314716339111,"51":0.007327859755605459,"52":0.016877146437764168,"53":-2.622288465499878,"54":-0.03256335109472275,"55":1.377431869506836,"56":-0.9394195079803467,"57":-1.1446536779403687,"58":0.7709700465202332,"59":0.0607386976480484,"60":-0.05525583773851395,"61":-0.027095628902316093,"62":1.4844588041305542,"63":0.046633653342723846,"64":0.00642911484465003,"65":-12.631701469421387,"66":0.021361464634537697,"67":-2.621605157852173,"68":1.1416386365890503,"69":0.4332199990749359,"70":-0.37065035104751587,"71":-0.061132244765758514,"72":-0.47660964727401733,"73":0.025382578372955322,"74":2.0526580810546875,"75":0.03445073217153549,"76":0.010059786960482597,"77":-10.080900192260742,"78":-0.03780442476272583,"79":-1.10624361038208,"80":0.581795334815979,"81":2.4224040508270264,"82":-1.0843898057937622,"83":-0.0028458621818572283,"84":1.1241642236709595,"85":-0.18139483034610748,"86":-0.10659489035606384,"87":0.011494377627968788,"88":0.011194556951522827,"89":-5.394195556640625,"90":0.02482786402106285,"91":2.4459240436553955,"92":0.08125179260969162,"93":-0.5199543237686157,"94":0.38614657521247864,"95":0.04001139476895332,"96":-0.8029088973999023,"97":0.060536209493875504,"98":-0.08983752876520157,"99":-0.006004747468978167,"100":-0.05818907171487808,"101":-7.254833221435547,"102":0.022865986451506615,"103":0.9695298671722412,"104":0.42078477144241333,"105":-1.7389883995056152,"106":0.3003123998641968,"107":0.01690070703625679,"108":-0.7248521447181702,"109":0.021684804931282997,"110":1.7507060766220093,"111":0.026047248393297195,"112":0.04593463987112045,"113":-6.14507532119751,"114":0.044244397431612015,"115":-2.4746689796447754,"116":1.679815411567688,"117":1.3702586889266968,"118":-0.995831310749054,"119":-0.036320608109235764,"120":2.242053508758545,"121":0.017310731112957,"122":0.4049663245677948,"123":0.01808718591928482,"124":0.01381928101181984,"125":-10.305315017700195,"126":-0.03415809944272041,"127":0.8802177309989929,"128":2.6037144660949707,"129":2.2759509086608887,"130":-0.9572372436523438,"131":-0.00119009951595217,"132":-1.8743925094604492,"133":-0.013672499917447567,"134":4.061673641204834,"135":-0.0018168227979913354,"136":0.0006302772671915591,"137":-6.460973739624023,"138":0.009161330759525299,"139":-1.592635989189148,"140":1.059983491897583,"141":0.9743272662162781,"142":-1.0068615674972534,"143":-0.06628689169883728}},"inputHidden":{"rows":12,"columns":12,"weights":{"0":-1.1479082107543945,"1":1.849338412284851,"2":-0.48175060749053955,"3":-1.0012836456298828,"4":-0.5812544226646423,"5":-1.775032639503479,"6":0.9464842677116394,"7":2.3553619384765625,"8":-1.2284739017486572,"9":2.235304832458496,"10":0.5029138326644897,"11":5.259269714355469,"12":-0.5186442732810974,"13":-1.0501681566238403,"14":-2.3687896728515625,"15":-3.659977674484253,"16":2.6857831478118896,"17":-0.41444137692451477,"18":3.127254009246826,"19":5.9721503257751465,"20":-0.997447669506073,"21":-1.146506667137146,"22":-1.1284749507904053,"23":3.9642066955566406,"24":0.10490130633115768,"25":-0.38598376512527466,"26":-5.015939712524414,"27":0.3828026056289673,"28":0.0003148556570522487,"29":-6.210143089294434,"30":5.132522106170654,"31":6.24722957611084,"32":3.2398018836975098,"33":5.537729263305664,"34":2.3207273483276367,"35":0.8960951566696167,"36":1.224403977394104,"37":-0.8873457908630371,"38":3.4008617401123047,"39":-0.42322784662246704,"40":4.828390121459961,"41":3.529683828353882,"42":-1.7659549713134766,"43":-5.344907760620117,"44":-0.696383535861969,"45":-1.4693926572799683,"46":0.04379831254482269,"47":-0.8405828475952148,"48":-0.7859242558479309,"49":5.215169906616211,"50":-3.218846082687378,"51":0.8991712331771851,"52":-8.1292085647583,"53":1.9572347402572632,"54":-0.18191465735435486,"55":-0.6795397400856018,"56":-1.4675357341766357,"57":3.221113920211792,"58":-0.2550438642501831,"59":8.525450706481934,"60":-1.1399836540222168,"61":1.114188551902771,"62":-1.7479437589645386,"63":1.1316537857055664,"64":-2.9071028232574463,"65":0.4055692255496979,"66":-0.34088268876075745,"67":0.8014922142028809,"68":-2.1973702907562256,"69":-1.0084233283996582,"70":0.47053641080856323,"71":1.8692454099655151,"72":1.3794175386428833,"73":3.75907301902771,"74":1.3945550918579102,"75":1.4778181314468384,"76":0.8412224054336548,"77":-0.35238510370254517,"78":-0.8508932590484619,"79":-3.5372745990753174,"80":0.14859914779663086,"81":-3.900055408477783,"82":0.7916679978370667,"83":0.3621176779270172,"84":-0.24713465571403503,"85":-1.825412631034851,"86":0.8166866302490234,"87":2.5986711978912354,"88":-2.858937978744507,"89":-0.8958148956298828,"90":-1.7053890228271484,"91":5.3593926429748535,"92":3.4642508029937744,"93":0.5138181447982788,"94":3.6083076000213623,"95":2.2461259365081787,"96":-0.9913641214370728,"97":0.7800602316856384,"98":-2.0104990005493164,"99":0.36473169922828674,"100":0.2645450234413147,"101":-3.80692458152771,"102":-0.7666342258453369,"103":0.8192471265792847,"104":-0.4433059096336365,"105":3.1658542156219482,"106":2.5772597789764404,"107":-0.7755762338638306,"108":0.1756831407546997,"109":-2.131152629852295,"110":-0.29333508014678955,"111":-2.2009572982788086,"112":0.2557539939880371,"113":0.8849257230758667,"114":3.498948335647583,"115":1.541999340057373,"116":-1.7220948934555054,"117":-2.6601850986480713,"118":-1.1102749109268188,"119":-1.3239327669143677,"120":0.5588625073432922,"121":3.2305362224578857,"122":4.185412406921387,"123":2.9305641651153564,"124":7.427339553833008,"125":2.2970707416534424,"126":-1.3685630559921265,"127":-2.7676775455474854,"128":5.421812057495117,"129":-2.5410706996917725,"130":0.7063875198364258,"131":-1.100182294845581,"132":2.7115559577941895,"133":1.5729931592941284,"134":0.3293567895889282,"135":-1.4153773784637451,"136":3.9786272048950195,"137":-6.809114456176758,"138":1.390508770942688,"139":1.2542012929916382,"140":-0.7560409903526306,"141":-2.887941837310791,"142":-1.054831862449646,"143":-0.5575319528579712}},"inputBias":{"rows":12,"columns":1,"weights":{"0":-3.2907536029815674,"1":-0.0484367199242115,"2":3.298429012298584,"3":2.254818916320801,"4":-2.5978968143463135,"5":-1.56779944896698,"6":4.888008117675781,"7":-0.37743720412254333,"8":-3.2800180912017822,"9":4.511545181274414,"10":2.5905208587646484,"11":-0.9064169526100159}},"forgetMatrix":{"rows":12,"columns":12,"weights":{"0":0.6157501339912415,"1":0.013557606376707554,"2":-0.10790328681468964,"3":-0.03495198115706444,"4":-0.01494095753878355,"5":0.24656905233860016,"6":-0.033010099083185196,"7":1.879599928855896,"8":-0.36043956875801086,"9":-0.7222482562065125,"10":0.6471493244171143,"11":0.041768670082092285,"12":1.2155221700668335,"13":0.03961150348186493,"14":-3.507349967956543,"15":-0.04193645343184471,"16":0.010171056725084782,"17":0.6153016686439514,"18":0.03469507396221161,"19":2.7018580436706543,"20":0.2674506902694702,"21":0.5014506578445435,"22":0.17052216827869415,"23":-0.01593279466032982,"24":2.0286362171173096,"25":0.010546345263719559,"26":-2.493072748184204,"27":0.010158343240618706,"28":0.020638510584831238,"29":-2.2108068466186523,"30":0.028642626479268074,"31":1.5720527172088623,"32":1.4770026206970215,"33":-0.2082226723432541,"34":0.24865534901618958,"35":0.028516992926597595,"36":0.979310154914856,"37":-0.015306166373193264,"38":-1.3152952194213867,"39":0.03565478324890137,"40":0.05049106106162071,"41":-1.8410608768463135,"42":0.005234116688370705,"43":0.9734325408935547,"44":-0.16028384864330292,"45":1.9777718782424927,"46":-0.5024380087852478,"47":0.02007565274834633,"48":2.5284581184387207,"49":0.04767030104994774,"50":-1.661649465560913,"51":-0.04440969228744507,"52":0.01847032457590103,"53":1.9830142259597778,"54":-0.028282228857278824,"55":0.4897751808166504,"56":0.0826697051525116,"57":0.46104666590690613,"58":-0.029736896976828575,"59":-0.03472986817359924,"60":-1.9936628341674805,"61":-0.006341179832816124,"62":0.46703988313674927,"63":0.0343625508248806,"64":-0.02571410872042179,"65":-3.2520227432250977,"66":0.024134699255228043,"67":-0.4393734633922577,"68":0.00147675396874547,"69":0.7093549966812134,"70":0.1797768920660019,"71":0.009361831471323967,"72":0.20730212330818176,"73":0.024001479148864746,"74":-0.4305805265903473,"75":-0.012750531546771526,"76":-0.023934325203299522,"77":-2.7680559158325195,"78":0.021047772839665413,"79":1.4634202718734741,"80":0.06184026226401329,"81":1.1759456396102905,"82":-0.07602842897176743,"83":-0.010067312978208065,"84":-1.0084307193756104,"85":0.01436823233962059,"86":1.1570301055908203,"87":0.015096370130777359,"88":-0.0024317698553204536,"89":-1.835320234298706,"90":-0.00027364661218598485,"91":-2.161983013153076,"92":-0.03755136951804161,"93":0.9182333946228027,"94":0.19848638772964478,"95":0.0038876072503626347,"96":1.3775306940078735,"97":0.026087604463100433,"98":-1.7218722105026245,"99":0.013098692521452904,"100":0.00841045007109642,"101":-3.7839877605438232,"102":0.022700119763612747,"103":0.09764646738767624,"104":0.13816110789775848,"105":-0.4703817665576935,"106":0.182789146900177,"107":-0.0347517728805542,"108":-1.0179460048675537,"109":-0.0305191557854414,"110":-0.8347635269165039,"111":0.019007377326488495,"112":0.020601771771907806,"113":-10.540719985961914,"114":0.03577130660414696,"115":2.176008701324463,"116":0.5510593056678772,"117":0.23861904442310333,"118":-0.04753756895661354,"119":-0.018099430948495865,"120":1.1105759143829346,"121":0.014374792575836182,"122":-0.7285293936729431,"123":0.015469644218683243,"124":0.03820961341261864,"125":-3.9034829139709473,"126":0.02460671029984951,"127":1.633117914199829,"128":1.0777931213378906,"129":0.9035300612449646,"130":-0.029735980555415154,"131":-0.01995021663606167,"132":-0.40924718976020813,"133":0.007040775381028652,"134":0.9276255369186401,"135":0.0007141404203139246,"136":0.04184448719024658,"137":-1.5293885469436646,"138":0.010632750578224659,"139":-0.16782116889953613,"140":0.06335431337356567,"141":-0.14958369731903076,"142":0.04251568391919136,"143":0.031375642865896225}},"forgetHidden":{"rows":12,"columns":12,"weights":{"0":1.669465184211731,"1":0.3803621530532837,"2":2.467189073562622,"3":1.4809409379959106,"4":0.13733577728271484,"5":1.8073285818099976,"6":-0.2652476727962494,"7":0.062090661376714706,"8":-2.3159968852996826,"9":-0.7162931561470032,"10":-1.1962156295776367,"11":-0.455301970243454,"12":-1.1164714097976685,"13":-3.001664638519287,"14":3.645097017288208,"15":0.030659090727567673,"16":-3.648460865020752,"17":-1.290189504623413,"18":-1.5339252948760986,"19":0.633114755153656,"20":-3.833218812942505,"21":-0.8686351180076599,"22":3.1205930709838867,"23":-0.22982628643512726,"24":0.5837385058403015,"25":-2.5843188762664795,"26":-4.282039165496826,"27":0.39983969926834106,"28":4.174467086791992,"29":2.2057125568389893,"30":-0.41639450192451477,"31":2.3431107997894287,"32":3.1246590614318848,"33":5.6067609786987305,"34":0.9013932347297668,"35":3.669158697128296,"36":0.5363026857376099,"37":-2.2003254890441895,"38":-6.9298295974731445,"39":-5.982763767242432,"40":3.0301764011383057,"41":-0.7292865514755249,"42":7.97867488861084,"43":2.8918678760528564,"44":-0.20694592595100403,"45":1.06135892868042,"46":0.22359876334667206,"47":-0.2567724883556366,"48":0.4295428395271301,"49":2.8012516498565674,"50":-0.34214749932289124,"51":-1.225662350654602,"52":-2.3459532260894775,"53":5.500735282897949,"54":0.09787417203187943,"55":0.4608088433742523,"56":1.4798895120620728,"57":-1.9795905351638794,"58":-1.0069835186004639,"59":6.651687145233154,"60":-0.10922014713287354,"61":-0.9797082543373108,"62":-0.9490999579429626,"63":-1.1943303346633911,"64":0.3443196415901184,"65":-2.61065673828125,"66":1.966927170753479,"67":1.8927093744277954,"68":0.8815902471542358,"69":-0.6619837880134583,"70":-1.1743197441101074,"71":0.7181568741798401,"72":-1.4076706171035767,"73":-6.39042854309082,"74":0.1314324289560318,"75":0.03989577293395996,"76":-0.1256876140832901,"77":-6.9400177001953125,"78":7.160808086395264,"79":3.3146510124206543,"80":-3.05983567237854,"81":-2.5994510650634766,"82":1.493303894996643,"83":-0.6631156802177429,"84":-1.7213269472122192,"85":-3.271084785461426,"86":0.5373391509056091,"87":-1.296857476234436,"88":-0.069877490401268,"89":-2.456240177154541,"90":1.827959656715393,"91":1.7280064821243286,"92":-1.8206267356872559,"93":-6.232682228088379,"94":-1.8207744359970093,"95":-4.512517929077148,"96":-0.23070043325424194,"97":-0.5454926490783691,"98":10.308215141296387,"99":3.6168689727783203,"100":-1.5414124727249146,"101":-5.100969314575195,"102":-2.051924228668213,"103":3.132807493209839,"104":3.5809178352355957,"105":1.5579813718795776,"106":3.0922179222106934,"107":-2.7024903297424316,"108":-1.3320231437683105,"109":4.5459208488464355,"110":6.577785968780518,"111":-3.440518379211426,"112":-7.331908226013184,"113":2.1474506855010986,"114":1.8291540145874023,"115":0.4561251103878021,"116":-2.9821863174438477,"117":1.084761142730713,"118":-1.167477011680603,"119":8.807394981384277,"120":-2.855985403060913,"121":-3.5426383018493652,"122":-0.04566213861107826,"123":-4.004591464996338,"124":-0.3239167630672455,"125":-0.7993862628936768,"126":4.496261119842529,"127":4.6160712242126465,"128":0.2392977476119995,"129":-1.3909740447998047,"130":-5.275717735290527,"131":1.3947818279266357,"132":-0.09330200403928757,"133":-1.3004772663116455,"134":2.760634422302246,"135":0.16616399586200714,"136":-1.220460057258606,"137":1.771788239479065,"138":0.35012227296829224,"139":0.8431233167648315,"140":4.848062992095947,"141":-8.090739250183105,"142":-0.8174901008605957,"143":-5.959880352020264}},"forgetBias":{"rows":12,"columns":1,"weights":{"0":0,"1":0,"2":0,"3":0,"4":0,"5":0,"6":0,"7":0,"8":0,"9":0,"10":0,"11":0}},"outputMatrix":{"rows":12,"columns":12,"weights":{"0":0.7898550629615784,"1":0.013827514834702015,"2":-0.3775852620601654,"3":0.013719567097723484,"4":0.0268724262714386,"5":-1.4158482551574707,"6":0.03053637221455574,"7":2.427556037902832,"8":0.7133998274803162,"9":-1.8029674291610718,"10":-0.07989970594644547,"11":0.004430546425282955,"12":1.0506638288497925,"13":-0.02914205566048622,"14":-1.0387343168258667,"15":-0.04042302444577217,"16":-0.0036843058187514544,"17":-3.597874879837036,"18":0.012720462866127491,"19":0.12224180996417999,"20":-0.12481454014778137,"21":-0.07153536379337311,"22":0.29305002093315125,"23":-0.032062869518995285,"24":-1.314185380935669,"25":-0.05828547105193138,"26":-0.00019057102326769382,"27":0.020085839554667473,"28":-0.009192339144647121,"29":-2.037792205810547,"30":0.046379320323467255,"31":0.30435243248939514,"32":-1.2473878860473633,"33":-1.0936652421951294,"34":0.6902216672897339,"35":-0.001720178290270269,"36":2.577646255493164,"37":-0.06522313505411148,"38":-0.18126355111598969,"39":0.03265055641531944,"40":0.06968782842159271,"41":-7.830841064453125,"42":0.03568201884627342,"43":0.8963591456413269,"44":1.4322694540023804,"45":2.5244836807250977,"46":-0.9683404564857483,"47":-0.027742190286517143,"48":1.0109630823135376,"49":0.04440866410732269,"50":0.887295663356781,"51":-0.03627237677574158,"52":-0.05993146821856499,"53":-6.195008277893066,"54":0.008999105542898178,"55":2.4917421340942383,"56":0.2446403056383133,"57":-0.982086181640625,"58":0.6748486161231995,"59":0.03223250061273575,"60":-0.4484434723854065,"61":-0.008085060864686966,"62":1.0546711683273315,"63":0.05905989930033684,"64":0.029588164761662483,"65":-10.891581535339355,"66":-0.02725921757519245,"67":-0.08668221533298492,"68":-0.5576322674751282,"69":0.09786587208509445,"70":0.5627536773681641,"71":-0.010701971128582954,"72":3.310359001159668,"73":-0.050757087767124176,"74":-1.7728948593139648,"75":0.029502632096409798,"76":-0.002122076926752925,"77":-12.661864280700684,"78":-0.033540189266204834,"79":1.5525888204574585,"80":2.0251669883728027,"81":3.1609230041503906,"82":-1.0934897661209106,"83":-0.005293939728289843,"84":-3.791696786880493,"85":-0.023432916030287743,"86":2.943138360977173,"87":-0.0479530468583107,"88":-0.03131798282265663,"89":-8.421113967895508,"90":-0.04265834391117096,"91":-0.9086843729019165,"92":0.09309761226177216,"93":-0.029462730512022972,"94":0.2926115393638611,"95":0.011363803409039974,"96":-0.3868858218193054,"97":-0.017738662660121918,"98":0.36148902773857117,"99":-0.016666004434227943,"100":-0.021960893645882607,"101":-4.936517715454102,"102":-0.03296958655118942,"103":1.519954800605774,"104":0.07884033769369125,"105":-0.9092718958854675,"106":0.27787911891937256,"107":-0.03757951781153679,"108":-0.5157410502433777,"109":-0.05561776086688042,"110":1.404129147529602,"111":0.06305297464132309,"112":0.021782932803034782,"113":-6.165523052215576,"114":-0.0332217663526535,"115":-2.931464195251465,"116":1.7882031202316284,"117":1.5329694747924805,"118":-1.0405110120773315,"119":0.001311319530941546,"120":2.7811989784240723,"121":0.019605660811066628,"122":0.3117777705192566,"123":0.035653673112392426,"124":0.04930920526385307,"125":-17.348663330078125,"126":0.017146078869700432,"127":0.5334226489067078,"128":2.378777265548706,"129":2.415510416030884,"130":-1.0438224077224731,"131":0.0021142642945051193,"132":1.2649552822113037,"133":-0.03009776957333088,"134":0.12345028668642044,"135":0.049484919756650925,"136":0.017217639833688736,"137":4.273094177246094,"138":0.053241029381752014,"139":-0.7407940030097961,"140":1.2424705028533936,"141":1.6151864528656006,"142":-0.6658930778503418,"143":-0.06736407428979874}},"outputHidden":{"rows":12,"columns":12,"weights":{"0":0.8037635087966919,"1":1.9642932415008545,"2":-0.27825915813446045,"3":-0.06681643426418304,"4":2.2594220638275146,"5":0.8356968760490417,"6":2.437260150909424,"7":1.8928004503250122,"8":-1.589247703552246,"9":1.3820240497589111,"10":-0.2977849841117859,"11":2.777967929840088,"12":-0.9420814514160156,"13":-1.1133668422698975,"14":-5.701923370361328,"15":0.6673163771629333,"16":3.649207353591919,"17":-2.7596116065979004,"18":-1.3537158966064453,"19":1.9461565017700195,"20":-1.2805969715118408,"21":1.1043421030044556,"22":1.4166204929351807,"23":-1.1309077739715576,"24":-0.18497008085250854,"25":-1.1725846529006958,"26":-3.1176908016204834,"27":1.861087441444397,"28":0.31896644830703735,"29":-0.5472795367240906,"30":0.011234913021326065,"31":2.6417641639709473,"32":1.295140027999878,"33":4.086827754974365,"34":0.4381505250930786,"35":1.9481825828552246,"36":1.2533425092697144,"37":1.5948727130889893,"38":-2.038012742996216,"39":-1.1922613382339478,"40":2.7505204677581787,"41":4.042246341705322,"42":5.741907596588135,"43":3.4393696784973145,"44":0.4125956892967224,"45":-0.5936365127563477,"46":0.5353624224662781,"47":-0.8992549180984497,"48":-1.432843565940857,"49":-0.5530520081520081,"50":1.2613191604614258,"51":-2.290151834487915,"52":-3.2398979663848877,"53":-0.09560957551002502,"54":-2.1336538791656494,"55":1.4973866939544678,"56":2.502187967300415,"57":-4.93467903137207,"58":-1.2780121564865112,"59":2.190929889678955,"60":-2.499234676361084,"61":-0.25138288736343384,"62":1.3783303499221802,"63":-0.9741119742393494,"64":-0.8967829346656799,"65":0.5931210517883301,"66":-0.04867541417479515,"67":-4.083935260772705,"68":-0.6518411040306091,"69":-1.5208897590637207,"70":-0.14314132928848267,"71":0.8008255958557129,"72":1.7326537370681763,"73":-0.48198753595352173,"74":0.9176220297813416,"75":4.021854400634766,"76":-0.9379645586013794,"77":1.635955572128296,"78":-1.736108422279358,"79":-5.159289360046387,"80":-0.9326525926589966,"81":-1.615222454071045,"82":1.0249053239822388,"83":1.0650266408920288,"84":-1.0966508388519287,"85":-0.5975633859634399,"86":-1.9342185258865356,"87":-3.1519370079040527,"88":0.3079616129398346,"89":-3.0497629642486572,"90":1.497748851776123,"91":1.6811227798461914,"92":-0.2400076687335968,"93":-3.744778633117676,"94":-3.9604153633117676,"95":0.19952401518821716,"96":1.0647045373916626,"97":3.453536033630371,"98":2.3923287391662598,"99":-0.09788372367620468,"100":6.789039134979248,"101":-9.709074020385742,"102":1.4592939615249634,"103":2.428938150405884,"104":2.6794793605804443,"105":-3.8086624145507812,"106":-1.298803448677063,"107":-7.806616306304932,"108":0.4523279070854187,"109":-1.290431261062622,"110":-1.462571620941162,"111":-2.304689645767212,"112":0.1660424917936325,"113":1.390059471130371,"114":3.852849006652832,"115":2.1088571548461914,"116":-2.4799208641052246,"117":-1.028893232345581,"118":-1.196794033050537,"119":-1.098406195640564,"120":0.20137475430965424,"121":1.15544593334198,"122":1.7689465284347534,"123":-1.3064067363739014,"124":3.1347482204437256,"125":0.3862445056438446,"126":0.03337869793176651,"127":-1.0287916660308838,"128":0.9969082474708557,"129":-2.1902480125427246,"130":-5.043488502502441,"131":1.3594132661819458,"132":0.5085882544517517,"133":-3.6162545680999756,"134":-12.517081260681152,"135":-2.3365273475646973,"136":7.938844680786133,"137":-9.43152904510498,"138":3.1376030445098877,"139":12.882966041564941,"140":7.484523296356201,"141":-1.5425595045089722,"142":-1.3612223863601685,"143":0.3092005252838135}},"outputBias":{"rows":12,"columns":1,"weights":{"0":-1.6076589822769165,"1":-0.7419019937515259,"2":-2.7091691493988037,"3":3.834496259689331,"4":-3.4406545162200928,"5":-9.560850143432617,"6":6.243913173675537,"7":1.8405051231384277,"8":-2.9522664546966553,"9":4.910889148712158,"10":1.281623125076294,"11":-2.433359146118164}},"cellActivationMatrix":{"rows":12,"columns":12,"weights":{"0":-0.07525841891765594,"1":0.13242828845977783,"2":0.10099951177835464,"3":-0.16695599257946014,"4":-0.16092608869075775,"5":2.949532985687256,"6":-0.17614811658859253,"7":-0.9939992427825928,"8":0.8171349763870239,"9":0.6215940117835999,"10":-0.5047382116317749,"11":0.1539786458015442,"12":-4.065861225128174,"13":0.13681551814079285,"14":2.4096498489379883,"15":-0.15826481580734253,"16":-0.20296791195869446,"17":3.442310094833374,"18":-0.2029452919960022,"19":-1.4533926248550415,"20":-2.2463796138763428,"21":-1.3635597229003906,"22":-0.10373293608427048,"23":0.16605406999588013,"24":1.2352460622787476,"25":-0.14658643305301666,"26":-0.9355285167694092,"27":0.13367882370948792,"28":0.149277001619339,"29":-2.953237771987915,"30":0.1840009242296219,"31":0.5587074756622314,"32":-0.5575597882270813,"33":-0.7405666708946228,"34":0.36704716086387634,"35":-0.16454362869262695,"36":0.6722404956817627,"37":-0.10778575390577316,"38":0.5063748955726624,"39":0.07825249433517456,"40":0.16436336934566498,"41":13.999017715454102,"42":0.06120023876428604,"43":0.8875316381454468,"44":-0.7761455178260803,"45":-2.4865965843200684,"46":0.7408209443092346,"47":-0.01565420627593994,"48":0.7935109734535217,"49":0.19551965594291687,"50":1.2402334213256836,"51":-0.18277090787887573,"52":-0.19105489552021027,"53":-9.617524147033691,"54":-0.13041472434997559,"55":-0.3478720486164093,"56":0.5270712971687317,"57":-0.5781501531600952,"58":-0.3610606789588928,"59":0.16691139340400696,"60":-0.7150918245315552,"61":0.14581535756587982,"62":-1.1157466173171997,"63":-0.1313144415616989,"64":-0.17272962629795074,"65":3.1824026107788086,"66":-0.15488341450691223,"67":0.22666186094284058,"68":0.5120350122451782,"69":1.63779878616333,"70":-0.4177524745464325,"71":0.1930164098739624,"72":0.9526982307434082,"73":0.14448222517967224,"74":-1.7845189571380615,"75":-0.10218998789787292,"76":-0.11801635473966599,"77":-17.87112045288086,"78":-0.04612915590405464,"79":0.6508432626724243,"80":0.17694120109081268,"81":1.9910997152328491,"82":-0.7287789583206177,"83":0.061254262924194336,"84":0.31848788261413574,"85":-0.11081911623477936,"86":0.3914356827735901,"87":0.16359330713748932,"88":0.15324681997299194,"89":-11.665443420410156,"90":0.07281007617712021,"91":0.07779031991958618,"92":-0.5325084328651428,"93":1.9527415037155151,"94":0.3596591353416443,"95":-0.17062661051750183,"96":-1.0746264457702637,"97":-0.013940650969743729,"98":-0.5561604499816895,"99":-0.04039131850004196,"100":-0.023604469373822212,"101":5.287835597991943,"102":-0.02075842022895813,"103":-0.9502794146537781,"104":-0.11347898840904236,"105":-1.6962990760803223,"106":0.33835291862487793,"107":-0.017301015555858612,"108":0.9420772790908813,"109":-0.17729100584983826,"110":-3.86014723777771,"111":0.07896456867456436,"112":0.11870421469211578,"113":7.422454833984375,"114":0.09646433591842651,"115":1.0451924800872803,"116":-1.0204511880874634,"117":-0.7728437185287476,"118":0.6850708723068237,"119":-0.0991721898317337,"120":0.40153563022613525,"121":-0.12283512949943542,"122":-0.22565515339374542,"123":0.139329731464386,"124":0.10051573067903519,"125":17.538803100585938,"126":0.08234018087387085,"127":0.6298353672027588,"128":-1.8027669191360474,"129":-1.4702093601226807,"130":0.6168321371078491,"131":-0.09203904867172241,"132":1.6216131448745728,"133":-0.1996362954378128,"134":-1.3057780265808105,"135":0.1850818693637848,"136":0.15404507517814636,"137":0.44659796357154846,"138":0.20345982909202576,"139":2.5524959564208984,"140":-1.1088489294052124,"141":-1.255677580833435,"142":0.9258948564529419,"143":-0.21123090386390686}},"cellActivationHidden":{"rows":12,"columns":12,"weights":{"0":0.5101915597915649,"1":0.9260618686676025,"2":-0.44458627700805664,"3":1.2538515329360962,"4":-0.16709892451763153,"5":0.2551782429218292,"6":-1.8426276445388794,"7":-2.32928204536438,"8":1.1491280794143677,"9":-0.021715877577662468,"10":0.5285517573356628,"11":0.015248570591211319,"12":0.46801042556762695,"13":4.09102201461792,"14":0.6344528794288635,"15":-1.5689793825149536,"16":-2.173199415206909,"17":-0.5924721956253052,"18":1.4402519464492798,"19":-3.8763484954833984,"20":-1.7748417854309082,"21":-0.9975519180297852,"22":-2.186798334121704,"23":-1.8495997190475464,"24":1.8642621040344238,"25":1.2342965602874756,"26":0.8831724524497986,"27":1.6058162450790405,"28":0.614100456237793,"29":-0.048338744789361954,"30":-1.602156162261963,"31":-1.5726150274276733,"32":-0.10477796941995621,"33":-0.6076368689537048,"34":1.6784120798110962,"35":0.34277456998825073,"36":0.7478022575378418,"37":-0.2990347146987915,"38":0.41776153445243835,"39":1.2032217979431152,"40":1.0200458765029907,"41":1.674122929573059,"42":-0.6078594326972961,"43":0.03936038166284561,"44":0.9158297181129456,"45":0.4053080379962921,"46":-0.41133835911750793,"47":0.3563172519207001,"48":-1.6540170907974243,"49":1.037248134613037,"50":-2.4134583473205566,"51":-0.08829789608716965,"52":-5.5396409034729,"53":-3.491702079772949,"54":-1.976849913597107,"55":-1.9794889688491821,"56":2.5839786529541016,"57":-3.195366382598877,"58":-0.49524423480033875,"59":-1.7897324562072754,"60":-0.9585484862327576,"61":0.22103168070316315,"62":0.19085822999477386,"63":1.6848819255828857,"64":1.2898412942886353,"65":-0.35399726033210754,"66":-1.7318878173828125,"67":-2.0500917434692383,"68":-0.7418142557144165,"69":1.6819958686828613,"70":2.6264820098876953,"71":2.4774868488311768,"72":-0.7825713753700256,"73":3.5685458183288574,"74":-0.7732508182525635,"75":2.137054443359375,"76":0.6941550970077515,"77":0.04952021688222885,"78":-1.4209030866622925,"79":4.586501598358154,"80":-4.086130619049072,"81":0.21369820833206177,"82":1.4830052852630615,"83":-0.1400907337665558,"84":1.8625741004943848,"85":-7.184031009674072,"86":0.19443415105342865,"87":2.510892391204834,"88":-2.3211026191711426,"89":-3.7395575046539307,"90":-3.568558931350708,"91":-1.9768900871276855,"92":13.331750869750977,"93":1.7083897590637207,"94":2.8724074363708496,"95":-0.19553321599960327,"96":0.7080366015434265,"97":-0.7961075305938721,"98":-6.8444504737854,"99":-3.1995179653167725,"100":0.9042676091194153,"101":-2.9188780784606934,"102":4.050210475921631,"103":5.468410968780518,"104":-1.4819413423538208,"105":0.6093654632568359,"106":-3.1128592491149902,"107":-0.3725863993167877,"108":1.329613447189331,"109":0.9320382475852966,"110":-0.22121988236904144,"111":1.501569151878357,"112":-2.027519464492798,"113":1.10606050491333,"114":0.010302823968231678,"115":-0.44530341029167175,"116":-1.7495415210723877,"117":2.5822575092315674,"118":1.1904104948043823,"119":-0.27690327167510986,"120":-1.7284762859344482,"121":-1.7528523206710815,"122":-2.785114049911499,"123":1.128507137298584,"124":0.9492566585540771,"125":0.018490660935640335,"126":0.8234112858772278,"127":2.0869922637939453,"128":-0.8532002568244934,"129":1.4440007209777832,"130":-0.502036988735199,"131":-0.8487610816955566,"132":-1.5565541982650757,"133":3.2510855197906494,"134":0.7743696570396423,"135":1.524030089378357,"136":1.0147145986557007,"137":-0.41841205954551697,"138":-1.1611649990081787,"139":-0.6254520416259766,"140":0.43206721544265747,"141":2.310370445251465,"142":2.6812973022460938,"143":-1.5751529932022095}},"cellActivationBias":{"rows":12,"columns":1,"weights":{"0":-1.419350028038025,"1":0.847252607345581,"2":-2.1840784549713135,"3":0.1653793305158615,"4":-2.906193971633911,"5":-3.476245164871216,"6":1.6955360174179077,"7":-0.043858058750629425,"8":-3.16571307182312,"9":0.17686915397644043,"10":-0.264684796333313,"11":-0.14158794283866882}}},{"inputMatrix":{"rows":12,"columns":12,"weights":{"0":-2.00211238861084,"1":-0.9301985502243042,"2":-2.9415571689605713,"3":-2.8144190311431885,"4":0.8873754143714905,"5":0.3284129202365875,"6":-0.9746496081352234,"7":1.800679326057434,"8":-1.0625202655792236,"9":-2.446424961090088,"10":-3.2410261631011963,"11":-1.0376546382904053,"12":1.0201871395111084,"13":-3.4244277477264404,"14":-0.5184751152992249,"15":-4.394474506378174,"16":4.32030725479126,"17":0.8064025640487671,"18":-2.400238037109375,"19":-0.17697402834892273,"20":-4.260105133056641,"21":-1.400377631187439,"22":0.4609641432762146,"23":0.35227495431900024,"24":-0.5835347175598145,"25":-1.8808585405349731,"26":-1.2511135339736938,"27":-5.1822333335876465,"28":1.1913535594940186,"29":0.6564042568206787,"30":-1.1441035270690918,"31":1.7619962692260742,"32":-2.59973406791687,"33":-1.5119869709014893,"34":-2.212064266204834,"35":-3.2701385021209717,"36":1.2570291757583618,"37":0.7245824337005615,"38":2.293349504470825,"39":0.5343515276908875,"40":-0.855965256690979,"41":-8.57023811340332,"42":0.467661589384079,"43":-2.1668782234191895,"44":-11.890758514404297,"45":-3.2658896446228027,"46":-0.3484286963939667,"47":0.33077067136764526,"48":-2.003253221511841,"49":-4.399255275726318,"50":-1.0677130222320557,"51":-2.9485666751861572,"52":4.813173294067383,"53":-1.520259141921997,"54":7.257386684417725,"55":4.299892425537109,"56":4.509558200836182,"57":-3.2556042671203613,"58":-5.735483646392822,"59":-0.4495932161808014,"60":3.9355058670043945,"61":-2.739436149597168,"62":-2.4635400772094727,"63":-5.212945938110352,"64":0.446550577878952,"65":-2.9161131381988525,"66":4.888808727264404,"67":2.355163097381592,"68":2.662426471710205,"69":-4.842798233032227,"70":-6.321532249450684,"71":-4.1091156005859375,"72":-0.6474661827087402,"73":2.2844491004943848,"74":3.3058416843414307,"75":0.9651739001274109,"76":-0.34736955165863037,"77":1.2525634765625,"78":-5.9709272384643555,"79":-0.01280498318374157,"80":-0.3135240375995636,"81":0.5146563649177551,"82":0.02646545134484768,"83":-1.728925347328186,"84":-2.393909215927124,"85":-0.4921357333660126,"86":-2.8669657707214355,"87":-2.7992897033691406,"88":-0.20155325531959534,"89":-0.4229883551597595,"90":-0.21020576357841492,"91":2.024658441543579,"92":-0.9805750250816345,"93":-3.0509328842163086,"94":-4.030459880828857,"95":-0.1813451647758484,"96":-1.0401898622512817,"97":-1.6237791776657104,"98":2.652905225753784,"99":4.890900611877441,"100":-3.4264743328094482,"101":-1.307038426399231,"102":-3.562971830368042,"103":0.3965603709220886,"104":2.5629303455352783,"105":2.413177013397217,"106":6.442366123199463,"107":1.4954469203948975,"108":-0.18247561156749725,"109":1.5915292501449585,"110":2.957916021347046,"111":1.5267688035964966,"112":2.3086867332458496,"113":-0.02306417189538479,"114":-3.264214277267456,"115":-2.129445791244507,"116":1.7314748764038086,"117":2.1022894382476807,"118":3.257925510406494,"119":-1.8165788650512695,"120":-1.5432301759719849,"121":-0.9867440462112427,"122":-3.3053011894226074,"123":-2.5343101024627686,"124":0.767594039440155,"125":0.4751095473766327,"126":-0.7817121148109436,"127":1.9030296802520752,"128":-1.0893027782440186,"129":-2.683501958847046,"130":-3.451652765274048,"131":-0.8745306134223938,"132":-0.8282627463340759,"133":-4.375677585601807,"134":-2.8885037899017334,"135":-6.03864860534668,"136":2.828364610671997,"137":-15.053162574768066,"138":16.649927139282227,"139":5.374168872833252,"140":0.6766273975372314,"141":-3.238677501678467,"142":-2.0796923637390137,"143":-0.056233227252960205}},"inputHidden":{"rows":12,"columns":12,"weights":{"0":-2.646052837371826,"1":1.6741374731063843,"2":2.1650257110595703,"3":-0.19212011992931366,"4":0.3893109858036041,"5":0.6810880899429321,"6":1.1936800479888916,"7":-2.5090229511260986,"8":-0.2762505114078522,"9":-0.8771504163742065,"10":-2.487638235092163,"11":1.1028273105621338,"12":-0.26707613468170166,"13":1.4773664474487305,"14":0.8838476538658142,"15":-1.0743838548660278,"16":-1.3095310926437378,"17":-0.6772823333740234,"18":-1.248462438583374,"19":-0.2755127549171448,"20":0.28094518184661865,"21":-0.9454857707023621,"22":-0.3225909173488617,"23":0.9946624636650085,"24":-2.487858295440674,"25":2.186528444290161,"26":2.920048475265503,"27":-0.862656831741333,"28":0.410762220621109,"29":0.7262476086616516,"30":0.4048606753349304,"31":-2.4535133838653564,"32":-0.4398459494113922,"33":-0.1481139063835144,"34":-2.483907699584961,"35":0.407157301902771,"36":1.3460110425949097,"37":-4.599813461303711,"38":-1.7580325603485107,"39":0.22161102294921875,"40":-11.385294914245605,"41":3.434377908706665,"42":9.383298873901367,"43":1.3747814893722534,"44":-3.7515153884887695,"45":-1.9181532859802246,"46":1.34150230884552,"47":2.211977243423462,"48":1.0508208274841309,"49":-1.9697985649108887,"50":-0.8256391882896423,"51":5.366389274597168,"52":0.6264837980270386,"53":-1.2595927715301514,"54":-0.6062721014022827,"55":1.0832648277282715,"56":-0.26478129625320435,"57":1.540840744972229,"58":1.1084295511245728,"59":0.8831138610839844,"60":-0.7223497629165649,"61":1.2877581119537354,"62":0.9518818855285645,"63":-1.7300891876220703,"64":5.166789531707764,"65":1.6490148305892944,"66":1.6733801364898682,"67":-0.8052591681480408,"68":-1.8429157733917236,"69":1.431279182434082,"70":-0.7229722738265991,"71":-0.6583183407783508,"72":1.9538172483444214,"73":-1.2228235006332397,"74":-1.5870311260223389,"75":0.6791375279426575,"76":-0.22164005041122437,"77":-1.2016252279281616,"78":-0.004844869486987591,"79":1.9520939588546753,"80":0.572166919708252,"81":0.726027250289917,"82":1.9979057312011719,"83":-1.2429230213165283,"84":-2.597015619277954,"85":1.8375499248504639,"86":2.1431007385253906,"87":-0.1480444371700287,"88":0.40049871802330017,"89":1.7185686826705933,"90":1.1068092584609985,"91":-2.5464706420898438,"92":-0.13052695989608765,"93":-0.6649444103240967,"94":-2.5372471809387207,"95":0.8073858618736267,"96":1.653681755065918,"97":-0.586204469203949,"98":-1.4295909404754639,"99":2.2644572257995605,"100":0.5211663246154785,"101":-2.408351182937622,"102":0.46646931767463684,"103":1.5835933685302734,"104":-0.896692156791687,"105":1.3337631225585938,"106":1.6405954360961914,"107":-0.9944877028465271,"108":1.7313159704208374,"109":-1.5905547142028809,"110":-2.187861919403076,"111":0.001220628502778709,"112":-0.18213410675525665,"113":0.6578421592712402,"114":0.05616765841841698,"115":1.7733664512634277,"116":0.07945722341537476,"117":-0.09995470941066742,"118":1.7499094009399414,"119":-1.68692946434021,"120":-2.569091320037842,"121":1.7067041397094727,"122":2.0966439247131348,"123":-0.2561618685722351,"124":0.3627420663833618,"125":1.0265932083129883,"126":1.06234610080719,"127":-2.524024724960327,"128":-0.3242467939853668,"129":0.3003837466239929,"130":-2.5293350219726562,"131":1.1123071908950806,"132":0.9899935722351074,"133":-1.0902915000915527,"134":-0.5489817261695862,"135":-1.0517314672470093,"136":-0.9426741600036621,"137":-1.3729196786880493,"138":-0.13195787370204926,"139":0.9796529412269592,"140":0.960172712802887,"141":-0.39914605021476746,"142":0.9670724272727966,"143":1.4820778369903564}},"inputBias":{"rows":12,"columns":1,"weights":{"0":4.862325191497803,"1":1.5075093507766724,"2":3.8369719982147217,"3":3.5592479705810547,"4":2.5592944622039795,"5":1.5541799068450928,"6":-0.5581515431404114,"7":4.964512348175049,"8":-1.171723484992981,"9":-2.6594059467315674,"10":4.939469337463379,"11":-4.8624725341796875}},"forgetMatrix":{"rows":12,"columns":12,"weights":{"0":0.507043719291687,"1":-0.03932982310652733,"2":-0.5366860628128052,"3":4.447651386260986,"4":-0.7169705033302307,"5":-3.5438053607940674,"6":-1.5789653062820435,"7":-1.4287058115005493,"8":2.4653313159942627,"9":1.5645086765289307,"10":2.224093198776245,"11":-1.632206916809082,"12":-0.15194104611873627,"13":0.5572746396064758,"14":1.5773319005966187,"15":3.0315606594085693,"16":-0.1467505246400833,"17":-0.5051733255386353,"18":-2.824547529220581,"19":-0.5785369277000427,"20":0.5435342788696289,"21":1.1504497528076172,"22":3.368328809738159,"23":1.0519132614135742,"24":-0.073885977268219,"25":0.597367525100708,"26":0.5090469121932983,"27":7.002881050109863,"28":0.393678218126297,"29":-2.104477882385254,"30":-3.122292995452881,"31":-0.19799436628818512,"32":1.3630836009979248,"33":2.998671054840088,"34":3.9703528881073,"35":-0.14556331932544708,"36":0.6709051132202148,"37":-1.1282962560653687,"38":-0.6818128228187561,"39":1.4178153276443481,"40":-1.8035579919815063,"41":6.364490509033203,"42":-0.8073238134384155,"43":3.832517623901367,"44":-7.023004531860352,"45":-0.34073787927627563,"46":0.9644423127174377,"47":-1.5993905067443848,"48":-0.6725128889083862,"49":1.4241480827331543,"50":-2.458665132522583,"51":4.683876991271973,"52":0.4037894606590271,"53":-2.1746041774749756,"54":-0.7702597975730896,"55":2.005075454711914,"56":3.5258467197418213,"57":0.782108724117279,"58":1.5184093713760376,"59":-2.0152220726013184,"60":1.9480435848236084,"61":1.6169376373291016,"62":-0.27773797512054443,"63":0.5156557559967041,"64":7.801657199859619,"65":10.390816688537598,"66":-3.386967658996582,"67":-0.5077641010284424,"68":-22.400625228881836,"69":-3.340794086456299,"70":-1.1372251510620117,"71":0.8578507304191589,"72":-0.5699243545532227,"73":0.15551897883415222,"74":0.5387027859687805,"75":1.1844600439071655,"76":-0.27594155073165894,"77":-0.4671911895275116,"78":-1.5790157318115234,"79":-0.3187702000141144,"80":0.18380525708198547,"81":1.5000412464141846,"82":1.0138920545578003,"83":0.44455641508102417,"84":0.5554219484329224,"85":0.6307564377784729,"86":-0.018024269491434097,"87":5.6388258934021,"88":0.7687141299247742,"89":-2.049238681793213,"90":-2.9656333923339844,"91":-0.655878484249115,"92":1.3837637901306152,"93":2.4014995098114014,"94":3.152500629425049,"95":-0.5501665472984314,"96":-0.27187812328338623,"97":0.10380291938781738,"98":0.28110241889953613,"99":1.3332467079162598,"100":-0.4436980187892914,"101":-0.36263036727905273,"102":-1.1220821142196655,"103":0.23618705570697784,"104":-0.1674317568540573,"105":0.666961669921875,"106":0.8740083575248718,"107":0.33231520652770996,"108":-0.13914234936237335,"109":0.13557970523834229,"110":0.27550750970840454,"111":0.9763962030410767,"112":-0.457192987203598,"113":-0.49429622292518616,"114":-0.8954777717590332,"115":-0.1754855215549469,"116":0.19977068901062012,"117":1.0626553297042847,"118":0.8755764365196228,"119":0.5112316012382507,"120":0.6437187790870667,"121":1.0718802213668823,"122":0.27619248628616333,"123":3.3298463821411133,"124":-0.696341872215271,"125":-4.304508209228516,"126":-1.4359060525894165,"127":-1.4109349250793457,"128":2.7918362617492676,"129":0.3254506289958954,"130":1.2763340473175049,"131":-2.5800633430480957,"132":-0.7253025770187378,"133":-0.2902635335922241,"134":0.07569442689418793,"135":2.2312188148498535,"136":0.631193995475769,"137":-0.015871144831180573,"138":-2.324721097946167,"139":0.04213075339794159,"140":-0.39958423376083374,"141":1.7880457639694214,"142":1.7647103071212769,"143":1.1131395101547241}},"forgetHidden":{"rows":12,"columns":12,"weights":{"0":1.6564884185791016,"1":-4.377105236053467,"2":-1.90966796875,"3":3.6963839530944824,"4":-1.2015998363494873,"5":-0.7607844471931458,"6":1.3796031475067139,"7":1.6514309644699097,"8":0.33551105856895447,"9":1.3488050699234009,"10":1.6192141771316528,"11":-0.40266522765159607,"12":3.2355735301971436,"13":-1.9659217596054077,"14":-2.8232641220092773,"15":1.3568302392959595,"16":-0.6413562893867493,"17":0.061135433614254,"18":-0.23642480373382568,"19":3.2622363567352295,"20":0.9221651554107666,"21":1.2027016878128052,"22":3.198577642440796,"23":-1.3513436317443848,"24":2.809396266937256,"25":-3.9296579360961914,"26":-2.415116786956787,"27":2.017820119857788,"28":-0.47919246554374695,"29":2.837531566619873,"30":-0.6633486151695251,"31":2.8767144680023193,"32":1.0302772521972656,"33":1.6087204217910767,"34":2.8600361347198486,"35":-2.398862838745117,"36":-0.6712466478347778,"37":-1.4798588752746582,"38":0.4221656322479248,"39":-0.9484831094741821,"40":2.7182931900024414,"41":0.4367212653160095,"42":-1.5273199081420898,"43":-0.641370952129364,"44":-3.6806108951568604,"45":1.3947169780731201,"46":-0.6536601185798645,"47":0.10003319382667542,"48":0.7559452056884766,"49":-1.8085315227508545,"50":-0.3831345736980438,"51":6.912874221801758,"52":0.5261925458908081,"53":0.8846286535263062,"54":1.263056993484497,"55":0.7025489211082458,"56":-0.9817795157432556,"57":1.0729418992996216,"58":0.6822193264961243,"59":-0.12735144793987274,"60":-2.289227247238159,"61":3.085026741027832,"62":2.016561508178711,"63":2.8315117359161377,"64":5.298938274383545,"65":-1.1997956037521362,"66":2.666043758392334,"67":-2.27483868598938,"68":-1.3909708261489868,"69":0.6318356394767761,"70":-2.2356700897216797,"71":1.9214425086975098,"72":0.5368692278862,"73":-0.5416520237922668,"74":-0.12195757031440735,"75":0.9921714663505554,"76":0.3806927800178528,"77":-0.8111806511878967,"78":0.5035837292671204,"79":0.5105112791061401,"80":-0.3743445873260498,"81":0.5718952417373657,"82":0.5059085488319397,"83":-0.13164173066616058,"84":2.4527835845947266,"85":-4.725162982940674,"86":-2.667789936065674,"87":1.7951164245605469,"88":-0.8322476744651794,"89":1.422742247581482,"90":0.7244270443916321,"91":2.419029474258423,"92":0.058003686368465424,"93":1.2549269199371338,"94":2.536447048187256,"95":-1.4016914367675781,"96":0.3117516338825226,"97":0.5509821176528931,"98":-0.05785498768091202,"99":1.5810647010803223,"100":0.4635518491268158,"101":-0.8830156922340393,"102":0.2992240786552429,"103":0.3518700897693634,"104":0.20368637144565582,"105":0.8915219306945801,"106":0.34766262769699097,"107":-0.25622063875198364,"108":0.6190553903579712,"109":-1.0960251092910767,"110":-0.9979596138000488,"111":0.6181777715682983,"112":-0.016638154163956642,"113":-0.5522637963294983,"114":0.1656808704137802,"115":0.6577843427658081,"116":-0.2627245783805847,"117":0.8739597201347351,"118":0.6067029237747192,"119":-0.03550510108470917,"120":0.5091488361358643,"121":-3.297896146774292,"122":-0.7537195086479187,"123":6.333068370819092,"124":-2.960184335708618,"125":-3.2015419006347656,"126":1.0850694179534912,"127":0.5448664426803589,"128":0.4604319930076599,"129":1.2337194681167603,"130":0.5652938485145569,"131":0.3901475667953491,"132":1.926995873451233,"133":-2.014040946960449,"134":-1.5565378665924072,"135":-0.00013399819727055728,"136":0.08846479654312134,"137":-3.4345147609710693,"138":1.0331590175628662,"139":1.9123833179473877,"140":0.8945059776306152,"141":-0.29355388879776,"142":1.965535283088684,"143":-1.3002139329910278}},"forgetBias":{"rows":12,"columns":1,"weights":{"0":0,"1":0,"2":0,"3":0,"4":0,"5":0,"6":0,"7":0,"8":0,"9":0,"10":0,"11":0}},"outputMatrix":{"rows":12,"columns":12,"weights":{"0":-1.7118762731552124,"1":-1.1524378061294556,"2":-2.9152677059173584,"3":-3.2203402519226074,"4":1.2872402667999268,"5":0.4536592960357666,"6":-1.0547055006027222,"7":1.890367865562439,"8":-1.1890902519226074,"9":-2.3906900882720947,"10":-3.166315793991089,"11":-1.361478567123413,"12":0.9824937582015991,"13":-0.4648306965827942,"14":-0.8047307729721069,"15":-0.9396909475326538,"16":6.025545597076416,"17":-7.502865791320801,"18":-0.3254104554653168,"19":2.6032967567443848,"20":8.238447189331055,"21":-4.071590900421143,"22":0.0011601776350289583,"23":3.144432306289673,"24":-0.5012251734733582,"25":-1.941061019897461,"26":-0.9519252777099609,"27":-5.461618423461914,"28":1.2044626474380493,"29":0.6098023653030396,"30":-1.1400235891342163,"31":1.7400728464126587,"32":-2.971280813217163,"33":-1.297429084777832,"34":-2.3288235664367676,"35":-4.011857986450195,"36":0.7846108078956604,"37":-3.4345293045043945,"38":-2.391728162765503,"39":-1.2727406024932861,"40":3.198981523513794,"41":-2.047858953475952,"42":3.7399280071258545,"43":2.1370792388916016,"44":-2.001678705215454,"45":-0.8962821364402771,"46":-3.1639935970306396,"47":-0.2235446572303772,"48":-1.3329439163208008,"49":1.4048274755477905,"50":-1.0632567405700684,"51":-0.04038238897919655,"52":1.4662747383117676,"53":0.7170696258544922,"54":1.2511422634124756,"55":4.879057884216309,"56":-3.0240001678466797,"57":0.44133391976356506,"58":0.3059803247451782,"59":1.0580110549926758,"60":4.231867790222168,"61":0.4255806803703308,"62":2.907703399658203,"63":1.680895447731018,"64":-2.8870599269866943,"65":11.020331382751465,"66":-5.1898322105407715,"67":-0.7607917785644531,"68":-3.4922471046447754,"69":0.7501546144485474,"70":1.316239833831787,"71":-0.8746597170829773,"72":-0.4538116753101349,"73":3.766540050506592,"74":4.6131391525268555,"75":1.7602475881576538,"76":-1.1853691339492798,"77":1.588896632194519,"78":-5.762104511260986,"79":-0.6267967224121094,"80":0.9481589794158936,"81":0.6757294535636902,"82":0.40020501613616943,"83":-1.2734801769256592,"84":-1.737563133239746,"85":-1.1452947854995728,"86":-2.974374532699585,"87":-3.0414934158325195,"88":1.321232557296753,"89":0.422041654586792,"90":-1.0171722173690796,"91":1.9434945583343506,"92":-1.1787478923797607,"93":-2.5000593662261963,"94":-3.3189175128936768,"95":-1.2848408222198486,"96":-1.2982043027877808,"97":-0.8044388294219971,"98":3.0388309955596924,"99":5.371741771697998,"100":-3.40705943107605,"101":-1.706662654876709,"102":-4.1657819747924805,"103":-0.19776225090026855,"104":2.9930264949798584,"105":2.996392011642456,"106":6.981065273284912,"107":2.510554313659668,"108":-0.6116496324539185,"109":3.6491799354553223,"110":2.228661298751831,"111":0.9209256172180176,"112":1.7435798645019531,"113":-1.8804657459259033,"114":-2.63130521774292,"115":-2.5164530277252197,"116":3.0938687324523926,"117":1.7087212800979614,"118":2.7971625328063965,"119":1.4097003936767578,"120":-1.517728567123413,"121":-1.2293628454208374,"122":-3.0355052947998047,"123":-3.3375275135040283,"124":1.2913472652435303,"125":0.4292401969432831,"126":-1.0000017881393433,"127":2.0581648349761963,"128":-1.2309077978134155,"129":-2.516369342803955,"130":-3.4785947799682617,"131":-1.410183310508728,"132":-3.5775272846221924,"133":1.999856948852539,"134":-2.2843070030212402,"135":-1.188664197921753,"136":-1.3886631727218628,"137":-6.580711364746094,"138":2.2069168090820312,"139":-0.5458090305328369,"140":3.6640565395355225,"141":0.5562829971313477,"142":-1.3887823820114136,"143":-0.16380248963832855}},"outputHidden":{"rows":12,"columns":12,"weights":{"0":-2.618208169937134,"1":1.757749080657959,"2":2.2542049884796143,"3":-0.4168826937675476,"4":0.39641931653022766,"5":0.5023940205574036,"6":1.0086861848831177,"7":-2.4904189109802246,"8":-0.3218577206134796,"9":0.6156616806983948,"10":-2.5340676307678223,"11":1.0106244087219238,"12":-0.024430401623249054,"13":0.9112356901168823,"14":0.3710978925228119,"15":-12.787261009216309,"16":-3.4695820808410645,"17":2.877321481704712,"18":0.7305513620376587,"19":-0.013173873536288738,"20":2.714055299758911,"21":-0.800991415977478,"22":0.016042815521359444,"23":0.6447566151618958,"24":-2.5822629928588867,"25":1.6894071102142334,"26":3.148542881011963,"27":-1.0233935117721558,"28":0.44313469529151917,"29":0.6986857652664185,"30":0.4031662046909332,"31":-2.599125862121582,"32":-0.47001585364341736,"33":-0.3794296979904175,"34":-2.579134464263916,"35":0.42861682176589966,"36":-2.202178478240967,"37":-0.5170273780822754,"38":1.9039223194122314,"39":0.16467300057411194,"40":2.0613300800323486,"41":2.166659116744995,"42":0.3051535487174988,"43":-2.24575138092041,"44":-1.046952724456787,"45":-3.8737952709198,"46":-2.225029468536377,"47":2.2522060871124268,"48":-0.5886999368667603,"49":-0.016317136585712433,"50":0.8664252161979675,"51":1.587713360786438,"52":3.8345956802368164,"53":-0.43048036098480225,"54":1.5730321407318115,"55":-0.6011975407600403,"56":-2.442598342895508,"57":2.5642082691192627,"58":-0.6126284599304199,"59":2.9387660026550293,"60":-1.7489861249923706,"61":2.4336400032043457,"62":1.7105568647384644,"63":3.4702847003936768,"64":4.983785152435303,"65":-2.946422576904297,"66":-6.743238925933838,"67":-1.6652100086212158,"68":-6.578666687011719,"69":-4.110925674438477,"70":-1.6690503358840942,"71":2.5721499919891357,"72":1.8646496534347534,"73":-1.2115492820739746,"74":-1.4248106479644775,"75":0.6824900507926941,"76":-0.25336194038391113,"77":-1.1998019218444824,"78":-0.2852477729320526,"79":1.8510321378707886,"80":0.6015663146972656,"81":0.7094645500183105,"82":1.8031256198883057,"83":-1.147125244140625,"84":-2.627747058868408,"85":1.732984185218811,"86":2.146552324295044,"87":-0.43818026781082153,"88":0.37724947929382324,"89":0.9561533331871033,"90":1.16598641872406,"91":-2.5404632091522217,"92":-0.2919323146343231,"93":0.5405434966087341,"94":-2.5755960941314697,"95":0.9562256336212158,"96":1.6747492551803589,"97":-0.37535902857780457,"98":-1.716713547706604,"99":2.1236400604248047,"100":0.24892696738243103,"101":-2.8390047550201416,"102":0.40453842282295227,"103":1.643754482269287,"104":-0.30450230836868286,"105":1.5980241298675537,"106":1.6815295219421387,"107":-0.6005957126617432,"108":1.7543400526046753,"109":-1.725051999092102,"110":-2.1975855827331543,"111":0.2673640251159668,"112":-0.007502976339310408,"113":0.8973338007926941,"114":-0.03711146488785744,"115":1.824067234992981,"116":-0.1720888614654541,"117":-0.39937296509742737,"118":1.8620588779449463,"119":-1.9022923707962036,"120":-2.609534502029419,"121":1.729770302772522,"122":2.205047369003296,"123":-0.37852591276168823,"124":0.408759206533432,"125":0.7919416427612305,"126":1.061002492904663,"127":-2.5847740173339844,"128":-0.315046101808548,"129":0.6477150321006775,"130":-2.587777614593506,"131":0.9337739944458008,"132":0.7626757621765137,"133":-0.7275803089141846,"134":-0.307040810585022,"135":-1.4930399656295776,"136":-5.775416851043701,"137":1.3257205486297607,"138":-1.5326604843139648,"139":0.7082865238189697,"140":5.083118438720703,"141":-3.872739791870117,"142":0.8025821447372437,"143":-3.8974525928497314}},"outputBias":{"rows":12,"columns":1,"weights":{"0":5.268628120422363,"1":-0.18699127435684204,"2":3.90681529045105,"3":2.8969039916992188,"4":-4.459873199462891,"5":2.6557934284210205,"6":-1.5983643531799316,"7":5.2594170570373535,"8":-1.0591003894805908,"9":-2.8522531986236572,"10":5.171453475952148,"11":-5.320791244506836}},"cellActivationMatrix":{"rows":12,"columns":12,"weights":{"0":0.48157039284706116,"1":0.10977080464363098,"2":2.0092265605926514,"3":1.2493228912353516,"4":-1.3840082883834839,"5":0.24764230847358704,"6":-1.9430330991744995,"7":-1.1680678129196167,"8":0.10336045920848846,"9":1.7050164937973022,"10":1.9501681327819824,"11":0.03896145150065422,"12":-2.772353172302246,"13":1.8109155893325806,"14":-10.367437362670898,"15":-1.8175208568572998,"16":-2.082664728164673,"17":-0.39383211731910706,"18":-0.8393995761871338,"19":3.500767230987549,"20":-1.9784514904022217,"21":-0.6931255459785461,"22":-2.400780439376831,"23":0.616141140460968,"24":-0.9238101243972778,"25":-0.47542768716812134,"26":-2.5448145866394043,"27":-1.6429500579833984,"28":0.9226980209350586,"29":-0.0003028374630957842,"30":2.303227186203003,"31":2.0019428730010986,"32":-0.4012675881385803,"33":-2.1181042194366455,"34":-2.4780032634735107,"35":0.20064374804496765,"36":-0.04873103275895119,"37":1.611752986907959,"38":1.990233302116394,"39":1.9636750221252441,"40":-0.5847766399383545,"41":0.7914068102836609,"42":-1.0001983642578125,"43":-1.525795340538025,"44":1.7834948301315308,"45":1.5915708541870117,"46":3.4401838779449463,"47":1.061962604522705,"48":0.03433335945010185,"49":0.04872681945562363,"50":-1.5130707025527954,"51":-1.137783169746399,"52":-0.2625448703765869,"53":0.34759727120399475,"54":2.791240930557251,"55":1.797181248664856,"56":-0.14609071612358093,"57":-0.7579181790351868,"58":-0.791699230670929,"59":0.003162314649671316,"60":0.7185163497924805,"61":-1.3426977396011353,"62":-0.6360601186752319,"63":-1.6281079053878784,"64":3.1144051551818848,"65":-0.7476874589920044,"66":1.7304824590682983,"67":2.1239447593688965,"68":0.17533838748931885,"69":-3.787693738937378,"70":-3.359959840774536,"71":-3.0918262004852295,"72":0.27603280544281006,"73":1.2186799049377441,"74":-0.5436753630638123,"75":-0.7974905371665955,"76":1.5476324558258057,"77":0.018710140138864517,"78":-0.8227496147155762,"79":-1.8372915983200073,"80":-0.626083493232727,"81":-0.680076539516449,"82":-1.1149276494979858,"83":1.5247397422790527,"84":0.4643200635910034,"85":0.08823191374540329,"86":1.985186219215393,"87":1.2861964702606201,"88":-1.4261270761489868,"89":0.28904175758361816,"90":-1.9165353775024414,"91":-1.1836519241333008,"92":0.14267875254154205,"93":1.6982818841934204,"94":2.0022995471954346,"95":0.09913388639688492,"96":0.3415641784667969,"97":0.8696874976158142,"98":1.6675572395324707,"99":0.5990597009658813,"100":0.4720692038536072,"101":-0.5662304759025574,"102":-2.904694080352783,"103":-1.1537013053894043,"104":0.43681955337524414,"105":-0.06472320109605789,"106":1.0375984907150269,"107":-0.6208391189575195,"108":0.18361471593379974,"109":-0.3740321397781372,"110":-1.6567250490188599,"111":-0.9396003484725952,"112":2.0774338245391846,"113":-0.29173755645751953,"114":1.3203999996185303,"115":0.37664127349853516,"116":0.32309767603874207,"117":0.37017306685447693,"118":0.00674870889633894,"119":0.6851339936256409,"120":0.6473681926727295,"121":0.19749480485916138,"122":2.125551700592041,"123":1.2547430992126465,"124":-1.2579306364059448,"125":0.20946668088436127,"126":-1.9768131971359253,"127":-1.1816447973251343,"128":0.16420768201351166,"129":1.7462925910949707,"130":2.062757730484009,"131":-0.030552281066775322,"132":-0.7468054294586182,"133":-0.7508975863456726,"134":0.29474812746047974,"135":-3.3815853595733643,"136":6.060529708862305,"137":-5.647064208984375,"138":3.0613677501678467,"139":0.502915620803833,"140":-1.7419440746307373,"141":-3.5121073722839355,"142":-3.8638756275177,"143":-1.877051591873169}},"cellActivationHidden":{"rows":12,"columns":12,"weights":{"0":1.1977109909057617,"1":-0.29542669653892517,"2":-0.7876307964324951,"3":0.2567742168903351,"4":-0.06044634059071541,"5":-0.2255658507347107,"6":-0.7472108006477356,"7":1.1870862245559692,"8":0.01051759347319603,"9":-0.4823306202888489,"10":1.1665537357330322,"11":-0.5281071662902832,"12":0.38725242018699646,"13":-0.5364055633544922,"14":-0.7320786118507385,"15":-3.886817216873169,"16":3.9156460762023926,"17":1.5125411748886108,"18":-0.7284486889839172,"19":0.3745156526565552,"20":-0.6358252763748169,"21":1.7101447582244873,"22":0.4351680278778076,"23":-6.987685203552246,"24":-1.2810181379318237,"25":0.6048009991645813,"26":0.9390202164649963,"27":-0.2997037470340729,"28":0.11840017139911652,"29":0.3205195665359497,"30":0.889741837978363,"31":-1.2636046409606934,"32":0.012554002925753593,"33":0.12968866527080536,"34":-1.2024487257003784,"35":0.2608262896537781,"36":0.05438266322016716,"37":-0.43841251730918884,"38":0.3886299133300781,"39":1.563416600227356,"40":0.507282018661499,"41":-0.45352208614349365,"42":-0.5175407528877258,"43":0.09568783640861511,"44":-0.2378964126110077,"45":0.3711200952529907,"46":0.09886759519577026,"47":-0.6655066609382629,"48":-0.2839479148387909,"49":0.21545319259166718,"50":-0.17634566128253937,"51":0.04856286197900772,"52":0.17455323040485382,"53":-0.06468533724546432,"54":0.35480594635009766,"55":-0.21192561089992523,"56":-0.1513766199350357,"57":0.3106641173362732,"58":-0.21962103247642517,"59":-0.48237451910972595,"60":-1.1743296384811401,"61":0.9910724759101868,"62":1.4961457252502441,"63":0.3088674247264862,"64":0.8818293809890747,"65":-0.4012311100959778,"66":0.09778327494859695,"67":-1.2138296365737915,"68":-0.5350731611251831,"69":0.3963264524936676,"70":-1.2173293828964233,"71":0.4488857388496399,"72":-0.09149879962205887,"73":0.034073036164045334,"74":0.4466933608055115,"75":-0.054979193955659866,"76":0.2255280464887619,"77":-0.06446211040019989,"78":-0.3103049099445343,"79":-0.06874185800552368,"80":-0.34495580196380615,"81":-0.034864380955696106,"82":-0.052220121026039124,"83":-0.6149966716766357,"84":1.149672031402588,"85":-0.3297084867954254,"86":-0.7629245519638062,"87":0.3018326163291931,"88":-0.015048895962536335,"89":-0.2522415220737457,"90":-0.7489219307899475,"91":1.2169671058654785,"92":0.08114586770534515,"93":-0.4815632402896881,"94":1.2376554012298584,"95":-0.5349732041358948,"96":0.4845184087753296,"97":0.45842403173446655,"98":-0.11331412941217422,"99":0.1687011867761612,"100":0.10286995768547058,"101":-0.2221231907606125,"102":-0.4348883330821991,"103":0.4151732325553894,"104":-0.12673503160476685,"105":0.10644523054361343,"106":0.4601284861564636,"107":-0.38942933082580566,"108":-0.04326814413070679,"109":0.8092157244682312,"110":0.42528149485588074,"111":0.35722067952156067,"112":0.13837838172912598,"113":0.1003684476017952,"114":-0.194779172539711,"115":-0.021198613569140434,"116":-0.14683681726455688,"117":-0.4322294294834137,"118":0.04242619127035141,"119":0.16739344596862793,"120":1.1701979637145996,"121":-0.3666965663433075,"122":-0.7942728400230408,"123":0.17233498394489288,"124":-0.021198328584432602,"125":-0.20095853507518768,"126":-0.8021673560142517,"127":1.222985863685608,"128":0.011511474847793579,"129":-0.5128236413002014,"130":1.1502171754837036,"131":-0.5517210364341736,"132":-1.8323549032211304,"133":1.8285143375396729,"134":2.1953463554382324,"135":-1.037955641746521,"136":1.8650270700454712,"137":0.43786925077438354,"138":0.9613782167434692,"139":-1.8733267784118652,"140":-0.20058737695217133,"141":-1.701411247253418,"142":-1.871172308921814,"143":-1.0239665508270264}},"cellActivationBias":{"rows":12,"columns":1,"weights":{"0":-4.604084014892578,"1":1.248221516609192,"2":4.293870449066162,"3":-2.420576572418213,"4":3.5556979179382324,"5":2.045287847518921,"6":2.1208267211914062,"7":-4.588162899017334,"8":-3.5305678844451904,"9":1.8851022720336914,"10":-4.552890777587891,"11":-1.3792023658752441}}}],"outputConnector":{"rows":5,"columns":12,"weights":{"0":6.705870151519775,"1":-5.748213291168213,"2":-7.0131425857543945,"3":-0.11857891082763672,"4":-0.945728600025177,"5":0.9994467496871948,"6":-0.6263970136642456,"7":6.738010883331299,"8":0.3674948513507843,"9":1.4433448314666748,"10":6.716640472412109,"11":-1.5245023965835571,"12":8.101078987121582,"13":-6.176211357116699,"14":-8.406912803649902,"15":-0.15598659217357635,"16":-0.7872650623321533,"17":1.080756664276123,"18":-0.5751768350601196,"19":8.111701011657715,"20":0.37724319100379944,"21":-1.906335473060608,"22":8.151403427124023,"23":-1.345202922821045,"24":6.108097076416016,"25":-5.7457380294799805,"26":-6.397922039031982,"27":-0.20268364250659943,"28":-1.0367637872695923,"29":1.2306277751922607,"30":-0.5585528612136841,"31":6.136932849884033,"32":0.29965102672576904,"33":0.10249564796686172,"34":6.115996360778809,"35":-1.4836926460266113,"36":8.422966003417969,"37":-5.700138568878174,"38":-8.743027687072754,"39":-0.08362103998661041,"40":-0.7633194923400879,"41":0.8684847950935364,"42":-0.47690704464912415,"43":8.363630294799805,"44":0.11248555034399033,"45":-2.871262550354004,"46":8.35584545135498,"47":-1.3822250366210938,"48":7.739339828491211,"49":-5.971588611602783,"50":-8.041312217712402,"51":-0.12515763938426971,"52":-0.8273568749427795,"53":1.002725601196289,"54":-0.5874255299568176,"55":7.6802978515625,"56":0.5463644862174988,"57":-0.21963602304458618,"58":7.727283477783203,"59":-1.4159973859786987}},"output":{"rows":5,"columns":1,"weights":{"0":30.573638916015625,"1":35.033355712890625,"2":28.656557083129883,"3":35.59909439086914,"4":33.74238967895508}}}