{"type":"LSTMTimeStep","options":{"inputSize":5,"hiddenLayers":[12],"outputSize":5,"learningRate":0.01,"decayRate":0.999,"smoothEps":1e-8,"regc":0.000001,"clipval":5},"hiddenLayers":[{"inputMatrix":{"rows":12,"columns":5,"weights":{"0":0.2159481644630432,"1":0.17402830719947815,"2":-1.005251407623291,"3":0.573013961315155,"4":0.23601402342319489,"5":-0.13778957724571228,"6":-0.27831801772117615,"7":-0.6184595823287964,"8":-0.02615339867770672,"9":-0.2281644195318222,"10":-0.18279702961444855,"11":-0.2677478790283203,"12":-0.22404734790325165,"13":-0.3168165683746338,"14":-0.15983223915100098,"15":-1.2946391105651855,"16":-0.506621778011322,"17":-2.2429141998291016,"18":0.23046813905239105,"19":-0.9712634086608887,"20":-0.4347951412200928,"21":-0.43165236711502075,"22":-0.7065483331680298,"23":-0.27451828122138977,"24":-0.4626010060310364,"25":0.37828660011291504,"26":0.3234337866306305,"27":0.07837618142366409,"28":0.3662783205509186,"29":0.5007663369178772,"30":0.7337832450866699,"31":0.6587111949920654,"32":0.7415339946746826,"33":0.6400313973426819,"34":0.6887632608413696,"35":-0.739210307598114,"36":-0.7221303582191467,"37":-0.7419504523277283,"38":-0.8541647791862488,"39":-0.6669326424598694,"40":-0.002116881310939789,"41":-0.1497807800769806,"42":-1.1189631223678589,"43":0.49603071808815,"44":-0.12663942575454712,"45":1.1255697011947632,"46":0.19164986908435822,"47":0.6036809682846069,"48":1.2195367813110352,"49":0.43626222014427185,"50":0.12947708368301392,"51":-0.045649755746126175,"52":0.19943632185459137,"53":-0.283294677734375,"54":0.3580135405063629,"55":0.6323904991149902,"56":0.7543509006500244,"57":0.6256084442138672,"58":0.8073514699935913,"59":0.6799634099006653}},"inputHidden":{"rows":12,"columns":12,"weights":{"0":8.00173568725586,"1":7.553119659423828,"2":4.729001522064209,"3":0.6370333433151245,"4":0.8567914366722107,"5":13.209550857543945,"6":17.880386352539062,"7":-0.3887005150318146,"8":-0.3008898198604584,"9":-4.474385738372803,"10":0.8382540941238403,"11":-10.919595718383789,"12":-1.075196385383606,"13":4.00795316696167,"14":-0.31267333030700684,"15":-0.6787891983985901,"16":0.22214579582214355,"17":1.0369328260421753,"18":0.1851292997598648,"19":0.014979301951825619,"20":-0.10943572223186493,"21":0.18275761604309082,"22":-2.1533615589141846,"23":-0.46195393800735474,"24":-7.79104471206665,"25":0.2723678946495056,"26":2.3433926105499268,"27":-1.2352240085601807,"28":0.07898735255002975,"29":-5.841309547424316,"30":-6.06013298034668,"31":-0.0585116483271122,"32":-2.6284589767456055,"33":-4.960019588470459,"34":0.512245237827301,"35":3.4039182662963867,"36":1.6453917026519775,"37":-0.4251576364040375,"38":-0.5851565599441528,"39":-0.018823614344000816,"40":-0.046714961528778076,"41":-0.32228901982307434,"42":0.01136563066393137,"43":-0.24977412819862366,"44":0.9958868026733398,"45":-2.7558846473693848,"46":-0.532351016998291,"47":0.923212468624115,"48":-0.6399533748626709,"49":0.798378050327301,"50":-0.029324518516659737,"51":0.0036830685567110777,"52":-1.4140026569366455,"53":0.07250241935253143,"54":0.321496844291687,"55":-0.2021791636943817,"56":0.8746951222419739,"57":0.13146479427814484,"58":-0.10111898183822632,"59":-0.23131826519966125,"60":-0.5290073752403259,"61":-2.778560161590576,"62":-0.0580667145550251,"63":0.0180036760866642,"64":-0.16499051451683044,"65":0.6446242928504944,"66":-16.293989181518555,"67":0.09874101728200912,"68":-4.377696990966797,"69":6.666388034820557,"70":3.5447347164154053,"71":6.086902141571045,"72":-0.6166347861289978,"73":1.511671781539917,"74":1.6028945446014404,"75":0.010361924767494202,"76":-2.470155715942383,"77":1.68117094039917,"78":1.0486118793487549,"79":-0.12067106366157532,"80":2.584503173828125,"81":-1.084790587425232,"82":-1.3110814094543457,"83":-1.5673604011535645,"84":0.13900883495807648,"85":-0.008299150504171848,"86":-0.2469252198934555,"87":-0.050986167043447495,"88":-0.06582948565483093,"89":-2.0224437713623047,"90":-0.22277575731277466,"91":0.41613420844078064,"92":0.021098170429468155,"93":-0.058724261820316315,"94":0.025770684704184532,"95":-0.02882048673927784,"96":-1.2586350440979004,"97":-0.0786096528172493,"98":-0.05006685107946396,"99":-1.4799981117248535,"100":0.0011159144341945648,"101":4.206498146057129,"102":-0.8843321204185486,"103":0.11798009276390076,"104":-0.7131545543670654,"105":-0.3857879638671875,"106":0.7113004922866821,"107":-0.758686363697052,"108":-4.214406490325928,"109":-0.5795838236808777,"110":1.7314515113830566,"111":-7.647439002990723,"112":0.3528941571712494,"113":-22.836872100830078,"114":-11.721782684326172,"115":0.2357461303472519,"116":-1.6203974485397339,"117":-2.6693875789642334,"118":4.4379496574401855,"119":5.546383857727051,"120":1.0882835388183594,"121":-0.38854336738586426,"122":-0.4235880672931671,"123":-0.3391430377960205,"124":1.0685694217681885,"125":1.0772321224212646,"126":-0.16920872032642365,"127":0.11077000945806503,"128":1.8610460758209229,"129":1.4310152530670166,"130":1.226251244544983,"131":1.3389116525650024,"132":1.2822768688201904,"133":-0.6908266544342041,"134":-0.027463175356388092,"135":2.4861629009246826,"136":-0.4154529571533203,"137":2.7015771865844727,"138":2.038097858428955,"139":0.09017539024353027,"140":1.2330166101455688,"141":0.7434198260307312,"142":-0.5854582786560059,"143":-3.4961705207824707}},"inputBias":{"rows":12,"columns":1,"weights":{"0":7.605895519256592,"1":1.471743106842041,"2":2.2725582122802734,"3":1.306420087814331,"4":-0.22779685258865356,"5":3.6592154502868652,"6":0.7107126116752625,"7":7.789839267730713,"8":-6.297990322113037,"9":21.11907196044922,"10":5.578160285949707,"11":-1.4967399835586548}},"forgetMatrix":{"rows":12,"columns":5,"weights":{"0":-0.8371419310569763,"1":-0.42464739084243774,"2":-0.3761299252510071,"3":-0.6326913833618164,"4":-0.6793977618217468,"5":-0.62696772813797,"6":-0.6940115690231323,"7":-0.6677916049957275,"8":-0.6834834218025208,"9":-0.6764592528343201,"10":-0.5141396522521973,"11":-0.5108927488327026,"12":-0.5149583220481873,"13":-0.506707489490509,"14":-0.5119433403015137,"15":-0.28442639112472534,"16":-0.6156805157661438,"17":-0.6018702387809753,"18":-0.353712260723114,"19":-0.48857903480529785,"20":-0.20920142531394958,"21":-0.20276807248592377,"22":-0.20845255255699158,"23":-0.20407280325889587,"24":-0.20587779581546783,"25":-0.660781979560852,"26":-0.780332088470459,"27":-0.7239906787872314,"28":-0.7668197154998779,"29":-0.6657324433326721,"30":0.704338550567627,"31":0.6908339858055115,"32":0.708344578742981,"33":0.7048203349113464,"34":0.7010158896446228,"35":-0.28578880429267883,"36":-0.33143940567970276,"37":-0.18246681988239288,"38":-0.39446595311164856,"39":-0.30810919404029846,"40":-0.3369898498058319,"41":-0.2646912634372711,"42":-0.2959116995334625,"43":-0.24661418795585632,"44":-0.31034839153289795,"45":0.3205721378326416,"46":0.5401736497879028,"47":0.08257628977298737,"48":0.7061497569084167,"49":0.460053414106369,"50":-0.40681350231170654,"51":-0.39655473828315735,"52":-0.3280843496322632,"53":-0.43866145610809326,"54":-0.4053717851638794,"55":0.5330081582069397,"56":0.6056759357452393,"57":0.5517925024032593,"58":0.5852384567260742,"59":0.5889272093772888}},"forgetHidden":{"rows":12,"columns":12,"weights":{"0":0.48608967661857605,"1":-2.586921453475952,"2":-2.083711862564087,"3":-0.080870620906353,"4":0.35764068365097046,"5":-5.406148910522461,"6":-3.015014410018921,"7":-0.7843672633171082,"8":-0.5382343530654907,"9":1.8850446939468384,"10":0.1931244283914566,"11":1.238309383392334,"12":-0.5289939641952515,"13":-0.9928534626960754,"14":0.2700551748275757,"15":0.15523453056812286,"16":0.012702046893537045,"17":-0.4912996292114258,"18":-0.24504351615905762,"19":0.032920561730861664,"20":0.12686407566070557,"21":0.19966533780097961,"22":-0.5340693593025208,"23":0.8864052295684814,"24":-0.09007260203361511,"25":-0.25908368825912476,"26":-0.40174779295921326,"27":-0.05414414033293724,"28":-0.045617394149303436,"29":-0.5333167314529419,"30":-0.20050212740898132,"31":-0.006120930425822735,"32":0.17500850558280945,"33":0.23868945240974426,"34":-0.2604047358036041,"35":0.14748398959636688,"36":4.1137895584106445,"37":2.30637788772583,"38":0.2447851300239563,"39":0.5555578470230103,"40":0.0002273915015393868,"41":-3.5299794673919678,"42":-7.782864570617676,"43":-0.0007885764935053885,"44":-1.3241264820098877,"45":-0.21751320362091064,"46":1.2346148490905762,"47":0.34385308623313904,"48":-0.010627960786223412,"49":-0.008796424604952335,"50":-0.0019857226870954037,"51":0.0015024910680949688,"52":0.04627199098467827,"53":0.022609665989875793,"54":-0.014022553339600563,"55":-0.026476815342903137,"56":0.03505707159638405,"57":0.05686279758810997,"58":0.01242846716195345,"59":0.0033594383858144283,"60":0.4210939407348633,"61":-0.03176382929086685,"62":0.7647094130516052,"63":1.2769765853881836,"64":-1.077139139175415,"65":0.5715815424919128,"66":0.4402583837509155,"67":0.08086541295051575,"68":-0.5492882132530212,"69":-0.07276284694671631,"70":0.03657723218202591,"71":-0.06304322183132172,"72":-0.19027121365070343,"73":0.18325886130332947,"74":-0.09647710621356964,"75":0.05530501529574394,"76":0.08709216117858887,"77":0.13012699782848358,"78":-0.01987770013511181,"79":0.0446523055434227,"80":0.049715928733348846,"81":0.08731606602668762,"82":-0.25601300597190857,"83":-0.21317145228385925,"84":-0.8922960758209229,"85":0.006338584702461958,"86":-1.359931230545044,"87":0.011450002901256084,"88":0.01476544700562954,"89":-0.35041236877441406,"90":-0.04470200091600418,"91":-0.21459533274173737,"92":0.022280223667621613,"93":-0.07203520834445953,"94":-0.03329015150666237,"95":-0.014643482863903046,"96":0.3123512268066406,"97":-0.11603236198425293,"98":0.08656084537506104,"99":-0.05500875785946846,"100":0.04403236135840416,"101":-0.11226048320531845,"102":-0.11736306548118591,"103":-0.037989020347595215,"104":-0.16740752756595612,"105":-0.45475146174430847,"106":0.04389098659157753,"107":0.21117040514945984,"108":-2.8810243606567383,"109":3.9612557888031006,"110":1.50863516330719,"111":0.26255956292152405,"112":-0.00853875745087862,"113":-0.1899672895669937,"114":2.4471495151519775,"115":0.033068232238292694,"116":-0.39215371012687683,"117":0.7614847421646118,"118":-0.06522294133901596,"119":-1.1766846179962158,"120":-0.7105126976966858,"121":-1.8803958892822266,"122":-0.0010350076481699944,"123":-0.45830515027046204,"124":0.3086320459842682,"125":0.8094941973686218,"126":-0.8752713203430176,"127":-0.023795178160071373,"128":1.6344126462936401,"129":-2.2062430381774902,"130":-0.6291167736053467,"131":0.7493213415145874,"132":0.18158657848834991,"133":0.15310412645339966,"134":-0.03072720393538475,"135":0.20350688695907593,"136":-0.284659206867218,"137":0.7675893306732178,"138":0.9608025550842285,"139":0.008110727183520794,"140":0.5566213726997375,"141":0.31050705909729004,"142":-0.6882757544517517,"143":-0.43262407183647156}},"forgetBias":{"rows":12,"columns":1,"weights":{"0":0,"1":0,"2":0,"3":0,"4":0,"5":0,"6":0,"7":0,"8":0,"9":0,"10":0,"11":0}},"outputMatrix":{"rows":12,"columns":5,"weights":{"0":-1.2405322790145874,"1":0.5631757974624634,"2":-0.0719764232635498,"3":0.3536640405654907,"4":-0.060714542865753174,"5":-0.524806022644043,"6":-0.3585905134677887,"7":-1.443809151649475,"8":0.3507334291934967,"9":-0.4393565058708191,"10":0.48632970452308655,"11":0.675216794013977,"12":0.1127789318561554,"13":1.4422545433044434,"14":0.41589200496673584,"15":0.8479781150817871,"16":0.0011192187666893005,"17":-0.5327253341674805,"18":1.0583499670028687,"19":0.43466851115226746,"20":-0.3298617899417877,"21":-0.2857281267642975,"22":-0.7726934552192688,"23":-0.10618670284748077,"24":-0.3082481920719147,"25":-0.07290932536125183,"26":0.1464756280183792,"27":-2.720816135406494,"28":2.8447954654693604,"29":-0.12988503277301788,"30":-0.35956597328186035,"31":-0.380622923374176,"32":-0.303468257188797,"33":-1.5717597007751465,"34":0.3390851318836212,"35":-0.303597092628479,"36":-0.34042564034461975,"37":-0.38060805201530457,"38":-0.3059501349925995,"39":-0.328841894865036,"40":0.3276490271091461,"41":-0.9233849048614502,"42":-1.6287705898284912,"43":0.5654760599136353,"44":-0.5109831094741821,"45":0.6948928236961365,"46":0.4065038859844208,"47":-0.8467425107955933,"48":1.3628120422363281,"49":0.15826556086540222,"50":-0.7781081199645996,"51":-1.1615453958511353,"52":-0.481032133102417,"53":-1.4413976669311523,"54":-1.0807771682739258,"55":0.21021629869937897,"56":0.41440847516059875,"57":0.3848952054977417,"58":-0.44769689440727234,"59":0.45691004395484924}},"outputHidden":{"rows":12,"columns":12,"weights":{"0":7.904160022735596,"1":0.39994531869888306,"2":-4.9509172439575195,"3":-9.34988784790039,"4":0.7764725089073181,"5":1.9433183670043945,"6":-9.746687889099121,"7":-0.29179859161376953,"8":3.082691192626953,"9":0.5578212141990662,"10":-0.7317106127738953,"11":-0.4217531085014343,"12":2.1976053714752197,"13":-0.25012290477752686,"14":1.1239356994628906,"15":0.325987309217453,"16":0.8408835530281067,"17":0.4236532151699066,"18":-1.9177179336547852,"19":0.02434038370847702,"20":-2.9266507625579834,"21":-0.668185830116272,"22":0.16766038537025452,"23":-3.0264370441436768,"24":5.067205905914307,"25":0.8697859048843384,"26":-2.528041362762451,"27":-7.732692718505859,"28":0.06143511086702347,"29":-0.7754246592521667,"30":-7.246227741241455,"31":-0.06758987158536911,"32":-2.537240982055664,"33":1.1248632669448853,"34":-0.44998764991760254,"35":2.7561638355255127,"36":-3.9025990962982178,"37":0.9308127760887146,"38":-1.2819948196411133,"39":-0.4681577682495117,"40":-0.01585117168724537,"41":1.6308919191360474,"42":9.039639472961426,"43":-0.20956622064113617,"44":0.1630026400089264,"45":-2.4444360733032227,"46":-0.4268958866596222,"47":1.1970620155334473,"48":-0.9042613506317139,"49":1.1271871328353882,"50":0.0012073381803929806,"51":0.017762476578354836,"52":-0.42796868085861206,"53":0.476563036441803,"54":0.6414110660552979,"55":0.5292807221412659,"56":0.9982757568359375,"57":-1.5104470252990723,"58":-0.8524246215820312,"59":-0.7841180562973022,"60":-0.8982201814651489,"61":-4.339224815368652,"62":5.221315860748291,"63":-0.17596086859703064,"64":0.7468079924583435,"65":-0.9133392572402954,"66":-6.5808610916137695,"67":-0.17904335260391235,"68":-0.3245585858821869,"69":-8.298645973205566,"70":2.3776636123657227,"71":3.2770252227783203,"72":1.1123838424682617,"73":2.821254253387451,"74":-0.8485419750213623,"75":1.2375067472457886,"76":-0.5896353125572205,"77":1.329271674156189,"78":-2.743298053741455,"79":0.33085277676582336,"80":-0.9746822714805603,"81":0.9983081817626953,"82":0.6959497332572937,"83":-0.7308974862098694,"84":-0.6887006759643555,"85":-0.05428479611873627,"86":-0.3483622670173645,"87":0.10821535438299179,"88":-0.01413442101329565,"89":-0.42291316390037537,"90":-0.12037498503923416,"91":0.2870086133480072,"92":0.6105270981788635,"93":-0.3237607777118683,"94":-0.10804235935211182,"95":0.018103722482919693,"96":0.8225435018539429,"97":0.7780298590660095,"98":0.252000093460083,"99":-2.1700286865234375,"100":-0.33237895369529724,"101":2.3607900142669678,"102":-3.7784297466278076,"103":-3.7071943283081055,"104":1.9702181816101074,"105":0.28727394342422485,"106":-0.3463575839996338,"107":-0.5436415672302246,"108":11.835680961608887,"109":-4.50446081161499,"110":-0.19931358098983765,"111":15.280742645263672,"112":0.1522904336452484,"113":-2.0358424186706543,"114":0.2424972653388977,"115":-0.10895219445228577,"116":-3.339918375015259,"117":1.4030125141143799,"118":3.247734546661377,"119":-2.526059865951538,"120":3.0383331775665283,"121":-0.09991760551929474,"122":-0.001554809627123177,"123":1.8052935600280762,"124":0.08192054182291031,"125":-2.998725175857544,"126":-4.090518951416016,"127":0.018614616245031357,"128":-3.761721611022949,"129":-0.03716272860765457,"130":2.0245211124420166,"131":0.5655841827392578,"132":-2.4657297134399414,"133":0.07147754728794098,"134":-6.42317008972168,"135":0.96903395652771,"136":-1.6407054662704468,"137":1.5905423164367676,"138":3.663623809814453,"139":-0.34140026569366455,"140":2.0196492671966553,"141":-0.7512873411178589,"142":-2.0024900436401367,"143":-3.219277858734131}},"outputBias":{"rows":12,"columns":1,"weights":{"0":20.436878204345703,"1":-0.17783057689666748,"2":-5.587701797485352,"3":-3.545487403869629,"4":-1.6263575553894043,"5":-3.5750174522399902,"6":12.950026512145996,"7":-0.7247798442840576,"8":1.8291504383087158,"9":10.146038055419922,"10":6.308953285217285,"11":10.5924072265625}},"cellActivationMatrix":{"rows":12,"columns":5,"weights":{"0":0.4122970700263977,"1":0.4820261597633362,"2":0.6646904945373535,"3":0.28915199637413025,"4":0.48330819606781006,"5":0.019313864409923553,"6":0.03078789822757244,"7":-0.06014867126941681,"8":0.0700991153717041,"9":0.03515324369072914,"10":-0.2543719410896301,"11":-0.2491489201784134,"12":-0.2670801877975464,"13":-0.24618187546730042,"14":-0.25264644622802734,"15":0.3177102506160736,"16":0.2808021903038025,"17":0.21713867783546448,"18":0.35124605894088745,"19":0.2851189374923706,"20":-0.09663698077201843,"21":-0.11761531233787537,"22":-0.07578334212303162,"23":-0.13426771759986877,"24":-0.10545077174901962,"25":0.31874802708625793,"26":0.17522630095481873,"27":-0.06064824014902115,"28":0.34070608019828796,"29":0.21548227965831757,"30":0.4096551537513733,"31":0.39952829480171204,"32":0.41172775626182556,"33":0.40570762753486633,"34":0.40456855297088623,"35":0.1511669009923935,"36":0.15327942371368408,"37":0.14584152400493622,"38":0.15327419340610504,"39":0.15141044557094574,"40":0.18789736926555634,"41":0.18164658546447754,"42":0.19049794971942902,"43":0.17819209396839142,"44":0.18507394194602966,"45":-0.2450936734676361,"46":-0.22165396809577942,"47":-0.16463790833950043,"48":-0.2425144463777542,"49":-0.20839883387088776,"50":-0.1784067302942276,"51":-0.12212368845939636,"52":-0.17195948958396912,"53":-0.15491189062595367,"54":-0.13602885603904724,"55":-0.3032010793685913,"56":-0.33278098702430725,"57":-0.279904305934906,"58":-0.336819589138031,"59":-0.3157789409160614}},"cellActivationHidden":{"rows":12,"columns":12,"weights":{"0":2.59684681892395,"1":-0.1493488997220993,"2":1.0648224353790283,"3":-6.4645915031433105,"4":0.8857911825180054,"5":-3.838991165161133,"6":0.018012771382927895,"7":0.07795675843954086,"8":-0.3350183665752411,"9":1.8590402603149414,"10":0.09530895203351974,"11":0.19155432283878326,"12":0.04206737130880356,"13":0.1161634624004364,"14":-0.4632922112941742,"15":-0.030015159398317337,"16":-0.44133609533309937,"17":0.24848388135433197,"18":0.359516978263855,"19":-0.0010559916263446212,"20":0.20566906034946442,"21":-0.38144251704216003,"22":-0.29593905806541443,"23":-0.5524730086326599,"24":0.18551914393901825,"25":0.029536698013544083,"26":0.13841333985328674,"27":0.10347858816385269,"28":-0.0024685619864612818,"29":0.18567776679992676,"30":0.160063236951828,"31":0.050009988248348236,"32":-0.03339558094739914,"33":0.2033083289861679,"34":0.0023341872729361057,"35":-0.0910734310746193,"36":0.27992814779281616,"37":-0.01416622195392847,"38":0.12100119888782501,"39":0.15061385929584503,"40":0.009162028320133686,"41":0.05098980292677879,"42":0.1208241805434227,"43":0.1025676280260086,"44":-0.0745253711938858,"45":-0.004350629169493914,"46":0.09634444117546082,"47":-0.13356831669807434,"48":0.219484344124794,"49":-0.06608597189188004,"50":-0.04030336067080498,"51":-0.002627295209094882,"52":0.02177472971379757,"53":-0.20465995371341705,"54":-0.04012052342295647,"55":-0.0701398178935051,"56":0.000871955999173224,"57":-0.4979775846004486,"58":0.10515175759792328,"59":0.04097546637058258,"60":0.6979489922523499,"61":-0.5033108592033386,"62":3.334165334701538,"63":0.1771012842655182,"64":-0.22227975726127625,"65":-0.5324739813804626,"66":-0.7550706267356873,"67":0.02933480404317379,"68":0.16388307511806488,"69":1.6791677474975586,"70":-0.05273083597421646,"71":-1.1196463108062744,"72":-0.11078084260225296,"73":0.10144445300102234,"74":0.017200114205479622,"75":-0.023143788799643517,"76":-0.07555772364139557,"77":0.06385184824466705,"78":0.014144008979201317,"79":-0.00819699652493,"80":-0.040928833186626434,"81":-0.006982514169067144,"82":-0.11667630076408386,"83":-0.06258340179920197,"84":0.2482866644859314,"85":0.007689222693443298,"86":0.17080408334732056,"87":-0.04384654760360718,"88":-0.07723326236009598,"89":0.11120772361755371,"90":0.2170468270778656,"91":-0.24696490168571472,"92":-0.045380089432001114,"93":0.20490621030330658,"94":0.00022501744388137013,"95":0.05064115673303604,"96":0.04412374272942543,"97":-0.07356016337871552,"98":-0.07307606935501099,"99":0.0620277002453804,"100":0.059560976922512054,"101":-0.20722119510173798,"102":0.039580319076776505,"103":0.0077594975009560585,"104":0.1456017941236496,"105":0.058150552213191986,"106":0.03496520593762398,"107":-0.01685263402760029,"108":-0.6642739176750183,"109":-0.3097289204597473,"110":-0.14612223207950592,"111":-2.3634116649627686,"112":0.031731024384498596,"113":-1.4804267883300781,"114":-1.6012279987335205,"115":-0.03016999177634716,"116":0.23173491656780243,"117":-0.867009699344635,"118":-0.41213467717170715,"119":-0.22557133436203003,"120":0.3594178557395935,"121":-0.20950376987457275,"122":-0.30693647265434265,"123":0.46801459789276123,"124":0.03617459163069725,"125":-0.23900407552719116,"126":-0.11244889348745346,"127":0.03294862061738968,"128":-0.1021992564201355,"129":0.3493269383907318,"130":-0.6985526084899902,"131":0.14683133363723755,"132":-1.03767991065979,"133":-0.09004281461238861,"134":-0.6039313077926636,"135":-0.7050999999046326,"136":0.003360621863976121,"137":-1.2042195796966553,"138":-0.9506109356880188,"139":0.013319780118763447,"140":-0.1221795529127121,"141":-0.3906818628311157,"142":0.24031007289886475,"143":-1.0481088161468506}},"cellActivationBias":{"rows":12,"columns":1,"weights":{"0":2.7631494998931885,"1":-1.2454830408096313,"2":0.06906197965145111,"3":0.7485348582267761,"4":-0.11124349385499954,"5":5.849493980407715,"6":0.12240979075431824,"7":0.46560177206993103,"8":0.1668691337108612,"9":-2.9331774711608887,"10":0.09524448961019516,"11":-1.5086119174957275}}}],"outputConnector":{"rows":5,"columns":12,"weights":{"0":0.9383939504623413,"1":1.2696759700775146,"2":1.0438129901885986,"3":2.6627113819122314,"4":-0.43534591794013977,"5":0.6853214502334595,"6":-2.098228693008423,"7":0.07175138592720032,"8":0.2507648169994354,"9":0.6582214832305908,"10":-0.17377670109272003,"11":-0.08179229497909546,"12":0.6938894987106323,"13":1.5877888202667236,"14":1.052298903465271,"15":1.5356378555297852,"16":-0.47783514857292175,"17":0.5782876014709473,"18":-2.0063931941986084,"19":1.2169204950332642,"20":0.01716005988419056,"21":0.470768541097641,"22":-0.4668009281158447,"23":0.07218284904956818,"24":2.755699396133423,"25":4.333902835845947,"26":0.9131108522415161,"27":2.520296335220337,"28":-0.30438321828842163,"29":0.8147584199905396,"30":-2.535428524017334,"31":0.07874621450901031,"32":0.006064080633223057,"33":0.4996747672557831,"34":-0.6548888087272644,"35":0.13620729744434357,"36":2.066204309463501,"37":1.158530354499817,"38":1.0660110712051392,"39":2.3538272380828857,"40":-0.6776323914527893,"41":0.5226905345916748,"42":-1.7171348333358765,"43":0.08402612805366516,"44":0.3452267348766327,"45":0.5770702958106995,"46":-0.010298771783709526,"47":-0.0726034939289093,"48":1.140785574913025,"49":1.491619348526001,"50":1.038931131362915,"51":2.4189436435699463,"52":-0.5395829677581787,"53":0.5885418653488159,"54":-1.971396803855896,"55":0.3560633659362793,"56":0.2268393635749817,"57":0.5664954781532288,"58":-0.2868785560131073,"59":-0.02579265460371971}},"output":{"rows":5,"columns":1,"weights":{"0":6.137328624725342,"1":6.199974060058594,"2":4.971195697784424,"3":5.016534328460693,"4":5.875176906585693}}}