{"type":"LSTMTimeStep","options":{"inputSize":5,"hiddenLayers":[20],"outputSize":5,"learningRate":0.01,"decayRate":0.999,"smoothEps":1e-8,"regc":0.000001,"clipval":5},"hiddenLayers":[{"inputMatrix":{"rows":20,"columns":5,"weights":{"0":-0.04127202928066254,"1":-0.07462015002965927,"2":0.0342862643301487,"3":-0.030777817592024803,"4":-0.021636011078953743,"5":-0.03275216743350029,"6":-0.016087394207715988,"7":0.03720387443900108,"8":-0.0663643628358841,"9":0.04623084515333176,"10":-0.1400628685951233,"11":-0.020299550145864487,"12":-0.07165022939443588,"13":-0.06380771845579147,"14":-0.007750724907964468,"15":0.07658877223730087,"16":0.006396195851266384,"17":0.06113852187991142,"18":-0.027330873534083366,"19":0.01251261867582798,"20":-0.049561191350221634,"21":-0.008664201013743877,"22":-0.0709339827299118,"23":-0.08470756560564041,"24":0.05431930348277092,"25":-0.0754987820982933,"26":-0.017161870375275612,"27":0.03462548181414604,"28":0.0345081128180027,"29":-0.04906884580850601,"30":-0.08200941979885101,"31":-0.08755220472812653,"32":0.036883849650621414,"33":0.030823778361082077,"34":0.014866970479488373,"35":-0.024478308856487274,"36":0.013875200413167477,"37":0.049574676901102066,"38":-0.015379274263978004,"39":-0.0487159825861454,"40":-0.023319613188505173,"41":0.050723228603601456,"42":-0.03119528479874134,"43":0.013947529718279839,"44":0.0013243488501757383,"45":-0.07529132068157196,"46":-0.049139078706502914,"47":0.02304891124367714,"48":-0.04026820883154869,"49":-0.05341479554772377,"50":-0.010597307235002518,"51":-0.07403525710105896,"52":-0.023583732545375824,"53":0.0036498287227004766,"54":-0.031693097203969955,"55":-0.04327753558754921,"56":0.03909743204712868,"57":-0.04597741365432739,"58":-0.011084466241300106,"59":0.049711406230926514,"60":-0.05592677742242813,"61":-0.09256848692893982,"62":-0.0006469119689427316,"63":-0.023256273940205574,"64":-0.030142929404973984,"65":-0.007084370125085115,"66":0.060348473489284515,"67":0.06884525716304779,"68":-0.059395596385002136,"69":-0.06169367954134941,"70":0.0030714976601302624,"71":-0.04298369586467743,"72":0.05560053512454033,"73":-0.07881949096918106,"74":-0.04845788702368736,"75":0.05625148490071297,"76":-0.032766103744506836,"77":0.07545022666454315,"78":-0.0601898618042469,"79":0.03837113082408905,"80":-0.07080969959497452,"81":0.00080523343058303,"82":0.041779614984989166,"83":-0.027008840814232826,"84":-0.04563231021165848,"85":0.013475658372044563,"86":0.060603655874729156,"87":-0.008835914544761181,"88":-0.061281025409698486,"89":-0.04031265527009964,"90":-0.010095479898154736,"91":0.04035995155572891,"92":-0.007130718324333429,"93":-0.05134237930178642,"94":0.010240066796541214,"95":-0.04507511109113693,"96":-0.021194040775299072,"97":0.0635448470711708,"98":-0.04696030542254448,"99":-0.060724612325429916}},"inputHidden":{"rows":20,"columns":20,"weights":{"0":0.030744563788175583,"1":0.037596918642520905,"2":0.055479951202869415,"3":-0.06275942921638489,"4":-0.03980840742588043,"5":0.055975377559661865,"6":-0.013834790326654911,"7":-0.016505911946296692,"8":-0.013578616082668304,"9":-0.02272205613553524,"10":-0.03898017853498459,"11":0.12714165449142456,"12":-0.012451202608644962,"13":0.07057040929794312,"14":-0.008133335039019585,"15":0.06364136934280396,"16":0.07874414324760437,"17":-0.03333484008908272,"18":-0.05528553947806358,"19":-0.06511937081813812,"20":-0.058676768094301224,"21":0.05050920695066452,"22":-0.2753203213214874,"23":0.0580364391207695,"24":0.0036035713274031878,"25":0.0420612171292305,"26":0.06789907068014145,"27":0.14144307374954224,"28":0.052368536591529846,"29":0.12924563884735107,"30":-0.11159521341323853,"31":-0.01857185736298561,"32":-0.22662325203418732,"33":-0.08511551469564438,"34":0.006325108464807272,"35":0.008263316005468369,"36":-0.1155569851398468,"37":-0.02736799046397209,"38":-0.04350050538778305,"39":0.052852481603622437,"40":-0.3273017108440399,"41":0.2683584988117218,"42":-0.20804321765899658,"43":0.3386692702770233,"44":0.4080553948879242,"45":0.4038584530353546,"46":0.23621965944766998,"47":0.38470587134361267,"48":-0.04657210409641266,"49":0.34580856561660767,"50":-0.3681521713733673,"51":-0.3114009201526642,"52":-0.3331732153892517,"53":-0.25797930359840393,"54":-0.3583695590496063,"55":-0.2361459583044052,"56":-0.27883806824684143,"57":-0.35365134477615356,"58":0.27680540084838867,"59":0.13603278994560242,"60":0.050411470234394073,"61":0.015396365895867348,"62":-0.08341015875339508,"63":-0.012355069629848003,"64":-0.1346103399991989,"65":0.051018256694078445,"66":0.04894952103495598,"67":-0.11012490093708038,"68":-0.04899527505040169,"69":-0.024708062410354614,"70":-0.11053463071584702,"71":-0.03342999145388603,"72":0.050549279898405075,"73":0.021858319640159607,"74":0.02093445509672165,"75":0.006750994827598333,"76":0.018560200929641724,"77":0.08287282288074493,"78":0.02246648073196411,"79":0.005994198378175497,"80":0.0907544419169426,"81":-0.1441468447446823,"82":0.11818686127662659,"83":-0.1994607150554657,"84":0.057060256600379944,"85":-0.13207927346229553,"86":-0.1896628886461258,"87":0.14938180148601532,"88":0.12716425955295563,"89":0.09033820033073425,"90":0.07524049282073975,"91":0.20047500729560852,"92":0.15807980298995972,"93":-0.08612632751464844,"94":0.07536062598228455,"95":0.16819070279598236,"96":0.2731548249721527,"97":0.1133778840303421,"98":-0.2932344377040863,"99":-0.25809332728385925,"100":-0.021818088367581367,"101":0.05066126585006714,"102":-0.21414901316165924,"103":-0.05986256152391434,"104":0.1328854262828827,"105":0.0805046483874321,"106":0.0030157449655234814,"107":0.1229625716805458,"108":0.0739499181509018,"109":0.08130218088626862,"110":-0.055907320231199265,"111":-0.0882224440574646,"112":-0.21961179375648499,"113":-0.10974879562854767,"114":0.01578528620302677,"115":-0.034595441073179245,"116":0.003047145437449217,"117":0.03469480201601982,"118":-0.02646511048078537,"119":-0.09147007763385773,"120":-0.07368434220552444,"121":0.23684674501419067,"122":-0.22530442476272583,"123":0.21985726058483124,"124":0.19604654610157013,"125":0.09407121688127518,"126":0.28921157121658325,"127":0.31275010108947754,"128":-0.08704444766044617,"129":0.13787248730659485,"130":-0.18367703258991241,"131":-0.22005212306976318,"132":-0.38109028339385986,"133":0.0220133475959301,"134":-0.1817484200000763,"135":-0.08699866384267807,"136":-0.2817060947418213,"137":-0.2980617880821228,"138":0.2282693237066269,"139":0.0695578008890152,"140":0.08898590505123138,"141":-0.21106375753879547,"142":0.2306240051984787,"143":-0.09347748756408691,"144":0.1330307126045227,"145":-0.15944808721542358,"146":-0.1309380680322647,"147":0.042572878301143646,"148":0.14703018963336945,"149":0.15774336457252502,"150":0.24371695518493652,"151":0.1976412832736969,"152":0.2745898365974426,"153":-0.21188604831695557,"154":0.20566010475158691,"155":0.11165376752614975,"156":0.30643025040626526,"157":0.15413600206375122,"158":-0.22878356277942657,"159":-0.13795050978660583,"160":0.10189007967710495,"161":0.007203803397715092,"162":0.03869275376200676,"163":-0.011785133741796017,"164":0.0921047106385231,"165":0.019365528598427773,"166":-0.06461364030838013,"167":0.1599922776222229,"168":0.06984151154756546,"169":0.0336456261575222,"170":0.02835635095834732,"171":0.021896332502365112,"172":0.03599892556667328,"173":-0.05161118134856224,"174":0.038037385791540146,"175":0.10227441042661667,"176":0.06506059318780899,"177":0.006936186924576759,"178":-0.0962546169757843,"179":-0.04763125628232956,"180":0.10878904163837433,"181":-0.1581839770078659,"182":0.15518039464950562,"183":-0.09244686365127563,"184":0.1744787096977234,"185":-0.27179640531539917,"186":-0.18191704154014587,"187":0.025956567376852036,"188":0.2592565417289734,"189":0.07582850754261017,"190":0.08341380953788757,"191":0.17903786897659302,"192":0.21329136192798615,"193":-0.17199218273162842,"194":0.16843825578689575,"195":0.22951845824718475,"196":0.28390392661094666,"197":0.2139691710472107,"198":-0.1790229082107544,"199":-0.1985791176557541,"200":-0.15492384135723114,"201":0.1907494068145752,"202":-0.32739174365997314,"203":0.07207207381725311,"204":0.09243205189704895,"205":0.17676007747650146,"206":0.2220430225133896,"207":0.24736285209655762,"208":0.02778773196041584,"209":0.15386171638965607,"210":-0.18984614312648773,"211":-0.30135494470596313,"212":-0.34858107566833496,"213":-0.0648561418056488,"214":-0.12322718650102615,"215":-0.05000203847885132,"216":-0.3150709867477417,"217":-0.1682634800672531,"218":0.11336380988359451,"219":-0.05811811983585358,"220":-0.05044332146644592,"221":0.05511046573519707,"222":-0.37418845295906067,"223":-0.03420926630496979,"224":0.0428326278924942,"225":0.019271129742264748,"226":0.16116921603679657,"227":0.167026549577713,"228":0.04524269700050354,"229":0.04426882788538933,"230":-0.1309211105108261,"231":-0.1390867680311203,"232":-0.367537260055542,"233":-0.010999709367752075,"234":-0.02140880562365055,"235":-0.009796038269996643,"236":-0.08291175961494446,"237":-0.12493658810853958,"238":0.11593484878540039,"239":0.03337063267827034,"240":-0.3055930733680725,"241":0.27002987265586853,"242":-0.32700490951538086,"243":0.35403546690940857,"244":0.3774420917034149,"245":0.23918628692626953,"246":0.30359193682670593,"247":0.3790434002876282,"248":-0.012305885553359985,"249":0.3203735649585724,"250":-0.23265521228313446,"251":-0.29462432861328125,"252":-0.26876887679100037,"253":-0.19835174083709717,"254":-0.3252534568309784,"255":-0.18149836361408234,"256":-0.33004939556121826,"257":-0.30377107858657837,"258":0.26200446486473083,"259":0.043819867074489594,"260":0.06684884428977966,"261":-0.07403133809566498,"262":-0.12326271086931229,"263":-0.12383925914764404,"264":-0.021795082837343216,"265":-0.0154520059004426,"266":0.05051787942647934,"267":-0.02335025742650032,"268":0.01546162273734808,"269":-0.10055720806121826,"270":0.07252699881792068,"271":0.16971822082996368,"272":-0.008443238213658333,"273":-0.04142659530043602,"274":0.03940397873520851,"275":0.11757656186819077,"276":0.08206931501626968,"277":0.17019779980182648,"278":-0.1637730896472931,"279":-0.09538254141807556,"280":-0.040597766637802124,"281":-0.04869215935468674,"282":-0.19045698642730713,"283":0.005741745699197054,"284":-0.02853531762957573,"285":0.01529125589877367,"286":0.035887978971004486,"287":-0.030625449493527412,"288":-0.021429166197776794,"289":-0.08326762169599533,"290":-0.05242539197206497,"291":-0.08146677166223526,"292":-0.1647832840681076,"293":0.07682011276483536,"294":-0.0207735076546669,"295":-0.06172499060630798,"296":0.05370769649744034,"297":-0.05612853541970253,"298":-0.0662800669670105,"299":-0.04512408748269081,"300":0.07522901147603989,"301":-0.09801541268825531,"302":-0.09471303224563599,"303":-0.07713282108306885,"304":0.08154747635126114,"305":0.003609069623053074,"306":-0.057977329939603806,"307":-0.014296364039182663,"308":0.09734231233596802,"309":0.10755959898233414,"310":0.008389709517359734,"311":-0.04690566286444664,"312":0.042271047830581665,"313":0.04229123890399933,"314":-0.0016636294312775135,"315":0.08202064782381058,"316":0.09826859086751938,"317":0.05925793573260307,"318":-0.05869300663471222,"319":-0.09099633991718292,"320":-0.01589420810341835,"321":0.1144966185092926,"322":-0.3373429775238037,"323":0.030529072508215904,"324":0.006189209409058094,"325":-0.01150053832679987,"326":0.14042755961418152,"327":0.13026584684848785,"328":0.0006434880779124796,"329":-0.001521606114692986,"330":-0.1312519609928131,"331":-0.14315037429332733,"332":-0.23824287950992584,"333":-0.014690561220049858,"334":-0.060704369097948074,"335":-0.05692809075117111,"336":-0.2447981983423233,"337":-0.1185620129108429,"338":0.04957132041454315,"339":0.05801626294851303,"340":-0.05614956468343735,"341":0.08997659385204315,"342":-0.30268189311027527,"343":-0.06256726384162903,"344":-0.010609684512019157,"345":0.013383940793573856,"346":0.018880657851696014,"347":-0.03589439019560814,"348":0.06493861973285675,"349":-0.04979357123374939,"350":-0.11751160770654678,"351":-0.01212948840111494,"352":-0.19699548184871674,"353":0.07095066457986832,"354":0.02144395373761654,"355":-0.07381971925497055,"356":0.023892642930150032,"357":-0.07454759627580643,"358":-0.041348978877067566,"359":-0.05949055030941963,"360":0.009501640684902668,"361":0.008815468288958073,"362":-0.24715003371238708,"363":-0.011234638281166553,"364":-0.03486611321568489,"365":0.05337664112448692,"366":0.14700591564178467,"367":0.007148228120058775,"368":-0.05058596283197403,"369":0.06885749101638794,"370":-0.1559882014989853,"371":-0.07646666467189789,"372":-0.2316148579120636,"373":0.010969859547913074,"374":-0.06142636761069298,"375":-0.05797632783651352,"376":-0.10459431260824203,"377":0.016856584697961807,"378":0.03595445305109024,"379":-0.06503935158252716,"380":0.06896810233592987,"381":-0.08785048872232437,"382":-0.0006533144041895866,"383":-0.03434273973107338,"384":0.13483309745788574,"385":-0.030544010922312737,"386":-0.029341813176870346,"387":0.08882547914981842,"388":0.1118132472038269,"389":0.16293582320213318,"390":-0.020091313868761063,"391":0.09661877900362015,"392":0.06634625047445297,"393":-0.07448344677686691,"394":0.04396902024745941,"395":0.042183153331279755,"396":0.11350414156913757,"397":0.04803580045700073,"398":0.036742813885211945,"399":-0.018444499000906944}},"inputBias":{"rows":20,"columns":1,"weights":{"0":-0.3622208535671234,"1":-0.5592361092567444,"2":-0.13414962589740753,"3":-0.3920105993747711,"4":-0.3641658127307892,"5":-0.5781219005584717,"6":-0.5560574531555176,"7":-0.3642498850822449,"8":-0.5181453227996826,"9":-0.3598942160606384,"10":-0.5774359107017517,"11":-0.47820332646369934,"12":-0.15470896661281586,"13":-0.30797746777534485,"14":-0.4431261122226715,"15":-0.4632672965526581,"16":-0.4932917654514313,"17":-0.46458911895751953,"18":-0.5468730330467224,"19":-0.4745631515979767}},"forgetMatrix":{"rows":20,"columns":5,"weights":{"0":-0.012359407730400562,"1":-0.028439141809940338,"2":0.027617333456873894,"3":-0.03411463275551796,"4":0.07794161140918732,"5":0.019676174968481064,"6":0.019708719104528427,"7":-0.035042427480220795,"8":-0.038696691393852234,"9":0.043547868728637695,"10":-0.05799533426761627,"11":-0.005662616807967424,"12":-0.030941279605031013,"13":0.00511863362044096,"14":-0.01431580912321806,"15":0.013164482079446316,"16":0.06361553072929382,"17":0.012261121533811092,"18":-0.048504993319511414,"19":-0.07037036120891571,"20":0.05970798060297966,"21":-0.012542364187538624,"22":0.020587632432579994,"23":-0.010981854051351547,"24":-0.061297185719013214,"25":0.03955904766917229,"26":0.045520707964897156,"27":-0.03786696866154671,"28":-0.015437194146215916,"29":-0.0225849449634552,"30":-0.025463605299592018,"31":0.006507055833935738,"32":0.03753187879920006,"33":-0.08017995953559875,"34":-0.06413520872592926,"35":-0.04055333137512207,"36":0.040741533041000366,"37":0.056425705552101135,"38":0.07252667844295502,"39":-0.020917220041155815,"40":0.007541424594819546,"41":-0.038120757788419724,"42":0.04207407310605049,"43":-0.02074786275625229,"44":-0.04843377321958542,"45":0.007850758731365204,"46":0.07743978500366211,"47":0.0472685769200325,"48":-0.02858983911573887,"49":-0.026485325768589973,"50":-0.07179687917232513,"51":0.033524323254823685,"52":-0.06678997725248337,"53":-0.07046198844909668,"54":-0.05297532305121422,"55":0.05390356108546257,"56":0.002583674155175686,"57":-0.05552614852786064,"58":0.002345192478969693,"59":-0.023736242204904556,"60":-0.10012869536876678,"61":-0.07733122259378433,"62":-0.06844011694192886,"63":-0.06571277230978012,"64":-0.0887276828289032,"65":-0.0602843314409256,"66":0.026033911854028702,"67":-0.021208733320236206,"68":0.07239124923944473,"69":0.0010178597876802087,"70":-0.058869656175374985,"71":-0.05426161736249924,"72":0.07675707340240479,"73":0.0006124451756477356,"74":-0.03767725080251694,"75":0.031223686411976814,"76":-0.026361245661973953,"77":-0.08040186017751694,"78":-0.048626940697431564,"79":0.0028097338508814573,"80":0.008006032556295395,"81":0.05901028960943222,"82":-0.01322774775326252,"83":0.03866840526461601,"84":-0.06249413266777992,"85":-0.06711655855178833,"86":0.0024026979226619005,"87":-0.04242371767759323,"88":-0.027793414890766144,"89":-0.020110223442316055,"90":0.006763321813195944,"91":0.029472483322024345,"92":-0.053729165345430374,"93":-0.06644972413778305,"94":-0.07242652028799057,"95":-0.031710539013147354,"96":-0.06963298469781876,"97":-0.0016995102632790804,"98":-0.07969838380813599,"99":0.018375365063548088}},"forgetHidden":{"rows":20,"columns":20,"weights":{"0":0.0478254109621048,"1":0.027188435196876526,"2":-0.05857744812965393,"3":-0.04289251193404198,"4":0.013187826611101627,"5":-0.08030170947313309,"6":0.05926387757062912,"7":-0.033116452395915985,"8":0.03135177865624428,"9":0.033750616014003754,"10":0.022832298651337624,"11":0.04056863114237785,"12":0.05073527991771698,"13":-0.0012003489537164569,"14":0.04854390397667885,"15":-0.02890467830002308,"16":-0.030442750081419945,"17":-0.045961588621139526,"18":0.04944893345236778,"19":0.04613741114735603,"20":0.06872802972793579,"21":0.044166937470436096,"22":-0.0378563366830349,"23":-0.029088269919157028,"24":0.03712083026766777,"25":-0.047377362847328186,"26":0.06272362917661667,"27":0.060655683279037476,"28":-0.0012892893282696605,"29":0.014930831268429756,"30":-0.02621481940150261,"31":0.006688956171274185,"32":-0.05944168567657471,"33":0.04650011286139488,"34":-0.0002994353708345443,"35":-0.0752745047211647,"36":-0.0564400739967823,"37":-0.011112194508314133,"38":0.08582931011915207,"39":0.014335631392896175,"40":-0.19976326823234558,"41":0.3341251611709595,"42":-0.36017099022865295,"43":0.20607857406139374,"44":0.2599896490573883,"45":0.2520715594291687,"46":0.3668612241744995,"47":0.35256439447402954,"48":-0.026064125820994377,"49":0.22226347029209137,"50":-0.25780946016311646,"51":-0.28335097432136536,"52":-0.25675347447395325,"53":-0.14083082973957062,"54":-0.34661489725112915,"55":-0.20468871295452118,"56":-0.24542012810707092,"57":-0.26613420248031616,"58":0.27348655462265015,"59":0.052781958132982254,"60":-0.06344857811927795,"61":-0.03321663662791252,"62":-0.005758451297879219,"63":0.013370536267757416,"64":0.022701013833284378,"65":0.04129556566476822,"66":0.017199991270899773,"67":0.0065324255265295506,"68":-0.020662596449255943,"69":0.0018508917419239879,"70":-0.09371466934680939,"71":-0.02965548262000084,"72":-0.09123848378658295,"73":0.08475260436534882,"74":-0.06154092401266098,"75":0.013294752687215805,"76":0.06595414131879807,"77":-0.010458046570420265,"78":-0.010711919516324997,"79":-0.0050565097481012344,"80":0.11772224307060242,"81":-0.09790176898241043,"82":0.044737253338098526,"83":-0.06604726612567902,"84":0.10074040293693542,"85":0.0011108394246548414,"86":-0.060705363750457764,"87":0.056687936186790466,"88":0.016871387138962746,"89":0.05731138586997986,"90":-0.003254809183999896,"91":0.13361571729183197,"92":-0.01171402633190155,"93":-0.13568265736103058,"94":0.030400782823562622,"95":0.08937539905309677,"96":0.006855281535536051,"97":0.09063281863927841,"98":-0.0029355627484619617,"99":0.006182523909956217,"100":-0.03712191432714462,"101":0.03347405418753624,"102":-0.08889297395944595,"103":0.08917789161205292,"104":-0.03702387586236,"105":0.08848315477371216,"106":0.08398517966270447,"107":-0.04184102639555931,"108":0.058682769536972046,"109":0.0023696136195212603,"110":-0.0989672988653183,"111":-0.06589168310165405,"112":-0.12433454394340515,"113":0.00985643919557333,"114":0.030288461595773697,"115":-0.027932392433285713,"116":-0.06195538863539696,"117":-0.02840285189449787,"118":-0.010075144469738007,"119":0.027979828417301178,"120":-0.08643820881843567,"121":0.015928979963064194,"122":-0.16665348410606384,"123":-0.0163977462798357,"124":-0.010944999754428864,"125":0.12198393046855927,"126":0.0782880187034607,"127":0.09225315600633621,"128":-0.01718827150762081,"129":-0.018231401219964027,"130":-0.03170980140566826,"131":-0.17908254265785217,"132":-0.24069876968860626,"133":0.04323960840702057,"134":-0.06086468696594238,"135":-0.053699344396591187,"136":-0.16214272379875183,"137":-0.020374294370412827,"138":0.05074653401970863,"139":0.02574743703007698,"140":0.021257711574435234,"141":-0.1354520469903946,"142":0.06811147928237915,"143":-0.06022998318076134,"144":0.1672443151473999,"145":-0.09337686747312546,"146":-0.08897438645362854,"147":0.047437891364097595,"148":0.09064055234193802,"149":0.09208127111196518,"150":0.11911173909902573,"151":0.028424695134162903,"152":0.1174619272351265,"153":-0.16475342214107513,"154":-0.011794894933700562,"155":0.10385362803936005,"156":0.12397833913564682,"157":-0.009919782169163227,"158":-0.08405382186174393,"159":-0.13776616752147675,"160":-0.005507698282599449,"161":0.04235682636499405,"162":-0.04818756505846977,"163":-0.06640439480543137,"164":0.006081532221287489,"165":0.029054800048470497,"166":-0.02680562622845173,"167":-0.02681872621178627,"168":0.07091515511274338,"169":-0.014073788188397884,"170":0.021627036854624748,"171":0.06449232250452042,"172":-0.06396664679050446,"173":-0.08441203832626343,"174":0.028577888384461403,"175":0.024659782648086548,"176":0.013422132469713688,"177":-0.038323864340782166,"178":-0.010369573719799519,"179":-0.08038793504238129,"180":0.02519030123949051,"181":-0.11811407655477524,"182":0.046102385967969894,"183":-0.11154569685459137,"184":0.0890689417719841,"185":-0.09437552839517593,"186":-0.07901724427938461,"187":0.044089969247579575,"188":0.13147029280662537,"189":0.03426973521709442,"190":0.10172916948795319,"191":0.10520615428686142,"192":0.007617300841957331,"193":-0.05548040568828583,"194":0.010715257376432419,"195":0.025149472057819366,"196":0.12818148732185364,"197":0.13226230442523956,"198":-0.03549093380570412,"199":-0.021335238590836525,"200":0.02470717951655388,"201":0.11802511662244797,"202":-0.25558775663375854,"203":0.1204356923699379,"204":0.12314686179161072,"205":0.0627184733748436,"206":0.07815587520599365,"207":0.13018693029880524,"208":0.03859904780983925,"209":0.060677420347929,"210":-0.10281998664140701,"211":-0.1737392544746399,"212":-0.26941242814064026,"213":-0.040901295840740204,"214":-0.11243104189634323,"215":-0.022691622376441956,"216":-0.06146678701043129,"217":0.004538807552307844,"218":-0.004388279281556606,"219":0.015911513939499855,"220":0.012053793296217918,"221":0.06968943774700165,"222":-0.17381484806537628,"223":0.014548604376614094,"224":-0.0083104083314538,"225":0.08136245608329773,"226":0.063229039311409,"227":0.03370652720332146,"228":0.04729746654629707,"229":-0.06374985724687576,"230":0.019301947206258774,"231":-0.1113555058836937,"232":-0.22999681532382965,"233":0.07036404311656952,"234":-0.07196495682001114,"235":-0.058128055185079575,"236":-0.007191033568233252,"237":-0.04957585409283638,"238":0.043105755001306534,"239":0.008341003209352493,"240":-0.23717381060123444,"241":0.25023576617240906,"242":-0.2212592363357544,"243":0.186872199177742,"244":0.22176575660705566,"245":0.15097641944885254,"246":0.2703418433666229,"247":0.28714290261268616,"248":-0.0737241879105568,"249":0.32408878207206726,"250":-0.3007940351963043,"251":-0.2597748041152954,"252":-0.36593496799468994,"253":-0.06681732833385468,"254":-0.3430740535259247,"255":-0.12795624136924744,"256":-0.2784036099910736,"257":-0.2664790153503418,"258":0.3088333308696747,"259":0.0918564423918724,"260":0.11044822633266449,"261":-0.07286354899406433,"262":-0.007364622782915831,"263":-0.04990369826555252,"264":-0.011099398136138916,"265":-0.057575635612010956,"266":0.02301669493317604,"267":-0.04237697273492813,"268":0.017558636143803596,"269":-0.057443395256996155,"270":0.07562456279993057,"271":-0.0311347097158432,"272":0.004072226583957672,"273":0.09644515067338943,"274":0.03826424479484558,"275":0.015497507527470589,"276":-0.0023988012690097094,"277":0.01871640980243683,"278":-0.08935434371232986,"279":-0.05982550233602524,"280":-0.06888868659734726,"281":-0.028011681511998177,"282":-0.11685202270746231,"283":-0.04214024916291237,"284":-0.04140784218907356,"285":0.026354419067502022,"286":0.0017605364555492997,"287":-0.052568428218364716,"288":-0.06567344069480896,"289":-0.06053343415260315,"290":-0.005256905220448971,"291":-0.02249389886856079,"292":0.020063631236553192,"293":0.02511589415371418,"294":-0.043006643652915955,"295":-0.021306073293089867,"296":0.018958084285259247,"297":-0.04847421869635582,"298":0.02755667269229889,"299":0.05951150879263878,"300":-0.03797292336821556,"301":0.032502688467502594,"302":-0.05722207576036453,"303":-0.017957275733351707,"304":0.0009591588168404996,"305":0.0003786784363910556,"306":0.04928550124168396,"307":0.023497844114899635,"308":-0.009638904593884945,"309":-0.014036344364285469,"310":0.013417421840131283,"311":-0.07402380555868149,"312":-0.06743237376213074,"313":-0.04465492069721222,"314":-0.046054136008024216,"315":-0.05890659987926483,"316":-0.01949102245271206,"317":0.014473442919552326,"318":0.06097248196601868,"319":0.015112859196960926,"320":0.028984637930989265,"321":-0.02083079144358635,"322":-0.279930055141449,"323":0.014016274362802505,"324":-0.02242230251431465,"325":0.043273210525512695,"326":0.08009958267211914,"327":0.06918876618146896,"328":0.02428274042904377,"329":-0.006173870991915464,"330":-0.030699538066983223,"331":-0.07366814464330673,"332":-0.11368715763092041,"333":0.07213477790355682,"334":-0.10576437413692474,"335":-0.06727514415979385,"336":-0.07969895005226135,"337":-0.06668352335691452,"338":0.04249952360987663,"339":0.05635803937911987,"340":-0.022778954356908798,"341":-0.06441282480955124,"342":-0.06798004359006882,"343":0.03104814700782299,"344":-0.05940958112478256,"345":-0.04363977909088135,"346":-0.027859553694725037,"347":-0.039200734347105026,"348":-0.004987386986613274,"349":-0.008464590646326542,"350":0.023311449214816093,"351":0.034711070358753204,"352":-0.025159265846014023,"353":-0.050530850887298584,"354":-0.02697993442416191,"355":-0.012266956269741058,"356":-0.03267461806535721,"357":0.03258426859974861,"358":-0.028950847685337067,"359":0.06657711416482925,"360":-0.03858346492052078,"361":-0.030333012342453003,"362":-0.17128218710422516,"363":-0.001816917210817337,"364":-0.05269049480557442,"365":0.08682532608509064,"366":-0.02972077578306198,"367":-0.009139351546764374,"368":0.004756501875817776,"369":0.08446372300386429,"370":-0.06406279653310776,"371":-0.05399287864565849,"372":-0.04314471781253815,"373":0.07175177335739136,"374":-0.050905559211969376,"375":0.05117729678750038,"376":0.02153186686336994,"377":-0.0058978465385735035,"378":0.028508253395557404,"379":-0.02266698330640793,"380":0.002661310136318207,"381":-0.0732906386256218,"382":-0.04269877448678017,"383":0.07536648213863373,"384":0.0633716806769371,"385":-0.03962280973792076,"386":-0.05317101255059242,"387":0.04464786872267723,"388":0.019477788358926773,"389":0.06570170074701309,"390":-0.014886072836816311,"391":0.07466430962085724,"392":-0.08450259268283844,"393":-0.08112289011478424,"394":-0.06050296500325203,"395":-0.026779837906360626,"396":0.0556245781481266,"397":-0.04181038588285446,"398":0.011213847436010838,"399":-0.08553003519773483}},"forgetBias":{"rows":20,"columns":1,"weights":{"0":0,"1":0,"2":0,"3":0,"4":0,"5":0,"6":0,"7":0,"8":0,"9":0,"10":0,"11":0,"12":0,"13":0,"14":0,"15":0,"16":0,"17":0,"18":0,"19":0}},"outputMatrix":{"rows":20,"columns":5,"weights":{"0":0.0446307435631752,"1":-0.006200165022164583,"2":-0.06630604714155197,"3":-0.04322609305381775,"4":0.018980637192726135,"5":0.006471978034824133,"6":0.029764918610453606,"7":0.06661058962345123,"8":0.07314911484718323,"9":0.004610669799149036,"10":-0.12624981999397278,"11":-0.10652532428503036,"12":-0.12395210564136505,"13":-0.14865487813949585,"14":-0.06770137697458267,"15":0.04159307852387428,"16":-0.015372357331216335,"17":-0.05704883858561516,"18":0.05010267719626427,"19":-0.0042872303165495396,"20":-0.0690988078713417,"21":0.0646902471780777,"22":0.05662188306450844,"23":-0.023086700588464737,"24":-0.017190493643283844,"25":-0.014452755451202393,"26":-0.06257911771535873,"27":0.06773315370082855,"28":-0.06951653957366943,"29":0.001386281568557024,"30":-0.05648116022348404,"31":0.016196358948946,"32":-0.07108945399522781,"33":-0.043329112231731415,"34":-0.0090448884293437,"35":-0.018513571470975876,"36":-0.05440066009759903,"37":0.015538818202912807,"38":0.03080156445503235,"39":-0.0355011411011219,"40":-0.03602343052625656,"41":0.010081305168569088,"42":-0.03451337665319443,"43":-0.03947536274790764,"44":0.04187183454632759,"45":-0.004784873686730862,"46":0.04654867202043533,"47":0.008763833902776241,"48":0.06526722759008408,"49":0.015263700857758522,"50":-0.050168175250291824,"51":-0.04694846272468567,"52":0.0099198492243886,"53":-0.08260457217693329,"54":-0.006533271633088589,"55":0.03568262979388237,"56":0.04556731507182121,"57":0.042633119970560074,"58":0.058371651917696,"59":0.0625520721077919,"60":-0.05023450031876564,"61":-0.0073494985699653625,"62":-0.13718876242637634,"63":-0.10258578509092331,"64":-0.15283149480819702,"65":0.05975911766290665,"66":0.0009141128393821418,"67":0.04003646597266197,"68":-0.041766755282878876,"69":-0.050377100706100464,"70":0.06103086471557617,"71":-0.012478198856115341,"72":0.059180717915296555,"73":0.029606711119413376,"74":-0.029557613655924797,"75":-0.016064096242189407,"76":-0.05610894039273262,"77":-0.08076745271682739,"78":-0.000593388918787241,"79":0.013378588482737541,"80":-0.0607353039085865,"81":0.07078249752521515,"82":0.02767152339220047,"83":-0.04548415541648865,"84":0.06814435869455338,"85":0.05789107829332352,"86":0.07342883944511414,"87":0.02507943846285343,"88":-0.06052350625395775,"89":0.022069601342082024,"90":0.03206544741988182,"91":-0.029432322829961777,"92":0.06730159372091293,"93":-0.020220257341861725,"94":-0.03903483599424362,"95":0.005506758112460375,"96":0.03332855924963951,"97":-0.021787645295262337,"98":0.03862148895859718,"99":0.02258918434381485}},"outputHidden":{"rows":20,"columns":20,"weights":{"0":0.058575745671987534,"1":0.02102969028055668,"2":-0.1355757862329483,"3":-0.10817700624465942,"4":-0.11731353402137756,"5":0.0016174110351130366,"6":-0.03307720273733139,"7":-0.017688613384962082,"8":0.016348468139767647,"9":-0.11276646703481674,"10":-0.07083254307508469,"11":0.06179402023553848,"12":0.033818669617176056,"13":0.11752142012119293,"14":0.026427434757351875,"15":0.07479235529899597,"16":0.0037135526072233915,"17":0.07971266657114029,"18":-0.10069074481725693,"19":-0.07485450059175491,"20":-0.08922849595546722,"21":-0.007027567829936743,"22":-0.2771732807159424,"23":0.08377165347337723,"24":0.061924103647470474,"25":0.04016942158341408,"26":0.048884905874729156,"27":0.13752584159374237,"28":-0.0284570325165987,"29":0.07119103521108627,"30":-0.07394065707921982,"31":-0.17702022194862366,"32":-0.19354037940502167,"33":-0.07162582874298096,"34":-0.1148417741060257,"35":0.0020364962983876467,"36":-0.1556786149740219,"37":-0.09023894369602203,"38":0.13585424423217773,"39":-0.009401335380971432,"40":-0.3108088970184326,"41":0.35293546319007874,"42":-0.23472486436367035,"43":0.3995254337787628,"44":0.4653487205505371,"45":0.2661520540714264,"46":0.36100316047668457,"47":0.41112276911735535,"48":-0.09320595860481262,"49":0.42465779185295105,"50":-0.31413334608078003,"51":-0.32596683502197266,"52":-0.21039220690727234,"53":-0.4505844712257385,"54":-0.3685551583766937,"55":-0.338394433259964,"56":-0.39433249831199646,"57":-0.39964351058006287,"58":0.3882301449775696,"59":0.3177323639392853,"60":0.0507221482694149,"61":-0.05209566280245781,"62":-0.05873391404747963,"63":-0.018091509118676186,"64":-0.0966668501496315,"65":-0.08497639745473862,"66":0.08229339122772217,"67":-0.05568605661392212,"68":0.0926952064037323,"69":-0.08588892966508865,"70":-0.006686498876661062,"71":-0.03587489575147629,"72":0.016314543783664703,"73":0.06897702068090439,"74":-0.042120762169361115,"75":0.10429954528808594,"76":0.04738983139395714,"77":-0.017409073188900948,"78":-0.03473594784736633,"79":-0.07932440936565399,"80":0.18703192472457886,"81":-0.2825127840042114,"82":0.13000915944576263,"83":-0.14164027571678162,"84":0.16839192807674408,"85":-0.30413803458213806,"86":-0.1922294646501541,"87":-0.002493001287803054,"88":0.15912063419818878,"89":0.0510706752538681,"90":0.10912667959928513,"91":0.1739986389875412,"92":0.23436687886714935,"93":-0.04388068988919258,"94":0.15451303124427795,"95":0.259746789932251,"96":0.31017085909843445,"97":0.21890808641910553,"98":-0.27873703837394714,"99":-0.26043158769607544,"100":-0.08576361835002899,"101":-0.020898403599858284,"102":-0.21736490726470947,"103":-0.02628348208963871,"104":0.053239572793245316,"105":-0.029685618355870247,"106":0.11663267761468887,"107":0.18515853583812714,"108":0.031228424981236458,"109":0.16917353868484497,"110":-0.02795420214533806,"111":-0.04555273801088333,"112":-0.2507484555244446,"113":-0.1258419305086136,"114":-0.0193758737295866,"115":-0.05736534669995308,"116":-0.005507285241037607,"117":0.04081498086452484,"118":-0.01532718725502491,"119":0.029770132154226303,"120":-0.25383278727531433,"121":0.22520925104618073,"122":-0.3586256802082062,"123":0.1264222115278244,"124":0.2360699325799942,"125":0.2658643424510956,"126":0.38008156418800354,"127":0.2161092609167099,"128":-0.06501505523920059,"129":0.2772977948188782,"130":-0.3143954575061798,"131":-0.3171573281288147,"132":-0.2687557637691498,"133":-0.12131083756685257,"134":-0.2037648856639862,"135":-0.07542873173952103,"136":-0.32306376099586487,"137":-0.28184831142425537,"138":0.26035764813423157,"139":0.06472308188676834,"140":0.18211744725704193,"141":-0.20865218341350555,"142":0.09227924048900604,"143":-0.27579858899116516,"144":0.11792638897895813,"145":-0.323781281709671,"146":-0.26013392210006714,"147":0.04302497208118439,"148":0.20821313560009003,"149":0.08002497255802155,"150":0.18982712924480438,"151":0.28150656819343567,"152":0.16251827776432037,"153":-0.16987572610378265,"154":0.22098268568515778,"155":0.2590252161026001,"156":0.3825465738773346,"157":0.2197222262620926,"158":-0.33225542306900024,"159":-0.22668008506298065,"160":0.003192273899912834,"161":-0.03623335435986519,"162":0.022558005526661873,"163":-0.07383782416582108,"164":0.09459485858678818,"165":-0.11026018857955933,"166":-0.04265698790550232,"167":0.10960684716701508,"168":0.05438535287976265,"169":0.1081497073173523,"170":-0.020280446857213974,"171":-0.03662652522325516,"172":0.007751037832349539,"173":-0.18788675963878632,"174":0.06881380826234818,"175":0.12423909455537796,"176":0.060340698808431625,"177":0.08045796304941177,"178":0.007644983474165201,"179":-0.10246321558952332,"180":0.20370467007160187,"181":-0.3170825242996216,"182":0.013733266852796078,"183":-0.22635266184806824,"184":0.15120236575603485,"185":-0.3316255509853363,"186":-0.18626627326011658,"187":0.0095657454803586,"188":0.180140420794487,"189":0.10811001807451248,"190":0.2569296061992645,"191":0.3390241265296936,"192":0.18581220507621765,"193":-0.06688503921031952,"194":0.20142315328121185,"195":0.22730757296085358,"196":0.2392619103193283,"197":0.2684922218322754,"198":-0.25262197852134705,"199":-0.30471569299697876,"200":-0.10210376977920532,"201":0.2547112703323364,"202":-0.33493876457214355,"203":0.12981322407722473,"204":0.25220730900764465,"205":0.12957844138145447,"206":0.3844417631626129,"207":0.21384267508983612,"208":-0.04364272952079773,"209":0.15684504806995392,"210":-0.3649653494358063,"211":-0.27795055508613586,"212":-0.3407164216041565,"213":-0.07368066161870956,"214":-0.1854223757982254,"215":-0.12726865708827972,"216":-0.34363651275634766,"217":-0.24550506472587585,"218":0.24583806097507477,"219":-0.011807709001004696,"220":-0.07791993767023087,"221":0.15541745722293854,"222":-0.2956894338130951,"223":0.08732994645833969,"224":0.07790116965770721,"225":0.05921179801225662,"226":0.11348897963762283,"227":0.13191336393356323,"228":0.07500170171260834,"229":-0.015886215493083,"230":-0.09680943936109543,"231":-0.14595134556293488,"232":-0.26678037643432617,"233":0.06836062669754028,"234":-0.007696844171732664,"235":0.008070743642747402,"236":-0.23529458045959473,"237":-0.17085856199264526,"238":0.15827225148677826,"239":-0.028506727889180183,"240":-0.3492351472377777,"241":0.37974029779434204,"242":-0.30946385860443115,"243":0.3527696430683136,"244":0.44643014669418335,"245":0.3940117359161377,"246":0.34412333369255066,"247":0.3237067759037018,"248":-0.006019472144544125,"249":0.41968899965286255,"250":-0.2454463541507721,"251":-0.29279977083206177,"252":-0.25536927580833435,"253":-0.2726181149482727,"254":-0.3216339647769928,"255":-0.21636852622032166,"256":-0.3482358455657959,"257":-0.40141230821609497,"258":0.2921963334083557,"259":0.15637138485908508,"260":0.11984286457300186,"261":-0.01781466230750084,"262":-0.12774761021137238,"263":-0.0670325830578804,"264":-0.04412934556603432,"265":-0.05472560226917267,"266":0.039018843322992325,"267":-0.09345654398202896,"268":0.07552827894687653,"269":-0.016939885914325714,"270":0.03810490667819977,"271":0.12761954963207245,"272":0.008100234903395176,"273":0.025317665189504623,"274":0.17484380304813385,"275":0.06489408016204834,"276":0.21142150461673737,"277":0.17720437049865723,"278":-0.06876318901777267,"279":-0.13309282064437866,"280":0.0442318357527256,"281":0.006817808374762535,"282":-0.16817831993103027,"283":-0.09406237304210663,"284":-0.06500661373138428,"285":0.057095564901828766,"286":0.12927189469337463,"287":0.006653590127825737,"288":0.07841252535581589,"289":-0.039883606135845184,"290":-0.06221142038702965,"291":-0.07626733183860779,"292":-0.11418870091438293,"293":0.10600161552429199,"294":0.06871197372674942,"295":-0.029874755069613457,"296":-0.05831018090248108,"297":-0.07050473242998123,"298":0.057254087179899216,"299":-0.0035465112887322903,"300":0.001728916191495955,"301":-0.08275067806243896,"302":-0.052778102457523346,"303":-0.047209352254867554,"304":0.07073790580034256,"305":0.018224593251943588,"306":0.10615846514701843,"307":0.07171476632356644,"308":-0.01249182503670454,"309":0.12392181903123856,"310":-0.023657772690057755,"311":0.056313835084438324,"312":0.017194734886288643,"313":-0.09722749888896942,"314":0.07239677011966705,"315":0.0934452936053276,"316":0.027601823210716248,"317":0.08691279590129852,"318":-0.03806200996041298,"319":0.03160243481397629,"320":-0.06601405888795853,"321":0.05884874239563942,"322":-0.35749346017837524,"323":0.00741341570392251,"324":0.04489918798208237,"325":0.09738558530807495,"326":0.21948163211345673,"327":0.14242935180664062,"328":-0.03522603586316109,"329":0.019844943657517433,"330":-0.18333299458026886,"331":-0.28457337617874146,"332":-0.2810733914375305,"333":-0.0186910443007946,"334":-0.14958824217319489,"335":-0.09451889991760254,"336":-0.12628163397312164,"337":-0.21715541183948517,"338":0.08423186093568802,"339":0.04544466361403465,"340":0.07795275747776031,"341":0.08578496426343918,"342":-0.26134178042411804,"343":0.017969250679016113,"344":-0.06161784008145332,"345":-0.04128912091255188,"346":0.01116906851530075,"347":0.009834849275648594,"348":0.06039377674460411,"349":-0.03818969801068306,"350":-0.012085969559848309,"351":-0.10691716521978378,"352":-0.22309620678424835,"353":0.015605503693223,"354":-0.028507115319371223,"355":0.06875097751617432,"356":-0.13146348297595978,"357":-0.04871115833520889,"358":0.02218059077858925,"359":0.05803545564413071,"360":-0.050272323191165924,"361":0.13659778237342834,"362":-0.37476256489753723,"363":-0.032570090144872665,"364":0.08959024399518967,"365":-0.027719372883439064,"366":0.20125876367092133,"367":0.154252290725708,"368":0.025336377322673798,"369":0.05299386754631996,"370":-0.10868719965219498,"371":-0.14868807792663574,"372":-0.3126465082168579,"373":-0.05044122412800789,"374":-0.11544078588485718,"375":-0.009610360488295555,"376":-0.16390715539455414,"377":-0.06262347102165222,"378":0.08397621661424637,"379":-0.07948992401361465,"380":0.028902573511004448,"381":-0.09903112798929214,"382":-0.05436299368739128,"383":0.04838387295603752,"384":0.06302352249622345,"385":0.013876853510737419,"386":-0.026575967669487,"387":0.08683914691209793,"388":0.11369165778160095,"389":0.050791043788194656,"390":0.02664611116051674,"391":0.04141184315085411,"392":0.014381861314177513,"393":-0.10168977826833725,"394":0.022685252130031586,"395":-0.02695164456963539,"396":0.06321079283952713,"397":0.07033231109380722,"398":-0.027316486462950706,"399":-0.11932704597711563}},"outputBias":{"rows":20,"columns":1,"weights":{"0":-0.3625500798225403,"1":-0.5599809885025024,"2":-0.13345183432102203,"3":-0.3924001157283783,"4":-0.36608564853668213,"5":-0.5788869261741638,"6":-0.5571343898773193,"7":-0.3654196262359619,"8":-0.518530547618866,"9":-0.3616904616355896,"10":-0.5783867835998535,"11":-0.4787730276584625,"12":-0.1545063704252243,"13":-0.30946794152259827,"14":-0.4437297284603119,"15":-0.4636778235435486,"16":-0.49382585287094116,"17":-0.46522876620292664,"18":-0.547573447227478,"19":-0.4748550355434418}},"cellActivationMatrix":{"rows":20,"columns":5,"weights":{"0":-0.043319735676050186,"1":0.06129896268248558,"2":0.04705234244465828,"3":0.022670917212963104,"4":0.00614154851064086,"5":0.038830433040857315,"6":0.0858830139040947,"7":0.008519680239260197,"8":-0.012986504472792149,"9":0.07581126689910889,"10":-0.28400513529777527,"11":-0.14794287085533142,"12":-0.22360773384571075,"13":-0.2220679521560669,"14":-0.16428562998771667,"15":-0.06722429394721985,"16":-0.0026024009566754103,"17":-0.05360289290547371,"18":-0.08013910055160522,"19":0.05743023008108139,"20":-0.02923419699072838,"21":-0.026574740186333656,"22":-0.07355102896690369,"23":-0.07999955117702484,"24":0.023889385163784027,"25":0.10229996591806412,"26":0.049900639802217484,"27":-0.026790328323841095,"28":0.05961187183856964,"29":0.015383726917207241,"30":0.1904280185699463,"31":0.06839902698993683,"32":0.19459812343120575,"33":0.1011241003870964,"34":0.172868013381958,"35":-0.031814202666282654,"36":-0.03685278445482254,"37":-0.09845954179763794,"38":-0.0994969829916954,"39":-0.0015573569107800722,"40":0.015541289001703262,"41":-0.04717490077018738,"42":0.06964435428380966,"43":0.06753046065568924,"44":0.017955241724848747,"45":-0.035679951310157776,"46":-0.0635281503200531,"47":-0.0700201690196991,"48":0.01358163170516491,"49":0.023593274876475334,"50":-0.1724754124879837,"51":-0.18386270105838776,"52":-0.11792732030153275,"53":-0.060204438865184784,"54":-0.14947478473186493,"55":-0.014210877008736134,"56":0.050962552428245544,"57":-0.021553264930844307,"58":-0.067682184278965,"59":-0.07696794718503952,"60":-0.22790996730327606,"61":-0.23589138686656952,"62":-0.23468482494354248,"63":-0.16978861391544342,"64":-0.2216787040233612,"65":0.07365728169679642,"66":0.11190232634544373,"67":0.10678230226039886,"68":0.06863062083721161,"69":0.06251037865877151,"70":0.011727857403457165,"71":-0.022773433476686478,"72":-0.009264877997338772,"73":0.030015740543603897,"74":0.035849202424287796,"75":-0.03184167668223381,"76":-0.06106603890657425,"77":-0.017721621319651604,"78":0.04597055912017822,"79":0.04265487939119339,"80":0.011258453130722046,"81":0.04539774730801582,"82":-0.09417416155338287,"83":-0.0593825988471508,"84":0.022913681343197823,"85":-0.02332904003560543,"86":0.027226272970438004,"87":-0.048391543328762054,"88":0.02397010289132595,"89":0.01854891888797283,"90":0.09608300775289536,"91":-0.0313340425491333,"92":0.0876087099313736,"93":0.0710291713476181,"94":0.043365512043237686,"95":-0.0777096375823021,"96":-0.004344873130321503,"97":0.011488090269267559,"98":-0.08116960525512695,"99":-0.09124377369880676}},"cellActivationHidden":{"rows":20,"columns":20,"weights":{"0":-0.3998159170150757,"1":0.3892940282821655,"2":0.3738490045070648,"3":0.5277101993560791,"4":0.48688724637031555,"5":0.444011390209198,"6":0.2168474793434143,"7":0.36722010374069214,"8":-0.33421218395233154,"9":0.4812923073768616,"10":-0.15922674536705017,"11":-0.4425382912158966,"12":0.18008139729499817,"13":-0.4044077694416046,"14":-0.4754955768585205,"15":-0.3548838496208191,"16":-0.4590144455432892,"17":-0.5279859304428101,"18":0.5512245297431946,"19":0.352030873298645,"20":0.635097861289978,"21":-0.6088435053825378,"22":0.02731037326157093,"23":-0.6676225662231445,"24":-0.5638770461082458,"25":-0.5663014054298401,"26":-0.530360996723175,"27":-0.6148565411567688,"28":0.5486768484115601,"29":-0.4761899411678314,"30":0.5291197896003723,"31":0.68227618932724,"32":0.1948276162147522,"33":0.5060613751411438,"34":0.7495920062065125,"35":0.5970198512077332,"36":0.7778600454330444,"37":0.7155075073242188,"38":-0.6527392268180847,"39":-0.6946476101875305,"40":-0.5817492604255676,"41":0.5491990447044373,"42":0.029107756912708282,"43":0.6153526902198792,"44":0.6034001708030701,"45":0.48239797353744507,"46":0.16965238749980927,"47":0.6114724278450012,"48":-0.5372610092163086,"49":0.6518034934997559,"50":-0.08905835449695587,"51":-0.5452942252159119,"52":-0.03630657121539116,"53":-0.6481230854988098,"54":-0.5490196347236633,"55":-0.5632830262184143,"56":-0.49856024980545044,"57":-0.494873046875,"58":0.5149380564689636,"59":0.5152717232704163,"60":0.48279523849487305,"61":-0.47376614809036255,"62":-0.11926987022161484,"63":-0.5366460680961609,"64":-0.34073105454444885,"65":-0.5561421513557434,"66":-0.26425474882125854,"67":-0.47289031744003296,"68":0.4134937524795532,"69":-0.3398457467556,"70":0.23722857236862183,"71":0.5881286263465881,"72":0.05973862111568451,"73":0.36307162046432495,"74":0.5379022359848022,"75":0.43351322412490845,"76":0.6263232231140137,"77":0.6062470078468323,"78":-0.6219879388809204,"79":-0.45935288071632385,"80":0.238020658493042,"81":0.01725052483379841,"82":-0.5870245099067688,"83":-0.1858336627483368,"84":-0.4854157567024231,"85":0.01028698030859232,"86":0.40487098693847656,"87":-0.27208375930786133,"88":0.11521395295858383,"89":-0.3963678777217865,"90":-0.4034402370452881,"91":0.0427650585770607,"92":-0.5331830978393555,"93":0.5185022950172424,"94":0.15293531119823456,"95":0.20495952665805817,"96":0.11372150480747223,"97":0.13236214220523834,"98":-0.06650200486183167,"99":-0.18306174874305725,"100":0.6759930849075317,"101":-0.7231389880180359,"102":0.11663220822811127,"103":-0.6701452732086182,"104":-0.49737298488616943,"105":-0.6067672371864319,"106":-0.4841548800468445,"107":-0.5297281742095947,"108":0.5757734179496765,"109":-0.38462114334106445,"110":0.46304646134376526,"111":0.6331385374069214,"112":0.2841489315032959,"113":0.3345421552658081,"114":0.7722623348236084,"115":0.7356387972831726,"116":0.7063648104667664,"117":0.748930037021637,"118":-0.7869727611541748,"119":-0.7390562295913696,"120":0.7318181395530701,"121":-0.7206999659538269,"122":0.1272670179605484,"123":-0.7581769824028015,"124":-0.6201288104057312,"125":-0.7053223848342896,"126":-0.5040750503540039,"127":-0.7305546998977661,"128":0.5571469664573669,"129":-0.630672812461853,"130":0.5336567759513855,"131":0.6322818398475647,"132":0.29914844036102295,"133":0.6055962443351746,"134":0.7221967577934265,"135":0.7086601257324219,"136":0.6050404906272888,"137":0.7459855079650879,"138":-0.6255995035171509,"139":-0.594933807849884,"140":0.21577198803424835,"141":0.08081270754337311,"142":-0.6710094213485718,"143":-0.2341645061969757,"144":-0.41900119185447693,"145":-0.031884580850601196,"146":0.5160196423530579,"147":-0.43336886167526245,"148":0.022696027532219887,"149":-0.44852951169013977,"150":-0.47065117955207825,"151":0.1116950660943985,"152":-0.5366857647895813,"153":0.581587016582489,"154":0.07948482036590576,"155":0.09350154548883438,"156":-0.07737746834754944,"157":0.08986736834049225,"158":-0.06449317187070847,"159":-0.04553551599383354,"160":-0.6195672750473022,"161":0.6838679909706116,"162":-0.0474102720618248,"163":0.6898434162139893,"164":0.29850107431411743,"165":0.721668541431427,"166":0.46416527032852173,"167":0.3398405611515045,"168":-0.7534092664718628,"169":0.3523743748664856,"170":-0.5676088929176331,"171":-0.7761639356613159,"172":-0.3227077126502991,"173":-0.30810484290122986,"174":-0.6841805577278137,"175":-0.6885285973548889,"176":-0.7331405878067017,"177":-0.7650781869888306,"178":0.6691235899925232,"179":0.7889484763145447,"180":0.2914227843284607,"181":0.045877691358327866,"182":-0.5540226101875305,"183":-0.18286745250225067,"184":-0.43665337562561035,"185":0.040149156004190445,"186":0.40045157074928284,"187":-0.2722139060497284,"188":0.08518803864717484,"189":-0.46726927161216736,"190":-0.45195260643959045,"191":0.11632627248764038,"192":-0.49107542634010315,"193":0.5444713830947876,"194":0.14621275663375854,"195":0.022221315652132034,"196":0.03971780091524124,"197":0.08557005971670151,"198":-0.061198316514492035,"199":-0.04177484288811684,"200":-0.7831292152404785,"201":0.6898207068443298,"202":-0.008742461912333965,"203":0.7824124097824097,"204":0.7034847736358643,"205":0.6793385744094849,"206":0.5248025059700012,"207":0.6662911772727966,"208":-0.5698911547660828,"209":0.6226385235786438,"210":-0.60036700963974,"211":-0.6129769682884216,"212":-0.3210577368736267,"213":-0.728255569934845,"214":-0.7229862213134766,"215":-0.6549418568611145,"216":-0.7289771437644958,"217":-0.7520503997802734,"218":0.6467732787132263,"219":0.571062445640564,"220":-0.5227782726287842,"221":0.5977274775505066,"222":0.025627480819821358,"223":0.47238773107528687,"224":0.5367940664291382,"225":0.471658319234848,"226":0.2909139394760132,"227":0.7551760077476501,"228":-0.2784203290939331,"229":0.5875893831253052,"230":-0.24971216917037964,"231":-0.5808238387107849,"232":0.012572451494634151,"233":-0.39927783608436584,"234":-0.6128960251808167,"235":-0.2222549319267273,"236":-0.5607281923294067,"237":-0.5811360478401184,"238":0.521395206451416,"239":0.2990534007549286,"240":-0.5616557002067566,"241":0.5177672505378723,"242":-0.06634623557329178,"243":0.5152218341827393,"244":0.6822677254676819,"245":0.5813599824905396,"246":0.16423627734184265,"247":0.6410923600196838,"248":-0.5141481757164001,"249":0.6597391963005066,"250":-0.014192321337759495,"251":-0.6590352654457092,"252":-0.04863649979233742,"253":-0.6107890605926514,"254":-0.6242001056671143,"255":-0.6139994859695435,"256":-0.5758787989616394,"257":-0.6030839085578918,"258":0.5828606486320496,"259":0.5735256671905518,"260":-0.2740180194377899,"261":0.0495980829000473,"262":0.572633683681488,"263":0.1702597588300705,"264":0.26734524965286255,"265":0.11212895810604095,"266":-0.27411767840385437,"267":0.2071877121925354,"268":-0.4703170657157898,"269":0.2391606867313385,"270":0.3204931318759918,"271":-0.07701802998781204,"272":0.43639981746673584,"273":-0.4943571090698242,"274":-0.11927679926156998,"275":-0.25989729166030884,"276":-0.16883037984371185,"277":-0.05703030899167061,"278":0.103260338306427,"279":0.33674493432044983,"280":-0.4587017893791199,"281":0.60797119140625,"282":-0.04157158359885216,"283":0.5154796838760376,"284":0.4837605655193329,"285":0.5725932717323303,"286":0.38493385910987854,"287":0.5801360011100769,"288":-0.3133057951927185,"289":0.5465763211250305,"290":-0.32994988560676575,"291":-0.6892201900482178,"292":-0.175393208861351,"293":-0.3375770151615143,"294":-0.5864055752754211,"295":-0.48229923844337463,"296":-0.7319113612174988,"297":-0.594333291053772,"298":0.6583684086799622,"299":0.3685482442378998,"300":-0.5635542273521423,"301":0.7455499768257141,"302":0.029793301597237587,"303":0.666486918926239,"304":0.30037033557891846,"305":0.705206036567688,"306":0.48496636748313904,"307":0.29671505093574524,"308":-0.6837146878242493,"309":0.30469992756843567,"310":-0.5383382439613342,"311":-0.6712159514427185,"312":-0.2827029228210449,"313":-0.3129292130470276,"314":-0.6301706433296204,"315":-0.6102914214134216,"316":-0.6798462271690369,"317":-0.6663493514060974,"318":0.7196084856987,"319":0.6654170155525208,"320":-0.5491532683372498,"321":0.5484743714332581,"322":-0.029544422402977943,"323":0.5421320199966431,"324":0.6706768274307251,"325":0.6352541446685791,"326":0.2459256947040558,"327":0.7609668374061584,"328":-0.2775571346282959,"329":0.6724052429199219,"330":-0.2792438268661499,"331":-0.607940673828125,"332":-0.0563105084002018,"333":-0.3703218698501587,"334":-0.5985159277915955,"335":-0.4103606343269348,"336":-0.6475648880004883,"337":-0.7114933133125305,"338":0.669979453086853,"339":0.40293803811073303,"340":-0.5003083348274231,"341":0.5980956554412842,"342":0.01880197413265705,"343":0.6100588440895081,"344":0.5430960655212402,"345":0.5633347034454346,"346":0.3564344346523285,"347":0.6897382140159607,"348":-0.2498132288455963,"349":0.5804253220558167,"350":-0.3211933374404907,"351":-0.7253143191337585,"352":-0.16090688109397888,"353":-0.4411608874797821,"354":-0.683945894241333,"355":-0.40172597765922546,"356":-0.6672501564025879,"357":-0.7130975723266602,"358":0.5926006436347961,"359":0.40013009309768677,"360":0.5905795693397522,"361":-0.671544075012207,"362":-0.015061378479003906,"363":-0.6257177591323853,"364":-0.5239450931549072,"365":-0.6320505142211914,"366":-0.5344436764717102,"367":-0.5379658937454224,"368":0.5849935412406921,"369":-0.5361840724945068,"370":0.5608219504356384,"371":0.6425271034240723,"372":0.16404443979263306,"373":0.3441600203514099,"374":0.7620444893836975,"375":0.6308860182762146,"376":0.6791514158248901,"377":0.6546343564987183,"378":-0.7004263401031494,"379":-0.5286077260971069,"380":0.5921001434326172,"381":-0.6908410787582397,"382":-0.04587378725409508,"383":-0.5624436140060425,"384":-0.2720532715320587,"385":-0.6039952039718628,"386":-0.4876018762588501,"387":-0.3166547417640686,"388":0.6167185306549072,"389":-0.28253620862960815,"390":0.4190973937511444,"391":0.7599167227745056,"392":0.188155397772789,"393":0.32155296206474304,"394":0.644307553768158,"395":0.714735209941864,"396":0.8065647482872009,"397":0.7378599643707275,"398":-0.7383179664611816,"399":-0.7052165269851685}},"cellActivationBias":{"rows":20,"columns":1,"weights":{"0":0.0021968050859868526,"1":0.09087323397397995,"2":0.1220889687538147,"3":0.0247189924120903,"4":-0.18073530495166779,"5":0.09231209754943848,"6":0.11722511798143387,"7":-0.12367112934589386,"8":0.02179701440036297,"9":-0.16918253898620605,"10":-0.1405884027481079,"11":-0.07981204241514206,"12":0.044242825359106064,"13":0.23381289839744568,"14":-0.06510908901691437,"15":0.013980420306324959,"16":-0.09404545277357101,"17":-0.09574630111455917,"18":0.11131282895803452,"19":-0.009718772023916245}}}],"outputConnector":{"rows":5,"columns":20,"weights":{"0":0.02449728175997734,"1":0.09297570586204529,"2":-0.15301774442195892,"3":0.046163588762283325,"4":-0.09255000948905945,"5":0.08004433661699295,"6":0.11674688011407852,"7":-0.14981213212013245,"8":-0.023082943633198738,"9":-0.1566293090581894,"10":-0.13692228496074677,"11":-0.005634073168039322,"12":-0.10311585664749146,"13":0.15473635494709015,"14":-0.010208726860582829,"15":-0.0024350336752831936,"16":-0.0436425656080246,"17":0.007483377121388912,"18":0.05742515251040459,"19":0.04149611294269562,"20":-0.013845184817910194,"21":-0.0016432541888207197,"22":0.1952347457408905,"23":0.009880853816866875,"24":0.05542214214801788,"25":-0.1213967502117157,"26":-0.10589766502380371,"27":-0.012170549482107162,"28":0.05759824812412262,"29":0.03426039591431618,"30":0.12174012511968613,"31":-0.05303177982568741,"32":0.09012405574321747,"33":0.12268088757991791,"34":0.04329238459467888,"35":-0.005366242025047541,"36":-0.046607498079538345,"37":-0.05389389023184776,"38":-0.03801329433917999,"39":-0.015472134575247765,"40":0.028402701020240784,"41":0.18435709178447723,"42":-0.05672723427414894,"43":0.01872028410434723,"44":-0.09353023767471313,"45":0.09003471583127975,"46":0.14947302639484406,"47":-0.143999844789505,"48":-0.03792877495288849,"49":-0.11586176604032516,"50":-0.13809676468372345,"51":0.10704822093248367,"52":-0.13089163601398468,"53":0.04813067615032196,"54":-0.00801534578204155,"55":-0.01908234693109989,"56":-0.021382765844464302,"57":0.0032904837280511856,"58":0.06019871309399605,"59":-0.012487625703215599,"60":-0.007714859675616026,"61":0.006187085993587971,"62":0.21426546573638916,"63":0.006537764798849821,"64":-0.10668665170669556,"65":-0.017482805997133255,"66":-0.10592582076787949,"67":0.019673610106110573,"68":0.06541667133569717,"69":-0.05764630436897278,"70":0.0551089346408844,"71":-0.06323780864477158,"72":0.14195355772972107,"73":0.24600794911384583,"74":-0.020147720351815224,"75":0.025782983750104904,"76":-0.03195789083838463,"77":-0.041329171508550644,"78":0.04107150062918663,"79":-0.013860595412552357,"80":0.019678527489304543,"81":-0.06176035851240158,"82":0.1192866861820221,"83":0.017209060490131378,"84":0.05095534026622772,"85":-0.1377919763326645,"86":-0.14695559442043304,"87":0.13904401659965515,"88":0.11224345862865448,"89":0.041192103177309036,"90":0.1851714700460434,"91":-0.09605644643306732,"92":0.10523790866136551,"93":-0.08974234759807587,"94":-0.0077836415730416775,"95":-0.00003367805038578808,"96":-0.08617467433214188,"97":0.043154336512088776,"98":-0.07171427458524704,"99":0.013942711986601353}},"output":{"rows":5,"columns":1,"weights":{"0":-0.01880820468068123,"1":-0.0037739938125014305,"2":-0.01557279471307993,"3":-0.020729022100567818,"4":0.01288360171020031}}}