{"type":"LSTMTimeStep","options":{"inputSize":5,"hiddenLayers":[10,10],"outputSize":5,"learningRate":0.01,"decayRate":0.999,"smoothEps":1e-8,"regc":0.000001,"clipval":5},"hiddenLayers":[{"inputMatrix":{"rows":10,"columns":5,"weights":{"0":-0.06870774179697037,"1":-0.02291291020810604,"2":0.001818423392251134,"3":0.0017314691795036197,"4":-0.04652479663491249,"5":-0.060326628386974335,"6":0.06390134245157242,"7":0.02963397651910782,"8":0.07135248184204102,"9":0.06598184257745743,"10":0.008721068501472473,"11":0.011110709048807621,"12":0.01816464401781559,"13":0.05778587982058525,"14":0.011577680706977844,"15":0.0049489159137010574,"16":-0.06950174272060394,"17":0.06506675481796265,"18":0.03124178573489189,"19":-0.01991529017686844,"20":-0.03438883274793625,"21":-0.042369868606328964,"22":0.009202767163515091,"23":-0.01432977057993412,"24":-0.052129752933979034,"25":-0.07985923439264297,"26":-0.04360760748386383,"27":-0.04633377119898796,"28":0.05714967101812363,"29":-0.058219846338033676,"30":-0.04901149868965149,"31":-0.04514254257082939,"32":0.01669267751276493,"33":0.03371710330247879,"34":0.07215731590986252,"35":0.06874668598175049,"36":0.05574396252632141,"37":0.01576792262494564,"38":0.06875691562891006,"39":-0.013540275394916534,"40":0.05952881649136543,"41":-0.007521712686866522,"42":0.05784067139029503,"43":-0.06634435802698135,"44":0.002083296189084649,"45":-0.026105567812919617,"46":-0.0645073652267456,"47":-0.006621876731514931,"48":0.03128481283783913,"49":0.0420708954334259}},"inputHidden":{"rows":10,"columns":10,"weights":{"0":-0.2010144144296646,"1":0.14522512257099152,"2":-0.1296088844537735,"3":0.25151678919792175,"4":-0.20848821103572845,"5":0.3175196945667267,"6":-0.2648256719112396,"7":-0.17510734498500824,"8":-0.13715173304080963,"9":0.1303684264421463,"10":-0.1452823281288147,"11":0.028887763619422913,"12":-0.1751648634672165,"13":0.14106716215610504,"14":-0.1257862001657486,"15":0.010402928106486797,"16":-0.19103477895259857,"17":-0.03550276532769203,"18":-0.11572273075580597,"19":0.0994453951716423,"20":0.17113225162029266,"21":-0.09610483795404434,"22":-0.059989042580127716,"23":0.0729396790266037,"24":-0.13754230737686157,"25":-0.034951891750097275,"26":-0.09021197259426117,"27":-0.16048277914524078,"28":-0.020345088094472885,"29":0.0693301111459732,"30":0.20441003143787384,"31":-0.21172817051410675,"32":0.023691533133387566,"33":-0.06174985691905022,"34":0.10206055641174316,"35":-0.2559092044830322,"36":0.0857897475361824,"37":-0.007279862649738789,"38":0.05849568173289299,"39":-0.08824033290147781,"40":0.2662377953529358,"41":-0.2009548544883728,"42":0.25522497296333313,"43":-0.23224250972270966,"44":0.20004992187023163,"45":-0.34683313965797424,"46":0.24092482030391693,"47":0.20362135767936707,"48":0.220290869474411,"49":-0.19105732440948486,"50":-0.2722446322441101,"51":0.13265183568000793,"52":-0.07244988530874252,"53":0.16118726134300232,"54":-0.045087214559316635,"55":0.26107677817344666,"56":-0.07436909526586533,"57":-0.166519895195961,"58":-0.08375148475170135,"59":0.17784297466278076,"60":0.1899765282869339,"61":-0.0578145757317543,"62":0.07189013063907623,"63":-0.07447391748428345,"64":0.059559598565101624,"65":-0.19571194052696228,"66":0.22739049792289734,"67":0.06439697742462158,"68":0.14876875281333923,"69":-0.046596016734838486,"70":0.05987229198217392,"71":-0.09885024279356003,"72":-0.09631861746311188,"73":0.06592525541782379,"74":-0.07688263058662415,"75":-0.05779644474387169,"76":0.03496822342276573,"77":0.028195057064294815,"78":-0.03750663250684738,"79":-0.004076337441802025,"80":0.06942982226610184,"81":-0.12961351871490479,"82":-0.02715282328426838,"83":0.0025740652345120907,"84":-0.04324068874120712,"85":-0.15871892869472504,"86":-0.07745315879583359,"87":-0.1048618033528328,"88":-0.05517156422138214,"89":0.09977438300848007,"90":0.3238505423069,"91":-0.2072521597146988,"92":0.2199612706899643,"93":-0.19457648694515228,"94":0.23451487720012665,"95":-0.3655388653278351,"96":0.25865858793258667,"97":0.2218635082244873,"98":0.3428719937801361,"99":-0.2817251682281494}},"inputBias":{"rows":10,"columns":1,"weights":{"0":-0.11253563314676285,"1":-0.22710958123207092,"2":-0.07686586678028107,"3":-0.10627701878547668,"4":-0.1498134732246399,"5":-0.13532038033008575,"6":-0.09327785670757294,"7":-0.10576142370700836,"8":-0.07854145765304565,"9":-0.22653250396251678}},"forgetMatrix":{"rows":10,"columns":5,"weights":{"0":0.06389893591403961,"1":0.07180864363908768,"2":-0.0012022294104099274,"3":0.07550251483917236,"4":-0.017203135415911674,"5":-0.02434958517551422,"6":-0.011714862659573555,"7":-0.07040009647607803,"8":0.01709270477294922,"9":-0.05586111173033714,"10":-0.0524594746530056,"11":-0.026216264814138412,"12":0.015577697195112705,"13":0.013930924236774445,"14":-0.05137291178107262,"15":-0.05886333808302879,"16":-0.05167596787214279,"17":-0.02052238956093788,"18":0.03848734498023987,"19":0.06671695411205292,"20":-0.0223263930529356,"21":-0.07194586098194122,"22":0.07269259542226791,"23":0.0426248274743557,"24":-0.005936766043305397,"25":0.030086791142821312,"26":0.030092865228652954,"27":0.05634472146630287,"28":-0.0036753870081156492,"29":-0.050772346556186676,"30":0.07905896008014679,"31":-0.06450871378183365,"32":-0.058728914707899094,"33":-0.007045038044452667,"34":-0.04327452927827835,"35":0.017981817945837975,"36":-0.016020486131310463,"37":0.0721222460269928,"38":0.030702296644449234,"39":0.03552205488085747,"40":-0.021919364109635353,"41":-0.07208657264709473,"42":0.04963507130742073,"43":-0.05343341454863548,"44":-0.021566813811659813,"45":0.048426948487758636,"46":-0.06553153693675995,"47":0.020178982987999916,"48":0.030605169013142586,"49":0.04779636487364769}},"forgetHidden":{"rows":10,"columns":10,"weights":{"0":-0.04030430689454079,"1":0.0037786713801324368,"2":-0.07540415227413177,"3":0.03910005837678909,"4":-0.053857337683439255,"5":0.11680498719215393,"6":-0.027070587500929832,"7":-0.017310764640569687,"8":-0.09907743334770203,"9":0.0866263285279274,"10":-0.08555931597948074,"11":-0.019346101209521294,"12":-0.09640797227621078,"13":0.05575459823012352,"14":-0.08023316413164139,"15":-0.015661753714084625,"16":-0.00932531151920557,"17":-0.011823869310319424,"18":0.023412156850099564,"19":0.024330267682671547,"20":0.018428409472107887,"21":-0.023791149258613586,"22":-0.011538838967680931,"23":0.0813235267996788,"24":0.006944392807781696,"25":-0.030034275725483894,"26":-0.10583315789699554,"27":0.02451286092400551,"28":-0.0009800986154004931,"29":0.03526713326573372,"30":0.11857923865318298,"31":-0.02780543640255928,"32":0.025825921446084976,"33":-0.05498262867331505,"34":-0.003829307621344924,"35":-0.03993222862482071,"36":0.0797371193766594,"37":-0.01849478669464588,"38":0.10751066356897354,"39":-0.08703884482383728,"40":0.18133649230003357,"41":-0.07692205905914307,"42":0.15698598325252533,"43":-0.1489860713481903,"44":0.19757080078125,"45":-0.220489501953125,"46":0.22109021246433258,"47":0.11908907443284988,"48":0.10965212434530258,"49":-0.19090576469898224,"50":-0.0796610489487648,"51":0.011330430395901203,"52":-0.07578340917825699,"53":0.03378026559948921,"54":0.028308847919106483,"55":0.054949481040239334,"56":-0.042973440140485764,"57":-0.002901113126426935,"58":-0.08379869908094406,"59":0.09360377490520477,"60":0.08260547369718552,"61":0.010428131558001041,"62":-0.006204975303262472,"63":-0.021976150572299957,"64":0.11973092705011368,"65":-0.016276858747005463,"66":0.010195832699537277,"67":0.09033747762441635,"68":0.0015384274302050471,"69":0.004578497726470232,"70":0.03807312622666359,"71":-0.0038626755122095346,"72":-0.061781711876392365,"73":0.02806372195482254,"74":-0.008731561712920666,"75":-0.02062201127409935,"76":0.03438233956694603,"77":0.06597737222909927,"78":0.044755157083272934,"79":-0.055100217461586,"80":0.03563118353486061,"81":-0.07436311990022659,"82":-0.02998070977628231,"83":0.008761005476117134,"84":0.04248512163758278,"85":-0.11717327684164047,"86":0.03994525969028473,"87":-0.045138441026210785,"88":0.059179361909627914,"89":-0.018510501831769943,"90":0.17257924377918243,"91":-0.10615913569927216,"92":0.29531368613243103,"93":-0.200754314661026,"94":0.23048533499240875,"95":-0.17040865123271942,"96":0.2181040197610855,"97":0.246571883559227,"98":0.19224530458450317,"99":-0.2662688195705414}},"forgetBias":{"rows":10,"columns":1,"weights":{"0":0,"1":0,"2":0,"3":0,"4":0,"5":0,"6":0,"7":0,"8":0,"9":0}},"outputMatrix":{"rows":10,"columns":5,"weights":{"0":-0.07497241348028183,"1":-0.07765370607376099,"2":-0.005175572820007801,"3":-0.049002308398485184,"4":0.049906376749277115,"5":0.04539608582854271,"6":-0.006960694678127766,"7":0.03525196388363838,"8":0.018675602972507477,"9":0.034374210983514786,"10":0.02835795097053051,"11":-0.004913203418254852,"12":0.014555727131664753,"13":0.07377542555332184,"14":-0.07143109291791916,"15":0.07623271644115448,"16":0.045013975352048874,"17":-0.05059395730495453,"18":-0.05274933949112892,"19":0.0520210936665535,"20":0.0496932752430439,"21":-0.06263219565153122,"22":0.036003317683935165,"23":0.057435955852270126,"24":0.007553266827017069,"25":-0.004856911953538656,"26":-0.02464825101196766,"27":0.055794958025217056,"28":0.05340712144970894,"29":-0.04113050177693367,"30":-0.06944508850574493,"31":-0.07923006266355515,"32":0.008489740081131458,"33":-0.07076628506183624,"34":-0.07326120138168335,"35":-0.001148394774645567,"36":-0.06513280421495438,"37":-0.05976750701665878,"38":0.022515641525387764,"39":-0.02732834219932556,"40":-0.013924097642302513,"41":-0.07112996280193329,"42":-0.0561361201107502,"43":0.03185329958796501,"44":0.016628915444016457,"45":-0.061504919081926346,"46":0.05016838014125824,"47":-0.01733994670212269,"48":-0.06661848723888397,"49":-0.059984542429447174}},"outputHidden":{"rows":10,"columns":10,"weights":{"0":-0.33448657393455505,"1":0.26734763383865356,"2":-0.07661380618810654,"3":0.09563618153333664,"4":-0.13750267028808594,"5":0.3198036551475525,"6":-0.09445686638355255,"7":-0.21602386236190796,"8":-0.10010571032762527,"9":0.19490838050842285,"10":-0.16515588760375977,"11":0.07648584991693497,"12":-0.08307758718729019,"13":0.18912726640701294,"14":-0.10156039893627167,"15":0.0413578599691391,"16":-0.15595194697380066,"17":-0.17784380912780762,"18":-0.13224147260189056,"19":0.10556317120790482,"20":0.11081276088953018,"21":-0.20966987311840057,"22":-0.2101069837808609,"23":0.22327686846256256,"24":-0.11783592402935028,"25":-0.05386817827820778,"26":-0.07294967770576477,"27":-0.06995906680822372,"28":-0.08716291934251785,"29":0.11374113708734512,"30":0.20995154976844788,"31":-0.12491246312856674,"32":0.05269337445497513,"33":-0.11856554448604584,"34":0.004991953261196613,"35":-0.22078941762447357,"36":0.17730124294757843,"37":0.005593601614236832,"38":0.1693098098039627,"39":-0.03375864773988724,"40":0.31723177433013916,"41":-0.14375153183937073,"42":0.21928103268146515,"43":-0.18947038054466248,"44":0.20971868932247162,"45":-0.36975565552711487,"46":0.26186618208885193,"47":0.16171064972877502,"48":0.2751593589782715,"49":-0.15928591787815094,"50":-0.3665561079978943,"51":0.21174265444278717,"52":-0.15350010991096497,"53":0.12510676681995392,"54":-0.04293503984808922,"55":0.2903898358345032,"56":-0.12736767530441284,"57":-0.15436995029449463,"58":-0.10902977734804153,"59":0.05420474335551262,"60":0.2987692952156067,"61":-0.17309516668319702,"62":0.07971973717212677,"63":-0.2324170619249344,"64":0.059349145740270615,"65":-0.2129785567522049,"66":0.10410463809967041,"67":0.19868528842926025,"68":0.22538936138153076,"69":-0.16434887051582336,"70":0.09107950329780579,"71":-0.12385290116071701,"72":-0.0980822741985321,"73":0.07947312295436859,"74":-0.0022194646298885345,"75":-0.11554005742073059,"76":0.02432285249233246,"77":-0.07742317020893097,"78":-0.05898677185177803,"79":-0.007726274896413088,"80":0.22381795942783356,"81":-0.1970810443162918,"82":-0.04439292475581169,"83":0.01981344446539879,"84":-0.00021283944079186767,"85":-0.11894892156124115,"86":-0.08231932669878006,"87":-0.03666231036186218,"88":-0.022005444392561913,"89":0.07724454253911972,"90":0.3841100037097931,"91":-0.2262505739927292,"92":0.19028311967849731,"93":-0.18452517688274384,"94":0.31301549077033997,"95":-0.3301710784435272,"96":0.2521515190601349,"97":0.33616703748703003,"98":0.21779654920101166,"99":-0.20692242681980133}},"outputBias":{"rows":10,"columns":1,"weights":{"0":-0.11369454860687256,"1":-0.22880341112613678,"2":-0.07910602539777756,"3":-0.11016158014535904,"4":-0.15152044594287872,"5":-0.13674446940422058,"6":-0.09748750180006027,"7":-0.1078781858086586,"8":-0.08131422847509384,"9":-0.227406308054924}},"cellActivationMatrix":{"rows":10,"columns":5,"weights":{"0":-0.03694574534893036,"1":0.059840306639671326,"2":0.02444874495267868,"3":-0.039896201342344284,"4":0.05590859055519104,"5":-0.013985355384647846,"6":-0.0010334800463169813,"7":0.07315445691347122,"8":0.05613590404391289,"9":0.06756875663995743,"10":0.03884472697973251,"11":-0.0823395699262619,"12":-0.09326007962226868,"13":0.03213854879140854,"14":-0.09216136485338211,"15":0.04168948531150818,"16":0.03699631243944168,"17":-0.03154416382312775,"18":-0.026360124349594116,"19":-0.004132404457777739,"20":-0.06451677531003952,"21":-0.05589021369814873,"22":-0.06599754095077515,"23":-0.08852814882993698,"24":0.040925949811935425,"25":0.0957595482468605,"26":-0.014065923169255257,"27":-0.00838933140039444,"28":0.04574010521173477,"29":-0.0034281311091035604,"30":-0.0028052458073943853,"31":-0.03612319380044937,"32":-0.06697869300842285,"33":-0.05651101842522621,"34":0.023729855194687843,"35":0.016111422330141068,"36":-0.013350197114050388,"37":-0.059630297124385834,"38":-0.08465450257062912,"39":-0.021596992388367653,"40":-0.07445839047431946,"41":-0.0502350740134716,"42":-0.10907777398824692,"43":-0.014679638668894768,"44":-0.07767908275127411,"45":-0.034161292016506195,"46":-0.0429900661110878,"47":0.009173352271318436,"48":0.0750272199511528,"49":-0.004953386727720499}},"cellActivationHidden":{"rows":10,"columns":10,"weights":{"0":-0.16731354594230652,"1":0.3464148938655853,"2":0.784395694732666,"3":-0.7462649345397949,"4":0.6431683301925659,"5":0.10726770758628845,"6":0.7170320749282837,"7":0.7805648446083069,"8":0.6808084845542908,"9":-0.6099531650543213,"10":-0.1547427475452423,"11":-0.09909491240978241,"12":-0.7009817361831665,"13":0.6836752891540527,"14":-0.546153724193573,"15":0.21623526513576508,"16":-0.6600750088691711,"17":-0.6208712458610535,"18":-0.5711098313331604,"19":0.5166316032409668,"20":-0.336271733045578,"21":0.29191017150878906,"22":0.03921046853065491,"23":-0.12491751462221146,"24":0.246527299284935,"25":0.43329957127571106,"26":0.1551918089389801,"27":-0.010379132814705372,"28":0.0425904281437397,"29":-0.34131667017936707,"30":0.42917194962501526,"31":-0.2867337465286255,"32":0.11106901615858078,"33":-0.10909346491098404,"34":-0.11237060278654099,"35":-0.48017334938049316,"36":0.20173734426498413,"37":0.2242152988910675,"38":0.215718612074852,"39":0.1480688899755478,"40":-0.5500685572624207,"41":0.34905967116355896,"42":-0.24008841812610626,"43":0.3911742568016052,"44":-0.18499627709388733,"45":0.5249155163764954,"46":-0.32678961753845215,"47":-0.39350852370262146,"48":-0.31365537643432617,"49":-0.01976911909878254,"50":0.16877929866313934,"51":-0.2707839608192444,"52":-0.7467565536499023,"53":0.7704070210456848,"54":-0.7055659294128418,"55":-0.224416583776474,"56":-0.7157827019691467,"57":-0.816490888595581,"58":-0.7176287174224854,"59":0.5307270884513855,"60":-0.32845574617385864,"61":0.3793244957923889,"62":-0.028897108510136604,"63":0.025300856679677963,"64":0.1464107483625412,"65":0.4416343569755554,"66":-0.04963670298457146,"67":0.01409420557320118,"68":0.04665142297744751,"69":-0.22441522777080536,"70":-0.35178905725479126,"71":0.33762696385383606,"72":-0.08908884972333908,"73":0.12297861278057098,"74":0.06588847935199738,"75":0.48753514885902405,"76":-0.03590189665555954,"77":-0.14317439496517181,"78":-0.1926022171974182,"79":-0.2078067809343338,"80":-0.2974414527416229,"81":0.25215283036231995,"82":-0.10647858679294586,"83":0.08627882599830627,"84":0.11042880266904831,"85":0.4035972058773041,"86":-0.03148577734827995,"87":-0.040679510682821274,"88":-0.1601531207561493,"89":-0.2760157287120819,"90":0.5154541730880737,"91":-0.3185333013534546,"92":0.06009509414434433,"93":-0.07060983777046204,"94":0.04200763627886772,"95":-0.552931547164917,"96":0.11313901096582413,"97":0.19636903703212738,"98":0.18721064925193787,"99":-0.02509448677301407}},"cellActivationBias":{"rows":10,"columns":1,"weights":{"0":-0.31443333625793457,"1":0.12038301676511765,"2":-0.2782594859600067,"3":0.29482951760292053,"4":-0.19775038957595825,"5":0.30350223183631897,"6":-0.2508153021335602,"7":-0.27300825715065,"8":-0.3172551393508911,"9":0.04523540288209915}}},{"inputMatrix":{"rows":10,"columns":10,"weights":{"0":-0.1754525899887085,"1":0.16419602930545807,"2":0.35559922456741333,"3":-0.3246612846851349,"4":0.3832760453224182,"5":0.22801588475704193,"6":0.39463233947753906,"7":0.26547905802726746,"8":0.37424448132514954,"9":-0.49538230895996094,"10":-0.025726834312081337,"11":-0.01329988706856966,"12":0.08579429984092712,"13":0.05691021308302879,"14":-0.009240043349564075,"15":0.02172594517469406,"16":-0.03599724546074867,"17":-0.05383392423391342,"18":-0.03381133824586868,"19":-0.04194223880767822,"20":-0.19631022214889526,"21":0.267200767993927,"22":0.6514703035354614,"23":-0.616155207157135,"24":0.5857378840446472,"25":0.1901114583015442,"26":0.7176810503005981,"27":0.713233470916748,"28":0.6660926938056946,"29":-0.47189339995384216,"30":0.4514656960964203,"31":-0.3591553866863251,"32":0.250133752822876,"33":-0.22904230654239655,"34":0.25262391567230225,"35":-0.39739277958869934,"36":0.3156599700450897,"37":0.17025896906852722,"38":0.28168049454689026,"39":-0.23514172434806824,"40":0.4508982002735138,"41":-0.3141859769821167,"42":0.0619688406586647,"43":-0.08148907124996185,"44":0.145516037940979,"45":-0.5219648480415344,"46":0.23860414326190948,"47":0.16755907237529755,"48":0.13748231530189514,"49":-0.11147309094667435,"50":-0.019558262079954147,"51":0.023944901302456856,"52":-0.2279311567544937,"53":0.19070656597614288,"54":-0.14479562640190125,"55":-0.038784559816122055,"56":-0.2209131419658661,"57":-0.18333417177200317,"58":-0.24018025398254395,"59":-0.05886363983154297,"60":-0.14437614381313324,"61":0.06356064975261688,"62":0.13950026035308838,"63":-0.07525565475225449,"64":0.03129877895116806,"65":0.048608776181936264,"66":0.0532924123108387,"67":0.09351997822523117,"68":0.13172762095928192,"69":-0.059221550822257996,"70":0.19079343974590302,"71":-0.12633763253688812,"72":0.25092414021492004,"73":-0.23732751607894897,"74":0.21549652516841888,"75":-0.14704309403896332,"76":0.21933643519878387,"77":0.2215288132429123,"78":0.23160699009895325,"79":-0.25668275356292725,"80":0.5290145874023438,"81":-0.32974642515182495,"82":0.15932470560073853,"83":-0.07101233303546906,"84":0.20593327283859253,"85":-0.5480632185935974,"86":0.18690825998783112,"87":0.1218574121594429,"88":0.12263491004705429,"89":-0.14092499017715454,"90":-0.40420666337013245,"91":0.2305411398410797,"92":0.0514024943113327,"93":-0.05056899040937424,"94":0.11001452803611755,"95":0.34271425008773804,"96":-0.05985328555107117,"97":-0.054457150399684906,"98":-0.010872956365346909,"99":-0.11876555532217026}},"inputHidden":{"rows":10,"columns":10,"weights":{"0":0.05026308819651604,"1":-0.0010779425501823425,"2":-0.1837979406118393,"3":-0.1962513029575348,"4":-0.12594623863697052,"5":0.018828338012099266,"6":-0.00006680432852590457,"7":-0.06714770197868347,"8":0.2521533966064453,"9":-0.04963260889053345,"10":0.09191422909498215,"11":0.005346719641238451,"12":-0.3158625066280365,"13":0.016730239614844322,"14":0.042929507791996,"15":-0.08862529695034027,"16":0.07926974445581436,"17":0.0022911308333277702,"18":-0.02816276252269745,"19":-0.1295788437128067,"20":0.2546771466732025,"21":0.27176639437675476,"22":-0.10009993612766266,"23":-0.6145787835121155,"24":-0.5476983785629272,"25":0.31202852725982666,"26":0.2857954800128937,"27":0.31384170055389404,"28":0.6759214401245117,"29":-0.151558518409729,"30":-0.370082825422287,"31":-0.2528657019138336,"32":0.4438197910785675,"33":-0.3741757571697235,"34":-0.2098061442375183,"35":-0.11920231580734253,"36":-0.2821101248264313,"37":-0.3163543939590454,"38":0.3455738425254822,"39":0.24870727956295013,"40":-0.37871667742729187,"41":-0.3478337526321411,"42":0.5359795093536377,"43":-0.26404571533203125,"44":-0.06335479766130447,"45":-0.19674848020076752,"46":-0.382678359746933,"47":-0.29821035265922546,"48":0.24235886335372925,"49":0.2009429782629013,"50":-0.07741227746009827,"51":-0.16382233798503876,"52":-0.26998937129974365,"53":0.3139530122280121,"54":0.138579323887825,"55":-0.2764109969139099,"56":-0.22834473848342896,"57":-0.3379095196723938,"58":-0.27911409735679626,"59":-0.044493041932582855,"60":0.036918580532073975,"61":-0.00878461729735136,"62":-0.2860657870769501,"63":0.024473654106259346,"64":-0.03880918398499489,"65":-0.1739424616098404,"66":0.05299679934978485,"67":0.0017660227604210377,"68":-0.07619746774435043,"69":-0.08029061555862427,"70":-0.17802518606185913,"71":-0.149910569190979,"72":-0.10224126279354095,"73":-0.11035045981407166,"74":-0.050030410289764404,"75":-0.2969279885292053,"76":-0.2592219114303589,"77":-0.2761951982975006,"78":0.035891495645046234,"79":0.16601186990737915,"80":-0.38706672191619873,"81":-0.2924620807170868,"82":0.36765843629837036,"83":-0.2071724534034729,"84":-0.069368876516819,"85":-0.2085319608449936,"86":-0.2375815361738205,"87":-0.3527047038078308,"88":0.12120723724365234,"89":0.3102625906467438,"90":0.2581738233566284,"91":0.3264612853527069,"92":-0.24918735027313232,"93":0.15676409006118774,"94":0.054525572806596756,"95":0.0950569435954094,"96":0.22864705324172974,"97":0.2843570411205292,"98":-0.0655268132686615,"99":-0.2573302388191223}},"inputBias":{"rows":10,"columns":1,"weights":{"0":-0.6027536392211914,"1":-0.4530177712440491,"2":-0.07491683959960938,"3":-0.47646626830101013,"4":-0.4732908010482788,"5":-0.27735635638237,"6":-0.48073112964630127,"7":-0.4944074749946594,"8":-0.5024030804634094,"9":-0.6041032671928406}},"forgetMatrix":{"rows":10,"columns":10,"weights":{"0":-0.04859244078397751,"1":0.14572912454605103,"2":0.1265646368265152,"3":-0.14157713949680328,"4":0.03828846290707588,"5":0.03639638423919678,"6":0.13866108655929565,"7":0.11307030916213989,"8":0.10362295061349869,"9":-0.1517040729522705,"10":0.04017141833901405,"11":0.06447609513998032,"12":-0.06055378541350365,"13":-0.05119342356920242,"14":-0.0029758443124592304,"15":-0.024895038455724716,"16":-0.013782335445284843,"17":-0.07184385508298874,"18":0.056209396570920944,"19":-0.030136840417981148,"20":-0.29510653018951416,"21":0.2514323890209198,"22":0.43921130895614624,"23":-0.5008880496025085,"24":0.37097975611686707,"25":0.29117563366889954,"26":0.40083393454551697,"27":0.37303537130355835,"28":0.39359161257743835,"29":-0.3166337311267853,"30":0.20233185589313507,"31":-0.18006367981433868,"32":0.2251448631286621,"33":-0.31094226241111755,"34":0.22889724373817444,"35":-0.18606579303741455,"36":0.2854224741458893,"37":0.19432218372821808,"38":0.19745011627674103,"39":-0.30184417963027954,"40":0.2410021424293518,"41":-0.0710541307926178,"42":0.24939821660518646,"43":-0.22545656561851501,"44":0.2054201364517212,"45":-0.24081996083259583,"46":0.254262775182724,"47":0.21916882693767548,"48":0.20267033576965332,"49":-0.267280250787735,"50":-0.022512299939990044,"51":-0.08234010636806488,"52":-0.08942259848117828,"53":0.051100485026836395,"54":-0.09869209676980972,"55":0.05278116092085838,"56":-0.046932876110076904,"57":-0.09200852364301682,"58":-0.07937923073768616,"59":0.07014280557632446,"60":-0.02793239615857601,"61":-0.0004441036726348102,"62":0.02317044883966446,"63":-0.06522685289382935,"64":-0.010866490192711353,"65":0.06350043416023254,"66":-0.02677210234105587,"67":0.012638149783015251,"68":0.015690786764025688,"69":0.03124910779297352,"70":0.07079272717237473,"71":-0.08234547078609467,"72":0.07131949812173843,"73":-0.10905569791793823,"74":0.1649816781282425,"75":-0.06812789291143417,"76":0.09029808640480042,"77":0.08540007472038269,"78":0.1463450938463211,"79":-0.20873108506202698,"80":0.3059106171131134,"81":-0.1278897076845169,"82":0.1829514056444168,"83":-0.20859277248382568,"84":0.21888543665409088,"85":-0.28293943405151367,"86":0.2789730429649353,"87":0.1794997751712799,"88":0.19291824102401733,"89":-0.27066555619239807,"90":-0.22219377756118774,"91":0.13550019264221191,"92":0.07025036960840225,"93":0.05281995236873627,"94":0.07832154631614685,"95":0.1014852374792099,"96":-0.027266548946499825,"97":-0.00578370550647378,"98":0.010076993145048618,"99":-0.07716390490531921}},"forgetHidden":{"rows":10,"columns":10,"weights":{"0":0.031566280871629715,"1":-0.061991654336452484,"2":-0.09876219183206558,"3":-0.10056912899017334,"4":-0.010576453991234303,"5":-0.01501714438199997,"6":0.05575447902083397,"7":-0.016971806064248085,"8":0.07603851705789566,"9":-0.058144908398389816,"10":0.0549556128680706,"11":0.05957585573196411,"12":-0.05180754512548447,"13":-0.06013224273920059,"14":-0.034913256764411926,"15":0.02177838236093521,"16":-0.0028798396233469248,"17":-0.07048977166414261,"18":-0.005160814616829157,"19":-0.053947899490594864,"20":0.19983893632888794,"21":0.30263030529022217,"22":-0.26098522543907166,"23":-0.3193179965019226,"24":-0.31742531061172485,"25":0.27587029337882996,"26":0.23493266105651855,"27":0.27491337060928345,"28":0.43347519636154175,"29":-0.2122960239648819,"30":-0.11858773976564407,"31":-0.2375882863998413,"32":0.2031559944152832,"33":-0.23665142059326172,"34":-0.1754281371831894,"35":-0.06993512809276581,"36":-0.1502189338207245,"37":-0.18175582587718964,"38":0.2644951343536377,"39":0.16399280726909637,"40":-0.13965077698230743,"41":-0.11889246106147766,"42":0.35826724767684937,"43":-0.32351723313331604,"44":-0.10453547537326813,"45":0.03147861734032631,"46":-0.2080029398202896,"47":-0.23380476236343384,"48":0.3307230472564697,"49":0.12927399575710297,"50":-0.00030000301194377244,"51":0.006143027916550636,"52":-0.23994183540344238,"53":0.0854802057147026,"54":0.08996543288230896,"55":-0.300223708152771,"56":-0.08438081294298172,"57":-0.12338736653327942,"58":-0.09692048281431198,"59":0.05480356141924858,"60":-0.039844807237386703,"61":0.02549174055457115,"62":-0.06142933666706085,"63":-0.018837958574295044,"64":-0.05603108927607536,"65":-0.03562406450510025,"66":0.05304408073425293,"67":0.003444065572693944,"68":-0.038053687661886215,"69":0.020091403275728226,"70":-0.07932668924331665,"71":-0.011758645996451378,"72":-0.07657475024461746,"73":-0.048010796308517456,"74":0.04332180321216583,"75":-0.12540064752101898,"76":-0.046467047184705734,"77":-0.156759113073349,"78":-0.0011334612499922514,"79":0.0640086680650711,"80":-0.08550100028514862,"81":-0.08044318854808807,"82":0.178463876247406,"83":-0.26768818497657776,"84":-0.11366648226976395,"85":-0.04411105066537857,"86":-0.21320155262947083,"87":-0.14618216454982758,"88":0.2375977337360382,"89":0.16682106256484985,"90":0.11095127463340759,"91":0.0064010354690253735,"92":-0.24766191840171814,"93":-0.03987693041563034,"94":-0.04130097106099129,"95":-0.04196858033537865,"96":0.05176084488630295,"97":-0.003888907376676798,"98":-0.01701796054840088,"99":-0.1446046233177185}},"forgetBias":{"rows":10,"columns":1,"weights":{"0":0,"1":0,"2":0,"3":0,"4":0,"5":0,"6":0,"7":0,"8":0,"9":0}},"outputMatrix":{"rows":10,"columns":10,"weights":{"0":-0.1921936422586441,"1":0.29178088903427124,"2":0.45321038365364075,"3":-0.49342069029808044,"4":0.3471377491950989,"5":0.15301182866096497,"6":0.5179103016853333,"7":0.38496145606040955,"8":0.33520227670669556,"9":-0.4934873580932617,"10":-0.04368370771408081,"11":0.08702965825796127,"12":0.008951956406235695,"13":0.050558194518089294,"14":0.03826025128364563,"15":0.16769757866859436,"16":0.0768628641963005,"17":0.041136570274829865,"18":-0.052906058728694916,"19":-0.08304443210363388,"20":-0.29023218154907227,"21":0.24797722697257996,"22":0.589137852191925,"23":-0.7156153321266174,"24":0.4515470564365387,"25":0.1554863005876541,"26":0.6661263108253479,"27":0.7209621071815491,"28":0.6803593039512634,"29":-0.5120640397071838,"30":0.5142097473144531,"31":-0.36775630712509155,"32":0.1957121193408966,"33":-0.2488635629415512,"34":0.21155980229377747,"35":-0.3821506202220917,"36":0.18867836892604828,"37":0.19601532816886902,"38":0.26931679248809814,"39":-0.23836351931095123,"40":0.4580214023590088,"41":-0.3902893364429474,"42":0.05446043610572815,"43":-0.12973159551620483,"44":0.1322535127401352,"45":-0.5601757168769836,"46":0.09618668258190155,"47":0.025739703327417374,"48":0.14177072048187256,"49":-0.06149529293179512,"50":0.0357576385140419,"51":-0.027463145554065704,"52":-0.21547479927539825,"53":0.18643087148666382,"54":-0.11028487235307693,"55":0.07322479784488678,"56":-0.19775345921516418,"57":-0.20798557996749878,"58":-0.2148747444152832,"59":-0.010780747048556805,"60":-0.15603205561637878,"61":0.09862666577100754,"62":0.1931736171245575,"63":-0.14891548454761505,"64":0.06035574525594711,"65":0.20043590664863586,"66":0.20312564074993134,"67":0.10823317617177963,"68":-0.0045977020636200905,"69":-0.20201340317726135,"70":0.14984451234340668,"71":-0.14244890213012695,"72":0.23198750615119934,"73":-0.25608545541763306,"74":0.29633650183677673,"75":-0.17984603345394135,"76":0.27198150753974915,"77":0.1836882084608078,"78":0.2390153706073761,"79":-0.33719176054000854,"80":0.5067169070243835,"81":-0.5134902000427246,"82":0.12315338850021362,"83":-0.14851029217243195,"84":0.09644395112991333,"85":-0.5700152516365051,"86":0.1859525740146637,"87":0.06805264949798584,"88":0.0580228790640831,"89":-0.11734634637832642,"90":-0.37264448404312134,"91":0.26444676518440247,"92":0.03484629467129707,"93":-0.07941896468400955,"94":0.10599839687347412,"95":0.3889504075050354,"96":0.04698384925723076,"97":0.029420126229524612,"98":0.024130400270223618,"99":-0.15188322961330414}},"outputHidden":{"rows":10,"columns":10,"weights":{"0":-0.011292894370853901,"1":0.10553732514381409,"2":-0.27476510405540466,"3":-0.18627433478832245,"4":-0.27053242921829224,"5":-0.10614718496799469,"6":0.1032528355717659,"7":-0.021094314754009247,"8":0.3091016113758087,"9":-0.18632085621356964,"10":0.07082369178533554,"11":0.08572766184806824,"12":-0.3576761484146118,"13":0.1227927953004837,"14":0.07788068801164627,"15":-0.15445002913475037,"16":0.06330563127994537,"17":-0.02602636069059372,"18":-0.035176508128643036,"19":-0.09991393983364105,"20":0.27889958024024963,"21":0.3567013442516327,"22":-0.07046935707330704,"23":-0.7075033187866211,"24":-0.6197362542152405,"25":0.34490180015563965,"26":0.39420828223228455,"27":0.3409987688064575,"28":0.816567063331604,"29":-0.16121532022953033,"30":-0.3324618935585022,"31":-0.34883081912994385,"32":0.3746718466281891,"33":-0.3144923150539398,"34":-0.21276886761188507,"35":-0.18350106477737427,"36":-0.2526877224445343,"37":-0.38631314039230347,"38":0.27847692370414734,"39":0.2403576374053955,"40":-0.3642347753047943,"41":-0.26880910992622375,"42":0.4957829713821411,"43":-0.3537141978740692,"44":0.022773992270231247,"45":-0.09914925694465637,"46":-0.31628450751304626,"47":-0.4433189034461975,"48":0.3488990068435669,"49":0.19346439838409424,"50":-0.08390865474939346,"51":-0.2140808254480362,"52":-0.33184757828712463,"53":0.34377020597457886,"54":0.15083318948745728,"55":-0.3698902130126953,"56":-0.17279700934886932,"57":-0.30572155117988586,"58":-0.3355025053024292,"59":-0.09569647908210754,"60":0.09803149849176407,"61":0.1182035431265831,"62":-0.2982482612133026,"63":-0.04331923648715019,"64":0.019489917904138565,"65":-0.15713226795196533,"66":0.030499737709760666,"67":-0.10507961362600327,"68":0.06992118060588837,"69":-0.1219351664185524,"70":-0.18312321603298187,"71":-0.2398129105567932,"72":-0.03849330544471741,"73":-0.048147764056921005,"74":-0.16870276629924774,"75":-0.3114127218723297,"76":-0.14990675449371338,"77":-0.3452948331832886,"78":0.057970333844423294,"79":0.1303185671567917,"80":-0.3039754033088684,"81":-0.32146015763282776,"82":0.4150969982147217,"83":-0.27657395601272583,"84":-0.13172844052314758,"85":-0.28244924545288086,"86":-0.3637356162071228,"87":-0.3688467741012573,"88":0.23808634281158447,"89":0.23705822229385376,"90":0.3141475021839142,"91":0.3782118260860443,"92":-0.34387168288230896,"93":0.10610511898994446,"94":0.1909818947315216,"95":0.16411010921001434,"96":0.3064218759536743,"97":0.24602031707763672,"98":-0.06385880708694458,"99":-0.37573978304862976}},"outputBias":{"rows":10,"columns":1,"weights":{"0":-0.6042888760566711,"1":-0.45409464836120605,"2":-0.07448870688676834,"3":-0.4775703549385071,"4":-0.4752402901649475,"5":-0.2777552902698517,"6":-0.48247846961021423,"7":-0.4956536889076233,"8":-0.5048086643218994,"9":-0.6058869957923889}},"cellActivationMatrix":{"rows":10,"columns":10,"weights":{"0":0.17609459161758423,"1":-0.25956177711486816,"2":-0.3934689462184906,"3":0.3780089318752289,"4":-0.26352280378341675,"5":-0.1358085572719574,"6":-0.4699605107307434,"7":-0.22156071662902832,"8":-0.32929861545562744,"9":0.2712690532207489,"10":0.07577871531248093,"11":-0.06849953532218933,"12":-0.41010648012161255,"13":0.46235957741737366,"14":-0.41024476289749146,"15":0.0738779604434967,"16":-0.6309891939163208,"17":-0.3262688219547272,"18":-0.38431885838508606,"19":0.4764326214790344,"20":-0.18341685831546783,"21":0.3916208744049072,"22":0.550854504108429,"23":-0.6139625310897827,"24":0.5788670182228088,"25":0.09444958716630936,"26":0.5313559174537659,"27":0.5641360878944397,"28":0.5900731682777405,"29":-0.3269945979118347,"30":0.5403109788894653,"31":-0.4267500936985016,"32":0.02809392847120762,"33":0.06709986180067062,"34":-0.17150118947029114,"35":-0.5910397171974182,"36":0.19206158816814423,"37":-0.12030543386936188,"38":-0.10746156424283981,"39":0.0341612882912159,"40":0.5755689740180969,"41":-0.3317823112010956,"42":0.5831339955329895,"43":-0.44957369565963745,"44":0.30577248334884644,"45":-0.5264595150947571,"46":0.33113107085227966,"47":0.5237042903900146,"48":0.5393198132514954,"49":0.019968021661043167,"50":-0.4728330075740814,"51":0.4993617534637451,"52":0.3006872832775116,"53":-0.2457021027803421,"54":0.534477949142456,"55":0.4935477077960968,"56":0.2580599784851074,"57":0.3040943145751953,"58":0.27948737144470215,"59":-0.48514676094055176,"60":0.12961682677268982,"61":-0.05718573182821274,"62":-0.39623764157295227,"63":0.26876235008239746,"64":-0.2699621915817261,"65":0.04448862373828888,"66":-0.5019210577011108,"67":-0.26480573415756226,"68":-0.22553963959217072,"69":0.32710614800453186,"70":0.18868660926818848,"71":-0.12608496844768524,"72":0.029413046315312386,"73":-0.017626062035560608,"74":0.12579157948493958,"75":-0.107449971139431,"76":-0.13378454744815826,"77":0.04342574253678322,"78":0.09294039756059647,"79":0.15021029114723206,"80":-0.6445690989494324,"81":0.4432147741317749,"82":-0.09404696524143219,"83":0.07929655909538269,"84":0.17448779940605164,"85":0.663273274898529,"86":-0.15980063378810883,"87":-0.03944714367389679,"88":-0.10416097193956375,"89":0.1004769429564476,"90":0.0294817928224802,"91":0.08155342191457748,"92":0.527585506439209,"93":-0.4191114902496338,"94":0.25860968232154846,"95":0.04261302947998047,"96":0.5353673100471497,"97":0.42819058895111084,"98":0.5348125696182251,"99":-0.5054473280906677}},"cellActivationHidden":{"rows":10,"columns":10,"weights":{"0":-0.6097210049629211,"1":-0.815481424331665,"2":-0.25391772389411926,"3":0.7043432593345642,"4":-0.014756164513528347,"5":-0.44763556122779846,"6":-0.8905559778213501,"7":-0.810008704662323,"8":-0.84706050157547,"9":0.663061261177063,"10":-0.5273799896240234,"11":-0.8529345393180847,"12":-0.28254827857017517,"13":0.6912005543708801,"14":-0.010305440984666348,"15":-0.33671480417251587,"16":-0.7962455153465271,"17":-0.7122636437416077,"18":-0.7117941975593567,"19":0.4888577461242676,"20":0.25447794795036316,"21":0.5663098096847534,"22":0.0016723476583138108,"23":-0.26835206151008606,"24":-0.6517380475997925,"25":0.4412369430065155,"26":0.5164241194725037,"27":0.5700778365135193,"28":0.4444168508052826,"29":0.05053494870662689,"30":-0.0796278789639473,"31":-0.07891149073839188,"32":0.9621845483779907,"33":-0.720914900302887,"34":0.14469467103481293,"35":0.08141496032476425,"36":-0.04035777226090431,"37":0.008546486496925354,"38":0.6695834398269653,"39":0.09978098422288895,"40":-0.9498502612113953,"41":-1.0356405973434448,"42":0.497224360704422,"43":-0.03724474832415581,"44":-0.6297248005867004,"45":0.056157030165195465,"46":-0.8921705484390259,"47":-0.638983428478241,"48":-0.13276927173137665,"49":1.0724247694015503,"50":-0.1996692270040512,"51":-0.5345489978790283,"52":-0.665999710559845,"53":0.3404674232006073,"54":-0.4027712941169739,"55":-0.13234186172485352,"56":-0.5081790089607239,"57":-0.5342703461647034,"58":-0.33901578187942505,"59":0.1896434873342514,"60":-0.6753867268562317,"61":-0.9112198352813721,"62":-0.27521201968193054,"63":0.6905442476272583,"64":-0.14650747179985046,"65":-0.38183286786079407,"66":-0.7749764323234558,"67":-0.763442873954773,"68":-0.7500332593917847,"69":0.5894023180007935,"70":-0.7678697109222412,"71":-0.9825466871261597,"72":-0.20203977823257446,"73":0.42240360379219055,"74":-0.31778720021247864,"75":-0.3256874680519104,"76":-0.9384626746177673,"77":-0.8563780784606934,"78":-0.5244588851928711,"79":0.6778019666671753,"80":0.2851656377315521,"81":0.018997782841324806,"82":-1.0572514533996582,"83":0.7808409333229065,"84":0.03002052754163742,"85":-0.23876552283763885,"86":-0.020954012870788574,"87":-0.15237554907798767,"88":-0.7594042420387268,"89":-0.24433256685733795,"90":0.674782931804657,"91":0.8782488703727722,"92":0.15170447528362274,"93":-0.9223856925964355,"94":-0.03807937353849411,"95":0.4552519619464874,"96":0.900665819644928,"97":0.7865720391273499,"98":0.9735381603240967,"99":-0.6942957043647766}},"cellActivationBias":{"rows":10,"columns":1,"weights":{"0":0.0003020590520463884,"1":-0.1111583337187767,"2":0.1863771677017212,"3":0.04108652099967003,"4":0.20903047919273376,"5":-0.06747201085090637,"6":-0.0594186931848526,"7":-0.1351180225610733,"8":-0.013182426802814007,"9":-0.03359655290842056}}}],"outputConnector":{"rows":5,"columns":10,"weights":{"0":0.02433975599706173,"1":0.09324312210083008,"2":0.1520264595746994,"3":0.15265387296676636,"4":-0.04037248715758324,"5":0.015315473079681396,"6":0.059311434626579285,"7":-0.03819376602768898,"8":-0.07740749418735504,"9":-0.24510133266448975,"10":0.04481935128569603,"11":0.10348845273256302,"12":0.1256018877029419,"13":0.14078941941261292,"14":-0.1978837102651596,"15":0.12394054979085922,"16":0.14192800223827362,"17":0.14325153827667236,"18":-0.14596571028232574,"19":-0.08827843517065048,"20":0.00702007208019495,"21":0.050751082599163055,"22":0.12245723605155945,"23":0.01770741492509842,"24":-0.04894132539629936,"25":-0.027188660576939583,"26":0.020668476819992065,"27":-0.10062999278306961,"28":-0.11482782661914825,"29":-0.27780190110206604,"30":0.01338856853544712,"31":0.03330979868769646,"32":0.14236129820346832,"33":0.12683482468128204,"34":-0.11752013862133026,"35":-0.018700120970606804,"36":-0.014042391441762447,"37":0.051957786083221436,"38":-0.057028014212846756,"39":-0.2669838070869446,"40":-0.06444292515516281,"41":-0.021884959191083908,"42":-0.1424320489168167,"43":-0.0838402807712555,"44":0.05996448174118996,"45":-0.05089874193072319,"46":-0.1335735023021698,"47":-0.053234636783599854,"48":0.16549524664878845,"49":0.19620370864868164}},"output":{"rows":5,"columns":1,"weights":{"0":-0.0062034945003688335,"1":0.0031098434701561928,"2":-0.008488672785460949,"3":-0.005296224728226662,"4":0.003550808411091566}}}