{"type":"LSTMTimeStep","options":{"inputSize":5,"hiddenLayers":[5,5,5,5,5,5,5,5,5,5],"outputSize":5,"decayRate":0.999,"smoothEps":1e-8,"regc":0.000001,"clipval":5},"hiddenLayers":[{"inputMatrix":{"rows":5,"columns":5,"weights":{"0":-0.009822334162890911,"1":0.0492277666926384,"2":-0.04519224539399147,"3":0.0017771037528291345,"4":0.047642141580581665,"5":0.0424070842564106,"6":-0.07038038223981857,"7":0.05659545585513115,"8":0.0477987639605999,"9":0.07018034160137177,"10":-0.01740497536957264,"11":0.006729356944561005,"12":-0.012613758444786072,"13":-0.04332827031612396,"14":-0.022554293274879456,"15":0.06956703215837479,"16":0.0005898284143768251,"17":0.0542401522397995,"18":0.07333409041166306,"19":-0.018357934430241585,"20":0.019078537821769714,"21":0.05005331709980965,"22":0.01784798689186573,"23":-0.05463174730539322,"24":0.046751175075769424}},"inputHidden":{"rows":5,"columns":5,"weights":{"0":-0.010903640650212765,"1":0.0654597282409668,"2":0.0307499747723341,"3":-0.015213903039693832,"4":-0.0016818776493892074,"5":0.008009946905076504,"6":0.013610498048365116,"7":-0.015313905663788319,"8":0.039353206753730774,"9":-0.03870190307497978,"10":0.030576571822166443,"11":0.03162733092904091,"12":0.03861616179347038,"13":-0.07509617507457733,"14":-0.04010917991399765,"15":0.06537852436304092,"16":0.07592083513736725,"17":-0.0436520017683506,"18":0.02863812819123268,"19":0.01686040125787258,"20":0.021469922736287117,"21":-0.04208942875266075,"22":-0.04804127663373947,"23":-0.0690392553806305,"24":-0.039322007447481155}},"inputBias":{"rows":5,"columns":1,"weights":{"0":2.1176984381193043e-16,"1":-2.7429608220767897e-16,"2":1.4035471593624215e-17,"3":7.723667282560377e-17,"4":-6.244338798559523e-17}},"forgetMatrix":{"rows":5,"columns":5,"weights":{"0":0.06481866538524628,"1":0.07502791285514832,"2":-0.03918701782822609,"3":-0.07211065292358398,"4":0.03284977748990059,"5":0.054192595183849335,"6":-0.022174496203660965,"7":0.05663873255252838,"8":-0.060253240168094635,"9":0.014412632212042809,"10":-0.0008950935443863273,"11":0.046746768057346344,"12":0.005875260569155216,"13":0.014021764509379864,"14":0.011284789070487022,"15":-0.07842478156089783,"16":-0.0721934363245964,"17":0.06254362314939499,"18":-0.010303223505616188,"19":0.07426126301288605,"20":-0.04640666022896767,"21":0.05141274631023407,"22":0.01978432759642601,"23":0.06111931800842285,"24":0.006661918945610523}},"forgetHidden":{"rows":5,"columns":5,"weights":{"0":0.04016035422682762,"1":0.03436721861362457,"2":-0.06980770826339722,"3":-0.07315468043088913,"4":0.07615170627832413,"5":-0.07724055647850037,"6":0.06168632209300995,"7":0.01809569075703621,"8":0.06677636504173279,"9":0.07541082799434662,"10":0.047838229686021805,"11":-0.055590108036994934,"12":0.012189033441245556,"13":0.015765991061925888,"14":-0.0653737261891365,"15":0.024227991700172424,"16":0.04071691259741783,"17":0.003087828168645501,"18":0.015324639156460762,"19":-0.053027015179395676,"20":0.05781235545873642,"21":-0.025129953399300575,"22":-0.000578990438953042,"23":-0.07670126855373383,"24":-0.06847500801086426}},"forgetBias":{"rows":5,"columns":1,"weights":{"0":0,"1":0,"2":0,"3":0,"4":0}},"outputMatrix":{"rows":5,"columns":5,"weights":{"0":-0.04748311638832092,"1":-0.07120068371295929,"2":-0.075057752430439,"3":0.051558028906583786,"4":0.00006509084778372198,"5":0.07398728281259537,"6":-0.06101614236831665,"7":0.008660959079861641,"8":-0.029322942718863487,"9":0.05263000726699829,"10":0.06477919220924377,"11":-0.03882523626089096,"12":-0.0610513798892498,"13":0.012490887194871902,"14":-0.07936908304691315,"15":0.008968771435320377,"16":-0.00576208857819438,"17":0.05854332447052002,"18":-0.01035375241190195,"19":-0.006248955614864826,"20":0.04604208469390869,"21":0.02195507474243641,"22":0.05402712523937225,"23":0.015356571413576603,"24":0.06115575507283211}},"outputHidden":{"rows":5,"columns":5,"weights":{"0":0.05864649638533592,"1":0.020392002537846565,"2":-0.045441802591085434,"3":0.06041055545210838,"4":-0.03654957935214043,"5":0.03873807191848755,"6":0.03863644599914551,"7":-0.07361473888158798,"8":0.051588937640190125,"9":0.06678056716918945,"10":0.04299670830368996,"11":0.012518367730081081,"12":0.022676045075058937,"13":-0.01464767288416624,"14":-0.006565757095813751,"15":-0.030984045937657356,"16":0.0794585719704628,"17":0.05660597234964371,"18":-0.027124149724841118,"19":0.06424277275800705,"20":-0.027837295085191727,"21":-0.06341501325368881,"22":0.04727969691157341,"23":0.018665792420506477,"24":0.023391928523778915}},"outputBias":{"rows":5,"columns":1,"weights":{"0":2.117863609544019e-16,"1":-2.7430860241343057e-16,"2":1.4035433543316038e-17,"3":7.72417550232873e-17,"4":-6.24397814781245e-17}},"cellActivationMatrix":{"rows":5,"columns":5,"weights":{"0":-0.0780264362692833,"1":-0.04478973150253296,"2":-0.049632105976343155,"3":0.05933615565299988,"4":0.048304423689842224,"5":-0.05524721369147301,"6":0.061110664159059525,"7":-0.01962360180914402,"8":-0.04161227121949196,"9":-0.050643015652894974,"10":0.02469097264111042,"11":0.0016995142214000225,"12":0.043755415827035904,"13":-0.06664296239614487,"14":0.015455309301614761,"15":-0.07261905819177628,"16":0.028763752430677414,"17":0.03138819336891174,"18":0.03871585428714752,"19":-0.07324791699647903,"20":-0.015047214925289154,"21":-0.02550419792532921,"22":0.06889009475708008,"23":-0.00311311986297369,"24":0.04193142056465149}},"cellActivationHidden":{"rows":5,"columns":5,"weights":{"0":-0.06672994792461395,"1":-0.006378576159477234,"2":-0.008266225457191467,"3":0.07410382479429245,"4":0.019389091059565544,"5":0.0034556540194898844,"6":0.05331975221633911,"7":-0.04762713983654976,"8":0.07917240262031555,"9":0.003350950079038739,"10":-0.04901547357439995,"11":0.07149725407361984,"12":0.033381685614585876,"13":-0.050120990723371506,"14":0.010344716720283031,"15":-0.02106866054236889,"16":0.06483233720064163,"17":-0.04554130136966705,"18":-0.06297232955694199,"19":0.03811288997530937,"20":-0.02313665859401226,"21":0.07635626941919327,"22":-0.04190124198794365,"23":-0.03532586246728897,"24":0.07951078563928604}},"cellActivationBias":{"rows":5,"columns":1,"weights":{"0":-8.68524870079046e-12,"1":4.901583479377525e-12,"2":2.450647540799822e-12,"3":-2.642270733807517e-12,"4":-2.168094263149678e-12}}},{"inputMatrix":{"rows":5,"columns":5,"weights":{"0":-0.05859113112092018,"1":0.03795625641942024,"2":0.011857952922582626,"3":0.04664170742034912,"4":-0.06837673485279083,"5":-0.03948631137609482,"6":0.03801194578409195,"7":0.0110835712403059,"8":0.07963327318429947,"9":0.02600335329771042,"10":-0.06981783360242844,"11":-0.0680142268538475,"12":-0.05719904601573944,"13":0.007732334081083536,"14":-0.057226087898015976,"15":0.007902023382484913,"16":-0.0061380015686154366,"17":0.019233502447605133,"18":-0.057846568524837494,"19":-0.05523484945297241,"20":0.03092632070183754,"21":0.013666928745806217,"22":-0.009455081075429916,"23":-0.0099831223487854,"24":0.005565411411225796}},"inputHidden":{"rows":5,"columns":5,"weights":{"0":0.01427408866584301,"1":-0.013208833523094654,"2":-0.027260031551122665,"3":0.016895607113838196,"4":0.05117109790444374,"5":0.04584844037890434,"6":0.06755849719047546,"7":-0.055282413959503174,"8":-0.004292686935514212,"9":0.062057849019765854,"10":-0.027968179434537888,"11":-0.04146980121731758,"12":0.05477015674114227,"13":-0.002778892405331135,"14":-0.0055106328800320625,"15":-0.015226056799292564,"16":0.006469314452260733,"17":0.04861278831958771,"18":-0.0015806261217221618,"19":-0.06322133541107178,"20":-0.03630756586790085,"21":0.0405317023396492,"22":-0.06713946163654327,"23":0.07264838367700577,"24":0.03697187080979347}},"inputBias":{"rows":5,"columns":1,"weights":{"0":-1.5931637150523916e-18,"1":-7.853006566628149e-17,"2":3.696456414029197e-17,"3":-7.70170464468036e-17,"4":1.0663066824157362e-16}},"forgetMatrix":{"rows":5,"columns":5,"weights":{"0":0.009858776815235615,"1":-0.014012910425662994,"2":0.004417591728270054,"3":0.04524769261479378,"4":-0.0634114146232605,"5":-0.06882348656654358,"6":-0.07788048684597015,"7":0.018098274245858192,"8":-0.04002024978399277,"9":0.021902255713939667,"10":0.04680435359477997,"11":0.011818976141512394,"12":0.00016409125237260014,"13":0.05591912195086479,"14":-0.001031566527672112,"15":-0.015595651231706142,"16":0.056791406124830246,"17":0.008232465013861656,"18":-0.0016902803909033537,"19":0.0217927023768425,"20":-0.06846648454666138,"21":-0.006255015730857849,"22":-0.02943810634315014,"23":-0.015047297812998295,"24":-0.05829721689224243}},"forgetHidden":{"rows":5,"columns":5,"weights":{"0":-0.044688232243061066,"1":-0.010118285194039345,"2":-0.04093111306428909,"3":0.07376617193222046,"4":-0.06206340342760086,"5":0.05309263616800308,"6":0.058408621698617935,"7":0.04832073301076889,"8":-0.050126638263463974,"9":-0.06361711025238037,"10":-0.008990146219730377,"11":0.03736993670463562,"12":-0.04746263101696968,"13":-0.015125146135687828,"14":0.009541810490190983,"15":0.023469731211662292,"16":-0.06598964333534241,"17":-0.03795652836561203,"18":0.02670515701174736,"19":0.03697585314512253,"20":-0.07620566338300705,"21":0.036788955330848694,"22":-0.017048174515366554,"23":-0.07630608230829239,"24":-0.07375127822160721}},"forgetBias":{"rows":5,"columns":1,"weights":{"0":0,"1":0,"2":0,"3":0,"4":0}},"outputMatrix":{"rows":5,"columns":5,"weights":{"0":0.039955850690603256,"1":0.07702775299549103,"2":0.02611447125673294,"3":0.06717807054519653,"4":-0.014800856821238995,"5":-0.015098999254405499,"6":-0.06042004004120827,"7":-0.005977284163236618,"8":-0.008089953102171421,"9":0.04712768271565437,"10":0.03874102234840393,"11":-0.07826004922389984,"12":0.0794326514005661,"13":-0.007218020036816597,"14":0.022806642577052116,"15":-0.06880586594343185,"16":-0.06224662438035011,"17":-0.015074538066983223,"18":-0.03125344589352608,"19":-0.0354032889008522,"20":0.07367749512195587,"21":0.009300964884459972,"22":0.06907390058040619,"23":-0.04977201297879219,"24":-0.019540462642908096}},"outputHidden":{"rows":5,"columns":5,"weights":{"0":-0.06106650084257126,"1":-0.031156590208411217,"2":-0.0019189902814105153,"3":0.007022141013294458,"4":0.032750215381383896,"5":0.05322742834687233,"6":0.033692456781864166,"7":0.07837941497564316,"8":-0.033317480236291885,"9":0.03507983312010765,"10":-0.035713985562324524,"11":0.01867784559726715,"12":-0.0705719068646431,"13":-0.043162133544683456,"14":0.045667245984077454,"15":0.036142874509096146,"16":0.07296266406774521,"17":0.002537953434512019,"18":0.004435625392943621,"19":-0.015598271042108536,"20":-0.06893349438905716,"21":0.06496953219175339,"22":0.03348461911082268,"23":0.01059612538665533,"24":0.06789851933717728}},"outputBias":{"rows":5,"columns":1,"weights":{"0":-1.5931651626184635e-18,"1":-7.852992008249368e-17,"2":3.696455090540217e-17,"3":-7.701696703746479e-17,"4":1.0663066824157362e-16}},"cellActivationMatrix":{"rows":5,"columns":5,"weights":{"0":-0.035090371966362,"1":-0.008692588657140732,"2":0.020646004006266594,"3":-0.04929792135953903,"4":0.014689319767057896,"5":-0.003098909044638276,"6":0.026946505531668663,"7":0.03687513992190361,"8":0.004488822538405657,"9":-0.07224953919649124,"10":-0.07103022187948227,"11":-0.025248555466532707,"12":0.005684814415872097,"13":0.05281564220786095,"14":-0.008539797738194466,"15":-0.03197336569428444,"16":-0.051272112876176834,"17":0.0494922399520874,"18":-0.027701564133167267,"19":-0.01889035291969776,"20":-0.06550025939941406,"21":0.032942190766334534,"22":0.02231835201382637,"23":-0.04904116690158844,"24":-0.0008496053633280098}},"cellActivationHidden":{"rows":5,"columns":5,"weights":{"0":0.015788055956363678,"1":0.022531861439347267,"2":-0.05072197690606117,"3":-0.0636603832244873,"4":0.059716131538152695,"5":-0.0618014857172966,"6":-0.016831062734127045,"7":0.027856919914484024,"8":0.00907199177891016,"9":0.06473993510007858,"10":0.03476007655262947,"11":-0.02976471185684204,"12":0.05109582468867302,"13":0.022583413869142532,"14":-0.0428830049932003,"15":-0.03699059039354324,"16":0.04784649983048439,"17":0.02742120809853077,"18":0.005404938478022814,"19":0.03367793187499046,"20":0.03546885773539543,"21":0.07988293468952179,"22":-0.039634477347135544,"23":-0.07343841344118118,"24":-0.012064454145729542}},"cellActivationBias":{"rows":5,"columns":1,"weights":{"0":-1.916704208543285e-12,"1":9.14756326242383e-11,"2":1.0656623500304718e-10,"3":-7.33757013482439e-11,"4":3.305345441795282e-10}}},{"inputMatrix":{"rows":5,"columns":5,"weights":{"0":-0.0517108328640461,"1":-0.023194244131445885,"2":0.034679580479860306,"3":-0.016421200707554817,"4":0.04867850989103317,"5":0.017621440812945366,"6":0.06248464062809944,"7":-0.03757576644420624,"8":0.07167375832796097,"9":0.07842706143856049,"10":-0.007715967949479818,"11":0.008648686110973358,"12":-0.007865148596465588,"13":-0.03876893222332001,"14":-0.05866537243127823,"15":-0.05026838928461075,"16":0.07501604408025742,"17":-0.059120018035173416,"18":-0.04650494083762169,"19":-0.07324803620576859,"20":-0.021496934816241264,"21":0.03708850219845772,"22":-0.07871024310588837,"23":0.02234860695898533,"24":-0.04203423857688904}},"inputHidden":{"rows":5,"columns":5,"weights":{"0":0.037906959652900696,"1":-0.0305398628115654,"2":0.035296693444252014,"3":0.043324265629053116,"4":-0.042032789438962936,"5":-0.06782965362071991,"6":0.07782982289791107,"7":-0.004582960158586502,"8":0.01858413778245449,"9":0.0525926873087883,"10":0.07896002382040024,"11":0.07199260592460632,"12":-0.07184641808271408,"13":0.005628296639770269,"14":0.059032589197158813,"15":-0.03334873542189598,"16":0.05694127827882767,"17":-0.0625625029206276,"18":-0.02024971880018711,"19":0.042130500078201294,"20":-0.00696174381300807,"21":-0.04620283842086792,"22":-0.012259263545274734,"23":-0.04009579122066498,"24":-0.040052901953458786}},"inputBias":{"rows":5,"columns":1,"weights":{"0":2.871107841096852e-17,"1":-4.4023852527995066e-17,"2":4.1321628829074186e-17,"3":-1.3671009198288451e-17,"4":-1.069871847399452e-17}},"forgetMatrix":{"rows":5,"columns":5,"weights":{"0":0.021290043368935585,"1":-0.07125859707593918,"2":-0.06530243903398514,"3":0.07374333590269089,"4":-0.03128655627369881,"5":-0.07118850201368332,"6":-0.07455319911241531,"7":0.008865650743246078,"8":0.011339656077325344,"9":0.024102993309497833,"10":-0.0013844711938872933,"11":0.011721886694431305,"12":0.050392501056194305,"13":-0.03176017478108406,"14":-0.022090626880526543,"15":0.003965075593441725,"16":0.06715988367795944,"17":0.02332475036382675,"18":-0.01800065115094185,"19":0.0678441971540451,"20":-0.05760396644473076,"21":0.07458566129207611,"22":-0.04363487660884857,"23":0.02647659182548523,"24":0.035037439316511154}},"forgetHidden":{"rows":5,"columns":5,"weights":{"0":-0.011155192740261555,"1":0.006724190432578325,"2":0.07336673140525818,"3":0.009003300219774246,"4":-0.018434064462780952,"5":-0.04765438660979271,"6":0.04923350736498833,"7":-0.04866676777601242,"8":0.06878877431154251,"9":0.02776258811354637,"10":0.023624075576663017,"11":0.07229375094175339,"12":-0.010445626452565193,"13":-0.06515306979417801,"14":0.06704020500183105,"15":0.060881104320287704,"16":-0.01538796816021204,"17":0.07336629927158356,"18":0.03613807633519173,"19":-0.05001678690314293,"20":0.03662142902612686,"21":-0.06695841252803802,"22":-0.05741121992468834,"23":-0.012613935396075249,"24":0.02272002026438713}},"forgetBias":{"rows":5,"columns":1,"weights":{"0":0,"1":0,"2":0,"3":0,"4":0}},"outputMatrix":{"rows":5,"columns":5,"weights":{"0":0.011863509193062782,"1":0.023335259407758713,"2":0.0287314485758543,"3":0.054121632128953934,"4":0.0710231363773346,"5":0.037493545562028885,"6":0.005661391653120518,"7":0.044225063174963,"8":0.006258266046643257,"9":0.06790250539779663,"10":0.00839404296129942,"11":-0.06238514930009842,"12":0.07661733031272888,"13":-0.009792277589440346,"14":0.04366085305809975,"15":0.03197957202792168,"16":-0.05920116975903511,"17":0.04364994540810585,"18":-0.00673538725823164,"19":-0.048757195472717285,"20":-0.03624637424945831,"21":-0.05197633430361748,"22":-0.02891741320490837,"23":0.01381219457834959,"24":-0.02523568831384182}},"outputHidden":{"rows":5,"columns":5,"weights":{"0":-0.04075169935822487,"1":0.07945730537176132,"2":0.012052942998707294,"3":-0.07739109545946121,"4":-0.0565660335123539,"5":-0.06966134905815125,"6":-0.07501073181629181,"7":-0.030750302597880363,"8":0.008875861763954163,"9":0.07165087014436722,"10":0.01720990240573883,"11":0.07584373652935028,"12":-0.006476440466940403,"13":-0.046901024878025055,"14":0.05058646947145462,"15":-0.031429681926965714,"16":-0.03716607019305229,"17":-0.023133041337132454,"18":0.010859755799174309,"19":-0.03840739279985428,"20":-0.040557682514190674,"21":-0.018876230344176292,"22":0.07911249250173569,"23":0.02564685419201851,"24":0.0070355357602238655}},"outputBias":{"rows":5,"columns":1,"weights":{"0":2.871107841096852e-17,"1":-4.4023852527995066e-17,"2":4.1321628829074186e-17,"3":-1.3671007543927226e-17,"4":-1.069871847399452e-17}},"cellActivationMatrix":{"rows":5,"columns":5,"weights":{"0":-0.02681116759777069,"1":-0.022874385118484497,"2":0.0020039717201143503,"3":-0.02499053068459034,"4":-0.031611017882823944,"5":0.06786283850669861,"6":-0.01625232584774494,"7":-0.04810234531760216,"8":-0.012393496930599213,"9":-0.04552998021245003,"10":-0.06687631458044052,"11":-0.009114818647503853,"12":0.024813903495669365,"13":-0.007057200651615858,"14":-0.035612884908914566,"15":-0.026717763394117355,"16":-0.01514667458832264,"17":-0.015716014429926872,"18":0.0446719154715538,"19":-0.07652608305215836,"20":0.0171074029058218,"21":0.05195917934179306,"22":0.0367322638630867,"23":0.04678427428007126,"24":0.05522442236542702}},"cellActivationHidden":{"rows":5,"columns":5,"weights":{"0":-0.026371488347649574,"1":-0.025131864473223686,"2":-0.022251654416322708,"3":0.06818864494562149,"4":-0.004746576305478811,"5":0.0104362266138196,"6":0.020201928913593292,"7":-0.02509220503270626,"8":0.0267055444419384,"9":0.007918331772089005,"10":0.07928919047117233,"11":-0.06626111268997192,"12":-0.023774340748786926,"13":0.04333912581205368,"14":-0.07070400565862656,"15":0.0717470720410347,"16":0.07340068370103836,"17":0.020682787522673607,"18":-0.004944853018969297,"19":0.000589661009144038,"20":-0.0649346187710762,"21":-0.04008984565734863,"22":-0.05406748503446579,"23":-0.028187671676278114,"24":-0.05121241882443428}},"cellActivationBias":{"rows":5,"columns":1,"weights":{"0":-2.982827318476211e-9,"1":-6.820253695138945e-9,"2":-2.8398230433879235e-9,"3":-7.195238183044239e-9,"4":-8.647382254700631e-10}}},{"inputMatrix":{"rows":5,"columns":5,"weights":{"0":0.0610760897397995,"1":-0.03793439641594887,"2":0.006790050771087408,"3":-0.032842643558979034,"4":-0.03055448643863201,"5":0.059972409158945084,"6":-0.028665047138929367,"7":-0.06568481028079987,"8":-0.009154019877314568,"9":-0.0006412476650439203,"10":-0.04567421227693558,"11":0.03703879192471504,"12":-0.016406947746872902,"13":0.04023777320981026,"14":-0.06396650522947311,"15":-0.03943933919072151,"16":0.052126672118902206,"17":-0.009504765272140503,"18":-0.050225965678691864,"19":-0.07797151058912277,"20":-0.0300876647233963,"21":0.0405593067407608,"22":0.019896142184734344,"23":-0.06536847352981567,"24":0.030110016465187073}},"inputHidden":{"rows":5,"columns":5,"weights":{"0":0.022934570908546448,"1":-0.05489731952548027,"2":0.011911589652299881,"3":-0.04044603183865547,"4":0.057968053966760635,"5":0.012785414233803749,"6":0.008589765056967735,"7":-0.02174380235373974,"8":-0.052329372614622116,"9":0.019574934616684914,"10":-0.05258723720908165,"11":-0.04291079193353653,"12":0.0005276561132632196,"13":-0.06181676685810089,"14":0.021757205948233604,"15":0.029518719762563705,"16":0.013741368427872658,"17":-0.012030995450913906,"18":-0.05063385143876076,"19":-0.06534424424171448,"20":0.0301556084305048,"21":0.04568054527044296,"22":0.0012742618564516306,"23":-0.063566192984581,"24":0.04401738569140434}},"inputBias":{"rows":5,"columns":1,"weights":{"0":9.760093835832918e-16,"1":-7.266515659993351e-16,"2":1.1923707944789407e-16,"3":4.913030380882541e-16,"4":2.571759614656159e-17}},"forgetMatrix":{"rows":5,"columns":5,"weights":{"0":0.045404717326164246,"1":0.033860355615615845,"2":0.07737390697002411,"3":-0.07427608966827393,"4":0.05679422616958618,"5":0.011512808501720428,"6":-0.07908839732408524,"7":-0.015372047200798988,"8":0.054143983870744705,"9":-0.0555071197450161,"10":0.04718250781297684,"11":-0.0038640613202005625,"12":0.03083387389779091,"13":0.0038346671499311924,"14":-0.07933197915554047,"15":-0.04218702018260956,"16":0.07661991566419601,"17":-0.0697927325963974,"18":0.06360375881195068,"19":-0.03495967760682106,"20":-0.04952695220708847,"21":-0.028826534748077393,"22":-0.033254753798246384,"23":-0.028767334297299385,"24":-0.04306982085108757}},"forgetHidden":{"rows":5,"columns":5,"weights":{"0":0.025975847616791725,"1":0.029570186510682106,"2":0.04937484860420227,"3":0.055293306708335876,"4":-0.05363784357905388,"5":0.05872426554560661,"6":-0.030830848962068558,"7":-0.04149911180138588,"8":-0.07627273350954056,"9":-0.05680505186319351,"10":0.04980633035302162,"11":0.029372455552220345,"12":0.06242731213569641,"13":-0.02848205715417862,"14":0.0560549721121788,"15":0.054202377796173096,"16":-0.07230695337057114,"17":-0.01174239069223404,"18":0.033673886209726334,"19":-0.009455998428165913,"20":0.07433058321475983,"21":0.05024693161249161,"22":0.025645973160862923,"23":-0.0023098920937627554,"24":-0.014668825082480907}},"forgetBias":{"rows":5,"columns":1,"weights":{"0":0,"1":0,"2":0,"3":0,"4":0}},"outputMatrix":{"rows":5,"columns":5,"weights":{"0":-0.06920010596513748,"1":-0.0747196301817894,"2":0.02634717896580696,"3":0.0546225868165493,"4":0.03221549838781357,"5":-0.027956079691648483,"6":0.051508579403162,"7":0.062257569283246994,"8":-0.07419419288635254,"9":-0.05234347656369209,"10":0.012976747937500477,"11":-0.0518609955906868,"12":-0.0041712005622684956,"13":-0.0038825785741209984,"14":0.07720925658941269,"15":-0.015172657556831837,"16":0.04852457717061043,"17":-0.0332150012254715,"18":-0.025522727519273758,"19":-0.00601729704067111,"20":-0.04729198291897774,"21":0.05887993052601814,"22":-0.008060219697654247,"23":-0.07230576127767563,"24":-0.010913226753473282}},"outputHidden":{"rows":5,"columns":5,"weights":{"0":-0.04033937305212021,"1":-0.037764161825180054,"2":0.01495471503585577,"3":0.07706038653850555,"4":-0.0444999635219574,"5":0.07544750720262527,"6":-0.04775457829236984,"7":-0.06268823146820068,"8":-0.013167026452720165,"9":-0.018488962203264236,"10":-0.012129301205277443,"11":-0.01879751868546009,"12":0.06094370409846306,"13":0.04733419790863991,"14":-0.012720916420221329,"15":-0.025192327797412872,"16":-0.013090007938444614,"17":0.007882043719291687,"18":0.07215610146522522,"19":-0.0178329236805439,"20":0.021397855132818222,"21":0.001680760644376278,"22":-0.0057690199464559555,"23":-0.05420491099357605,"24":-0.05076196789741516}},"outputBias":{"rows":5,"columns":1,"weights":{"0":9.760093835832918e-16,"1":-7.266515659993351e-16,"2":1.1923707944789407e-16,"3":4.913030380882541e-16,"4":2.571759614656159e-17}},"cellActivationMatrix":{"rows":5,"columns":5,"weights":{"0":0.027430301532149315,"1":0.05306801572442055,"2":0.03763971105217934,"3":-0.06430567800998688,"4":-0.07623953372240067,"5":-0.03361718729138374,"6":-0.03541485220193863,"7":-0.03493267297744751,"8":0.03593987599015236,"9":0.06859808415174484,"10":0.02515348792076111,"11":0.008179428987205029,"12":-0.0600893497467041,"13":0.06437374651432037,"14":0.057513073086738586,"15":-0.0304852481931448,"16":-0.022441823035478592,"17":0.073628731071949,"18":0.030545223504304886,"19":-0.030795197933912277,"20":-0.041363611817359924,"21":-0.054455894976854324,"22":0.006685372442007065,"23":-0.0213785283267498,"24":-0.06680580228567123}},"cellActivationHidden":{"rows":5,"columns":5,"weights":{"0":0.04454774782061577,"1":-0.06073230132460594,"2":-0.06368342787027359,"3":0.026667697355151176,"4":-0.036082517355680466,"5":0.05545211210846901,"6":-0.060791049152612686,"7":-0.01153626199811697,"8":0.02742762677371502,"9":0.06425052136182785,"10":0.036935001611709595,"11":-0.012652263045310974,"12":0.06235295906662941,"13":-0.0359521321952343,"14":0.05380691587924957,"15":0.011451924219727516,"16":0.060815874487161636,"17":-0.061644505709409714,"18":0.07041774690151215,"19":-0.01741674728691578,"20":-0.054733529686927795,"21":0.029166841879487038,"22":0.06565268337726593,"23":0.024858471006155014,"24":-0.06683165580034256}},"cellActivationBias":{"rows":5,"columns":1,"weights":{"0":-6.433401154026797e-7,"1":-4.0336675510843634e-7,"2":-5.103706257614249e-7,"3":-4.123106975839619e-7,"4":1.0283363849339366e-7}}},{"inputMatrix":{"rows":5,"columns":5,"weights":{"0":0.07574758678674698,"1":-0.04858042672276497,"2":-0.019732005894184113,"3":-0.047798264771699905,"4":-0.0315178707242012,"5":0.07599563151597977,"6":0.054998964071273804,"7":-0.0634976401925087,"8":-0.012694182805716991,"9":-0.06154812499880791,"10":0.040842991322278976,"11":0.06973127275705338,"12":0.011835415847599506,"13":-0.058736205101013184,"14":-0.06128917261958122,"15":-0.04122590273618698,"16":0.023370759561657906,"17":0.04884980991482735,"18":-0.053127069026231766,"19":-0.06985680013895035,"20":-0.06301546096801758,"21":-0.07644692808389664,"22":-0.014249935746192932,"23":0.06051581725478172,"24":0.0027168665546923876}},"inputHidden":{"rows":5,"columns":5,"weights":{"0":-0.032771605998277664,"1":-0.008291605859994888,"2":-0.028759270906448364,"3":-0.053688760846853256,"4":-0.06689094007015228,"5":-0.05608713626861572,"6":-0.021812833845615387,"7":0.038605574518442154,"8":-0.041151609271764755,"9":0.02899434044957161,"10":0.061117224395275116,"11":-0.06332625448703766,"12":-0.005317700561136007,"13":0.05269046872854233,"14":0.017590798437595367,"15":0.043378446251153946,"16":-0.029604744166135788,"17":0.07054080069065094,"18":-0.029390353709459305,"19":0.00037180460640229285,"20":-0.06548330187797546,"21":-0.06475985050201416,"22":0.03541563078761101,"23":0.012803762219846249,"24":0.055012673139572144}},"inputBias":{"rows":5,"columns":1,"weights":{"0":-5.832408666271716e-14,"1":7.195268686421841e-13,"2":-1.7990273713016508e-13,"3":1.0786898514713629e-14,"4":-5.151886404465567e-13}},"forgetMatrix":{"rows":5,"columns":5,"weights":{"0":-0.011154201813042164,"1":-0.0622376911342144,"2":0.014509708620607853,"3":-0.011503737419843674,"4":0.06449422985315323,"5":0.01015004888176918,"6":-0.04847582429647446,"7":-0.021268116310238838,"8":0.00654441537335515,"9":-0.03465363755822182,"10":-0.038933008909225464,"11":-0.059296444058418274,"12":0.03430771455168724,"13":0.0168435238301754,"14":0.039147377014160156,"15":-0.030676446855068207,"16":0.018917355686426163,"17":-0.04586220905184746,"18":-0.01809041015803814,"19":0.058316636830568314,"20":-0.042787063866853714,"21":0.06980959326028824,"22":0.06568671017885208,"23":-0.04577547684311867,"24":0.009977661073207855}},"forgetHidden":{"rows":5,"columns":5,"weights":{"0":-0.06012851744890213,"1":0.0033893766812980175,"2":0.04394463449716568,"3":0.01776852086186409,"4":-0.022730588912963867,"5":-0.03185880556702614,"6":0.057501498609781265,"7":-0.06694548577070236,"8":0.037698894739151,"9":0.07505432516336441,"10":0.0660964623093605,"11":-0.01973525807261467,"12":-0.05200103297829628,"13":0.05777063965797424,"14":-0.04649868980050087,"15":-0.058483343571424484,"16":0.006599132437258959,"17":-0.06408217549324036,"18":-0.029273422434926033,"19":-0.031162794679403305,"20":0.047617025673389435,"21":-0.04953213036060333,"22":-0.07080674916505814,"23":-0.04888470470905304,"24":-0.0004853281134273857}},"forgetBias":{"rows":5,"columns":1,"weights":{"0":0,"1":0,"2":0,"3":0,"4":0}},"outputMatrix":{"rows":5,"columns":5,"weights":{"0":0.054340168833732605,"1":-0.03788687288761139,"2":-0.06292560696601868,"3":-0.03561648726463318,"4":0.04620340093970299,"5":0.01817217841744423,"6":0.039293404668569565,"7":0.05276926979422569,"8":-0.024084506556391716,"9":0.038004327565431595,"10":0.05009417235851288,"11":0.003473822493106127,"12":-0.013847299851477146,"13":0.029843907803297043,"14":-0.028481755405664444,"15":0.024514300748705864,"16":0.07043179124593735,"17":-0.07066140323877335,"18":0.05962942913174629,"19":-0.061065804213285446,"20":0.03999066725373268,"21":0.05063509941101074,"22":-0.07595204561948776,"23":0.060466546565294266,"24":-0.06932750344276428}},"outputHidden":{"rows":5,"columns":5,"weights":{"0":0.03267684951424599,"1":0.07415876537561417,"2":-0.04952342435717583,"3":0.028194129467010498,"4":-0.011669904924929142,"5":0.07732205092906952,"6":0.044246334582567215,"7":0.046380482614040375,"8":-0.010376476682722569,"9":0.0730716809630394,"10":-0.055916883051395416,"11":-0.0766477882862091,"12":-0.03778115659952164,"13":0.009591758251190186,"14":0.0004088148707523942,"15":-0.0583413802087307,"16":-0.039612170308828354,"17":-0.0017321931663900614,"18":0.07379762083292007,"19":-0.00832073949277401,"20":0.038208942860364914,"21":-0.02348923683166504,"22":-0.009418780915439129,"23":0.013736211694777012,"24":-0.03562699258327484}},"outputBias":{"rows":5,"columns":1,"weights":{"0":-5.832408666271716e-14,"1":7.195268686421841e-13,"2":-1.7990273713016508e-13,"3":1.0786898514713629e-14,"4":-5.151886404465567e-13}},"cellActivationMatrix":{"rows":5,"columns":5,"weights":{"0":-0.0492364726960659,"1":-0.05719587206840515,"2":-0.019568556919693947,"3":0.06842023879289627,"4":0.045396268367767334,"5":0.07404783368110657,"6":-0.028082028031349182,"7":0.04476304352283478,"8":0.07099651545286179,"9":-0.009260755963623524,"10":0.010498382151126862,"11":0.07953178882598877,"12":-0.04594619199633598,"13":-0.02384866215288639,"14":0.031166451051831245,"15":-0.0677533745765686,"16":0.01175115816295147,"17":-0.050536178052425385,"18":0.029563916847109795,"19":0.057404838502407074,"20":-0.01864018663764,"21":-0.07206711173057556,"22":-0.05230940133333206,"23":-0.00842442736029625,"24":0.014465038664638996}},"cellActivationHidden":{"rows":5,"columns":5,"weights":{"0":-0.032574452459812164,"1":0.03646860644221306,"2":0.008693709038197994,"3":-0.06046565994620323,"4":0.01482317503541708,"5":-0.029930735006928444,"6":0.06389166414737701,"7":0.05645231530070305,"8":-0.05779345706105232,"9":0.009741825982928276,"10":-0.0003677002969197929,"11":-0.03105904348194599,"12":-0.06297940015792847,"13":-0.02344563789665699,"14":0.03085959702730179,"15":0.05294269695878029,"16":0.016308560967445374,"17":-0.052735164761543274,"18":-0.03051411360502243,"19":0.033185139298439026,"20":0.009089264087378979,"21":-0.07074807584285736,"22":-0.006903761066496372,"23":-0.03562202677130699,"24":0.002466717269271612}},"cellActivationBias":{"rows":5,"columns":1,"weights":{"0":-0.000004605031790561043,"1":-0.000015777941371197812,"2":-0.000008198640898626763,"3":0.000006812945684941951,"4":0.000018797520169755444}}},{"inputMatrix":{"rows":5,"columns":5,"weights":{"0":-0.0593193843960762,"1":-0.002272499492391944,"2":0.009138046763837337,"3":-0.06418082863092422,"4":0.0643458440899849,"5":-0.04084811359643936,"6":0.030269112437963486,"7":0.010051596909761429,"8":0.006496403831988573,"9":-0.020714152604341507,"10":0.05536173656582832,"11":0.046410854905843735,"12":0.03759992867708206,"13":-0.06957326829433441,"14":-0.05245837941765785,"15":-0.024660266935825348,"16":0.04094388335943222,"17":-0.01479862816631794,"18":-0.023821232840418816,"19":0.004546244163066149,"20":0.05887700989842415,"21":-0.035410866141319275,"22":0.044086284935474396,"23":-0.024260705336928368,"24":-0.04071999341249466}},"inputHidden":{"rows":5,"columns":5,"weights":{"0":0.006500192452222109,"1":-0.07812416553497314,"2":0.030212847515940666,"3":0.00406064186245203,"4":-0.058163173496723175,"5":0.008617464452981949,"6":0.05019614100456238,"7":0.030293060466647148,"8":0.007976390421390533,"9":0.05628233775496483,"10":-0.022540168836712837,"11":-0.04663138464093208,"12":-0.06421834230422974,"13":-0.009289677254855633,"14":0.05497438460588455,"15":0.04207107797265053,"16":0.0006341592525132,"17":0.06713633984327316,"18":0.006591455079615116,"19":-0.04919380694627762,"20":-0.004073140677064657,"21":0.0010380656458437443,"22":-0.011820117011666298,"23":-0.07977161556482315,"24":-0.054677218198776245}},"inputBias":{"rows":5,"columns":1,"weights":{"0":-1.8259450895730112e-10,"1":1.1849195236113275e-10,"2":-5.139386138885982e-10,"3":-2.978969571021395e-10,"4":3.927847214146851e-10}},"forgetMatrix":{"rows":5,"columns":5,"weights":{"0":0.07221562415361404,"1":0.0787869244813919,"2":-0.042671360075473785,"3":-0.07338006794452667,"4":0.06647343188524246,"5":-0.0791633278131485,"6":0.05965771526098251,"7":-0.037220295518636703,"8":-0.006412335205823183,"9":-0.029413767158985138,"10":0.048063457012176514,"11":0.033021196722984314,"12":0.021251549944281578,"13":0.007757623214274645,"14":-0.03258237987756729,"15":-0.04565891996026039,"16":0.07863016426563263,"17":0.06259342283010483,"18":-0.027828136458992958,"19":0.024939434602856636,"20":-0.0440685860812664,"21":0.06152202934026718,"22":-0.013779315166175365,"23":0.07003439217805862,"24":-0.06985310465097427}},"forgetHidden":{"rows":5,"columns":5,"weights":{"0":0.00340424757450819,"1":-0.016361648216843605,"2":-0.049213796854019165,"3":-0.040171701461076736,"4":-0.05791689455509186,"5":0.0013975087786093354,"6":-0.04258321598172188,"7":-0.031193608418107033,"8":0.045437294989824295,"9":-0.026949387043714523,"10":0.003451364580541849,"11":-0.018945012241601944,"12":-0.03437356278300285,"13":0.0471235066652298,"14":-0.005345005542039871,"15":0.009985392913222313,"16":0.020682010799646378,"17":0.033851005136966705,"18":-0.025454340502619743,"19":-0.014075800776481628,"20":0.034567806869745255,"21":-0.07874354720115662,"22":-0.05273972451686859,"23":0.03798806667327881,"24":0.056719522923231125}},"forgetBias":{"rows":5,"columns":1,"weights":{"0":0,"1":0,"2":0,"3":0,"4":0}},"outputMatrix":{"rows":5,"columns":5,"weights":{"0":0.021769380196928978,"1":0.0690014436841011,"2":-0.026177380234003067,"3":-0.06579084694385529,"4":0.015287967398762703,"5":0.022071287035942078,"6":0.05243054777383804,"7":-0.06242489069700241,"8":0.04591992124915123,"9":-0.03598472848534584,"10":0.029594484716653824,"11":0.032583124935626984,"12":0.04727473855018616,"13":-0.01102206576615572,"14":0.07708801329135895,"15":-0.06214167922735214,"16":-0.01226831041276455,"17":0.07380743324756622,"18":-0.019538840278983116,"19":0.056264154613018036,"20":0.013838631100952625,"21":-0.06522594392299652,"22":0.021815359592437744,"23":-0.035466402769088745,"24":0.05341293290257454}},"outputHidden":{"rows":5,"columns":5,"weights":{"0":0.05480453744530678,"1":0.029576163738965988,"2":-0.07451876252889633,"3":0.05534067377448082,"4":-0.05338839069008827,"5":-0.07665915042161942,"6":-0.03458186611533165,"7":0.06844406574964523,"8":0.02193269692361355,"9":0.042820531874895096,"10":-0.07013168931007385,"11":-0.03420494869351387,"12":-0.030356070026755333,"13":-0.07492160052061081,"14":0.06186231970787048,"15":-0.01850917562842369,"16":-0.07131262123584747,"17":-0.010170877911150455,"18":0.0371108241379261,"19":-0.03895729407668114,"20":-0.07872001081705093,"21":-0.008675766177475452,"22":0.003508148016408086,"23":-0.06152189522981644,"24":0.06228295713663101}},"outputBias":{"rows":5,"columns":1,"weights":{"0":-1.8259450895730112e-10,"1":1.1849195236113275e-10,"2":-5.139386138885982e-10,"3":-2.978969571021395e-10,"4":3.927847214146851e-10}},"cellActivationMatrix":{"rows":5,"columns":5,"weights":{"0":-0.01245911791920662,"1":-0.024330470710992813,"2":-0.06304224580526352,"3":-0.0024948827922344208,"4":0.06236749142408371,"5":-0.035816408693790436,"6":-0.06998676806688309,"7":-0.035469602793455124,"8":0.06789574772119522,"9":0.06982891261577606,"10":0.005695069208741188,"11":-0.0257988590747118,"12":0.07037928700447083,"13":-0.011668895371258259,"14":-0.06420759856700897,"15":-0.034620728343725204,"16":-0.05773084983229637,"17":-0.02167576178908348,"18":0.018757067620754242,"19":0.07454345375299454,"20":0.044389624148607254,"21":-0.018726948648691177,"22":0.012545439414680004,"23":-0.019782092422246933,"24":-0.03896371275186539}},"cellActivationHidden":{"rows":5,"columns":5,"weights":{"0":-0.007809624075889587,"1":0.0060009886510670185,"2":-0.07475595921278,"3":0.033230818808078766,"4":-0.029662294313311577,"5":0.025439077988266945,"6":0.0006515640998259187,"7":-0.03758279234170914,"8":0.07571297138929367,"9":-0.07111804932355881,"10":0.03957057371735573,"11":0.06379996240139008,"12":-0.0015036434633657336,"13":0.07663359493017197,"14":0.00042223496711812913,"15":0.0070673320442438126,"16":0.013585713692009449,"17":0.0008834782056510448,"18":0.03322909399867058,"19":0.0028760801069438457,"20":0.009511708281934261,"21":0.07807432115077972,"22":-0.0045043425634503365,"23":-0.06769650429487228,"24":-0.030994966626167297}},"cellActivationBias":{"rows":5,"columns":1,"weights":{"0":-0.00018250945140607655,"1":0.0001349970989394933,"2":-0.00025751173961907625,"3":0.0007085648248903453,"4":0.00031624833354726434}}},{"inputMatrix":{"rows":5,"columns":5,"weights":{"0":0.07521805912256241,"1":0.07517834007740021,"2":-0.07531808316707611,"3":0.04375830292701721,"4":0.05393126979470253,"5":0.030350079759955406,"6":0.010787414386868477,"7":-0.05367196723818779,"8":-0.004931316711008549,"9":0.045401960611343384,"10":-0.0053375717252492905,"11":-0.017517877742648125,"12":-0.07870128750801086,"13":0.06173738092184067,"14":0.05631392449140549,"15":-0.07467981427907944,"16":0.02971210703253746,"17":0.05832711234688759,"18":0.040154051035642624,"19":0.0799417495727539,"20":0.015693625435233116,"21":0.007764941547065973,"22":0.07893072813749313,"23":-0.06649304181337357,"24":0.05796360969543457}},"inputHidden":{"rows":5,"columns":5,"weights":{"0":-0.0347851887345314,"1":-0.03708115965127945,"2":-0.06296313554048538,"3":-0.05848990008234978,"4":0.003145988332107663,"5":-0.0594547837972641,"6":0.07443501055240631,"7":0.007313372567296028,"8":0.04539794847369194,"9":-0.017270753160119057,"10":-0.05200424790382385,"11":0.007557184901088476,"12":-0.060101743787527084,"13":-0.019068395718932152,"14":0.03191904351115227,"15":-0.0003868978819809854,"16":-0.0655554011464119,"17":-0.03194190189242363,"18":0.06700484454631805,"19":0.012636275961995125,"20":0.016605408862233162,"21":-0.042515262961387634,"22":0.0331776887178421,"23":-0.050392430275678635,"24":-0.07157807797193527}},"inputBias":{"rows":5,"columns":1,"weights":{"0":-2.46528827574366e-7,"1":5.2969607367003846e-8,"2":3.5331589742781944e-7,"3":-2.1788832782476675e-7,"4":3.919536339935803e-8}},"forgetMatrix":{"rows":5,"columns":5,"weights":{"0":-0.016364481300115585,"1":0.017428942024707794,"2":-0.0661235973238945,"3":-0.04609917849302292,"4":-0.03664003685116768,"5":-0.009728631004691124,"6":-0.00493739265948534,"7":0.050733353942632675,"8":-0.06774558871984482,"9":-0.015650661662220955,"10":-0.06719116121530533,"11":0.01381199061870575,"12":0.051049720495939255,"13":0.04850685968995094,"14":-0.02133896015584469,"15":0.06770868599414825,"16":0.033421315252780914,"17":-0.07064194232225418,"18":0.0016412604600191116,"19":-0.012191127054393291,"20":0.04133138433098793,"21":0.02510417066514492,"22":-0.020020758733153343,"23":0.04627823084592819,"24":0.014409997500479221}},"forgetHidden":{"rows":5,"columns":5,"weights":{"0":0.008838789537549019,"1":-0.00440792553126812,"2":-0.0764746218919754,"3":-0.007695268373936415,"4":0.008798069320619106,"5":0.023903673514723778,"6":-0.0037937602028250694,"7":-0.041954658925533295,"8":0.024473248049616814,"9":-0.07073536515235901,"10":0.06386318802833557,"11":0.0786520317196846,"12":-0.0016638179076835513,"13":-0.05049252137541771,"14":-0.05130886286497116,"15":0.05123508349061012,"16":0.06083228811621666,"17":-0.035598497837781906,"18":-0.07981564104557037,"19":-0.054401226341724396,"20":-0.06447548419237137,"21":0.020871443673968315,"22":0.05334414169192314,"23":0.05649406462907791,"24":0.06880544126033783}},"forgetBias":{"rows":5,"columns":1,"weights":{"0":0,"1":0,"2":0,"3":0,"4":0}},"outputMatrix":{"rows":5,"columns":5,"weights":{"0":0.03320400044322014,"1":-0.07621214538812637,"2":-0.07160669565200806,"3":-0.07805898785591125,"4":0.04377823323011398,"5":0.07645383477210999,"6":0.06339915096759796,"7":0.006482421886175871,"8":0.05655441805720329,"9":-0.0010430813999846578,"10":0.03638017922639847,"11":-0.018095212057232857,"12":-0.06408581137657166,"13":-0.07267127186059952,"14":-0.02879631519317627,"15":0.07284563779830933,"16":0.019710760563611984,"17":0.011011550202965736,"18":0.06647846102714539,"19":-0.003954767249524593,"20":0.0392814464867115,"21":-0.0036315834149718285,"22":-0.028166156262159348,"23":0.037896495312452316,"24":-0.05452275648713112}},"outputHidden":{"rows":5,"columns":5,"weights":{"0":-0.014915905892848969,"1":0.015444032847881317,"2":-0.0402468666434288,"3":0.06794284284114838,"4":-0.04854116961359978,"5":-0.05810284614562988,"6":-0.07823561131954193,"7":-0.0777512714266777,"8":-0.06469621509313583,"9":-0.03178564831614494,"10":-0.06142992898821831,"11":0.05805318057537079,"12":0.0032500922679901123,"13":-0.03439860790967941,"14":0.04390827566385269,"15":0.04641168192028999,"16":0.02703404612839222,"17":-0.05435569956898689,"18":0.026305167004466057,"19":0.048182956874370575,"20":0.0022023709025233984,"21":-0.05854175239801407,"22":-0.032747816294431686,"23":-0.05020291358232498,"24":-0.039803359657526016}},"outputBias":{"rows":5,"columns":1,"weights":{"0":-2.46528827574366e-7,"1":5.2969607367003846e-8,"2":3.533158405844006e-7,"3":-2.1788832782476675e-7,"4":3.919536695207171e-8}},"cellActivationMatrix":{"rows":5,"columns":5,"weights":{"0":-0.06161195784807205,"1":-0.04645204171538353,"2":-0.06251974403858185,"3":0.07207696884870529,"4":0.021525021642446518,"5":0.02240396849811077,"6":0.027461973950266838,"7":0.045919764786958694,"8":0.054140254855155945,"9":0.055122051388025284,"10":0.002590142423287034,"11":-0.06122264638543129,"12":-0.019826946780085564,"13":-0.07430362701416016,"14":-0.06285037100315094,"15":0.009576914831995964,"16":-0.009015916846692562,"17":0.07733387500047684,"18":-0.05885989964008331,"19":0.045845191925764084,"20":0.012173116207122803,"21":-0.07422835379838943,"22":-0.03579980880022049,"23":-0.038044486194849014,"24":-0.010055315680801868}},"cellActivationHidden":{"rows":5,"columns":5,"weights":{"0":0.02226337231695652,"1":-0.03842370957136154,"2":0.04590834304690361,"3":0.06088009104132652,"4":-0.045778241008520126,"5":0.04505883902311325,"6":-0.0013654184294864535,"7":0.010310138575732708,"8":-0.04551192745566368,"9":-0.013429391197860241,"10":0.01886373572051525,"11":-0.07863125950098038,"12":0.050581540912389755,"13":-0.03040739707648754,"14":0.0519150085747242,"15":-0.05877191945910454,"16":-0.039748381823301315,"17":-0.024377670139074326,"18":-0.04096397012472153,"19":0.05950223281979561,"20":-0.0781165361404419,"21":0.04117657616734505,"22":0.02298739179968834,"23":-0.045825447887182236,"24":-0.051598988473415375}},"cellActivationBias":{"rows":5,"columns":1,"weights":{"0":0.008286002092063427,"1":0.0018976839492097497,"2":-0.015927815809845924,"3":-0.006002980284392834,"4":0.00390310725197196}}},{"inputMatrix":{"rows":5,"columns":5,"weights":{"0":-0.020143777132034302,"1":0.05216028541326523,"2":0.03190602734684944,"3":0.04253605753183365,"4":0.036971624940633774,"5":0.058971844613552094,"6":0.0795036181807518,"7":0.06495457887649536,"8":-0.06384234130382538,"9":-0.04034990444779396,"10":-0.02448754943907261,"11":-0.005200193263590336,"12":-0.05602532997727394,"13":0.001873846398666501,"14":-0.027599304914474487,"15":-0.05240275338292122,"16":0.025759709998965263,"17":-0.0767306536436081,"18":0.03473682701587677,"19":0.04456927627325058,"20":0.02126857452094555,"21":-0.07699926942586899,"22":-0.026571819558739662,"23":-0.02936549484729767,"24":0.07082867622375488}},"inputHidden":{"rows":5,"columns":5,"weights":{"0":0.0062662819400429726,"1":0.05675520375370979,"2":0.010019310750067234,"3":0.043548956513404846,"4":-0.048341166228055954,"5":0.02864367514848709,"6":0.016697099432349205,"7":-0.04403496906161308,"8":0.07400435954332352,"9":-0.04262864589691162,"10":0.02013937197625637,"11":-0.02206103317439556,"12":0.04015186056494713,"13":0.039449386298656464,"14":0.07439576089382172,"15":0.006197491195052862,"16":0.004000056069344282,"17":0.07894827425479889,"18":0.0709470734000206,"19":-0.04945751279592514,"20":0.04870547726750374,"21":-0.0584569051861763,"22":0.06087879091501236,"23":0.0017446643905714154,"24":0.07059314846992493}},"inputBias":{"rows":5,"columns":1,"weights":{"0":0.00029546694713644683,"1":-0.0003586671664379537,"2":-0.00003240483420086093,"3":0.00005592027082457207,"4":0.0007694413652643561}},"forgetMatrix":{"rows":5,"columns":5,"weights":{"0":0.07278552651405334,"1":-0.015470958314836025,"2":0.05903525650501251,"3":0.03253649175167084,"4":0.07082675397396088,"5":0.07898607105016708,"6":0.06116943806409836,"7":0.042702410370111465,"8":-0.042953524738550186,"9":0.019241275265812874,"10":0.07188545912504196,"11":0.018463263288140297,"12":-0.0528976209461689,"13":-0.002784453332424164,"14":-0.03824643790721893,"15":0.07891315966844559,"16":0.041585106402635574,"17":-0.009823065251111984,"18":-0.011354655958712101,"19":0.07367333024740219,"20":0.003983947914093733,"21":-0.015092799440026283,"22":-0.051655836403369904,"23":-0.05942939594388008,"24":-0.019439296796917915}},"forgetHidden":{"rows":5,"columns":5,"weights":{"0":-0.07308018207550049,"1":0.013017759658396244,"2":-0.015031641349196434,"3":0.06655455380678177,"4":0.059023600071668625,"5":-0.07157927006483078,"6":-0.06382742524147034,"7":-0.053080495446920395,"8":-0.02081082947552204,"9":0.003532852279022336,"10":0.06142488494515419,"11":0.07013175636529922,"12":0.0710509717464447,"13":-0.05099361762404442,"14":0.051961615681648254,"15":-0.04894915595650673,"16":0.029787670820951462,"17":0.061435505747795105,"18":-0.031267572194337845,"19":-0.07564078271389008,"20":-0.00505028897896409,"21":0.009010164067149162,"22":0.03640417754650116,"23":0.05445660278201103,"24":0.07650003582239151}},"forgetBias":{"rows":5,"columns":1,"weights":{"0":0,"1":0,"2":0,"3":0,"4":0}},"outputMatrix":{"rows":5,"columns":5,"weights":{"0":0.025114059448242188,"1":0.02149064838886261,"2":-0.01762833446264267,"3":-0.017132949084043503,"4":-0.04002808779478073,"5":-0.035330500453710556,"6":-0.05958862975239754,"7":0.025417186319828033,"8":-0.016422169283032417,"9":-0.030797233805060387,"10":-0.03759351372718811,"11":-0.00721342908218503,"12":0.04724413529038429,"13":0.06419958919286728,"14":0.07639646530151367,"15":-0.0205759909003973,"16":0.07233196496963501,"17":-0.07902362942695618,"18":-0.029376313090324402,"19":-0.007420252077281475,"20":0.01577862538397312,"21":0.04747476428747177,"22":0.022919120267033577,"23":-0.03127620741724968,"24":0.02238154038786888}},"outputHidden":{"rows":5,"columns":5,"weights":{"0":-0.05934135243296623,"1":0.01290048472583294,"2":-0.016475379467010498,"3":0.04987410455942154,"4":0.06274712830781937,"5":0.014563433825969696,"6":-0.07786479592323303,"7":0.06547866761684418,"8":0.061520278453826904,"9":0.019221987575292587,"10":0.0030754092149436474,"11":0.04917912930250168,"12":-0.030369525775313377,"13":0.0051513914950191975,"14":-0.05795861408114433,"15":-0.0024212875869125128,"16":-0.07600796222686768,"17":0.07668763399124146,"18":0.0065886699594557285,"19":-0.016925591975450516,"20":0.05332419276237488,"21":-0.07894852012395859,"22":-0.021301085129380226,"23":0.04412810131907463,"24":0.03594337776303291}},"outputBias":{"rows":5,"columns":1,"weights":{"0":0.00029546773293986917,"1":-0.0003586672246456146,"2":-0.00003240482328692451,"3":0.000055920303566381335,"4":0.0007694419473409653}},"cellActivationMatrix":{"rows":5,"columns":5,"weights":{"0":-0.04499461129307747,"1":0.04218605160713196,"2":0.008645056746900082,"3":-0.013719090260565281,"4":-0.01183894369751215,"5":-0.0516631044447422,"6":0.043027013540267944,"7":0.05363037809729576,"8":0.03601798787713051,"9":-0.07156475633382797,"10":-0.022399552166461945,"11":0.06974036246538162,"12":0.01501368172466755,"13":-0.03216987103223801,"14":0.03926145285367966,"15":0.01855611614882946,"16":0.018183356150984764,"17":0.006183466408401728,"18":-0.017711447551846504,"19":-0.03600018844008446,"20":0.08455003798007965,"21":-0.07602830976247787,"22":0.07524263858795166,"23":-0.05492572486400604,"24":-0.04775064066052437}},"cellActivationHidden":{"rows":5,"columns":5,"weights":{"0":0.05878749117255211,"1":0.03231427073478699,"2":0.05453663319349289,"3":0.004563020076602697,"4":0.09646771103143692,"5":0.37512654066085815,"6":-0.2339627891778946,"7":-0.12331587076187134,"8":-0.09578029066324234,"9":0.31484201550483704,"10":0.09880872070789337,"11":-0.10237976163625717,"12":0.03214126452803612,"13":-0.08232802152633667,"14":0.028850629925727844,"15":-0.7222378253936768,"16":0.3439628481864929,"17":0.061141956597566605,"18":0.07447586208581924,"19":-0.6205111145973206,"20":0.39745163917541504,"21":-0.15188048779964447,"22":-0.09651516377925873,"23":-0.04719731584191322,"24":0.3941620886325836}},"cellActivationBias":{"rows":5,"columns":1,"weights":{"0":-0.18803998827934265,"1":-0.4228757917881012,"2":-0.14605623483657837,"3":0.9215447306632996,"4":-0.5543539524078369}}},{"inputMatrix":{"rows":5,"columns":5,"weights":{"0":-0.19162876904010773,"1":0.10040795803070068,"2":0.08924068510532379,"3":0.05235866829752922,"4":-0.20845583081245422,"5":-0.1109926849603653,"6":0.027588078752160072,"7":-0.014560849405825138,"8":0.07159452140331268,"9":-0.1178482249379158,"10":-0.26384714245796204,"11":0.04532251134514809,"12":0.08350610733032227,"13":-0.03228457272052765,"14":-0.1914615035057068,"15":-0.4953540563583374,"16":0.25162041187286377,"17":0.05541278049349785,"18":0.09082214534282684,"19":-0.34695249795913696,"20":0.19134442508220673,"21":0.008547745645046234,"22":0.002606319962069392,"23":0.03293735906481743,"24":0.10406943410634995}},"inputHidden":{"rows":5,"columns":5,"weights":{"0":-3.7883987426757812,"1":1.5072959661483765,"2":-4.651484966278076,"3":-4.371753692626953,"4":-6.269631862640381,"5":-1.8744611740112305,"6":0.6639939546585083,"7":-2.3606278896331787,"8":-2.176058530807495,"9":-3.5663247108459473,"10":-3.746155023574829,"11":1.5211894512176514,"12":-4.664978981018066,"13":-4.288059711456299,"14":-6.231904983520508,"15":-5.904361248016357,"16":2.6615753173828125,"17":-6.81027889251709,"18":-6.451406478881836,"19":-8.070152282714844,"20":2.1331675052642822,"21":-0.7326862812042236,"22":2.715838670730591,"23":2.513287305831909,"24":3.9940290451049805}},"inputBias":{"rows":5,"columns":1,"weights":{"0":0.26993295550346375,"1":0.15097911655902863,"2":0.3120328485965729,"3":0.6688221096992493,"4":-0.08767826855182648}},"forgetMatrix":{"rows":5,"columns":5,"weights":{"0":-0.005376790650188923,"1":0.08550269156694412,"2":-0.0521121621131897,"3":0.01574048213660717,"4":-0.11142671853303909,"5":-0.015254706144332886,"6":-0.020454920828342438,"7":-0.06615915149450302,"8":-0.007471917662769556,"9":-0.08662860840559006,"10":-0.02319207973778248,"11":0.020122047513723373,"12":-0.036552634090185165,"13":-0.04502580314874649,"14":-0.03428097069263458,"15":-0.14787042140960693,"16":0.0127544105052948,"17":0.03994818776845932,"18":0.05529213696718216,"19":-0.19162026047706604,"20":0.05886820703744888,"21":-0.061582356691360474,"22":-0.005797087214887142,"23":0.05246087536215782,"24":0.014492807909846306}},"forgetHidden":{"rows":5,"columns":5,"weights":{"0":-1.4270923137664795,"1":0.49466919898986816,"2":-1.8346055746078491,"3":-1.58005690574646,"4":-2.589139461517334,"5":-0.6534547209739685,"6":0.17356082797050476,"7":-0.8221816420555115,"8":-0.7313095927238464,"9":-1.2236378192901611,"10":-1.4253193140029907,"11":0.5005505681037903,"12":-1.6772069931030273,"13":-1.5212966203689575,"14":-2.581669807434082,"15":-2.39530086517334,"16":0.9369664192199707,"17":-3.130566358566284,"18":-2.7677855491638184,"19":-4.409918308258057,"20":0.7179803848266602,"21":-0.24306181073188782,"22":0.9159464836120605,"23":0.7881473302841187,"24":1.4603897333145142}},"forgetBias":{"rows":5,"columns":1,"weights":{"0":0,"1":0,"2":0,"3":0,"4":0}},"outputMatrix":{"rows":5,"columns":5,"weights":{"0":-0.30049657821655273,"1":0.16586598753929138,"2":0.08002132177352905,"3":0.030971599742770195,"4":-0.28535154461860657,"5":-0.08517144620418549,"6":0.062363963574171066,"7":0.07682099938392639,"8":0.07554017752408981,"9":-0.18906407058238983,"10":-0.3110506534576416,"11":0.1091788038611412,"12":0.06274259835481644,"13":0.0731256753206253,"14":-0.21030032634735107,"15":-0.5807017683982849,"16":0.22043094038963318,"17":0.15414400398731232,"18":0.01398107223212719,"19":-0.5164737701416016,"20":0.10457567125558853,"21":-0.10852714627981186,"22":-0.053345706313848495,"23":-0.060556184500455856,"24":0.20790822803974152}},"outputHidden":{"rows":5,"columns":5,"weights":{"0":-4.759378910064697,"1":1.9425772428512573,"2":-5.679279327392578,"3":-5.384826183319092,"4":-7.236539363861084,"5":-2.362776517868042,"6":0.954001247882843,"7":-3.0560965538024902,"8":-2.7340760231018066,"9":-4.488636493682861,"10":-4.7781805992126465,"11":1.857009768486023,"12":-5.710183143615723,"13":-5.297550201416016,"14":-7.218945503234863,"15":-6.890997886657715,"16":3.281479597091675,"17":-7.708390235900879,"18":-7.371398448944092,"19":-8.567456245422363,"20":2.7795379161834717,"21":-1.0607982873916626,"22":3.5407896041870117,"23":3.222731828689575,"24":5.028354167938232}},"outputBias":{"rows":5,"columns":1,"weights":{"0":0.27006080746650696,"1":0.15099076926708221,"2":0.31232839822769165,"3":0.6693188548088074,"4":-0.08785971254110336}},"cellActivationMatrix":{"rows":5,"columns":5,"weights":{"0":6.2699809074401855,"1":-3.8488097190856934,"2":-1.3134156465530396,"3":-0.45850762724876404,"4":5.926479339599609,"5":-7.0186262130737305,"6":4.721688747406006,"7":1.520316481590271,"8":0.5332469940185547,"9":-6.791866302490234,"10":5.2472662925720215,"11":-3.091938018798828,"12":-0.9313446283340454,"13":-0.29511559009552,"14":4.951264381408691,"15":7.71535587310791,"16":-5.475702285766602,"17":-1.9444563388824463,"18":-0.6313068866729736,"19":7.464012622833252,"20":-2.052159309387207,"21":1.0299581289291382,"22":0.31890445947647095,"23":0.17152851819992065,"24":-1.919086217880249}},"cellActivationHidden":{"rows":5,"columns":5,"weights":{"0":9.433618545532227,"1":-9.34779167175293,"2":9.54381275177002,"3":9.411330223083496,"4":9.523590087890625,"5":-9.542491912841797,"6":9.340438842773438,"7":-9.498052597045898,"8":-9.44560718536377,"9":-9.432659149169922,"10":9.468286514282227,"11":-9.172468185424805,"12":9.51499080657959,"13":9.470939636230469,"14":9.39922046661377,"15":9.451423645019531,"16":-9.36865234375,"17":9.465250015258789,"18":9.450855255126953,"19":9.521453857421875,"20":-9.265348434448242,"21":7.8603692054748535,"22":-9.291776657104492,"23":-9.333231925964355,"24":-9.33720588684082}},"cellActivationBias":{"rows":5,"columns":1,"weights":{"0":-6.906250953674316,"1":7.919270992279053,"2":-6.339651107788086,"3":-8.66262149810791,"4":1.420720100402832}}},{"inputMatrix":{"rows":5,"columns":5,"weights":{"0":9.509681701660156,"1":-9.559310913085938,"2":9.470361709594727,"3":9.423800468444824,"4":9.48590087890625,"5":9.470806121826172,"6":-9.393001556396484,"7":9.465171813964844,"8":9.425527572631836,"9":9.515743255615234,"10":9.466012001037598,"11":-9.464737892150879,"12":9.436362266540527,"13":9.563470840454102,"14":9.479473114013672,"15":9.532524108886719,"16":-9.479970932006836,"17":9.540939331054688,"18":9.418237686157227,"19":9.448922157287598,"20":9.511775016784668,"21":-9.475247383117676,"22":9.463095664978027,"23":9.541545867919922,"24":9.55270004272461}},"inputHidden":{"rows":5,"columns":5,"weights":{"0":-9.440170288085938,"1":9.495111465454102,"2":9.483033180236816,"3":9.543184280395508,"4":9.408153533935547,"5":-9.474925994873047,"6":9.513615608215332,"7":9.4226655960083,"8":9.423198699951172,"9":9.412947654724121,"10":-3.315263032913208,"11":9.516741752624512,"12":3.220825433731079,"13":9.45855712890625,"14":3.236330986022949,"15":-9.502317428588867,"16":9.534683227539062,"17":9.542778968811035,"18":9.489357948303223,"19":9.49765396118164,"20":-7.0741071701049805,"21":9.422839164733887,"22":7.054809093475342,"23":9.51711368560791,"24":7.0266337394714355}},"inputBias":{"rows":5,"columns":1,"weights":{"0":-9.437231063842773,"1":-8.201701164245605,"2":-9.481245040893555,"3":-9.1527681350708,"4":-9.460238456726074}},"forgetMatrix":{"rows":5,"columns":5,"weights":{"0":9.542488098144531,"1":-9.447705268859863,"2":9.540131568908691,"3":9.507501602172852,"4":9.471384048461914,"5":9.388422966003418,"6":-8.829611778259277,"7":9.434476852416992,"8":9.355767250061035,"9":9.430436134338379,"10":9.541887283325195,"11":-9.442598342895508,"12":9.458130836486816,"13":9.420355796813965,"14":9.476778030395508,"15":9.537679672241211,"16":-9.335492134094238,"17":9.433712005615234,"18":9.470561027526855,"19":9.419221878051758,"20":9.416590690612793,"21":-9.485880851745605,"22":9.485268592834473,"23":9.549781799316406,"24":9.427553176879883}},"forgetHidden":{"rows":5,"columns":5,"weights":{"0":-9.52624225616455,"1":9.546077728271484,"2":9.435917854309082,"3":9.486507415771484,"4":9.41892147064209,"5":-9.456473350524902,"6":9.493489265441895,"7":9.421521186828613,"8":9.536894798278809,"9":9.524480819702148,"10":-9.456868171691895,"11":9.54556655883789,"12":9.482614517211914,"13":9.410518646240234,"14":9.464357376098633,"15":-9.421109199523926,"16":9.418961524963379,"17":9.543213844299316,"18":9.550952911376953,"19":9.496126174926758,"20":-9.520727157592773,"21":9.562528610229492,"22":9.429132461547852,"23":9.475442886352539,"24":9.560474395751953}},"forgetBias":{"rows":5,"columns":1,"weights":{"0":0,"1":0,"2":0,"3":0,"4":0}},"outputMatrix":{"rows":5,"columns":5,"weights":{"0":9.492977142333984,"1":-9.46891975402832,"2":9.428765296936035,"3":9.444718360900879,"4":9.484039306640625,"5":9.45527458190918,"6":-9.422009468078613,"7":9.419172286987305,"8":9.537623405456543,"9":9.560080528259277,"10":9.562922477722168,"11":-9.553393363952637,"12":9.528545379638672,"13":9.532464981079102,"14":9.413273811340332,"15":9.54218864440918,"16":-9.43199634552002,"17":9.44305419921875,"18":9.416600227355957,"19":9.444149017333984,"20":9.515924453735352,"21":-9.562267303466797,"22":9.52364444732666,"23":9.470479011535645,"24":9.544922828674316}},"outputHidden":{"rows":5,"columns":5,"weights":{"0":-5.777494430541992,"1":9.54996395111084,"2":5.8075642585754395,"3":9.464391708374023,"4":5.893150806427002,"5":-9.447443008422852,"6":9.54476261138916,"7":9.453767776489258,"8":9.527103424072266,"9":9.40933895111084,"10":-1.8902164697647095,"11":9.42271900177002,"12":2.0278122425079346,"13":5.928350448608398,"14":1.923590898513794,"15":-9.508007049560547,"16":9.408382415771484,"17":9.504803657531738,"18":9.564604759216309,"19":9.530536651611328,"20":-4.3631486892700195,"21":9.471048355102539,"22":4.242710113525391,"23":9.408736228942871,"24":4.248134136199951}},"outputBias":{"rows":5,"columns":1,"weights":{"0":-9.450785636901855,"1":-8.207194328308105,"2":-9.482773780822754,"3":-9.161003112792969,"4":-9.467385292053223}},"cellActivationMatrix":{"rows":5,"columns":5,"weights":{"0":1.2530773878097534,"1":-0.43974438309669495,"2":1.6248112916946411,"3":1.4752724170684814,"4":2.470559597015381,"5":-9.428820610046387,"6":9.55577278137207,"7":-9.562657356262207,"8":-9.559159278869629,"9":-9.55390739440918,"10":-9.164618492126465,"11":7.463259220123291,"12":-9.292465209960938,"13":-9.186491012573242,"14":-9.35146713256836,"15":-9.545963287353516,"16":9.451637268066406,"17":-9.515341758728027,"18":-9.558263778686523,"19":-9.424593925476074,"20":-9.3596830368042,"21":8.851415634155273,"22":-9.423969268798828,"23":-9.431943893432617,"24":-9.526286125183105}},"cellActivationHidden":{"rows":5,"columns":5,"weights":{"0":-8.513091087341309,"1":2.41438627243042,"2":8.650158882141113,"3":5.387380123138428,"4":8.504508972167969,"5":2.4450089931488037,"6":-9.494067192077637,"7":-2.404683828353882,"8":-7.328664779663086,"9":-2.384567975997925,"10":9.442328453063965,"11":-9.338822364807129,"12":-9.52302360534668,"13":-9.437787055969238,"14":-9.548564910888672,"15":3.8154187202453613,"16":-9.428309440612793,"17":-3.7176601886749268,"18":-9.51575756072998,"19":-3.6899256706237793,"20":9.46352481842041,"21":-9.472517967224121,"22":-9.545890808105469,"23":-9.553223609924316,"24":-9.549675941467285}},"cellActivationBias":{"rows":5,"columns":1,"weights":{"0":4.196890830993652,"1":9.37413215637207,"2":-0.43003565073013306,"3":9.175432205200195,"4":2.581019163131714}}}],"outputConnector":{"rows":5,"columns":5,"weights":{"0":0.02214999869465828,"1":-0.17472949624061584,"2":-0.07190074026584625,"3":-0.047481559216976166,"4":0.042709819972515106,"5":-0.03547629714012146,"6":-0.19010569155216217,"7":-0.055932123214006424,"8":-0.10220826417207718,"9":0.019564921036362648,"10":-0.009455826133489609,"11":-0.25116968154907227,"12":0.032929643988609314,"13":-0.06370828300714493,"14":-0.010714075528085232,"15":0.07704684883356094,"16":-0.2901950478553772,"17":0.012097430415451527,"18":-0.12700453400611877,"19":-0.10681041330099106,"20":-0.05844371020793915,"21":0.1917881965637207,"22":-0.02304721251130104,"23":0.06025742366909981,"24":0.046237386763095856}},"output":{"rows":5,"columns":1,"weights":{"0":0.0009793317876756191,"1":0.0006998006138019264,"2":0.0007099084905348718,"3":0.0008643752080388367,"4":0.0011375589529052377}}}