{"type":"LSTMTimeStep","options":{"inputSize":5,"hiddenLayers":[11],"outputSize":5,"learningRate":0.01,"decayRate":0.999,"smoothEps":1e-8,"regc":0.000001,"clipval":5},"hiddenLayers":[{"inputMatrix":{"rows":11,"columns":5,"weights":{"0":0.021441912278532982,"1":-0.011450792662799358,"2":-0.1095617264509201,"3":-0.10725712776184082,"4":-0.09780897945165634,"5":-0.07573148608207703,"6":-0.058096181601285934,"7":-0.06198408082127571,"8":-0.0853123888373375,"9":-0.03907071053981781,"10":-0.03291613981127739,"11":-0.08810167014598846,"12":-0.0444352813065052,"13":-0.045453477650880814,"14":-0.06592323631048203,"15":-0.026342416182160378,"16":-0.017837192863225937,"17":-0.08477851748466492,"18":-0.03153591975569725,"19":-0.07665355503559113,"20":-0.006806898396462202,"21":-0.030064577236771584,"22":0.04190067946910858,"23":-0.03144772723317146,"24":-0.03689442202448845,"25":0.040501561015844345,"26":-0.01063691545277834,"27":-0.03347843512892723,"28":-0.043310437351465225,"29":0.03544094040989876,"30":-0.03615860641002655,"31":0.0434904508292675,"32":-0.039287589490413666,"33":-0.07440703362226486,"34":-0.0011598513228818774,"35":0.06845390796661377,"36":-0.010718409903347492,"37":-0.06307444721460342,"38":-0.05341080576181412,"39":0.04949925094842911,"40":-0.035078585147857666,"41":-0.09463094919919968,"42":-0.08802840113639832,"43":-0.03432310000061989,"44":-0.04471166431903839,"45":-0.00678185885772109,"46":-0.037898603826761246,"47":-0.015109614469110966,"48":0.03051076829433441,"49":0.053020134568214417,"50":-0.021930428221821785,"51":-0.029626445844769478,"52":-0.007146897260099649,"53":-0.0481719896197319,"54":-0.053846344351768494}},"inputHidden":{"rows":11,"columns":11,"weights":{"0":0.2116224616765976,"1":-0.341877281665802,"2":0.24828259646892548,"3":0.2697661817073822,"4":-0.2734832465648651,"5":-0.2952513098716736,"6":-0.33256733417510986,"7":-0.2155035138130188,"8":0.23723143339157104,"9":0.3815721273422241,"10":-0.4001545011997223,"11":0.2615931034088135,"12":-0.10748355835676193,"13":0.13987436890602112,"14":0.2133992463350296,"15":-0.15407021343708038,"16":-0.21894720196723938,"17":-0.20780912041664124,"18":0.07283364981412888,"19":0.1743270605802536,"20":0.25480180978775024,"21":-0.28424280881881714,"22":0.30776724219322205,"23":-0.2902902364730835,"24":0.16183675825595856,"25":0.2045815885066986,"26":-0.25659456849098206,"27":-0.2076379954814911,"28":-0.42625826597213745,"29":-0.09620967507362366,"30":0.2558993995189667,"31":0.4126735329627991,"32":-0.34125491976737976,"33":0.25538626313209534,"34":-0.23189035058021545,"35":0.19082145392894745,"36":0.265691339969635,"37":-0.3070182204246521,"38":-0.20304852724075317,"39":-0.3263121545314789,"40":-0.13698916137218475,"41":0.31797218322753906,"42":0.3667788505554199,"43":-0.3092052936553955,"44":0.24529069662094116,"45":-0.12790898978710175,"46":0.25595852732658386,"47":0.2308320701122284,"48":-0.22860291600227356,"49":-0.35045838356018066,"50":-0.22769252955913544,"51":-0.09583815187215805,"52":0.26562854647636414,"53":0.08998425304889679,"54":-0.2902997136116028,"55":0.29267868399620056,"56":-0.21609768271446228,"57":0.23243974149227142,"58":0.2467852681875229,"59":-0.37742727994918823,"60":-0.3308359682559967,"61":-0.43527451157569885,"62":-0.11267650127410889,"63":0.33984601497650146,"64":0.4313327670097351,"65":-0.34080585837364197,"66":-0.25008532404899597,"67":0.28041961789131165,"68":-0.20211905241012573,"69":-0.20592470467090607,"70":0.24438032507896423,"71":0.15700384974479675,"72":0.018709711730480194,"73":0.24304166436195374,"74":-0.21835528314113617,"75":-0.15040765702724457,"76":-0.011677946895360947,"77":0.020094968378543854,"78":0.29073432087898254,"79":-0.07772333920001984,"80":-0.027225399389863014,"81":0.08378621190786362,"82":-0.003820061683654785,"83":-0.2255788892507553,"84":0.3079085648059845,"85":-0.08601585775613785,"86":0.2547338604927063,"87":-0.24015532433986664,"88":0.23929345607757568,"89":-0.2052442729473114,"90":0.20502907037734985,"91":0.3226475715637207,"92":-0.3971450626850128,"93":-0.20177379250526428,"94":-0.3845725953578949,"95":-0.19282042980194092,"96":0.23055757582187653,"97":0.32141074538230896,"98":-0.2523065209388733,"99":-0.11373171955347061,"100":0.3503786623477936,"101":-0.2797359228134155,"102":-0.23748590052127838,"103":0.23111699521541595,"104":0.12461094558238983,"105":0.18807826936244965,"106":0.21454347670078278,"107":-0.22811493277549744,"108":-0.11981040239334106,"109":0.10525279492139816,"110":0.06861229240894318,"111":0.10111302882432938,"112":-0.02133394591510296,"113":0.04069361090660095,"114":0.09960395097732544,"115":-0.13196665048599243,"116":-0.046678174287080765,"117":0.16049928963184357,"118":0.04492152854800224,"119":0.010629670694470406,"120":-0.18669603765010834}},"inputBias":{"rows":11,"columns":1,"weights":{"0":-0.24604462087154388,"1":-0.3665010333061218,"2":-0.3011487126350403,"3":-0.2550084888935089,"4":-0.02233065664768219,"5":-0.25100964307785034,"6":-0.5438809394836426,"7":-0.5006762146949768,"8":-0.2801099121570587,"9":-0.6722210049629211,"10":-0.12087535858154297}},"forgetMatrix":{"rows":11,"columns":5,"weights":{"0":-0.07397198677062988,"1":0.039905522018671036,"2":-0.05828484520316124,"3":0.03767596557736397,"4":0.01828993856906891,"5":-0.07483718544244766,"6":-0.07560526579618454,"7":-0.07598075270652771,"8":0.014394594356417656,"9":-0.05861620232462883,"10":0.0252107884734869,"11":0.02992427907884121,"12":0.026094036176800728,"13":-0.08561891317367554,"14":-0.03704981505870819,"15":-0.01026216521859169,"16":0.06156230345368385,"17":-0.0028654332272708416,"18":-0.08843473345041275,"19":-0.053226567804813385,"20":0.07356765866279602,"21":0.027483375743031502,"22":0.022534625604748726,"23":0.07185246050357819,"24":0.025654014199972153,"25":0.03338132053613663,"26":0.022900855168700218,"27":-0.01884600520133972,"28":-0.04807378351688385,"29":0.021644238382577896,"30":-0.0795431137084961,"31":0.042703062295913696,"32":0.015980765223503113,"33":0.05378594249486923,"34":0.052789829671382904,"35":-0.06044548377394676,"36":-0.07081391662359238,"37":-0.023269394412636757,"38":-0.08063673228025436,"39":-0.020325906574726105,"40":-0.05006816238164902,"41":-0.05553308501839638,"42":-0.010198927484452724,"43":-0.011623932048678398,"44":-0.08316362649202347,"45":0.019813936203718185,"46":-0.028072385117411613,"47":0.04376360774040222,"48":0.019935889169573784,"49":-0.07265155017375946,"50":-0.07306071370840073,"51":-0.024399103596806526,"52":-0.061435628682374954,"53":0.05586607754230499,"54":-0.03635048866271973}},"forgetHidden":{"rows":11,"columns":11,"weights":{"0":0.31615394353866577,"1":-0.29471492767333984,"2":0.20973147451877594,"3":0.35525786876678467,"4":-0.23098498582839966,"5":-0.2158115953207016,"6":-0.23241987824440002,"7":-0.14523153007030487,"8":0.2760079801082611,"9":0.37388497591018677,"10":-0.26533830165863037,"11":0.19340379536151886,"12":-0.06736180186271667,"13":0.06211860105395317,"14":0.08103930205106735,"15":-0.16761630773544312,"16":-0.1690203845500946,"17":-0.0763247087597847,"18":-0.017799386754631996,"19":0.10644079744815826,"20":0.003880740376189351,"21":-0.12009651958942413,"22":0.2696288228034973,"23":-0.17191317677497864,"24":0.21455344557762146,"25":0.2866489291191101,"26":-0.30860868096351624,"27":-0.203260138630867,"28":-0.18385525047779083,"29":-0.08839447051286697,"30":0.25015631318092346,"31":0.31489700078964233,"32":-0.2795690596103668,"33":0.26960834860801697,"34":-0.23391330242156982,"35":0.2880499064922333,"36":0.2169216126203537,"37":-0.22639454901218414,"38":-0.32565250992774963,"39":-0.2848150134086609,"40":-0.060324590653181076,"41":0.24833165109157562,"42":0.3674759864807129,"43":-0.32792335748672485,"44":0.09225962311029434,"45":-0.08968891203403473,"46":0.21059656143188477,"47":0.1260950118303299,"48":-0.15014632046222687,"49":-0.1576576828956604,"50":-0.11818704754114151,"51":0.05854968726634979,"52":0.17561693489551544,"53":0.12320350855588913,"54":-0.08035440742969513,"55":0.26711973547935486,"56":-0.27398931980133057,"57":0.27017301321029663,"58":0.3574284613132477,"59":-0.27502620220184326,"60":-0.3023092746734619,"61":-0.29150089621543884,"62":-0.1563335359096527,"63":0.3228020966053009,"64":0.3294479548931122,"65":-0.2742294669151306,"66":-0.164923757314682,"67":0.1848697066307068,"68":-0.09168624132871628,"69":-0.08732158690690994,"70":0.11215746402740479,"71":0.04802151769399643,"72":-0.0640825405716896,"73":0.11610610038042068,"74":-0.14201435446739197,"75":-0.08244126290082932,"76":-0.031296007335186005,"77":0.023789679631590843,"78":0.12917418777942657,"79":-0.07726311683654785,"80":0.07281391322612762,"81":-0.02757536992430687,"82":-0.008892221376299858,"83":-0.011583969928324223,"84":0.11168409883975983,"85":0.027132537215948105,"86":-0.01103708241134882,"87":-0.1759188324213028,"88":0.23516879975795746,"89":-0.2706654369831085,"90":0.25712502002716064,"91":0.26423701643943787,"92":-0.251941978931427,"93":-0.26307013630867004,"94":-0.21663221716880798,"95":-0.13773325085639954,"96":0.3212251365184784,"97":0.21183709800243378,"98":-0.21818475425243378,"99":-0.07905904203653336,"100":0.08969436585903168,"101":-0.03527042642235756,"102":-0.0837690681219101,"103":0.1444075107574463,"104":0.18951380252838135,"105":0.07382199913263321,"106":0.07781268656253815,"107":-0.1758490353822708,"108":-0.06159558147192001,"109":-0.05410771071910858,"110":0.0397004596889019,"111":-0.007161589339375496,"112":-0.03346102312207222,"113":0.06426580250263214,"114":0.02764497511088848,"115":-0.029556144028902054,"116":-0.08999576419591904,"117":0.004855021368712187,"118":-0.04447825253009796,"119":-0.02744956687092781,"120":-0.1720445305109024}},"forgetBias":{"rows":11,"columns":1,"weights":{"0":0,"1":0,"2":0,"3":0,"4":0,"5":0,"6":0,"7":0,"8":0,"9":0,"10":0}},"outputMatrix":{"rows":11,"columns":5,"weights":{"0":-0.12385762482881546,"1":-0.06688401848077774,"2":-0.07997754216194153,"3":0.023166101425886154,"4":0.03141147270798683,"5":0.04817270115017891,"6":-0.057015299797058105,"7":0.06796163320541382,"8":0.010011901147663593,"9":0.053407687693834305,"10":-0.035976797342300415,"11":0.05045263469219208,"12":-0.01373140886425972,"13":-0.0869140550494194,"14":-0.08370444923639297,"15":0.03129012882709503,"16":-0.08873918652534485,"17":0.02000310644507408,"18":-0.004316999111324549,"19":-0.08636254817247391,"20":0.058296918869018555,"21":-0.06792791932821274,"22":0.05701806768774986,"23":-0.05964963510632515,"24":-0.019785583019256592,"25":-0.05319855362176895,"26":0.02372918836772442,"27":-0.03930534049868584,"28":0.03662261739373207,"29":0.006732820533216,"30":-0.02819378860294819,"31":0.004989410750567913,"32":-0.019230369478464127,"33":0.06942711770534515,"34":0.03531365096569061,"35":-0.024452615529298782,"36":0.03577229753136635,"37":-0.007873235270380974,"38":0.04176823049783707,"39":-0.014091702178120613,"40":0.02565678581595421,"41":-0.037177979946136475,"42":-0.016408978030085564,"43":0.02329905331134796,"44":-0.03806597739458084,"45":-0.08196917921304703,"46":0.06751351803541183,"47":-0.04844781383872032,"48":0.012960041873157024,"49":0.0337538905441761,"50":0.0023060098756104708,"51":-0.006919380743056536,"52":-0.03161818906664848,"53":-0.03114205040037632,"54":-0.02516489289700985}},"outputHidden":{"rows":11,"columns":11,"weights":{"0":0.21250292658805847,"1":-0.33063629269599915,"2":0.22141069173812866,"3":0.24295461177825928,"4":-0.28981268405914307,"5":-0.1830091029405594,"6":-0.41076093912124634,"7":-0.13597998023033142,"8":0.2235664278268814,"9":0.4068087935447693,"10":-0.3114202916622162,"11":0.21754729747772217,"12":0.030903032049536705,"13":0.2314082533121109,"14":0.23035301268100739,"15":-0.15670529007911682,"16":-0.25414660573005676,"17":-0.2724316418170929,"18":0.10801460593938828,"19":0.29419952630996704,"20":0.195892333984375,"21":-0.32355552911758423,"22":0.2486211508512497,"23":-0.18511484563350677,"24":0.24979041516780853,"25":0.2322387993335724,"26":-0.22389502823352814,"27":-0.1968359649181366,"28":-0.34132325649261475,"29":-0.12335805594921112,"30":0.2082313597202301,"31":0.3487885296344757,"32":-0.33302080631256104,"33":0.28714871406555176,"34":-0.3014199435710907,"35":0.17838948965072632,"36":0.25091812014579773,"37":-0.28549161553382874,"38":-0.2012099176645279,"39":-0.4006800353527069,"40":-0.25642189383506775,"41":0.18654602766036987,"42":0.42486000061035156,"43":-0.32235580682754517,"44":0.3698504865169525,"45":-0.18480704724788666,"46":0.33648428320884705,"47":0.2496023178100586,"48":-0.20483213663101196,"49":-0.3779560625553131,"50":-0.12962086498737335,"51":-0.005672822240740061,"52":0.2723451256752014,"53":0.19590069353580475,"54":-0.3362528085708618,"55":0.28865012526512146,"56":-0.262327641248703,"57":0.3067657947540283,"58":0.21903593838214874,"59":-0.3848485052585602,"60":-0.28517651557922363,"61":-0.38767674565315247,"62":-0.1483042985200882,"63":0.23301634192466736,"64":0.3760901987552643,"65":-0.29016321897506714,"66":-0.07806375622749329,"67":0.4710020422935486,"68":-0.134639710187912,"69":-0.11143751442432404,"70":0.1970546990633011,"71":0.15618933737277985,"72":0.15305159986019135,"73":0.3273417353630066,"74":-0.28545650839805603,"75":-0.2509908378124237,"76":0.09405948221683502,"77":-0.10407407581806183,"78":0.37516358494758606,"79":-0.22435007989406586,"80":-0.10691164433956146,"81":0.028696678578853607,"82":0.0010642610723152757,"83":-0.340550035238266,"84":0.26756995916366577,"85":-0.04414372518658638,"86":0.18278498947620392,"87":-0.18479463458061218,"88":0.22899885475635529,"89":-0.31884199380874634,"90":0.23375727236270905,"91":0.2445632368326187,"92":-0.3454662561416626,"93":-0.21193236112594604,"94":-0.3556405305862427,"95":-0.27676641941070557,"96":0.29694926738739014,"97":0.37890711426734924,"98":-0.3645986318588257,"99":-0.18032468855381012,"100":0.2781611680984497,"101":-0.19927024841308594,"102":-0.12402783334255219,"103":0.23479287326335907,"104":0.1681317389011383,"105":0.19204725325107574,"106":0.2745368480682373,"107":-0.24030457437038422,"108":-0.2791086733341217,"109":0.13500136137008667,"110":0.15050026774406433,"111":0.10848173499107361,"112":0.0072642662562429905,"113":0.15688268840312958,"114":-0.0026162376161664724,"115":-0.200136199593544,"116":-0.10546714067459106,"117":0.1865774393081665,"118":0.1405031532049179,"119":0.10598216205835342,"120":-0.3543827533721924}},"outputBias":{"rows":11,"columns":1,"weights":{"0":-0.2452578991651535,"1":-0.36783915758132935,"2":-0.3007727563381195,"3":-0.25419721007347107,"4":-0.021737931296229362,"5":-0.25024521350860596,"6":-0.5454465746879578,"7":-0.5015815496444702,"8":-0.27976110577583313,"9":-0.6739095449447632,"10":-0.12403285503387451}},"cellActivationMatrix":{"rows":11,"columns":5,"weights":{"0":0.059390004724264145,"1":0.17450998723506927,"2":0.09125187247991562,"3":0.1888321191072464,"4":0.05478290468454361,"5":-0.04670340195298195,"6":-0.013065231032669544,"7":-0.010164754465222359,"8":0.0011956037487834692,"9":0.037623584270477295,"10":0.1072186827659607,"11":0.10894361138343811,"12":0.1069750264286995,"13":0.04870143160223961,"14":0.054900068789720535,"15":0.08564203232526779,"16":0.10452708601951599,"17":0.20235757529735565,"18":0.17705975472927094,"19":0.10193467140197754,"20":0.04839301481842995,"21":-0.05832443758845329,"22":-0.07508216053247452,"23":-0.07280262559652328,"24":-0.09693773835897446,"25":-0.17906388640403748,"26":-0.05512123182415962,"27":-0.16923536360263824,"28":-0.14969168603420258,"29":-0.06351419538259506,"30":-0.006914222147315741,"31":0.059429023414850235,"32":-0.07212339341640472,"33":-0.05854882672429085,"34":-0.06655620783567429,"35":0.07068131864070892,"36":0.03582226485013962,"37":0.08756474405527115,"38":-0.016196096315979958,"39":0.007797115482389927,"40":0.0327666737139225,"41":0.08473818749189377,"42":0.058181263506412506,"43":0.1802193820476532,"44":0.16854971647262573,"45":-0.035317618399858475,"46":0.05638211965560913,"47":0.0673011764883995,"48":0.07320787012577057,"49":-0.00928006786853075,"50":-0.030425217002630234,"51":0.011409357190132141,"52":0.030089478939771652,"53":-0.004529140889644623,"54":-0.014314869418740273}},"cellActivationHidden":{"rows":11,"columns":11,"weights":{"0":-0.27410027384757996,"1":0.44326457381248474,"2":-0.22779762744903564,"3":-0.21952340006828308,"4":0.6653550863265991,"5":0.17748993635177612,"6":0.7357096672058105,"7":0.5281644463539124,"8":-0.3859981596469879,"9":-0.7134889960289001,"10":0.7451428174972534,"11":0.2474353015422821,"12":-0.6024658679962158,"13":0.367318719625473,"14":0.29500120878219604,"15":-0.7451252341270447,"16":-0.2883433699607849,"17":-0.692166268825531,"18":-0.47111013531684875,"19":0.451808363199234,"20":0.6342889070510864,"21":-0.7019449472427368,"22":-0.24952830374240875,"23":0.4870842695236206,"24":-0.2928215265274048,"25":-0.22596222162246704,"26":0.6775716543197632,"27":0.21251961588859558,"28":0.7958409786224365,"29":0.36235058307647705,"30":-0.34060660004615784,"31":-0.8032639622688293,"32":0.7662277221679688,"33":-0.23704111576080322,"34":0.5538040399551392,"35":-0.37932026386260986,"36":-0.20303040742874146,"37":0.7469099760055542,"38":0.30139434337615967,"39":0.7099788784980774,"40":0.47694382071495056,"41":-0.4367316961288452,"42":-0.7683834433555603,"43":0.7608826160430908,"44":0.08218637108802795,"45":-0.08815070986747742,"46":0.04762599989771843,"47":0.03185877203941345,"48":-0.5595183968544006,"49":-0.015901651233434677,"50":-0.6973856091499329,"51":0.2101321965456009,"52":0.06848996132612228,"53":0.5911331176757812,"54":-0.8219127655029297,"55":0.23155216872692108,"56":-0.4866963028907776,"57":0.32653018832206726,"58":0.1806543618440628,"59":-0.6475809812545776,"60":-0.2614877223968506,"61":-0.7154207229614258,"62":-0.44776174426078796,"63":0.2720957398414612,"64":0.6855684518814087,"65":-0.8302223086357117,"66":-0.6967532634735107,"67":0.841780960559845,"68":-0.8469439148902893,"69":-0.7158747315406799,"70":0.24068157374858856,"71":0.7698490023612976,"72":-0.24394731223583221,"73":0.9665458798408508,"74":-0.7616373300552368,"75":0.3207190930843353,"76":-0.05089516192674637,"77":0.3314189314842224,"78":-0.6027756333351135,"79":0.476594477891922,"80":0.32177993655204773,"81":-0.5578745007514954,"82":-0.4609416723251343,"83":-0.5529677867889404,"84":-0.6214401721954346,"85":0.47878512740135193,"86":0.6009200215339661,"87":-0.44745633006095886,"88":-0.07215481996536255,"89":0.3337433636188507,"90":-0.10533831268548965,"91":-0.06291911005973816,"92":0.6129703521728516,"93":0.14182151854038239,"94":0.7420002818107605,"95":0.19901452958583832,"96":-0.1870945692062378,"97":-0.6557294726371765,"98":0.7252445220947266,"99":0.7674002647399902,"100":-0.9484052062034607,"101":0.9289949536323547,"102":0.8350470066070557,"103":-0.2764202654361725,"104":-0.7261297702789307,"105":0.19040341675281525,"106":-0.8282492756843567,"107":0.8522182703018188,"108":-0.10132180154323578,"109":-0.10000903159379959,"110":-0.1656983643770218,"111":0.48525911569595337,"112":-0.2577853798866272,"113":-0.10640837252140045,"114":-0.23159672319889069,"115":0.14018388092517853,"116":-0.5107735991477966,"117":0.45000454783439636,"118":-0.12109553813934326,"119":0.5018332600593567,"120":-0.7302681803703308}},"cellActivationBias":{"rows":11,"columns":1,"weights":{"0":-0.11108389496803284,"1":-0.09187581390142441,"2":0.0064835939556360245,"3":-0.0859304890036583,"4":-0.3596324920654297,"5":0.10016521066427231,"6":0.07138529419898987,"7":0.11136481165885925,"8":0.009232884272933006,"9":-0.015494507737457752,"10":0.30102983117103577}}}],"outputConnector":{"rows":5,"columns":11,"weights":{"0":0.04429909959435463,"1":-0.001977393636479974,"2":0.0414874292910099,"3":0.1456979364156723,"4":-0.07966425269842148,"5":-0.031783465296030045,"6":-0.06070266291499138,"7":-0.09280090779066086,"8":-0.007567811291664839,"9":-0.038479920476675034,"10":-0.12492703646421432,"11":0.09078831970691681,"12":-0.01237939391285181,"13":-0.02071160078048706,"14":0.0361880287528038,"15":-0.07472129911184311,"16":-0.08409015089273453,"17":0.019286738708615303,"18":-0.08354541659355164,"19":0.06168423220515251,"20":-0.07806514948606491,"21":-0.183048278093338,"22":0.09203051775693893,"23":-0.11008824408054352,"24":0.0013937597395852208,"25":0.017230208963155746,"26":-0.12936615943908691,"27":-0.08138775080442429,"28":-0.08581865578889847,"29":-0.09315454214811325,"30":-0.011942998506128788,"31":0.03376229479908943,"32":-0.299457311630249,"33":0.013433822430670261,"34":0.007747637573629618,"35":-0.031837962567806244,"36":0.013549214228987694,"37":-0.10958275198936462,"38":-0.038672152906656265,"39":-0.017354225739836693,"40":-0.11876515299081802,"41":0.10179540514945984,"42":0.006511250045150518,"43":-0.27506697177886963,"44":0.11421884596347809,"45":0.03267369791865349,"46":0.08124496042728424,"47":0.07850038260221481,"48":-0.10321922600269318,"49":-0.07902560383081436,"50":0.037622664123773575,"51":-0.07081389427185059,"52":-0.01902373693883419,"53":-0.05399748310446739,"54":-0.24620452523231506}},"output":{"rows":5,"columns":1,"weights":{"0":0.007975843735039234,"1":0.011084779165685177,"2":0.01361783780157566,"3":0.012532100081443787,"4":0.01423244271427393}}}