{"type":"LSTMTimeStep","options":{"inputSize":5,"hiddenLayers":[20],"outputSize":5,"learningRate":0.01,"decayRate":0.999,"smoothEps":1e-8,"regc":0.000001,"clipval":5},"hiddenLayers":[{"inputMatrix":{"rows":20,"columns":5,"weights":{"0":1.3474359512329102,"1":0.6726693511009216,"2":0.039074964821338654,"3":1.642397403717041,"4":0.9692724943161011,"5":-0.7308049201965332,"6":-0.7637346386909485,"7":-0.9506675004959106,"8":-0.6648749113082886,"9":-0.7528285384178162,"10":0.8376355767250061,"11":0.771436870098114,"12":0.7431403398513794,"13":0.8647652268409729,"14":0.7887179255485535,"15":-0.11312873661518097,"16":-0.07968376576900482,"17":-0.39222705364227295,"18":0.12862037122249603,"19":-0.0751025602221489,"20":0.6496058106422424,"21":0.7156111001968384,"22":0.629239022731781,"23":0.8933144807815552,"24":0.6125480532646179,"25":0.5605864524841309,"26":0.5438015460968018,"27":0.37459632754325867,"28":0.6017875671386719,"29":0.5705002546310425,"30":-0.3157361149787903,"31":-0.32837632298469543,"32":-0.30059581995010376,"33":-0.3206566274166107,"34":-0.31723716855049133,"35":0.7477403283119202,"36":0.6443718671798706,"37":1.1673132181167603,"38":0.6485365033149719,"39":0.5655606985092163,"40":0.4790615737438202,"41":-0.4339326322078705,"42":2.15263295173645,"43":-2.4779438972473145,"44":0.13419732451438904,"45":0.4072251319885254,"46":0.26648420095443726,"47":0.01069535594433546,"48":0.5699443817138672,"49":0.40880468487739563,"50":0.5379438996315002,"51":0.6358945965766907,"52":1.0554594993591309,"53":0.23075039684772491,"54":0.5499115586280823,"55":-0.05627316236495972,"56":-0.07729005813598633,"57":0.1689460724592209,"58":-0.3592916429042816,"59":0.1627061665058136,"60":0.7573451399803162,"61":0.8167455792427063,"62":0.7455117106437683,"63":0.8199435472488403,"64":0.7928494215011597,"65":-1.531139612197876,"66":-0.6824491620063782,"67":-1.7232497930526733,"68":-1.1374070644378662,"69":-0.48232996463775635,"70":-0.2149108648300171,"71":-0.08171684294939041,"72":-0.7840443849563599,"73":0.3189884126186371,"74":-0.1835864782333374,"75":0.4185391664505005,"76":0.6505524516105652,"77":0.8296530246734619,"78":0.5581096410751343,"79":0.5822767019271851,"80":-0.3521921932697296,"81":-0.34141114354133606,"82":-0.48938432335853577,"83":-0.28925061225891113,"84":-0.3493369519710541,"85":-0.3558860719203949,"86":-0.34625643491744995,"87":-0.3643045127391815,"88":-0.3449888825416565,"89":-0.35021132230758667,"90":-1.074095368385315,"91":-2.1352157592773438,"92":-2.7425267696380615,"93":-3.873767375946045,"94":0.1717974990606308,"95":-0.30095037817955017,"96":-0.31716814637184143,"97":-0.43325504660606384,"98":-0.19137059152126312,"99":-0.3048417270183563}},"inputHidden":{"rows":20,"columns":20,"weights":{"0":-4.4354047775268555,"1":2.272976875305176,"2":-0.5703825950622559,"3":0.24660399556159973,"4":0.5236180424690247,"5":1.1228681802749634,"6":0.0015603882493451238,"7":-0.2970432639122009,"8":-0.15162591636180878,"9":1.4833265542984009,"10":0.9467988610267639,"11":-0.1267067790031433,"12":0.6250902414321899,"13":-0.4188041687011719,"14":0.007321183569729328,"15":1.9151796102523804,"16":0.00756283663213253,"17":-0.052627578377723694,"18":3.2748494148254395,"19":-0.005461325868964195,"20":0.5346001386642456,"21":1.2784093618392944,"22":-0.03751300647854805,"23":0.35199224948883057,"24":-0.24791857600212097,"25":0.9174731969833374,"26":0.004608499351888895,"27":-0.04622073844075203,"28":0.7253491878509521,"29":0.058917466551065445,"30":0.33758869767189026,"31":-0.10838569700717926,"32":-0.6386024355888367,"33":-0.2634230852127075,"34":-0.13021425902843475,"35":-0.10917045176029205,"36":0.022915009409189224,"37":0.03486917167901993,"38":-0.08333282172679901,"39":-0.20530273020267487,"40":0.06303811073303223,"41":0.011159350164234638,"42":1.2219035625457764,"43":-0.06031983718276024,"44":0.5049044489860535,"45":0.23651117086410522,"46":-0.0007938625640235841,"47":0.026404516771435738,"48":0.397247850894928,"49":-0.5416569709777832,"50":-0.6162198781967163,"51":0.004921915475279093,"52":-0.36733701825141907,"53":-0.07371708750724792,"54":-0.063824363052845,"55":-0.5435318946838379,"56":0.01856113038957119,"57":0.05484599247574806,"58":-0.596887469291687,"59":0.020917894318699837,"60":3.271219491958618,"61":0.18362608551979065,"62":-2.2222251892089844,"63":0.48002251982688904,"64":2.066810131072998,"65":1.774411916732788,"66":-0.0012062166351824999,"67":-3.4051928520202637,"68":0.819219172000885,"69":4.0128374099731445,"70":2.078584671020508,"71":-0.24951371550559998,"72":3.8221559524536133,"73":1.4851994514465332,"74":-0.1893419474363327,"75":3.850508451461792,"76":-0.02278372272849083,"77":0.1327296942472458,"78":2.941046953201294,"79":0.12249559164047241,"80":0.06931225955486298,"81":1.042736530303955,"82":0.3335978090763092,"83":-0.09492013603448868,"84":-0.39288410544395447,"85":0.2986379861831665,"86":0.018858136609196663,"87":0.006239722017198801,"88":-1.4983129501342773,"89":0.7994060516357422,"90":-0.7942181825637817,"91":-0.1338430643081665,"92":-0.7012668251991272,"93":0.03180662542581558,"94":-0.0468616746366024,"95":0.4424700438976288,"96":0.17305545508861542,"97":0.10438787192106247,"98":1.7654086351394653,"99":0.11995206028223038,"100":5.654187202453613,"101":-1.0091713666915894,"102":-0.0849577859044075,"103":0.40251046419143677,"104":0.3249138593673706,"105":-2.6003847122192383,"106":-0.010476451367139816,"107":-0.8738663196563721,"108":-1.9763965606689453,"109":-0.5598928928375244,"110":-0.7855565547943115,"111":-0.05496031045913696,"112":-0.6757537126541138,"113":-0.16635063290596008,"114":0.16483108699321747,"115":-0.9776075482368469,"116":0.06962232291698456,"117":0.06410054117441177,"118":-2.5907387733459473,"119":-0.07107573002576828,"120":0.37182027101516724,"121":0.028742598369717598,"122":-0.014355050399899483,"123":-0.00018710973381530493,"124":-0.15190239250659943,"125":0.14051228761672974,"126":-0.3442842960357666,"127":-0.004532288759946823,"128":0.17388513684272766,"129":0.13152453303337097,"130":-0.0569988489151001,"131":-0.31858620047569275,"132":0.26196059584617615,"133":-0.028316602110862732,"134":-0.3740063011646271,"135":0.11970306187868118,"136":-0.10713330656290054,"137":0.3812331557273865,"138":0.4976325035095215,"139":0.38226449489593506,"140":-0.38883814215660095,"141":0.9224867224693298,"142":-0.6360968351364136,"143":0.3109901249408722,"144":0.1370811015367508,"145":-0.8783620595932007,"146":0.0005656982539221644,"147":2.17289400100708,"148":0.804955244064331,"149":2.1109137535095215,"150":-0.4117268919944763,"151":-0.007601988036185503,"152":0.7059417963027954,"153":1.1120258569717407,"154":-0.0195325780659914,"155":2.1330907344818115,"156":0.18550918996334076,"157":-0.055750757455825806,"158":3.0018680095672607,"159":-0.04013830050826073,"160":1.202639102935791,"161":3.32354736328125,"162":1.3363564014434814,"163":-0.044394202530384064,"164":0.18995074927806854,"165":2.262230157852173,"166":-0.0909954383969307,"167":0.2658013701438904,"168":1.5699836015701294,"169":0.8689978122711182,"170":-3.278048515319824,"171":0.7271211743354797,"172":0.2572510838508606,"173":-0.6902823448181152,"174":0.7731142044067383,"175":0.8964319229125977,"176":0.7008352279663086,"177":-0.6947985291481018,"178":0.7376771569252014,"179":-0.8669493198394775,"180":-5.03708028793335,"181":0.5427404046058655,"182":0.9163854718208313,"183":0.03626428544521332,"184":1.714503288269043,"185":0.1733618825674057,"186":0.005693864077329636,"187":0.17015932500362396,"188":-0.5984427332878113,"189":-2.2710111141204834,"190":-1.1755832433700562,"191":-0.2544465661048889,"192":-0.04270664602518082,"193":0.22412237524986267,"194":-0.06566298007965088,"195":-2.5153934955596924,"196":-0.04740588366985321,"197":-0.02577854134142399,"198":-0.5878469944000244,"199":0.02903839200735092,"200":-0.12127417325973511,"201":-2.596323013305664,"202":0.0015115755377337337,"203":0.04806028679013252,"204":-0.0042479676194489,"205":-0.5501067042350769,"206":-0.013563515618443489,"207":-0.06341944634914398,"208":-0.26501721143722534,"209":-0.7413530945777893,"210":-0.1396276205778122,"211":-0.3442840874195099,"212":0.33597755432128906,"213":-0.07937902957201004,"214":-0.06561799347400665,"215":-0.4981738328933716,"216":0.1049523577094078,"217":0.07911708205938339,"218":-0.37311238050460815,"219":-0.02583554945886135,"220":-0.4448867440223694,"221":-0.036462780088186264,"222":0.15075844526290894,"223":-0.09087709337472916,"224":-0.05260883644223213,"225":4.2627058029174805,"226":-0.02907303348183632,"227":0.37888965010643005,"228":1.7723428010940552,"229":1.221627950668335,"230":-0.31151947379112244,"231":-2.6952526569366455,"232":-0.3982069492340088,"233":0.0808274894952774,"234":1.4619272947311401,"235":-0.029283855110406876,"236":0.21571460366249084,"237":-0.31211018562316895,"238":0.45197349786758423,"239":-0.2862865924835205,"240":-0.03140184283256531,"241":-0.431989461183548,"242":0.1713613122701645,"243":0.17137914896011353,"244":0.12715357542037964,"245":-0.45990410447120667,"246":0.000014154118616716005,"247":-0.00373242050409317,"248":0.10274461656808853,"249":-0.49535423517227173,"250":-0.5989808440208435,"251":0.09900518506765366,"252":0.06040439009666443,"253":-0.07068759202957153,"254":0.1843165159225464,"255":-0.5122198462486267,"256":0.009200507774949074,"257":-0.014933079481124878,"258":-0.3524131774902344,"259":-0.002491078805178404,"260":3.9982645511627197,"261":0.6054111123085022,"262":1.3895089626312256,"263":-0.3395064175128937,"264":-0.4435714781284332,"265":-0.12147518992424011,"266":0.020452391356229782,"267":-0.654474675655365,"268":-0.3987405598163605,"269":-1.5546373128890991,"270":0.620615541934967,"271":-0.08267239481210709,"272":-1.3655714988708496,"273":7.045494556427002,"274":-0.16321207582950592,"275":-1.5120881795883179,"276":0.09439690411090851,"277":0.07216893136501312,"278":-4.750212669372559,"279":0.16424353420734406,"280":-0.009266454726457596,"281":-0.042109619826078415,"282":-0.16078504920005798,"283":-0.02646452933549881,"284":0.002335950965061784,"285":-1.275753140449524,"286":0.0007792480755597353,"287":0.0331643745303154,"288":-1.0603216886520386,"289":0.1647130399942398,"290":0.07152611762285233,"291":0.08631452918052673,"292":0.24952280521392822,"293":-0.08087893575429916,"294":-1.7108596563339233,"295":0.16279080510139465,"296":0.0035639277193695307,"297":-0.003594898385927081,"298":0.07946066558361053,"299":-0.005465173162519932,"300":-1.3674694299697876,"301":-0.13926465809345245,"302":0.06530459970235825,"303":0.25549426674842834,"304":0.4756847620010376,"305":-0.16576741635799408,"306":-0.03567441552877426,"307":-0.016870230436325073,"308":1.138440728187561,"309":0.7540434002876282,"310":-0.20049160718917847,"311":-1.4617663621902466,"312":-0.0956689640879631,"313":0.09602569788694382,"314":-0.11946995556354523,"315":-1.2330961227416992,"316":-0.030667949467897415,"317":0.411482572555542,"318":0.8186138868331909,"319":0.13145433366298676,"320":-0.014635267667472363,"321":0.3491317629814148,"322":-0.5303916931152344,"323":-0.020247692242264748,"324":0.8133517503738403,"325":-0.35386812686920166,"326":0.049729812890291214,"327":-0.5526727437973022,"328":0.14264443516731262,"329":0.6470065712928772,"330":0.4420876204967499,"331":-0.02090943232178688,"332":0.05020241066813469,"333":0.009884808212518692,"334":0.44538614153862,"335":0.5687229037284851,"336":0.4470820724964142,"337":-0.44846123456954956,"338":0.37810131907463074,"339":-0.43952125310897827,"340":-0.43581533432006836,"341":0.2899683117866516,"342":-0.018481697887182236,"343":-0.2667905390262604,"344":0.03387117758393288,"345":0.09770306199789047,"346":-0.0027579693123698235,"347":0.0018418245017528534,"348":0.26759636402130127,"349":0.2555898427963257,"350":-0.02224820852279663,"351":-0.015393730252981186,"352":-0.06366152316331863,"353":0.2103952318429947,"354":0.017052367329597473,"355":0.30670592188835144,"356":0.004973593633621931,"357":-0.19936174154281616,"358":0.2119840383529663,"359":-0.04651263728737831,"360":-2.0700154304504395,"361":-0.2323366105556488,"362":0.1903916895389557,"363":0.6516770124435425,"364":1.1861419677734375,"365":0.07228431850671768,"366":-0.30147382616996765,"367":3.931429147720337,"368":-2.823373556137085,"369":0.315755158662796,"370":19.076007843017578,"371":0.5337063670158386,"372":0.6593325734138489,"373":4.003055572509766,"374":0.28376609086990356,"375":0.13132981956005096,"376":0.4793183207511902,"377":-0.4475997984409332,"378":9.868218421936035,"379":0.19860386848449707,"380":0.17145423591136932,"381":-0.4911767244338989,"382":-0.05192054063081741,"383":-0.00946059450507164,"384":0.1626012772321701,"385":0.06673446297645569,"386":0.022867390885949135,"387":0.01064134482294321,"388":0.06699705868959427,"389":0.08735714852809906,"390":-0.16369503736495972,"391":-0.22441546618938446,"392":-0.3253510296344757,"393":0.09236209094524384,"394":-0.16879209876060486,"395":0.06958766281604767,"396":0.18943144381046295,"397":0.029877476394176483,"398":0.23340603709220886,"399":0.3593994379043579}},"inputBias":{"rows":20,"columns":1,"weights":{"0":-0.8671874403953552,"1":1.6478618383407593,"2":-0.09496831893920898,"3":-4.806366443634033,"4":1.9041569232940674,"5":-5.358288288116455,"6":-0.19403313100337982,"7":3.6016883850097656,"8":11.79732894897461,"9":10.07912826538086,"10":2.615525007247925,"11":8.523497581481934,"12":0.2293298840522766,"13":1.3322380781173706,"14":-3.3891608715057373,"15":4.096442222595215,"16":-0.5873926281929016,"17":-0.4391932487487793,"18":61.958099365234375,"19":-0.03790617734193802}},"forgetMatrix":{"rows":20,"columns":5,"weights":{"0":-0.5514885783195496,"1":-0.5561209917068481,"2":-0.43401163816452026,"3":-0.6444684267044067,"4":-0.5577055215835571,"5":-0.330614298582077,"6":-0.2848397493362427,"7":-0.22198443114757538,"8":-0.23351313173770905,"9":-0.29080474376678467,"10":-0.05406719446182251,"11":-0.3198471665382385,"12":0.16929130256175995,"13":-0.539707362651825,"14":-0.22795343399047852,"15":0.29706770181655884,"16":0.2977333664894104,"17":0.2997697591781616,"18":0.29369938373565674,"19":0.29672688245773315,"20":-0.35755833983421326,"21":-0.39253872632980347,"22":-0.18879009783267975,"23":-0.5262470245361328,"24":-0.3820550739765167,"25":-0.43108540773391724,"26":-0.18187838792800903,"27":-0.14879202842712402,"28":-0.3550238609313965,"29":-0.3304949998855591,"30":-0.20796023309230804,"31":-0.20640885829925537,"32":-0.21349233388900757,"33":-0.20223115384578705,"34":-0.20734554529190063,"35":-0.5640270709991455,"36":-0.5864433646202087,"37":-0.478681743144989,"38":-0.6305329203605652,"39":-0.5807433128356934,"40":-0.7168398499488831,"41":-0.6447170972824097,"42":1.0876705646514893,"43":-2.367302417755127,"44":-0.5618043541908264,"45":0.00005380531001719646,"46":-0.1365525722503662,"47":0.346772700548172,"48":-0.477927029132843,"49":-0.11207803338766098,"50":-3.0863637924194336,"51":1.2074345350265503,"52":-0.6649318933486938,"53":-1.6389552354812622,"54":-0.8660138249397278,"55":0.18210354447364807,"56":0.16239050030708313,"57":0.17036931216716766,"58":0.18133948743343353,"59":0.18663327395915985,"60":0.38593533635139465,"61":-0.1573440283536911,"62":0.9237686991691589,"63":-0.7848018407821655,"64":0.06998786330223083,"65":-0.4274042248725891,"66":-0.3017653524875641,"67":-0.4263709783554077,"68":-0.38156336545944214,"69":-0.3426794111728668,"70":0.09743039309978485,"71":0.25780850648880005,"72":-0.22049580514431,"73":0.5053371787071228,"74":0.1457921862602234,"75":0.22316309809684753,"76":-0.03341304510831833,"77":0.7630307674407959,"78":-0.4827352464199066,"79":0.04663034901022911,"80":-0.3569861054420471,"81":-0.3426145911216736,"82":-0.3743477463722229,"83":-0.335176020860672,"84":-0.35043206810951233,"85":-0.22226807475090027,"86":-0.22489993274211884,"87":-0.21651425957679749,"88":-0.22768554091453552,"89":-0.22396957874298096,"90":-0.4682920575141907,"91":0.18867555260658264,"92":1.2448365688323975,"93":-1.265892744064331,"94":-0.1302759200334549,"95":-0.20895174145698547,"96":-0.2149878442287445,"97":-0.23283618688583374,"98":-0.20208841562271118,"99":-0.21470914781093597}},"forgetHidden":{"rows":20,"columns":20,"weights":{"0":-0.07892563939094543,"1":0.010655318386852741,"2":-0.07691711187362671,"3":-0.01795276254415512,"4":0.0826888456940651,"5":0.13513994216918945,"6":0.0010486328974366188,"7":-0.06725779175758362,"8":0.14766137301921844,"9":0.09243173897266388,"10":0.1999889463186264,"11":-0.14791156351566315,"12":0.056129537522792816,"13":0.007067713420838118,"14":0.016844408586621284,"15":0.08873096853494644,"16":0.009836030192673206,"17":-0.018332013860344887,"18":0.09308940917253494,"19":-0.013215575367212296,"20":1.0699126720428467,"21":0.17388416826725006,"22":0.12892365455627441,"23":0.8846107721328735,"24":-0.004604631569236517,"25":0.3316538333892822,"26":-0.020925920456647873,"27":0.0017717409646138549,"28":-0.3790212571620941,"29":0.014595047570765018,"30":-0.0642862543463707,"31":0.02454439178109169,"32":1.427815556526184,"33":0.0017403800738975406,"34":-0.017174065113067627,"35":-0.05049902945756912,"36":-0.02465948835015297,"37":0.006212992127984762,"38":0.4524921476840973,"39":0.007227255031466484,"40":0.5535358190536499,"41":0.13078491389751434,"42":-2.264880657196045,"43":2.0737359523773193,"44":0.830452561378479,"45":0.16169655323028564,"46":-0.0003867533814627677,"47":-6.168510437011719,"48":-7.62199592590332,"49":2.2305662631988525,"50":3.0024373531341553,"51":-0.010765617713332176,"52":1.9162285327911377,"53":0.886591374874115,"54":-0.058718349784612656,"55":2.2225074768066406,"56":-0.011883603408932686,"57":0.02420458383858204,"58":-0.07587777823209763,"59":0.01705421693623066,"60":-0.3794352114200592,"61":-0.0016048159450292587,"62":0.41435906291007996,"63":-0.4491007924079895,"64":-0.43371766805648804,"65":0.025371508672833443,"66":-0.0006325681461021304,"67":0.37735870480537415,"68":0.05224602669477463,"69":-0.37170299887657166,"70":-0.42411911487579346,"71":-0.01670912466943264,"72":-0.382709264755249,"73":0.029077701270580292,"74":-0.04550395533442497,"75":-0.3712087869644165,"76":-0.011377595365047455,"77":0.03823460265994072,"78":-0.3642615079879761,"79":0.030865363776683807,"80":0.10213672369718552,"81":0.08565808087587357,"82":-0.7592109441757202,"83":-0.007722378242760897,"84":0.8433977365493774,"85":0.01653985306620598,"86":-0.001832273555919528,"87":-0.13968242704868317,"88":0.04203933849930763,"89":0.9011731147766113,"90":1.2216099500656128,"91":-0.01633463241159916,"92":0.7138422131538391,"93":-0.036064263433218,"94":-0.08180144429206848,"95":0.8929234743118286,"96":-0.07436057925224304,"97":0.045116864144802094,"98":0.4372025430202484,"99":-0.06529149413108826,"100":0.15428681671619415,"101":-0.13936683535575867,"102":-0.07549230754375458,"103":0.0024995440617203712,"104":-0.28402087092399597,"105":-0.07429754734039307,"106":0.0005944115691818297,"107":-0.025110455229878426,"108":-0.3850869834423065,"109":0.09809494763612747,"110":1.7488906383514404,"111":1.1316936016082764,"112":-0.01968606375157833,"113":-0.10615457594394684,"114":-0.4713625907897949,"115":0.06371666491031647,"116":-0.12283624708652496,"117":0.1318414956331253,"118":0.1799951046705246,"119":0.10988083481788635,"120":0.0571429580450058,"121":0.08114679157733917,"122":-0.007369657047092915,"123":-0.00004681412610807456,"124":-0.023276815190911293,"125":0.15131190419197083,"126":-0.18893712759017944,"127":0.010738044045865536,"128":0.11081589013338089,"129":0.14500238001346588,"130":0.11415324360132217,"131":0.038671355694532394,"132":-0.03119416907429695,"133":-0.021973682567477226,"134":-0.057058949023485184,"135":0.14861874282360077,"136":-0.011775318533182144,"137":0.016875937581062317,"138":0.17612163722515106,"139":0.04656371474266052,"140":-0.13735997676849365,"141":0.21300259232521057,"142":-0.18417924642562866,"143":0.4514565169811249,"144":0.04880711808800697,"145":-0.16815827786922455,"146":0.002123507671058178,"147":0.1029358059167862,"148":-0.20870329439640045,"149":0.018963083624839783,"150":0.2176959067583084,"151":-0.057377442717552185,"152":0.11126113682985306,"153":-0.1676795482635498,"154":-0.02575783245265484,"155":0.004881010390818119,"156":0.03344491496682167,"157":-0.019952526316046715,"158":0.0638674646615982,"159":0.06985954940319061,"160":-1.865024447441101,"161":0.9875369071960449,"162":0.07034777849912643,"163":1.9180588722229004,"164":0.7308545112609863,"165":2.197697639465332,"166":-0.07706616818904877,"167":-2.1653432846069336,"168":0.3723492920398712,"169":-0.25319793820381165,"170":1.1486951112747192,"171":9.921760559082031,"172":-0.31166619062423706,"173":0.9624301195144653,"174":1.0137083530426025,"175":1.272505760192871,"176":0.12588003277778625,"177":-0.9912340641021729,"178":-6.923148155212402,"179":-0.7925490140914917,"180":0.5759328007698059,"181":-0.294607937335968,"182":-2.222578763961792,"183":0.4596429467201233,"184":1.8727561235427856,"185":-0.20240749418735504,"186":-0.001000302261672914,"187":-3.023616075515747,"188":0.010747749358415604,"189":2.064645290374756,"190":2.794621467590332,"191":-0.10931815207004547,"192":2.2803304195404053,"193":0.14468269050121307,"194":-0.06534522771835327,"195":2.34621262550354,"196":-0.15120656788349152,"197":0.06398637592792511,"198":1.044730305671692,"199":0.05926303192973137,"200":-1.6499232053756714,"201":-0.4547557532787323,"202":3.233731269836426,"203":-1.927606225013733,"204":-2.5666987895965576,"205":0.286594957113266,"206":0.013723953627049923,"207":4.698268890380859,"208":0.744688868522644,"209":-2.9857711791992188,"210":-5.706864356994629,"211":-1.3153001070022583,"212":-2.848484516143799,"213":-0.06893441081047058,"214":-0.51691734790802,"215":-2.93611741065979,"216":0.2521253526210785,"217":0.5113643407821655,"218":-1.874624490737915,"219":0.31968361139297485,"220":-0.014843862503767014,"221":0.29146701097488403,"222":0.07565774768590927,"223":0.0011783911613747478,"224":0.3640131950378418,"225":-0.4171909987926483,"226":-0.13365207612514496,"227":0.02256479114294052,"228":0.8628276586532593,"229":0.005261656828224659,"230":-0.39413562417030334,"231":-0.03327561542391777,"232":-0.042673178017139435,"233":0.16245146095752716,"234":0.005874043796211481,"235":-0.011812766082584858,"236":-0.24564498662948608,"237":0.0032125073485076427,"238":-0.014477292075753212,"239":0.007073985878378153,"240":0.3966186046600342,"241":-0.3688276410102844,"242":-3.208327054977417,"243":0.9214844107627869,"244":2.399190664291382,"245":-0.4038689136505127,"246":-0.024034524336457253,"247":-9.575977325439453,"248":1.7211265563964844,"249":2.8663864135742188,"250":4.249473571777344,"251":0.015740538015961647,"252":2.73842453956604,"253":0.2659379243850708,"254":-0.05735352262854576,"255":2.85485577583313,"256":0.008131591603159904,"257":-0.01687818579375744,"258":-0.21716900169849396,"259":-0.009935210458934307,"260":-0.5016810297966003,"261":0.24870796501636505,"262":-0.06839406490325928,"263":0.74830561876297,"264":-0.0430409274995327,"265":-0.16131244599819183,"266":0.006647380068898201,"267":0.28906095027923584,"268":0.030751477926969528,"269":0.08045084029436111,"270":0.3854910433292389,"271":-0.09534375369548798,"272":0.11737887561321259,"273":0.04122346639633179,"274":-0.09679754078388214,"275":0.0634501501917839,"276":0.007891601882874966,"277":0.1047753095626831,"278":-0.1903572380542755,"279":-0.09540732949972153,"280":-0.016398988664150238,"281":-0.0004735691472887993,"282":0.00031953651341609657,"283":-0.0017269100062549114,"284":0.007390506099909544,"285":-0.33055177330970764,"286":-0.0014716393779963255,"287":0.006090354640036821,"288":-0.690197765827179,"289":0.0034251550678163767,"290":0.0020682921167463064,"291":0.07297474145889282,"292":-0.0676179826259613,"293":0.00573069229722023,"294":-0.4106520712375641,"295":0.0015113515546545386,"296":0.00777307478711009,"297":-0.01817925088107586,"298":-0.026812030002474785,"299":-0.013714523054659367,"300":3.5775158405303955,"301":-0.26256200671195984,"302":-2.4776086807250977,"303":0.17994630336761475,"304":2.518803358078003,"305":0.3844342529773712,"306":-0.0033302975352853537,"307":-2.6519200801849365,"308":-0.00046988617395982146,"309":3.2204298973083496,"310":4.0211358070373535,"311":-0.19028547406196594,"312":2.488713264465332,"313":-0.40213775634765625,"314":-0.033786334097385406,"315":2.998551607131958,"316":0.2701755464076996,"317":0.33204248547554016,"318":0.24089063704013824,"319":0.03273801505565643,"320":0.2925717532634735,"321":0.007480659522116184,"322":-0.25845712423324585,"323":-0.0004686168394982815,"324":0.23029950261116028,"325":-0.026822179555892944,"326":-0.0006289829616434872,"327":-0.3285403251647949,"328":0.10457000881433487,"329":0.2946019172668457,"330":0.3028072416782379,"331":0.03506528213620186,"332":0.28890693187713623,"333":-0.02484513632953167,"334":-0.013053996488451958,"335":0.28220996260643005,"336":0.28798481822013855,"337":0.010018814355134964,"338":0.35901880264282227,"339":0.017245063558220863,"340":-0.07161702960729599,"341":0.07127831131219864,"342":0.0003954745188821107,"343":-0.06672435998916626,"344":0.00624201912432909,"345":0.0562654472887516,"346":-0.000016377827705582604,"347":0.003020621370524168,"348":0.14933662116527557,"349":0.0655960738658905,"350":-0.0021778394002467394,"351":-0.0843755453824997,"352":-0.016247088089585304,"353":0.07076535373926163,"354":0.01525215432047844,"355":0.06765180081129074,"356":0.008152633905410767,"357":-0.07646279782056808,"358":0.10619658976793289,"359":-0.013185398653149605,"360":-4.931009769439697,"361":-0.2940044701099396,"362":2.6159770488739014,"363":-0.07495853304862976,"364":-0.6871909499168396,"365":-0.3771531283855438,"366":-0.09901504218578339,"367":3.217134475708008,"368":3.578394889831543,"369":-3.531909465789795,"370":0.4916093051433563,"371":-0.02504802867770195,"372":-3.35795259475708,"373":0.07439394295215607,"374":0.028784504160284996,"375":-2.8396711349487305,"376":0.22847099602222443,"377":-0.10141061246395111,"378":-2.6412436962127686,"379":-0.012739734724164009,"380":-0.10661096125841141,"381":0.10629599541425705,"382":-0.1937209665775299,"383":0.00011293098941678181,"384":0.3017895817756653,"385":-0.09952914714813232,"386":-0.0006413067458197474,"387":-0.19786491990089417,"388":-0.20560109615325928,"389":0.19594372808933258,"390":0.15044084191322327,"391":-0.039310816675424576,"392":0.05035923793911934,"393":0.30322015285491943,"394":0.10694687813520432,"395":0.19417832791805267,"396":0.06489080935716629,"397":-0.13636790215969086,"398":0.13328875601291656,"399":0.12196943163871765}},"forgetBias":{"rows":20,"columns":1,"weights":{"0":0,"1":0,"2":0,"3":0,"4":0,"5":0,"6":0,"7":0,"8":0,"9":0,"10":0,"11":0,"12":0,"13":0,"14":0,"15":0,"16":0,"17":0,"18":0,"19":0}},"outputMatrix":{"rows":20,"columns":5,"weights":{"0":1.0885157585144043,"1":0.7190379500389099,"2":0.9137916564941406,"3":1.6737546920776367,"4":0.625494658946991,"5":0.03064734674990177,"6":-0.09751587361097336,"7":-0.3154587745666504,"8":0.0886707529425621,"9":-0.14492875337600708,"10":0.835830807685852,"11":0.8284109234809875,"12":0.7076836824417114,"13":0.9155357480049133,"14":0.8190192580223083,"15":-0.029614485800266266,"16":0.06405915319919586,"17":-0.0028158514760434628,"18":0.10931775718927383,"19":0.012812318280339241,"20":1.165239930152893,"21":1.2156401872634888,"22":1.229126214981079,"23":1.8066054582595825,"24":1.005775809288025,"25":-0.7086710333824158,"26":-0.7204861044883728,"27":-0.9032686948776245,"28":-0.4835053086280823,"29":-0.7188000082969666,"30":-0.2514336407184601,"31":-0.26110875606536865,"32":-0.2399478554725647,"33":-0.2582750916481018,"34":-0.25949445366859436,"35":1.7681933641433716,"36":1.079092264175415,"37":-2.2432947158813477,"38":4.279967784881592,"39":1.1870094537734985,"40":-0.7260879278182983,"41":-0.5572043657302856,"42":-0.7189176678657532,"43":-0.6052293181419373,"44":-0.6721308827400208,"45":0.6244939565658569,"46":0.48843255639076233,"47":0.30358150601387024,"48":0.8623600602149963,"49":0.5842655897140503,"50":-0.41357117891311646,"51":0.02622324414551258,"52":0.7442150115966797,"53":-1.5111898183822632,"54":0.30576053261756897,"55":-0.6773830056190491,"56":-0.6222490668296814,"57":-0.6906306743621826,"58":-0.6131377220153809,"59":-0.6621295809745789,"60":0.9355393648147583,"61":1.0419182777404785,"62":0.8942378759384155,"63":0.9958420991897583,"64":1.0128421783447266,"65":-0.019700298085808754,"66":0.17571769654750824,"67":-0.13806317746639252,"68":0.07831796258687973,"69":0.13701599836349487,"70":-0.41599372029304504,"71":-0.24539721012115479,"72":-0.580305278301239,"73":0.12725934386253357,"74":-0.4919107258319855,"75":0.6258174180984497,"76":0.6890023350715637,"77":0.9010063409805298,"78":0.5724294185638428,"79":0.7252320051193237,"80":-0.16998343169689178,"81":-0.3391992151737213,"82":-0.08570949733257294,"83":-0.40848714113235474,"84":-0.2915981709957123,"85":-0.3046005070209503,"86":-0.24484939873218536,"87":-0.2534562349319458,"88":-0.27723628282546997,"89":-0.25879594683647156,"90":0.777380108833313,"91":0.7509790062904358,"92":0.7911420464515686,"93":0.7449082136154175,"94":0.7698656320571899,"95":-0.16257283091545105,"96":-0.2215004563331604,"97":-0.24042901396751404,"98":-0.1729622185230255,"99":-0.2097826451063156}},"outputHidden":{"rows":20,"columns":20,"weights":{"0":-1.8989312648773193,"1":-0.04101463779807091,"2":-0.6632720232009888,"3":-0.4798561632633209,"4":0.04185729846358299,"5":0.1563481241464615,"6":-0.004101140890270472,"7":-0.34617099165916443,"8":-0.21714530885219574,"9":0.46995842456817627,"10":1.052559494972229,"11":-0.8199310302734375,"12":0.6805782318115234,"13":-0.10557428747415543,"14":-0.06274377554655075,"15":0.957297682762146,"16":0.013875184580683708,"17":0.5411191582679749,"18":1.1414045095443726,"19":-0.014507504180073738,"20":0.49101290106773376,"21":0.004447569139301777,"22":0.018998535349965096,"23":-0.08419878035783768,"24":-0.16665484011173248,"25":-0.7936239838600159,"26":-0.0919598639011383,"27":-0.624806821346283,"28":-0.45170414447784424,"29":-0.9436473846435547,"30":0.12315653264522552,"31":-0.31544771790504456,"32":0.21765458583831787,"33":-0.11583510041236877,"34":-0.11445178836584091,"35":0.009216058999300003,"36":0.36390799283981323,"37":0.010552989318966866,"38":-0.7989441156387329,"39":-0.006380740087479353,"40":0.045216601341962814,"41":-0.08941974490880966,"42":0.6678087115287781,"43":-0.011976775713264942,"44":0.8243293166160583,"45":0.34691280126571655,"46":0.007179806008934975,"47":-0.08454608172178268,"48":1.5805668830871582,"49":-0.5473273396492004,"50":-1.0454221963882446,"51":-0.04824477434158325,"52":-0.21796302497386932,"53":-0.21795086562633514,"54":-0.045849308371543884,"55":-0.560708224773407,"56":-0.01220779400318861,"57":0.04189565032720566,"58":-0.5397655367851257,"59":0.017049670219421387,"60":2.5976901054382324,"61":-1.101627230644226,"62":-1.53461754322052,"63":-2.88267183303833,"64":1.5256297588348389,"65":1.573135256767273,"66":-0.0018050806829705834,"67":-2.330355167388916,"68":0.10819940268993378,"69":1.6405253410339355,"70":0.933672308921814,"71":-0.20422710478305817,"72":1.5844581127166748,"73":0.034280091524124146,"74":-0.23146869242191315,"75":1.5280190706253052,"76":-0.05475465580821037,"77":0.1613014042377472,"78":2.1932520866394043,"79":0.1522880345582962,"80":-0.3646469712257385,"81":1.0544358491897583,"82":-3.5161807537078857,"83":-0.06189990043640137,"84":-1.7244610786437988,"85":1.3762186765670776,"86":-0.01644917018711567,"87":-2.594022512435913,"88":-0.9648940563201904,"89":4.552588939666748,"90":0.7171580195426941,"91":0.059800099581480026,"92":-1.4438246488571167,"93":0.5838704109191895,"94":0.3494226932525635,"95":4.470524787902832,"96":0.2635588049888611,"97":-0.2850789427757263,"98":3.5949883460998535,"99":-0.39881643652915955,"100":0.6368751525878906,"101":-0.8867064714431763,"102":0.2595319151878357,"103":1.381775975227356,"104":-1.121435284614563,"105":1.7738271951675415,"106":0.17798729240894318,"107":0.3383183479309082,"108":-0.062222376465797424,"109":-0.31506311893463135,"110":1.0816733837127686,"111":-1.0012234449386597,"112":-0.4904088079929352,"113":-0.14446932077407837,"114":-2.7821569442749023,"115":-0.5354061722755432,"116":-0.9836297035217285,"117":1.4083367586135864,"118":1.843086838722229,"119":1.5520645380020142,"120":0.38162750005722046,"121":0.04213982820510864,"122":-0.021408401429653168,"123":-0.0033956437837332487,"124":-0.051477763801813126,"125":0.12573403120040894,"126":-0.21536579728126526,"127":-0.0036718384362757206,"128":0.4227117598056793,"129":0.10577836632728577,"130":-0.19447208940982819,"131":-0.2956751883029938,"132":0.32815948128700256,"133":-0.01855127513408661,"134":-0.3828573226928711,"135":0.13135255873203278,"136":-0.04284527897834778,"137":0.3332008123397827,"138":0.41685009002685547,"139":0.32224369049072266,"140":-1.5233076810836792,"141":0.6907073855400085,"142":1.4904037714004517,"143":-1.0384573936462402,"144":-0.4660217761993408,"145":-1.163038730621338,"146":0.00480286730453372,"147":3.8487539291381836,"148":3.073749303817749,"149":-1.8194468021392822,"150":-2.909907579421997,"151":-0.06473710387945175,"152":-1.9589571952819824,"153":-0.35669729113578796,"154":0.14738205075263977,"155":-1.856757640838623,"156":0.21520262956619263,"157":-0.09164799749851227,"158":6.14063835144043,"159":-0.10735581815242767,"160":0.09418714046478271,"161":0.4115206003189087,"162":0.054143454879522324,"163":-0.02269713208079338,"164":-0.35501736402511597,"165":0.7276550531387329,"166":0.0008003781549632549,"167":-0.1648751050233841,"168":-0.2492598295211792,"169":-0.1955956369638443,"170":-0.2770718038082123,"171":0.09087388217449188,"172":0.3589193820953369,"173":-0.27169179916381836,"174":0.4562305212020874,"175":-0.07763303816318512,"176":-0.007913035340607166,"177":0.08687889575958252,"178":-0.2735423147678375,"179":0.05896170437335968,"180":-2.562614679336548,"181":0.7877320647239685,"182":1.54803466796875,"183":0.20764771103858948,"184":1.6105948686599731,"185":0.47479742765426636,"186":-0.01319151371717453,"187":-0.06266015768051147,"188":-0.7017064094543457,"189":0.15020254254341125,"190":-0.5737411975860596,"191":0.26143407821655273,"192":-0.2707739472389221,"193":0.345731645822525,"194":-0.24908676743507385,"195":-1.5570417642593384,"196":-0.30456632375717163,"197":0.8255263566970825,"198":2.6249237060546875,"199":0.16275765001773834,"200":0.7043889164924622,"201":-0.007020802237093449,"202":-0.9733468890190125,"203":-0.07258535176515579,"204":0.19264979660511017,"205":-0.21948815882205963,"206":0.006419855635613203,"207":-0.20134206116199493,"208":-0.3946678936481476,"209":0.49680349230766296,"210":-0.9144954085350037,"211":-1.243996500968933,"212":-0.4884986877441406,"213":-6.465996742248535,"214":-0.02651914209127426,"215":0.36422228813171387,"216":0.28322768211364746,"217":0.2048092931509018,"218":-1.9328120946884155,"219":0.2285270392894745,"220":0.16628104448318481,"221":0.7527949213981628,"222":-0.05060433968901634,"223":-0.0003882174496538937,"224":-0.004452096298336983,"225":-0.04615874961018562,"226":0.0001547408028272912,"227":0.3091033399105072,"228":0.7144318222999573,"229":0.025009049102663994,"230":-0.24076075851917267,"231":0.34325623512268066,"232":0.2598321735858917,"233":0.2141217142343521,"234":-0.218503937125206,"235":0.0629868432879448,"236":-0.007633472327142954,"237":0.21768762171268463,"238":0.6266043782234192,"239":0.23840145766735077,"240":2.3542866706848145,"241":1.7534061670303345,"242":0.307065486907959,"243":1.4304656982421875,"244":-0.005568904336541891,"245":0.8407827615737915,"246":-0.0011507408926263452,"247":0.0726831927895546,"248":-1.7915176153182983,"249":2.2643377780914307,"250":1.2474442720413208,"251":0.024724939838051796,"252":2.1448795795440674,"253":0.006965676322579384,"254":0.41149187088012695,"255":2.2524571418762207,"256":0.01776919700205326,"257":-0.022171510383486748,"258":-0.6639098525047302,"259":0.020520390942692757,"260":-0.5071351528167725,"261":0.6167676448822021,"262":0.2725008428096771,"263":0.5878527760505676,"264":0.07298736274242401,"265":-0.6321347951889038,"266":0.00390466651879251,"267":0.6718501448631287,"268":-0.5380081534385681,"269":-1.1555825471878052,"270":0.2787148952484131,"271":-0.0293901190161705,"272":-0.6196010708808899,"273":1.633437991142273,"274":0.014401007443666458,"275":-1.163572072982788,"276":0.13327890634536743,"277":-0.12520065903663635,"278":-1.1838699579238892,"279":-0.11430614441633224,"280":0.001595041947439313,"281":-0.10030021518468857,"282":-0.003927920013666153,"283":-0.05339423567056656,"284":0.006196598056703806,"285":-0.05278600752353668,"286":0.00014972237113397568,"287":0.23491759598255157,"288":-3.207611322402954,"289":0.023075060918927193,"290":-0.03735162690281868,"291":-0.839113712310791,"292":-0.4442335069179535,"293":0.03624293953180313,"294":0.03423205390572548,"295":0.022112399339675903,"296":0.00568988686427474,"297":-0.012754404917359352,"298":0.12831051647663116,"299":-0.010579036548733711,"300":0.06327949464321136,"301":0.08405748009681702,"302":-0.2890019118785858,"303":-0.3038845956325531,"304":0.21409454941749573,"305":0.08833799511194229,"306":-0.04720634967088699,"307":0.4637289047241211,"308":-0.34012240171432495,"309":0.009476915001869202,"310":0.3056349456310272,"311":-1.0344940423965454,"312":-0.27639177441596985,"313":2.1865956783294678,"314":-0.10575661808252335,"315":-1.0656440258026123,"316":-0.03651798889040947,"317":0.12057726085186005,"318":0.9223632216453552,"319":0.1007031574845314,"320":0.544776201248169,"321":-0.21916335821151733,"322":-0.6246137619018555,"323":0.07625985890626907,"324":0.1871466338634491,"325":0.1943688541650772,"326":-0.00577387772500515,"327":-0.8782778978347778,"328":-0.23380541801452637,"329":0.7093323469161987,"330":0.24092455208301544,"331":-0.10392962396144867,"332":0.7609974145889282,"333":-0.2038402110338211,"334":-0.06967925280332565,"335":0.6435407400131226,"336":0.23004743456840515,"337":0.07728076726198196,"338":0.5759404897689819,"339":-0.009252346120774746,"340":-0.24983683228492737,"341":0.1520673781633377,"342":-0.020484911277890205,"343":-0.04591395705938339,"344":0.07287447899580002,"345":0.2860158681869507,"346":0.004756181500852108,"347":-0.004174783825874329,"348":0.09540746361017227,"349":-0.7504379749298096,"350":0.02604471892118454,"351":-0.1853366643190384,"352":0.02133355475962162,"353":-0.0077317459508776665,"354":0.019201742485165596,"355":0.04684540256857872,"356":-0.005392124876379967,"357":-0.3545070290565491,"358":0.044913001358509064,"359":-0.04502905532717705,"360":-0.08437187224626541,"361":0.01554111111909151,"362":0.022993065416812897,"363":-0.0007819691672921181,"364":-0.0038651656359434128,"365":-0.4353875517845154,"366":-0.0008429975132457912,"367":0.006969919428229332,"368":-0.1433420330286026,"369":-0.1838351935148239,"370":-0.027170410379767418,"371":0.3379383385181427,"372":-0.05471077188849449,"373":0.0041214958764612675,"374":0.04150283336639404,"375":-0.039459798485040665,"376":0.00632860790938139,"377":0.2865542769432068,"378":-0.6249202489852905,"379":-0.014495785348117352,"380":0.030635476112365723,"381":-0.04895543307065964,"382":-0.2133820503950119,"383":-0.0042266552336514,"384":0.13641592860221863,"385":0.23131877183914185,"386":-0.005471094977110624,"387":-0.153767392039299,"388":0.06555277109146118,"389":0.25168371200561523,"390":0.15322768688201904,"391":-0.18616311252117157,"392":0.0036147162318229675,"393":0.12704044580459595,"394":-0.02952546253800392,"395":0.19997186958789825,"396":0.03713482990860939,"397":0.06256821006536484,"398":0.27352675795555115,"399":0.4031463861465454}},"outputBias":{"rows":20,"columns":1,"weights":{"0":-4.045437812805176,"1":5.885665416717529,"2":-0.4901618957519531,"3":2.0248663425445557,"4":1.9786559343338013,"5":1.6740269660949707,"6":-0.44485896825790405,"7":-10.188390731811523,"8":-0.4633948504924774,"9":4.8883137702941895,"10":4.573165416717529,"11":0.103411965072155,"12":3.131373405456543,"13":-0.45087963342666626,"14":-3.3824639320373535,"15":2.1436474323272705,"16":0.6639803647994995,"17":-0.9485692977905273,"18":-0.45680636167526245,"19":-1.2552521228790283}},"cellActivationMatrix":{"rows":20,"columns":5,"weights":{"0":-0.4265560805797577,"1":-0.4118174612522125,"2":-0.38547560572624207,"3":-0.45537546277046204,"4":-0.41968196630477905,"5":-0.08052273839712143,"6":-0.10733640938997269,"7":-0.06896194070577621,"8":-0.11129965633153915,"9":-0.0985981673002243,"10":0.4116871953010559,"11":0.4044347107410431,"12":0.40811485052108765,"13":0.4080061912536621,"14":0.4070979952812195,"15":0.17733097076416016,"16":0.2210002988576889,"17":0.0865837037563324,"18":0.2616513669490814,"19":0.20370139181613922,"20":-0.5590187907218933,"21":-0.5194742679595947,"22":-0.6060004234313965,"23":-0.5065727829933167,"24":-0.5422139167785645,"25":-0.17352843284606934,"26":-0.18120001256465912,"27":-0.1401256024837494,"28":-0.19520972669124603,"29":-0.18325786292552948,"30":-0.06635677069425583,"31":-0.0731336697936058,"32":-0.06173063814640045,"33":-0.07265206426382065,"34":-0.07144185155630112,"35":0.4133364260196686,"36":0.39456960558891296,"37":0.361095666885376,"38":0.4336215853691101,"39":0.40427419543266296,"40":0.04658658429980278,"41":0.08131849020719528,"42":0.0900733470916748,"43":0.06871616095304489,"44":0.06228259950876236,"45":-0.40320879220962524,"46":-0.40433695912361145,"47":-0.40998056530952454,"48":-0.3950631022453308,"49":-0.4040318429470062,"50":-0.37502211332321167,"51":-0.402172327041626,"52":-0.3863908052444458,"53":-0.404234379529953,"54":-0.38551127910614014,"55":0.10532047599554062,"56":0.10493334382772446,"57":0.10480060428380966,"58":0.10537753254175186,"59":0.10618173331022263,"60":-0.4129016697406769,"61":-0.4136757552623749,"62":-0.4032558798789978,"63":-0.42598435282707214,"64":-0.4261888861656189,"65":0.2397507280111313,"66":0.226643905043602,"67":0.2052946388721466,"68":0.2557505965232849,"69":0.23342368006706238,"70":-0.21268609166145325,"71":-0.19821693003177643,"72":-0.26623526215553284,"73":-0.17260654270648956,"74":-0.2039710134267807,"75":-0.47617775201797485,"76":-0.4585343599319458,"77":-0.4607826769351959,"78":-0.47860658168792725,"79":-0.47294098138809204,"80":0.15876251459121704,"81":0.17687362432479858,"82":0.1290128529071808,"83":0.1885293573141098,"84":0.16945885121822357,"85":-0.02278931997716427,"86":-0.024398447945713997,"87":-0.02101227082312107,"88":-0.023958878591656685,"89":-0.02306993491947651,"90":-0.40951502323150635,"91":-0.39186859130859375,"92":-0.4117469787597656,"93":-0.3982497453689575,"94":-0.40148863196372986,"95":0.08833310753107071,"96":0.09101688861846924,"97":0.08721163868904114,"98":0.09000679850578308,"99":0.09018836170434952}},"cellActivationHidden":{"rows":20,"columns":20,"weights":{"0":-0.6231108903884888,"1":0.16105230152606964,"2":-0.17476293444633484,"3":-0.12110322713851929,"4":-0.015628358349204063,"5":0.336085706949234,"6":0.000455790082924068,"7":-0.16330185532569885,"8":-0.183718740940094,"9":0.5370420813560486,"10":0.39775460958480835,"11":0.18961897492408752,"12":0.16393159329891205,"13":0.032950401306152344,"14":-0.0475589744746685,"15":0.5032572746276855,"16":-0.001973406644538045,"17":-0.001037824316881597,"18":0.5096839070320129,"19":0.003795917145907879,"20":0.10712774842977524,"21":-1.0898542404174805,"22":0.022103315219283104,"23":0.00649796100333333,"24":-0.09475468844175339,"25":0.5987759828567505,"26":0.0001878187176771462,"27":-0.10717654228210449,"28":0.46864819526672363,"29":0.5241660475730896,"30":0.22355227172374725,"31":0.08196606487035751,"32":-0.2741136848926544,"33":0.25104567408561707,"34":0.012401369400322437,"35":0.6326552629470825,"36":0.07322447746992111,"37":-0.010129448026418686,"38":0.3980010449886322,"39":0.002025594236329198,"40":0.001476274454034865,"41":0.05392373725771904,"42":-0.08242373168468475,"43":-0.003951497841626406,"44":0.08900486677885056,"45":-0.04774181544780731,"46":-0.0005517754470929503,"47":0.00026251745293848217,"48":0.05026862025260925,"49":-0.0927266851067543,"50":-0.06811228394508362,"51":0.0006365648005157709,"52":0.15397794544696808,"53":-0.0006372507777996361,"54":-0.001085000461898744,"55":-0.10197610408067703,"56":0.0004956950433552265,"57":0.0014072357444092631,"58":-0.08731709420681,"59":0.0012887223856523633,"60":-0.4873320758342743,"61":-0.8596627712249756,"62":0.0819331631064415,"63":-0.4177246391773224,"64":-0.014258460141718388,"65":0.3303602337837219,"66":-0.004206439014524221,"67":-0.5246554613113403,"68":-0.15634065866470337,"69":0.10086391121149063,"70":-0.9174008965492249,"71":0.029009684920310974,"72":-0.7684511542320251,"73":0.602922260761261,"74":0.02956365793943405,"75":0.10209020227193832,"76":0.0007614116184413433,"77":-0.0047485483810305595,"78":-0.047651953995227814,"79":-0.002372121438384056,"80":-0.18996939063072205,"81":0.10704908519983292,"82":0.2986477315425873,"83":0.013150682672858238,"84":-0.01633809693157673,"85":-0.19865821301937103,"86":0.0202317051589489,"87":0.02844000607728958,"88":-0.30165159702301025,"89":-0.357796847820282,"90":-0.38323885202407837,"91":0.1485215723514557,"92":-0.16175276041030884,"93":-0.055283013731241226,"94":0.19959618151187897,"95":-0.34104982018470764,"96":0.09694524854421616,"97":-0.23550641536712646,"98":-0.5994257926940918,"99":-0.2729741632938385,"100":0.013399823568761349,"101":-0.050950173288583755,"102":-0.06935826689004898,"103":0.012222769670188427,"104":-0.013926554471254349,"105":-0.0172264464199543,"106":0.035118523985147476,"107":-0.08430636674165726,"108":-0.015627315267920494,"109":0.006117474287748337,"110":-0.02947249636054039,"111":-0.047141268849372864,"112":0.006367875728756189,"113":-0.01588798128068447,"114":-0.009368294849991798,"115":-0.0105629563331604,"116":-0.00006644237146247178,"117":0.010617438703775406,"118":0.04498160630464554,"119":0.02270873263478279,"120":0.012851789593696594,"121":0.10880196839570999,"122":0.014864515513181686,"123":0.001033582491800189,"124":0.023347973823547363,"125":0.10060741752386093,"126":-0.15032142400741577,"127":-0.009813925251364708,"128":0.03161239996552467,"129":0.09810999035835266,"130":0.055863432586193085,"131":0.01368899829685688,"132":-0.09615719318389893,"133":-0.01301109790802002,"134":-0.013348906300961971,"135":0.10170262306928635,"136":0.0046726735308766365,"137":0.00941440463066101,"138":0.10712403804063797,"139":-0.0017534104408696294,"140":-0.0904693603515625,"141":0.009529834613204002,"142":0.11968107521533966,"143":-0.00035825904342345893,"144":-0.005273002665489912,"145":0.009606843814253807,"146":-0.0018807938322424889,"147":-0.12825287878513336,"148":0.030769197270274162,"149":-0.20402012765407562,"150":-0.13097317516803741,"151":0.0019377523567527533,"152":-0.07340493053197861,"153":-0.08647934347391129,"154":0.05823993310332298,"155":-0.2089671492576599,"156":-0.006314316764473915,"157":-0.001131729455664754,"158":-0.17767617106437683,"159":0.006047915667295456,"160":-0.04157206416130066,"161":0.29928693175315857,"162":0.4966849684715271,"163":-0.0017697492148727179,"164":0.30096015334129333,"165":-0.07321643084287643,"166":0.00029904377879574895,"167":0.13288316130638123,"168":-0.5891257524490356,"169":-0.5129910707473755,"170":-0.25609996914863586,"171":-0.006342466454952955,"172":-0.769352376461029,"173":0.0007521598599851131,"174":0.040645647794008255,"175":-0.37106895446777344,"176":0.039081770926713943,"177":-0.0433361679315567,"178":-0.9767585396766663,"179":-0.04510510340332985,"180":-0.0036101890727877617,"181":0.12906166911125183,"182":-0.15933717787265778,"183":-0.023999720811843872,"184":-0.00501451687887311,"185":0.15376685559749603,"186":-0.0005725238588638604,"187":-0.1471051424741745,"188":-0.16731098294258118,"189":0.2787366807460785,"190":0.24051490426063538,"191":-0.06995923817157745,"192":-0.009479925036430359,"193":0.012465809471905231,"194":0.03255939483642578,"195":0.29670238494873047,"196":-0.0011595190735533834,"197":-0.03249039873480797,"198":0.24200361967086792,"199":-0.02798176184296608,"200":-0.15018856525421143,"201":0.37604689598083496,"202":-0.0015662923688068986,"203":0.03691129758954048,"204":0.2644508481025696,"205":-0.17314863204956055,"206":-0.14221863448619843,"207":0.1633443534374237,"208":0.21782547235488892,"209":0.03027386963367462,"210":-0.060807548463344574,"211":0.11492025852203369,"212":-0.37162116169929504,"213":0.15322181582450867,"214":0.16158586740493774,"215":0.195822611451149,"216":0.09036581963300705,"217":-0.16213855147361755,"218":0.2231232076883316,"219":-0.16022008657455444,"220":-0.009057387709617615,"221":0.017398422583937645,"222":-0.00014284037752076983,"223":-0.000020182131265755743,"224":0.012978341430425644,"225":-0.012898564338684082,"226":0.00028030123212374747,"227":0.011567948386073112,"228":-0.00019418116426095366,"229":0.00031378629500977695,"230":0.009526525624096394,"231":-0.0030505273025482893,"232":-0.007801046594977379,"233":0.01203661784529686,"234":0.00966987106949091,"235":0.00022486160742118955,"236":0.008007755503058434,"237":-0.005954739172011614,"238":-0.010328578762710094,"239":-0.013095502741634846,"240":-0.0023147331085056067,"241":-0.13647621870040894,"242":-0.3473702669143677,"243":0.08898907154798508,"244":-0.08950761705636978,"245":-0.05484771355986595,"246":-0.00007967904093675315,"247":0.0010087807895615697,"248":-0.1371961236000061,"249":0.30923962593078613,"250":0.2618061602115631,"251":0.2425428032875061,"252":0.1460520327091217,"253":-0.0025298497639596462,"254":0.33369913697242737,"255":0.3311397433280945,"256":-0.03031381219625473,"257":-0.018476106226444244,"258":0.39981308579444885,"259":-0.021488845348358154,"260":-0.0354582704603672,"261":-0.023805825039744377,"262":0.19100968539714813,"263":0.008903800509870052,"264":0.0885399654507637,"265":-0.12123127281665802,"266":0.00003521709004417062,"267":0.0316966287791729,"268":0.1791534423828125,"269":-0.05155794322490692,"270":-0.1536996215581894,"271":0.1430307775735855,"272":-0.2655539810657501,"273":0.05114404112100601,"274":0.10637379437685013,"275":-0.09203387796878815,"276":0.09731892496347427,"277":-0.10426639020442963,"278":-0.2004786878824234,"279":-0.10152871906757355,"280":-0.0014410909498110414,"281":0.0010535861365497112,"282":-0.18766848742961884,"283":-0.0007084746030159295,"284":0.001631788443773985,"285":-0.36810302734375,"286":-0.00008923439600039274,"287":0.014420478604733944,"288":-0.11166743189096451,"289":0.18962165713310242,"290":0.10869644582271576,"291":0.5818066000938416,"292":0.529045045375824,"293":0.0013680896954610944,"294":0.14568068087100983,"295":0.18901441991329193,"296":0.0018212785944342613,"297":-0.0038891201838850975,"298":-0.05399811267852783,"299":-0.0031573185697197914,"300":0.16312876343727112,"301":0.08732230961322784,"302":-0.016507120802998543,"303":0.000126604427350685,"304":0.019051792100071907,"305":0.050386764109134674,"306":0.00022484744840767235,"307":-0.00864876713603735,"308":0.3955760896205902,"309":0.397277295589447,"310":0.13861022889614105,"311":0.05004506558179855,"312":-0.12745130062103271,"313":-0.012983856722712517,"314":0.011285468935966492,"315":0.2844661772251129,"316":-0.009132198989391327,"317":-0.014165584929287434,"318":0.3951658010482788,"319":-0.016570333391427994,"320":-0.3833374083042145,"321":0.04759472236037254,"322":0.3120723366737366,"323":-0.00032469246070832014,"324":-0.2639561593532562,"325":-0.04794062301516533,"326":0.004040927160531282,"327":0.2901565134525299,"328":0.0660584419965744,"329":-0.2827838361263275,"330":-0.35291385650634766,"331":-0.0037530502304434776,"332":-0.391867458820343,"333":0.006144361570477486,"334":0.08164612203836441,"335":-0.31068283319473267,"336":-0.31865066289901733,"337":-0.08016711473464966,"338":-0.3659866750240326,"339":-0.0800035148859024,"340":0.10068164020776749,"341":0.1009325236082077,"342":0.0018898603739216924,"343":-0.11084713041782379,"344":-0.022474685683846474,"345":0.01536126434803009,"346":-0.0020276245195418596,"347":0.002567166229709983,"348":0.07333777844905853,"349":0.12448783963918686,"350":-0.0010454616276547313,"351":0.014700310304760933,"352":0.025153115391731262,"353":0.08429496735334396,"354":-0.026486732065677643,"355":0.11024757474660873,"356":-0.023251866921782494,"357":-0.20744235813617706,"358":0.1155484989285469,"359":0.023519989103078842,"360":0.004493583459407091,"361":-0.05322888866066933,"362":-0.004618429578840733,"363":-0.0020986751187592745,"364":0.0054773809388279915,"365":0.03514944761991501,"366":0.00006164944352349266,"367":-0.004420275334268808,"368":-0.01858554780483246,"369":0.06270554661750793,"370":0.001864007324911654,"371":0.11370803415775299,"372":0.12720763683319092,"373":-0.004646579269319773,"374":0.12843091785907745,"375":0.010968172922730446,"376":-0.0015210257843136787,"377":0.004979139659553766,"378":-0.019447024911642075,"379":0.00016266749298665673,"380":-0.01281503215432167,"381":0.04463106766343117,"382":0.11009509861469269,"383":-0.0002686342631932348,"384":-0.026890138164162636,"385":0.03884316235780716,"386":-0.005230053793638945,"387":0.14723780751228333,"388":0.10546683520078659,"389":-0.09029883146286011,"390":-0.07583896815776825,"391":-0.019702987745404243,"392":-0.2022124081850052,"393":0.04827342927455902,"394":0.012920930050313473,"395":-0.12043673545122147,"396":0.008944745175540447,"397":-0.0340864434838295,"398":-0.1363420933485031,"399":-0.07837100327014923}},"cellActivationBias":{"rows":20,"columns":1,"weights":{"0":0.3319694697856903,"1":0.9874120950698853,"2":0.1636296957731247,"3":0.10627403855323792,"4":0.9841572046279907,"5":-0.07792980968952179,"6":-0.017160383984446526,"7":0.10825593024492264,"8":-0.2443629652261734,"9":-0.26773300766944885,"10":-0.4746081233024597,"11":0.07493236660957336,"12":0.020907152444124222,"13":-0.11364017426967621,"14":-0.13929463922977448,"15":1.1743099689483643,"16":0.006833397317677736,"17":-0.08981557190418243,"18":-0.044514503329992294,"19":-0.01083392184227705}}}],"outputConnector":{"rows":5,"columns":20,"weights":{"0":3.6861135959625244,"1":-0.21842509508132935,"2":-13.51803970336914,"3":-0.08272765576839447,"4":6.421731472015381,"5":0.4296592175960541,"6":0.11976690590381622,"7":-4.155719757080078,"8":0.16211719810962677,"9":11.988240242004395,"10":1.191742181777954,"11":0.12038657814264297,"12":13.66189193725586,"13":0.5586878657341003,"14":0.18586662411689758,"15":12.028958320617676,"16":0.11496932059526443,"17":-0.09103620052337646,"18":1.4485456943511963,"19":-0.07057220488786697,"20":1.3329013586044312,"21":-0.1798258125782013,"22":-10.907315254211426,"23":-0.060711733996868134,"24":4.241940498352051,"25":-0.06746692955493927,"26":-0.0680527538061142,"27":-1.5366082191467285,"28":-0.19815778732299805,"29":10.59493637084961,"30":1.1161096096038818,"31":0.08210276812314987,"32":11.38201904296875,"33":0.46260717511177063,"34":0.24985630810260773,"35":11.826141357421875,"36":-0.19491387903690338,"37":0.10668757557868958,"38":1.368727684020996,"39":-0.1070006713271141,"40":4.318161487579346,"41":-0.3536425530910492,"42":-22.57280921936035,"43":-0.06922940164804459,"44":10.320577621459961,"45":0.258379191160202,"46":0.12053168565034866,"47":-3.5641188621520996,"48":0.22301894426345825,"49":17.550804138183594,"50":1.6008681058883667,"51":0.17748844623565674,"52":22.552024841308594,"53":0.20779187977313995,"54":0.12761007249355316,"55":16.160266876220703,"56":0.10166046023368835,"57":-0.14084403216838837,"58":1.493228554725647,"59":0.2149924784898758,"60":2.5600087642669678,"61":-0.21652013063430786,"62":-7.315009593963623,"63":-0.06985441595315933,"64":3.9969468116760254,"65":-1.2930785417556763,"66":-0.06781913340091705,"67":-3.3447017669677734,"68":0.8252187967300415,"69":8.148755073547363,"70":0.8091719150543213,"71":0.07747814804315567,"72":8.096661567687988,"73":0.6193891167640686,"74":0.27463972568511963,"75":10.068202018737793,"76":-0.04472581297159195,"77":0.012080973945558071,"78":1.3454718589782715,"79":-0.12765488028526306,"80":2.58774733543396,"81":-0.18641848862171173,"82":-10.626627922058105,"83":-0.07275167852640152,"84":3.8857479095458984,"85":-0.31947529315948486,"86":-0.04250512272119522,"87":-3.025617837905884,"88":-0.037141524255275726,"89":10.843817710876465,"90":1.065238356590271,"91":0.09230619668960571,"92":11.065921783447266,"93":0.438799113035202,"94":0.2444034069776535,"95":12.35162353515625,"96":-0.10431990027427673,"97":-0.1560773104429245,"98":1.3968138694763184,"99":-0.23329311609268188}},"output":{"rows":5,"columns":1,"weights":{"0":56.8560905456543,"1":46.31798553466797,"2":81.0061264038086,"3":39.9346809387207,"4":48.32087326049805}}}