{"type":"LSTMTimeStep","options":{"inputSize":5,"hiddenLayers":[5,5,5,5,5,5,5,5,5,5],"outputSize":5,"decayRate":0.999,"smoothEps":1e-8,"regc":0.000001,"clipval":5},"hiddenLayers":[{"inputMatrix":{"rows":5,"columns":5,"weights":{"0":-0.0012003276497125626,"1":-0.015513806603848934,"2":-0.02352096699178219,"3":-0.039745260030031204,"4":-0.046067412942647934,"5":-0.03456024080514908,"6":0.016114436089992523,"7":0.04549002647399902,"8":-0.0033269126433879137,"9":-0.016881730407476425,"10":0.06241065263748169,"11":-0.04188007861375809,"12":0.012051152996718884,"13":0.031063031405210495,"14":-0.0586356520652771,"15":-0.03564475476741791,"16":-0.059920262545347214,"17":-0.0018553220434114337,"18":0.01674283668398857,"19":0.07580840587615967,"20":-0.06826797872781754,"21":-0.06435179710388184,"22":0.07064595073461533,"23":-0.0008218396687880158,"24":0.00488671800121665}},"inputHidden":{"rows":5,"columns":5,"weights":{"0":0.04926599934697151,"1":0.013635518960654736,"2":-0.05564087629318237,"3":0.027861637994647026,"4":-0.07311712950468063,"5":-0.020954318344593048,"6":0.07705246657133102,"7":-0.016787508502602577,"8":0.06025450676679611,"9":0.05023205652832985,"10":-0.0643128976225853,"11":0.055318716913461685,"12":-0.0013698956463485956,"13":-0.0723462700843811,"14":0.06920085847377777,"15":0.05782945454120636,"16":-0.054301511496305466,"17":0.0373782217502594,"18":-0.01566520519554615,"19":0.07682319730520248,"20":0.020364796742796898,"21":-0.017990944907069206,"22":-0.04428710415959358,"23":-0.07126938551664352,"24":0.030768394470214844}},"inputBias":{"rows":5,"columns":1,"weights":{"0":-9.620409937433072e-13,"1":-1.1552278231241608e-12,"2":8.7803154732717e-16,"3":2.822555396399533e-15,"4":1.1347263189839807e-12}},"forgetMatrix":{"rows":5,"columns":5,"weights":{"0":-0.06401792168617249,"1":0.0792931318283081,"2":-0.05554095283150673,"3":-0.0028213344048708677,"4":-0.04423351585865021,"5":0.07896196842193604,"6":0.048725105822086334,"7":0.07864445447921753,"8":-0.06712338328361511,"9":0.059517934918403625,"10":-0.019747402518987656,"11":-0.01758945919573307,"12":0.01462876982986927,"13":0.004565033130347729,"14":0.06587547808885574,"15":-0.05296916142106056,"16":0.04719289392232895,"17":0.015552938915789127,"18":-0.04158452898263931,"19":-0.06296175718307495,"20":0.03189966455101967,"21":0.005040293093770742,"22":-0.05485473573207855,"23":0.0729057788848877,"24":0.015911279246211052}},"forgetHidden":{"rows":5,"columns":5,"weights":{"0":-0.04736420139670372,"1":-0.0528964065015316,"2":0.013638566248118877,"3":-0.04794473573565483,"4":0.056399788707494736,"5":0.05998852103948593,"6":-0.06212649494409561,"7":-0.07702087610960007,"8":0.024760736152529716,"9":0.032503146678209305,"10":0.0570470429956913,"11":0.007123974151909351,"12":0.031622402369976044,"13":0.060828834772109985,"14":0.07866492122411728,"15":-0.023082606494426727,"16":-0.022234594449400902,"17":-0.06949736177921295,"18":0.04432142898440361,"19":-0.07542450726032257,"20":-0.04191693291068077,"21":0.013075647875666618,"22":-0.05085581913590431,"23":0.010298934765160084,"24":-0.07815476506948471}},"forgetBias":{"rows":5,"columns":1,"weights":{"0":0,"1":0,"2":0,"3":0,"4":0}},"outputMatrix":{"rows":5,"columns":5,"weights":{"0":0.036697130650281906,"1":0.04808425530791283,"2":-0.025246916338801384,"3":-0.06747649610042572,"4":0.04568034037947655,"5":0.06112532317638397,"6":-0.07537373155355453,"7":0.05506274104118347,"8":-0.07959548383951187,"9":0.049010518938302994,"10":-0.06432485580444336,"11":-0.019987959414720535,"12":-0.018059488385915756,"13":-0.0050537860952317715,"14":-0.03187092766165733,"15":-0.06735742092132568,"16":0.031603213399648666,"17":-0.060983724892139435,"18":-0.00951360259205103,"19":-0.00513895507901907,"20":0.06160590797662735,"21":0.046581778675317764,"22":-0.04446324333548546,"23":-0.07773678004741669,"24":0.06454901397228241}},"outputHidden":{"rows":5,"columns":5,"weights":{"0":0.0276323314756155,"1":-0.017122410237789154,"2":0.03698253259062767,"3":0.05839093029499054,"4":-0.042956773191690445,"5":-0.06395865976810455,"6":-0.0551452562212944,"7":-0.03381161391735077,"8":0.06373350322246552,"9":-0.012880290858447552,"10":-0.06726982444524765,"11":-0.05213291198015213,"12":-0.0749356746673584,"13":-0.052043378353118896,"14":0.01952710933983326,"15":0.052700456231832504,"16":-0.0023336238227784634,"17":-0.0180965643376112,"18":-0.03450032323598862,"19":0.04969640448689461,"20":-0.06864490360021591,"21":0.06941887736320496,"22":-0.02563065104186535,"23":0.036520153284072876,"24":-0.03703296184539795}},"outputBias":{"rows":5,"columns":1,"weights":{"0":-4.552072694480325e-13,"1":-1.176934492517958e-14,"2":6.189791517882681e-14,"3":3.2876965513624172e-15,"4":7.316351842943936e-13}},"cellActivationMatrix":{"rows":5,"columns":5,"weights":{"0":-0.04640543460845947,"1":0.06340034306049347,"2":0.028299449011683464,"3":-0.004045473411679268,"4":0.011114699766039848,"5":-0.010651268996298313,"6":-0.02768649533390999,"7":0.04601958394050598,"8":-0.05371987074613571,"9":-0.01090650912374258,"10":0.024158475920557976,"11":-0.048203933984041214,"12":-0.06112908199429512,"13":0.005810769274830818,"14":0.03469863906502724,"15":-0.06287486851215363,"16":-0.04206281155347824,"17":-0.05733189359307289,"18":0.018602419644594193,"19":0.07062478363513947,"20":-0.021647796034812927,"21":-0.01500066090375185,"22":0.028190428391098976,"23":0.07489623129367828,"24":-0.07827538996934891}},"cellActivationHidden":{"rows":5,"columns":5,"weights":{"0":0.07428313791751862,"1":-0.03451748564839363,"2":-0.04617816209793091,"3":-0.05098361894488335,"4":0.03163734823465347,"5":-0.06000508368015289,"6":0.07013658434152603,"7":0.06324607133865356,"8":-0.06188783794641495,"9":0.002782224677503109,"10":0.010251782834529877,"11":0.04984812065958977,"12":-0.024724358692765236,"13":0.018907522782683372,"14":0.020893519744277,"15":-0.015292513184249401,"16":0.02197123132646084,"17":0.06515928357839584,"18":0.01645798794925213,"19":-0.06262416392564774,"20":-0.05779488384723663,"21":0.06302560865879059,"22":-0.02188955247402191,"23":0.06881700456142426,"24":0.05675318092107773}},"cellActivationBias":{"rows":5,"columns":1,"weights":{"0":8.333238613045246e-13,"1":-3.662390215316419e-13,"2":-3.6933486766155006e-15,"3":-7.757792215480704e-20,"4":6.871537627101132e-12}}},{"inputMatrix":{"rows":5,"columns":5,"weights":{"0":0.02086939848959446,"1":0.02184181846678257,"2":0.07950197160243988,"3":-0.06120312958955765,"4":-0.043694719672203064,"5":0.07695040106773376,"6":0.07112244516611099,"7":-0.0688881203532219,"8":-0.02671092189848423,"9":0.06719090789556503,"10":-0.028664376586675644,"11":0.06381890922784805,"12":0.05183551460504532,"13":0.024802612140774727,"14":-0.027742570266127586,"15":-0.04890860617160797,"16":0.07692724466323853,"17":0.04778188094496727,"18":-0.020831933245062828,"19":-0.053582675755023956,"20":-0.06521842628717422,"21":-0.0722070261836052,"22":0.03571980819106102,"23":-0.07055477052927017,"24":-0.06204408034682274}},"inputHidden":{"rows":5,"columns":5,"weights":{"0":-0.04855656996369362,"1":-0.05229208245873451,"2":0.07624944299459457,"3":0.01886305958032608,"4":0.02469475194811821,"5":0.06261098384857178,"6":-0.04437483474612236,"7":0.030034219846129417,"8":0.03453900292515755,"9":-0.027489488944411278,"10":0.07945050299167633,"11":0.02394377626478672,"12":0.009895527735352516,"13":0.05437544360756874,"14":-0.005673026666045189,"15":0.05978362634778023,"16":0.07560980319976807,"17":0.013555165380239487,"18":-0.018395256251096725,"19":0.01773127354681492,"20":0.0008794201421551406,"21":-0.07930609583854675,"22":0.05586042255163193,"23":0.07408114522695541,"24":0.03890620172023773}},"inputBias":{"rows":5,"columns":1,"weights":{"0":-1.9578752681603806e-12,"1":4.957912877988357e-13,"2":-2.0250396140768928e-13,"3":3.7051896381763705e-13,"4":2.5813905049978936e-13}},"forgetMatrix":{"rows":5,"columns":5,"weights":{"0":-0.007093260530382395,"1":-0.03012002818286419,"2":0.015579096041619778,"3":0.04027940705418587,"4":0.059931788593530655,"5":-0.06877483427524567,"6":0.07806659489870071,"7":0.000053817515436094254,"8":0.05506790056824684,"9":-0.04879363998770714,"10":-0.059014592319726944,"11":-0.07822763174772263,"12":-0.04385390505194664,"13":0.06167803704738617,"14":0.06905331462621689,"15":0.030357634648680687,"16":-0.025231920182704926,"17":0.03764719516038895,"18":0.05479636788368225,"19":0.05524531379342079,"20":-0.03038879483938217,"21":0.014239982701838017,"22":-0.03442150354385376,"23":-0.00012338087253738195,"24":-0.0768560916185379}},"forgetHidden":{"rows":5,"columns":5,"weights":{"0":-0.030676817521452904,"1":0.02359563484787941,"2":-0.02707870863378048,"3":-0.006666038651019335,"4":0.06376326084136963,"5":-0.06313923746347427,"6":-0.026515057310461998,"7":-0.045519012957811356,"8":0.044098202139139175,"9":0.006156666669994593,"10":-0.002488698810338974,"11":0.012150566093623638,"12":0.06351029872894287,"13":-0.07983126491308212,"14":0.01842847652733326,"15":0.014276969246566296,"16":0.03755541145801544,"17":0.0023443468380719423,"18":0.010854020714759827,"19":-0.07014565169811249,"20":0.0071074082516133785,"21":-0.011213419958949089,"22":0.031933218240737915,"23":-0.06107635051012039,"24":-0.00335512007586658}},"forgetBias":{"rows":5,"columns":1,"weights":{"0":0,"1":0,"2":0,"3":0,"4":0}},"outputMatrix":{"rows":5,"columns":5,"weights":{"0":0.07738430052995682,"1":0.019504323601722717,"2":0.05575026571750641,"3":-0.040828924626111984,"4":0.03185807913541794,"5":0.05539901554584503,"6":0.008060518652200699,"7":0.03948349878191948,"8":-0.0709352195262909,"9":-0.054338157176971436,"10":-0.002210766077041626,"11":-0.017287028953433037,"12":0.0443207286298275,"13":-0.07164127379655838,"14":0.07694385200738907,"15":-0.06946307420730591,"16":-0.02579982951283455,"17":0.04241142421960831,"18":-0.06288931518793106,"19":0.022146232426166534,"20":0.07823289185762405,"21":0.03951900824904442,"22":-0.019231367856264114,"23":-0.036275167018175125,"24":0.017758896574378014}},"outputHidden":{"rows":5,"columns":5,"weights":{"0":-0.013316025957465172,"1":0.03834928199648857,"2":0.04408489912748337,"3":0.045070286840200424,"4":-0.056815989315509796,"5":0.008023555390536785,"6":0.06182422861456871,"7":-0.05900662764906883,"8":0.004957002121955156,"9":0.02510565146803856,"10":-0.0411200113594532,"11":-0.07936849445104599,"12":-0.07050122320652008,"13":-0.0658918246626854,"14":0.03167241811752319,"15":-0.0472913421690464,"16":0.07984349131584167,"17":-0.04671147093176842,"18":0.035179972648620605,"19":0.02870362065732479,"20":-0.06918780505657196,"21":-0.053306665271520615,"22":0.04132524132728577,"23":-0.07755086570978165,"24":0.0444965697824955}},"outputBias":{"rows":5,"columns":1,"weights":{"0":-1.956050772744522e-12,"1":5.076929545169695e-13,"2":-2.060229835039798e-13,"3":3.7881348990791153e-13,"4":2.5119554873664907e-13}},"cellActivationMatrix":{"rows":5,"columns":5,"weights":{"0":-0.07406153529882431,"1":0.03793887048959732,"2":0.014321107417345047,"3":0.028122417628765106,"4":-0.04264456406235695,"5":0.05999254435300827,"6":-0.030853314325213432,"7":-0.04102508723735809,"8":-0.05929655581712723,"9":-0.009974392130970955,"10":-0.03132275491952896,"11":0.05879674851894379,"12":0.035755861550569534,"13":-0.004421850200742483,"14":0.010552998632192612,"15":0.015829017385840416,"16":0.003173859091475606,"17":0.021522628143429756,"18":0.06838129460811615,"19":-0.0489279106259346,"20":0.013864741660654545,"21":0.02268155850470066,"22":0.022913357242941856,"23":-0.011914762668311596,"24":0.022452477365732193}},"cellActivationHidden":{"rows":5,"columns":5,"weights":{"0":0.06855646520853043,"1":-0.029120901599526405,"2":-0.043833695352077484,"3":0.023673461750149727,"4":-0.07469330728054047,"5":0.058146849274635315,"6":0.07976223528385162,"7":-0.052190717309713364,"8":0.07937067002058029,"9":-0.04982201009988785,"10":0.009262427687644958,"11":-0.04450048506259918,"12":-0.05577153339982033,"13":0.0054212696850299835,"14":-0.0414457693696022,"15":-0.04180759936571121,"16":0.020037120208144188,"17":0.04645831882953644,"18":-0.032539673149585724,"19":0.002603810979053378,"20":-0.03823230415582657,"21":0.06399544328451157,"22":-0.06516353785991669,"23":0.010628252290189266,"24":0.026658054441213608}},"cellActivationBias":{"rows":5,"columns":1,"weights":{"0":-1.7254285500367672e-10,"1":-4.3362681501069034e-11,"2":-1.1605150000704167e-11,"3":-1.2817780170593096e-10,"4":3.8788198347683434e-11}}},{"inputMatrix":{"rows":5,"columns":5,"weights":{"0":-0.029027782380580902,"1":0.02509053237736225,"2":-0.04086164012551308,"3":0.0015562009066343307,"4":0.03492356836795807,"5":0.04983915761113167,"6":0.005158269312232733,"7":-0.052102092653512955,"8":0.06700089573860168,"9":-0.026391534134745598,"10":0.010437755845487118,"11":0.06375598162412643,"12":-0.009609292261302471,"13":-0.0062994579784572124,"14":0.023558156564831734,"15":0.033253852277994156,"16":0.06664659827947617,"17":0.06743437796831131,"18":0.04416685923933983,"19":0.0508025661110878,"20":-0.0072592152282595634,"21":0.05722188949584961,"22":0.06209984049201012,"23":-0.017776185646653175,"24":0.03868073597550392}},"inputHidden":{"rows":5,"columns":5,"weights":{"0":-0.014941479079425335,"1":-0.07895314693450928,"2":0.0007174776983447373,"3":-0.040428340435028076,"4":0.015828415751457214,"5":0.006459432188421488,"6":0.024389643222093582,"7":-0.05694233626127243,"8":0.029844889417290688,"9":-0.07822414487600327,"10":0.0034682590048760176,"11":0.028280703350901604,"12":-0.03692515194416046,"13":-0.061667896807193756,"14":0.0073719630017876625,"15":0.060150954872369766,"16":-0.043149322271347046,"17":0.027941739186644554,"18":-0.057459037750959396,"19":-0.001688123680651188,"20":-0.07444821298122406,"21":0.019861772656440735,"22":-0.03209346532821655,"23":-0.06309682130813599,"24":0.06174284964799881}},"inputBias":{"rows":5,"columns":1,"weights":{"0":1.715519761837092e-12,"1":-3.0892764475015655e-12,"2":-8.73529628622402e-14,"3":7.817223431072495e-13,"4":-2.4278776417693132e-14}},"forgetMatrix":{"rows":5,"columns":5,"weights":{"0":-0.0393497496843338,"1":0.015519262291491032,"2":0.05571029335260391,"3":0.005946415010839701,"4":0.03357814997434616,"5":-0.059128955006599426,"6":-0.05989151820540428,"7":-0.054979823529720306,"8":-0.013339032419025898,"9":0.03590954467654228,"10":0.06952609866857529,"11":0.04829224571585655,"12":0.05186932906508446,"13":-0.007952050305902958,"14":0.020351024344563484,"15":0.07456575334072113,"16":0.003312816610559821,"17":0.06010646000504494,"18":-0.00004401395199238323,"19":0.07830237597227097,"20":0.039841294288635254,"21":0.01569041982293129,"22":0.04582762345671654,"23":-0.002979193115606904,"24":0.04526117816567421}},"forgetHidden":{"rows":5,"columns":5,"weights":{"0":-0.0556325763463974,"1":0.03336237743496895,"2":0.057499174028635025,"3":0.049996279180049896,"4":0.06662064790725708,"5":0.0659632608294487,"6":-0.027210859581828117,"7":0.07016494870185852,"8":0.01669391803443432,"9":-0.054446522146463394,"10":-0.04219059273600578,"11":-0.07757250964641571,"12":-0.030972067266702652,"13":0.07840242981910706,"14":-0.005311340559273958,"15":-0.04509628191590309,"16":-0.03169833868741989,"17":-0.05758712813258171,"18":-0.07961168140172958,"19":-0.005766632966697216,"20":0.02648109383881092,"21":0.07766573131084442,"22":-0.025228573009371758,"23":0.07417173683643341,"24":0.07688068598508835}},"forgetBias":{"rows":5,"columns":1,"weights":{"0":0,"1":0,"2":0,"3":0,"4":0}},"outputMatrix":{"rows":5,"columns":5,"weights":{"0":0.062314409762620926,"1":0.07980270683765411,"2":-0.01866883784532547,"3":-0.05923115462064743,"4":0.06962927430868149,"5":0.05137944221496582,"6":0.07898914813995361,"7":0.060525231063365936,"8":-0.013231848366558552,"9":0.02690492570400238,"10":0.032990507781505585,"11":0.01599271036684513,"12":-0.06900189816951752,"13":-0.06133925914764404,"14":-0.01912672631442547,"15":0.07354631274938583,"16":-0.04451427608728409,"17":0.005628477316349745,"18":-0.017931031063199043,"19":0.07218152284622192,"20":0.06299446523189545,"21":-0.0028179758228361607,"22":0.0466294027864933,"23":-0.05402595177292824,"24":0.05308683589100838}},"outputHidden":{"rows":5,"columns":5,"weights":{"0":-0.020373709499835968,"1":-0.00769508583471179,"2":-0.011048711836338043,"3":-0.0024497266858816147,"4":0.0430719293653965,"5":0.06229564920067787,"6":-0.07942011207342148,"7":-0.004108479246497154,"8":0.022328944876790047,"9":-0.011035916395485401,"10":-0.05988546833395958,"11":0.005409296602010727,"12":0.010900801979005337,"13":-0.07387973368167877,"14":0.022328566759824753,"15":-0.05274158716201782,"16":-0.029537711292505264,"17":-0.012387905269861221,"18":0.017704466357827187,"19":0.07255908846855164,"20":0.004573394078761339,"21":-0.023946642875671387,"22":-0.057427652180194855,"23":0.07920855283737183,"24":-0.07849133014678955}},"outputBias":{"rows":5,"columns":1,"weights":{"0":1.715004982645596e-12,"1":-3.087917942179441e-12,"2":-8.736074201282779e-14,"3":7.815287588093522e-13,"4":-2.4270070613061252e-14}},"cellActivationMatrix":{"rows":5,"columns":5,"weights":{"0":-0.007548177614808083,"1":-0.05152525752782822,"2":0.04566050320863724,"3":0.045978255569934845,"4":0.009929732419550419,"5":-0.07703793793916702,"6":0.05377934128046036,"7":-0.042370378971099854,"8":-0.07806918025016785,"9":0.005465284455567598,"10":-0.002908594673499465,"11":0.05620446056127548,"12":0.04577525705099106,"13":0.011583352461457253,"14":0.01843731664121151,"15":0.013212758116424084,"16":0.07964460551738739,"17":-0.048921313136816025,"18":0.05045671388506889,"19":-0.0191643089056015,"20":-0.07723736017942429,"21":-0.07173304259777069,"22":0.027268534526228905,"23":0.048319991677999496,"24":-0.019373610615730286}},"cellActivationHidden":{"rows":5,"columns":5,"weights":{"0":-0.005117969587445259,"1":-0.06854542344808578,"2":0.07403270900249481,"3":-0.004047431517392397,"4":0.03189193457365036,"5":0.04068342223763466,"6":0.04270230233669281,"7":-0.06811381876468658,"8":0.06253443658351898,"9":0.0658331885933876,"10":0.03997647762298584,"11":0.05042434111237526,"12":-0.018046261742711067,"13":-0.055661387741565704,"14":0.014287288300693035,"15":-0.020649848505854607,"16":0.06773415952920914,"17":0.04755652695894241,"18":0.004388673231005669,"19":-0.0690235123038292,"20":0.022131003439426422,"21":-0.07447458803653717,"22":-0.02364342473447323,"23":0.05714990198612213,"24":0.028282666578888893}},"cellActivationBias":{"rows":5,"columns":1,"weights":{"0":5.389422241819375e-9,"1":6.143791697610368e-9,"2":-1.6621197751476302e-9,"3":-1.6048260498280342e-9,"4":-5.141452819046322e-10}}},{"inputMatrix":{"rows":5,"columns":5,"weights":{"0":0.019117599353194237,"1":0.05369758605957031,"2":0.07657279074192047,"3":0.0418340303003788,"4":-0.04388244077563286,"5":-0.04190261662006378,"6":0.05986873060464859,"7":0.01644144393503666,"8":0.07810835540294647,"9":-0.05684007704257965,"10":0.004536747466772795,"11":0.0018260806100443006,"12":-0.05799419805407524,"13":0.03591470792889595,"14":0.00714019313454628,"15":0.0723639726638794,"16":0.02998613938689232,"17":0.038159940391778946,"18":-0.07928206026554108,"19":0.0769161581993103,"20":-0.016614237800240517,"21":-0.021405771374702454,"22":0.030782468616962433,"23":-0.015014681033790112,"24":-0.04858507961034775}},"inputHidden":{"rows":5,"columns":5,"weights":{"0":-0.01242893934249878,"1":0.024418123066425323,"2":-0.012879909947514534,"3":0.034123100340366364,"4":-0.052947159856557846,"5":0.01823732815682888,"6":-0.06325651705265045,"7":-0.006695478688925505,"8":-0.02060498669743538,"9":0.06416649371385574,"10":-0.0024445774033665657,"11":-0.07254371792078018,"12":0.03036440908908844,"13":0.006497732829302549,"14":-0.031834520399570465,"15":-0.008792745880782604,"16":0.03446044400334358,"17":0.011922855861485004,"18":-0.07062210887670517,"19":0.06618700176477432,"20":0.049905985593795776,"21":0.0552058219909668,"22":-0.028458649292588234,"23":0.06299201399087906,"24":-0.030934011563658714}},"inputBias":{"rows":5,"columns":1,"weights":{"0":1.1668561082645024e-12,"1":-5.985509939250566e-13,"2":-8.330067863791812e-13,"3":-3.006559844836998e-13,"4":1.0844094583883565e-13}},"forgetMatrix":{"rows":5,"columns":5,"weights":{"0":-0.015558927319943905,"1":-0.005046597681939602,"2":-0.07848364114761353,"3":-0.06124463304877281,"4":-0.05544067919254303,"5":-0.006000686902552843,"6":-0.04561741650104523,"7":-0.0694955363869667,"8":-0.0008305345545522869,"9":-0.0660364180803299,"10":-0.05021371692419052,"11":-0.043946634978055954,"12":-0.04863254725933075,"13":0.015192944556474686,"14":-0.04763728380203247,"15":-0.026281606405973434,"16":-0.0333222933113575,"17":0.0631122812628746,"18":0.031567905098199844,"19":-0.060604795813560486,"20":-0.056959278881549835,"21":-0.06816691160202026,"22":-0.021687136963009834,"23":-0.0630178302526474,"24":0.06910796463489532}},"forgetHidden":{"rows":5,"columns":5,"weights":{"0":0.07260650396347046,"1":0.0002838356886059046,"2":0.051899343729019165,"3":0.04315591976046562,"4":0.019929973408579826,"5":-0.06207326799631119,"6":0.05183897539973259,"7":-0.044645704329013824,"8":-0.017436658963561058,"9":-0.07479099184274673,"10":0.06944619119167328,"11":0.0705636665225029,"12":-0.07486855983734131,"13":0.0650436207652092,"14":-0.05760087072849274,"15":0.013375984504818916,"16":0.03260158374905586,"17":-0.023589693009853363,"18":-0.051488686352968216,"19":-0.05444548651576042,"20":0.07123417407274246,"21":0.018890539184212685,"22":0.035146620124578476,"23":0.034718818962574005,"24":-0.006204618141055107}},"forgetBias":{"rows":5,"columns":1,"weights":{"0":0,"1":0,"2":0,"3":0,"4":0}},"outputMatrix":{"rows":5,"columns":5,"weights":{"0":-0.02100275829434395,"1":-0.04107222706079483,"2":0.04995359480381012,"3":-0.042265281081199646,"4":-0.05601431801915169,"5":-0.05743509158492088,"6":0.05591515079140663,"7":-0.02477797120809555,"8":-0.02883654274046421,"9":-0.0017909425077959895,"10":0.07546906918287277,"11":-0.053321100771427155,"12":-0.06885064393281937,"13":0.05544794723391533,"14":0.05523541197180748,"15":0.0038430786225944757,"16":-0.047402523458004,"17":-0.06128106266260147,"18":-0.07421351969242096,"19":0.018524250015616417,"20":0.07317501306533813,"21":-0.03041899763047695,"22":-0.023537492379546165,"23":0.05619674548506737,"24":-0.006828571669757366}},"outputHidden":{"rows":5,"columns":5,"weights":{"0":0.004797342699021101,"1":-0.03768422454595566,"2":0.02988455817103386,"3":-0.052073847502470016,"4":0.04030214995145798,"5":0.0382341705262661,"6":-0.038939982652664185,"7":0.04486411064863205,"8":0.04808620736002922,"9":0.002386425156146288,"10":-0.04137445613741875,"11":0.013908552005887032,"12":0.02007715404033661,"13":0.03496890887618065,"14":-0.030127184465527534,"15":0.05891222506761551,"16":-0.07481393963098526,"17":-0.006190815940499306,"18":0.002613212214782834,"19":0.07462241500616074,"20":0.06583955138921738,"21":0.07346788048744202,"22":-0.03587806969881058,"23":-0.05086734518408775,"24":0.01775164157152176}},"outputBias":{"rows":5,"columns":1,"weights":{"0":1.1668335568593147e-12,"1":-5.985435671401751e-13,"2":-8.329979501314755e-13,"3":-3.006555236977765e-13,"4":1.0844098649641712e-13}},"cellActivationMatrix":{"rows":5,"columns":5,"weights":{"0":-0.06889840960502625,"1":0.030667860060930252,"2":-0.034376583993434906,"3":0.07388132065534592,"4":-0.03342221677303314,"5":-0.04086184501647949,"6":0.06308194994926453,"7":0.008093087933957577,"8":0.04161059111356735,"9":-0.029484521597623825,"10":0.03698403388261795,"11":0.04353052005171776,"12":0.024850863963365555,"13":0.01499178260564804,"14":-0.058232858777046204,"15":0.03602052852511406,"16":0.060241471976041794,"17":-0.06987585872411728,"18":-0.027416400611400604,"19":0.04089132323861122,"20":0.004293177742511034,"21":-0.06167982146143913,"22":0.07631071656942368,"23":-0.04253532364964485,"24":0.07821927219629288}},"cellActivationHidden":{"rows":5,"columns":5,"weights":{"0":0.048407360911369324,"1":0.07885008305311203,"2":-0.038217008113861084,"3":-0.00980450864881277,"4":-0.05297335982322693,"5":-0.0025205034762620926,"6":-0.07952422648668289,"7":-0.06065177172422409,"8":0.06704378128051758,"9":0.017752613872289658,"10":0.05470990017056465,"11":-0.04798484966158867,"12":-0.001275720656849444,"13":-0.012557342648506165,"14":0.05777066946029663,"15":-0.07073914259672165,"16":0.023258699104189873,"17":-0.04528193175792694,"18":0.009064611978828907,"19":0.03136201947927475,"20":0.06848450750112534,"21":0.049106188118457794,"22":-0.039670705795288086,"23":-0.07654902338981628,"24":-0.05491030961275101}},"cellActivationBias":{"rows":5,"columns":1,"weights":{"0":-6.074987624060668e-8,"1":3.624872846330618e-8,"2":1.7633875870615157e-7,"3":1.6721088513804716e-7,"4":7.146889302589443e-9}}},{"inputMatrix":{"rows":5,"columns":5,"weights":{"0":-0.05974060297012329,"1":0.04573463276028633,"2":-0.05713038891553879,"3":0.012521246448159218,"4":-0.05244293808937073,"5":0.033443719148635864,"6":0.016433732584118843,"7":-0.03802105784416199,"8":-0.004427760373800993,"9":0.07635253667831421,"10":0.02102477476000786,"11":0.05198905989527702,"12":0.06606905907392502,"13":0.027361594140529633,"14":-0.023086246103048325,"15":-0.06761030107736588,"16":0.06527598947286606,"17":0.026320302858948708,"18":-0.07165445387363434,"19":0.07115218043327332,"20":-0.009447963908314705,"21":0.04693947732448578,"22":0.004009669180959463,"23":-0.004220960196107626,"24":0.07150539010763168}},"inputHidden":{"rows":5,"columns":5,"weights":{"0":-0.01880406029522419,"1":-0.07717642188072205,"2":0.07894439250230789,"3":-0.006374677177518606,"4":0.018008548766374588,"5":-0.06986051797866821,"6":0.011481302790343761,"7":0.01619022525846958,"8":0.025919292122125626,"9":0.0568336620926857,"10":0.02139776386320591,"11":-0.050230372697114944,"12":-0.07912334054708481,"13":0.006887608207762241,"14":0.04959946125745773,"15":0.07330033928155899,"16":-0.02132783830165863,"17":0.03638950735330582,"18":-0.07239846885204315,"19":-0.06230602040886879,"20":-0.012141568586230278,"21":-0.03664903715252876,"22":0.006331939250230789,"23":0.011278757825493813,"24":-0.0011729537509381771}},"inputBias":{"rows":5,"columns":1,"weights":{"0":-6.027271238530363e-13,"1":-6.345766197669162e-14,"2":-4.784343291008332e-14,"3":1.744652057371343e-13,"4":3.993788372930185e-12}},"forgetMatrix":{"rows":5,"columns":5,"weights":{"0":-0.049715008586645126,"1":-0.017705783247947693,"2":-0.047226544469594955,"3":0.052223216742277145,"4":0.003806653432548046,"5":0.07575587183237076,"6":-0.0008198991417884827,"7":-0.03410699963569641,"8":-0.017747221514582634,"9":-0.07349073141813278,"10":-0.036032337695360184,"11":0.01779945008456707,"12":0.07602915912866592,"13":0.06656226515769958,"14":-0.07166152447462082,"15":-0.009140347130596638,"16":0.049752622842788696,"17":0.0023833110462874174,"18":-0.017968792468309402,"19":0.01467222161591053,"20":0.06053691357374191,"21":0.0732538253068924,"22":0.029984356835484505,"23":-0.07532388716936111,"24":-0.05214795470237732}},"forgetHidden":{"rows":5,"columns":5,"weights":{"0":-0.03073255717754364,"1":-0.030996087938547134,"2":-0.002916923724114895,"3":-0.04148701950907707,"4":-0.040665075182914734,"5":0.02621403895318508,"6":0.06738517433404922,"7":0.03746941313147545,"8":0.014181734062731266,"9":-0.06231062859296799,"10":0.02305321767926216,"11":0.01594661921262741,"12":-0.006049444433301687,"13":-0.012376740574836731,"14":0.037832111120224,"15":-0.020021701231598854,"16":0.03638377785682678,"17":-0.03551595285534859,"18":0.007788619492202997,"19":-0.006981715559959412,"20":-0.07294480502605438,"21":-0.024981768801808357,"22":0.0447380393743515,"23":0.014158749021589756,"24":0.07167257368564606}},"forgetBias":{"rows":5,"columns":1,"weights":{"0":0,"1":0,"2":0,"3":0,"4":0}},"outputMatrix":{"rows":5,"columns":5,"weights":{"0":-0.0024976751301437616,"1":0.04282110184431076,"2":0.010613368824124336,"3":-0.07449276000261307,"4":0.07213778048753738,"5":-0.04921383410692215,"6":-0.033788226544857025,"7":-0.020499469712376595,"8":-0.02856483682990074,"9":-0.0011931704357266426,"10":-0.033065471798181534,"11":-0.033695366233587265,"12":-0.05217903479933739,"13":0.025202952325344086,"14":-0.007436132989823818,"15":0.03576894477009773,"16":0.023369919508695602,"17":-0.028014542534947395,"18":-0.04766371473670006,"19":-0.05381139740347862,"20":-0.03283965215086937,"21":-0.048938997089862823,"22":0.01778486557304859,"23":-0.07000026851892471,"24":0.03641476854681969}},"outputHidden":{"rows":5,"columns":5,"weights":{"0":-0.07048559188842773,"1":0.00483724195510149,"2":-0.04352767765522003,"3":0.056232474744319916,"4":-0.054520949721336365,"5":0.056844841688871384,"6":-0.07689162343740463,"7":-0.023821651935577393,"8":0.02002202719449997,"9":-0.012166302651166916,"10":-0.048555076122283936,"11":-0.04675103351473808,"12":-0.042112261056900024,"13":-0.020877068862318993,"14":-0.07630570977926254,"15":-0.03772660344839096,"16":0.03391053527593613,"17":-0.03560873121023178,"18":0.07040423154830933,"19":-0.06974456459283829,"20":0.035860031843185425,"21":0.05008378252387047,"22":0.07532796263694763,"23":-0.05592197924852371,"24":-0.062197908759117126}},"outputBias":{"rows":5,"columns":1,"weights":{"0":-6.027269612227104e-13,"1":-6.345760776658299e-14,"2":-4.7843409193160796e-14,"3":1.7446531415735156e-13,"4":3.993786638206709e-12}},"cellActivationMatrix":{"rows":5,"columns":5,"weights":{"0":0.06550870835781097,"1":-0.05105054751038551,"2":-0.025866154581308365,"3":0.031254254281520844,"4":-0.05141984298825264,"5":-0.07972528040409088,"6":0.04331738501787186,"7":0.06393462419509888,"8":0.062342338263988495,"9":-0.0012708930298686028,"10":-0.05046553164720535,"11":0.07090472429990768,"12":0.007725920993834734,"13":-0.05443131923675537,"14":-0.0787666067481041,"15":0.020738717168569565,"16":-0.03307954967021942,"17":0.06426816433668137,"18":0.002476408379152417,"19":-0.005822876002639532,"20":0.021272102370858192,"21":-0.01603034883737564,"22":-0.052094921469688416,"23":-0.03182289004325867,"24":-0.012420262210071087}},"cellActivationHidden":{"rows":5,"columns":5,"weights":{"0":0.019092367962002754,"1":-0.027333851903676987,"2":-0.010916659608483315,"3":-0.01930300146341324,"4":-0.06391783058643341,"5":0.02491876296699047,"6":0.034987494349479675,"7":0.05258699133992195,"8":0.0087314173579216,"9":-0.06580892205238342,"10":0.004690205678343773,"11":-0.0673680454492569,"12":-0.07703284174203873,"13":0.012155845761299133,"14":0.07440778613090515,"15":0.05003611743450165,"16":0.02140914648771286,"17":-0.020115839317440987,"18":0.02481037750840187,"19":-0.010961225256323814,"20":0.026714833453297615,"21":0.01195889338850975,"22":-0.0758226290345192,"23":-0.01866181753575802,"24":-0.009834927506744862}},"cellActivationBias":{"rows":5,"columns":1,"weights":{"0":0.000002338910235266667,"1":9.885224017125438e-7,"2":5.5218503547393993e-8,"3":-8.24849564651231e-7,"4":-0.00001064298612618586}}},{"inputMatrix":{"rows":5,"columns":5,"weights":{"0":-0.025378156453371048,"1":-0.04512936621904373,"2":-0.0661921501159668,"3":-0.0351252518594265,"4":0.00031388315255753696,"5":-0.04088061302900314,"6":0.038851696997880936,"7":-0.07558415085077286,"8":-0.050770360976457596,"9":0.02476772665977478,"10":-0.027890954166650772,"11":-0.07163237780332565,"12":0.02594568207859993,"13":0.029212256893515587,"14":0.060418516397476196,"15":-0.06123766303062439,"16":0.042361509054899216,"17":0.02391919121146202,"18":-0.02428150177001953,"19":-0.04689663648605347,"20":-0.040675848722457886,"21":0.04378204420208931,"22":0.05979437008500099,"23":-0.07589612156152725,"24":0.07603004574775696}},"inputHidden":{"rows":5,"columns":5,"weights":{"0":-0.016456976532936096,"1":-0.016886979341506958,"2":-0.017634157091379166,"3":0.026397455483675003,"4":0.06061669439077377,"5":-0.06798075884580612,"6":0.040372639894485474,"7":-0.006901389453560114,"8":0.040713876485824585,"9":-0.04180217906832695,"10":-0.0735686644911766,"11":0.05301205813884735,"12":-0.04545040801167488,"13":0.07486270368099213,"14":0.037120550870895386,"15":-0.07167649269104004,"16":-0.041677601635456085,"17":-0.05513201281428337,"18":0.07159154117107391,"19":0.04108370840549469,"20":0.061890698969364166,"21":-0.009217564016580582,"22":-0.02347135730087757,"23":-0.0475432351231575,"24":-0.00031972871511243284}},"inputBias":{"rows":5,"columns":1,"weights":{"0":9.521349264574042e-10,"1":4.0155870295599527e-10,"2":9.149283553000487e-10,"3":-7.945336610859499e-10,"4":5.17938358868264e-10}},"forgetMatrix":{"rows":5,"columns":5,"weights":{"0":-0.028635066002607346,"1":0.04044921696186066,"2":0.06619254499673843,"3":-0.05827806517481804,"4":0.03319939970970154,"5":0.07848620414733887,"6":-0.065506711602211,"7":-0.06457497179508209,"8":-0.05806060507893562,"9":0.0672684833407402,"10":0.05017108470201492,"11":0.04687340930104256,"12":-0.043101996183395386,"13":-0.07880265265703201,"14":0.06810184568166733,"15":0.01318302471190691,"16":-0.048302315175533295,"17":0.017268924042582512,"18":-0.017716912552714348,"19":0.035832613706588745,"20":0.056622639298439026,"21":0.008419268764555454,"22":-0.05992024391889572,"23":0.04159955307841301,"24":-0.008223447948694229}},"forgetHidden":{"rows":5,"columns":5,"weights":{"0":-0.036646414548158646,"1":0.010013410821557045,"2":0.022599153220653534,"3":-0.07708626985549927,"4":-0.07348303496837616,"5":-0.02436334267258644,"6":-0.03209295496344566,"7":-0.015277463011443615,"8":-0.016618715599179268,"9":0.06285238265991211,"10":0.060099419206380844,"11":-0.07765155285596848,"12":0.008778516203165054,"13":-0.06311704218387604,"14":0.039884865283966064,"15":-0.013223089277744293,"16":-0.014770030975341797,"17":0.032648179680109024,"18":0.04564887657761574,"19":0.07688490301370621,"20":0.036118246614933014,"21":-0.04856688529253006,"22":0.03821922466158867,"23":0.0662517324090004,"24":-0.030720748007297516}},"forgetBias":{"rows":5,"columns":1,"weights":{"0":0,"1":0,"2":0,"3":0,"4":0}},"outputMatrix":{"rows":5,"columns":5,"weights":{"0":-0.01908537745475769,"1":0.06508434563875198,"2":0.03894425928592682,"3":0.013571059331297874,"4":0.07921464741230011,"5":0.04660302400588989,"6":0.05051371827721596,"7":-0.0031676609069108963,"8":0.002294922713190317,"9":0.03188958391547203,"10":0.013266711495816708,"11":0.0400732159614563,"12":-0.031752802431583405,"13":0.015624388121068478,"14":-0.05141998827457428,"15":0.07540415227413177,"16":0.07108704745769501,"17":0.021804703399538994,"18":0.07485692948102951,"19":0.037600982934236526,"20":-0.01492241770029068,"21":0.06564608961343765,"22":0.048567719757556915,"23":0.059879302978515625,"24":0.003649416146799922}},"outputHidden":{"rows":5,"columns":5,"weights":{"0":0.04264423996210098,"1":0.0027244703378528357,"2":-0.02623383328318596,"3":0.04785298928618431,"4":0.05085906758904457,"5":0.051934078335762024,"6":-0.006294072140008211,"7":-0.022473178803920746,"8":-0.039129871875047684,"9":0.05030985176563263,"10":-0.0791497528553009,"11":-0.0373414047062397,"12":-0.006940650753676891,"13":-0.006658800411969423,"14":0.040312737226486206,"15":-0.0016218522796407342,"16":0.03977528586983681,"17":0.007836953736841679,"18":0.0741007998585701,"19":-0.010593907907605171,"20":0.03338772803544998,"21":-0.07146508246660233,"22":0.07695171236991882,"23":0.009367925114929676,"24":-0.02351595088839531}},"outputBias":{"rows":5,"columns":1,"weights":{"0":9.52135148502009e-10,"1":4.0155870295599527e-10,"2":9.149280222331413e-10,"3":-7.945336610859499e-10,"4":5.179382478459615e-10}},"cellActivationMatrix":{"rows":5,"columns":5,"weights":{"0":-0.03499235957860947,"1":0.0754622295498848,"2":-0.047549668699502945,"3":0.0494096539914608,"4":0.07966180890798569,"5":-0.07233626395463943,"6":-0.04279588162899017,"7":-0.028694769367575645,"8":-0.02312878891825676,"9":-0.054149214178323746,"10":0.021347595378756523,"11":0.0517696775496006,"12":-0.05312194675207138,"13":0.03683396428823471,"14":-0.04286065697669983,"15":-0.015328210778534412,"16":0.03513490781188011,"17":0.06684664636850357,"18":0.06908798217773438,"19":0.07646551728248596,"20":-0.01936095952987671,"21":-0.02219698578119278,"22":0.009735205210745335,"23":0.05524682253599167,"24":0.06529244035482407}},"cellActivationHidden":{"rows":5,"columns":5,"weights":{"0":-0.03150743246078491,"1":-0.022991463541984558,"2":0.0021167679224163294,"3":-0.009410812519490719,"4":0.04621901735663414,"5":0.005380111280828714,"6":0.05384381487965584,"7":-0.0027654990553855896,"8":-0.07329242676496506,"9":0.07146719098091125,"10":-0.0794394388794899,"11":0.010031499899923801,"12":0.017976073548197746,"13":-0.07274025678634644,"14":-0.005803735461086035,"15":0.0365905724465847,"16":-0.03434395417571068,"17":0.006437387783080339,"18":0.028508970513939857,"19":0.025136487558484077,"20":-0.02365841157734394,"21":-0.0621810182929039,"22":-0.056006722152233124,"23":-0.07391060888767242,"24":0.017912087962031364}},"cellActivationBias":{"rows":5,"columns":1,"weights":{"0":-0.000175694192876108,"1":0.00008643870387459174,"2":0.0002331068681087345,"3":0.00010708625632105395,"4":-0.00015484887990169227}}},{"inputMatrix":{"rows":5,"columns":5,"weights":{"0":0.02365582250058651,"1":0.011540061794221401,"2":-0.043036334216594696,"3":-0.011852588504552841,"4":-0.010798930190503597,"5":0.04054434224963188,"6":0.07787153124809265,"7":-0.04215943440794945,"8":-0.00871345866471529,"9":0.01911056786775589,"10":0.01595214195549488,"11":-0.04545741155743599,"12":-0.0798720195889473,"13":0.06801363080739975,"14":-0.0008234738488681614,"15":0.01191740296781063,"16":-0.028097759932279587,"17":-0.060349415987730026,"18":0.06552250683307648,"19":-0.04814061149954796,"20":0.015593989752233028,"21":-0.04879361763596535,"22":0.04495466127991676,"23":0.051293183118104935,"24":-0.0675153061747551}},"inputHidden":{"rows":5,"columns":5,"weights":{"0":-0.06180822104215622,"1":0.07181693613529205,"2":0.07398814707994461,"3":-0.07052913308143616,"4":0.035989899188280106,"5":0.05030421167612076,"6":-0.07425311952829361,"7":0.046398814767599106,"8":0.028318608179688454,"9":0.017889490351080894,"10":0.024847639724612236,"11":-0.02998981438577175,"12":0.004609470721334219,"13":-0.0442717969417572,"14":-0.033563364297151566,"15":-0.04119054600596428,"16":0.026711314916610718,"17":-0.06475251168012619,"18":-0.05743972957134247,"19":0.027601882815361023,"20":-0.04876938462257385,"21":-0.02654539979994297,"22":0.044788919389247894,"23":-0.061720576137304306,"24":-0.022025108337402344}},"inputBias":{"rows":5,"columns":1,"weights":{"0":-5.1507145215623495e-9,"1":1.9285513630507012e-8,"2":9.73777673607401e-7,"3":0.000002557335847086506,"4":-8.492601182297221e-7}},"forgetMatrix":{"rows":5,"columns":5,"weights":{"0":0.03777001053094864,"1":0.0700378492474556,"2":-0.0486939437687397,"3":0.057519927620887756,"4":0.03855369612574577,"5":-0.003789544804021716,"6":-0.010046999901533127,"7":0.05399708077311516,"8":0.020152423530817032,"9":0.04788055270910263,"10":-0.02536008134484291,"11":0.00023433176102116704,"12":-0.014070870354771614,"13":-0.025760505348443985,"14":0.07615121454000473,"15":0.01726057007908821,"16":-0.04597232863306999,"17":0.05017771199345589,"18":0.06446533650159836,"19":0.07337264716625214,"20":-0.06954121589660645,"21":-0.04063982889056206,"22":0.043852902948856354,"23":0.017211712896823883,"24":0.048938002437353134}},"forgetHidden":{"rows":5,"columns":5,"weights":{"0":0.05883443355560303,"1":-0.04156546667218208,"2":-0.009413695894181728,"3":-0.04031519964337349,"4":0.015295474790036678,"5":0.0096201216802001,"6":-0.04212913289666176,"7":0.01732657104730606,"8":-0.0683678537607193,"9":0.027725988999009132,"10":-0.06688443571329117,"11":0.06208344176411629,"12":-0.012847188860177994,"13":0.056141532957553864,"14":0.07658415287733078,"15":0.029281210154294968,"16":0.016767948865890503,"17":-0.03460612893104553,"18":0.07893618196249008,"19":0.024909183382987976,"20":0.052183847874403,"21":-0.060314442962408066,"22":0.05756652355194092,"23":-0.002216990804299712,"24":-0.004842040594667196}},"forgetBias":{"rows":5,"columns":1,"weights":{"0":0,"1":0,"2":0,"3":0,"4":0}},"outputMatrix":{"rows":5,"columns":5,"weights":{"0":0.00557217700406909,"1":-0.0018251166911795735,"2":-0.061869096010923386,"3":0.03125329315662384,"4":-0.03644765168428421,"5":0.04931135103106499,"6":-0.06925608962774277,"7":-0.07893727719783783,"8":0.024468418210744858,"9":0.01779072731733322,"10":-0.01494766678661108,"11":-0.002728214953094721,"12":-0.07595647126436234,"13":-0.04794130474328995,"14":0.04066867753863335,"15":-0.059094853699207306,"16":-0.018092673271894455,"17":0.06118975579738617,"18":0.03176470473408699,"19":-0.03990807756781578,"20":-0.05254913866519928,"21":-0.05078458786010742,"22":-0.015135574154555798,"23":0.03055177815258503,"24":0.0550643727183342}},"outputHidden":{"rows":5,"columns":5,"weights":{"0":-0.0733744278550148,"1":0.011294053867459297,"2":-0.05123491957783699,"3":0.05921338126063347,"4":0.038357365876436234,"5":0.0690808892250061,"6":-0.05832632631063461,"7":-0.04688362777233124,"8":-0.054189763963222504,"9":0.00034860020969063044,"10":-0.04483115300536156,"11":0.05698833614587784,"12":0.0033691758289933205,"13":-0.040495701134204865,"14":0.041986774653196335,"15":0.06893838196992874,"16":-0.05752279981970787,"17":-0.009338048286736012,"18":-0.06627223640680313,"19":-0.03328591212630272,"20":0.0603729747235775,"21":0.06901552528142929,"22":-0.00344729027710855,"23":-0.006633170414716005,"24":0.07108728587627411}},"outputBias":{"rows":5,"columns":1,"weights":{"0":-5.150707416134992e-9,"1":1.9285506525079654e-8,"2":9.737805157783441e-7,"3":0.000002557334937591804,"4":-8.492682468386192e-7}},"cellActivationMatrix":{"rows":5,"columns":5,"weights":{"0":0.028640955686569214,"1":0.026972100138664246,"2":-0.05193992331624031,"3":-0.0017772013088688254,"4":0.034289490431547165,"5":0.016068972647190094,"6":0.03591213747859001,"7":-0.07658654451370239,"8":-0.023882629349827766,"9":-0.03320617228746414,"10":0.0675443559885025,"11":-0.052367426455020905,"12":-0.0112905940040946,"13":-0.02149110659956932,"14":0.020342152565717697,"15":-0.005660349503159523,"16":0.012006138451397419,"17":0.02909921668469906,"18":-0.051572080701589584,"19":-0.032417092472314835,"20":-0.03700121119618416,"21":0.03216894716024399,"22":0.021254759281873703,"23":0.07683147490024567,"24":-0.06773311644792557}},"cellActivationHidden":{"rows":5,"columns":5,"weights":{"0":0.01122008915990591,"1":-0.02048296108841896,"2":0.010697443038225174,"3":0.040440212935209274,"4":0.07680581510066986,"5":-0.02911728248000145,"6":-0.04651961475610733,"7":-0.03982456028461456,"8":0.043211158365011215,"9":0.06604553759098053,"10":0.03607400879263878,"11":-0.019285162910819054,"12":0.01921551115810871,"13":-0.07428035140037537,"14":0.03939065709710121,"15":0.052962206304073334,"16":-0.07639501243829727,"17":0.08034767955541611,"18":-0.053428903222084045,"19":-0.07222969084978104,"20":0.0633496567606926,"21":-0.0547814778983593,"22":0.04255558177828789,"23":0.07234955579042435,"24":-0.04729508236050606}},"cellActivationBias":{"rows":5,"columns":1,"weights":{"0":0.000678215001244098,"1":-0.004377064295113087,"2":-0.002930933842435479,"3":0.005537646356970072,"4":0.005416911095380783}}},{"inputMatrix":{"rows":5,"columns":5,"weights":{"0":0.01873987354338169,"1":0.04622795805335045,"2":0.038867998868227005,"3":0.015493703074753284,"4":-0.04188023880124092,"5":-0.04554599151015282,"6":0.06716405600309372,"7":-0.07823873311281204,"8":-0.04089783504605293,"9":-0.05737210810184479,"10":0.025517666712403297,"11":-0.05886702984571457,"12":-0.036550864577293396,"13":-0.0032355356961488724,"14":-0.06097530946135521,"15":0.011267850175499916,"16":-0.022249650210142136,"17":-0.035975437611341476,"18":0.0782385841012001,"19":0.03841925784945488,"20":0.056033726781606674,"21":0.03221128135919571,"22":0.05687226355075836,"23":-0.019671179354190826,"24":0.0357627347111702}},"inputHidden":{"rows":5,"columns":5,"weights":{"0":0.03894142806529999,"1":0.05596795305609703,"2":-0.03223735839128494,"3":0.006093316245824099,"4":-0.030516039580106735,"5":0.014109477400779724,"6":0.0034819922875612974,"7":0.033822305500507355,"8":0.0071166278794407845,"9":-0.00915753934532404,"10":-0.06351171433925629,"11":0.020519118756055832,"12":-0.05450546741485596,"13":-0.0448015071451664,"14":-0.036073219031095505,"15":-0.016872268170118332,"16":0.058421071618795395,"17":-0.04435213655233383,"18":-0.06917057186365128,"19":-0.06842339783906937,"20":-0.06597399711608887,"21":-0.06511299312114716,"22":-0.031606726348400116,"23":-0.06876412779092789,"24":-0.051369376480579376}},"inputBias":{"rows":5,"columns":1,"weights":{"0":-0.00026099756360054016,"1":-0.0014086534501984715,"2":-0.00015799385437276214,"3":0.0005477255908772349,"4":0.00007416162407025695}},"forgetMatrix":{"rows":5,"columns":5,"weights":{"0":-0.0359942801296711,"1":0.024137206375598907,"2":-0.05984353646636009,"3":-0.01963927410542965,"4":0.05745064467191696,"5":-0.06503608077764511,"6":0.008507597260177135,"7":0.0732889324426651,"8":-0.03965512663125992,"9":0.05886485427618027,"10":-0.03312036395072937,"11":-0.029934054240584373,"12":-0.011435040272772312,"13":-0.02137286588549614,"14":0.07851344347000122,"15":0.014884000644087791,"16":0.06355799734592438,"17":-0.047818802297115326,"18":0.05267171561717987,"19":0.07367955893278122,"20":-0.07859417796134949,"21":-0.042239245027303696,"22":0.02373064123094082,"23":0.008200276643037796,"24":-0.06074937433004379}},"forgetHidden":{"rows":5,"columns":5,"weights":{"0":0.04817543178796768,"1":0.01742664910852909,"2":-0.0562516413629055,"3":0.04852840676903725,"4":0.05778561905026436,"5":-0.00952993705868721,"6":-0.0001543362159281969,"7":0.07727903872728348,"8":0.026194622740149498,"9":0.06710239499807358,"10":-0.02866934984922409,"11":0.07926028966903687,"12":-0.06798234581947327,"13":-0.062409184873104095,"14":-0.023101771250367165,"15":-0.06425058096647263,"16":-0.05987416207790375,"17":0.06954629719257355,"18":-0.03507518768310547,"19":0.017895257100462914,"20":-0.04146789759397507,"21":0.02481381967663765,"22":-0.004256660118699074,"23":0.06645125150680542,"24":0.005365900229662657}},"forgetBias":{"rows":5,"columns":1,"weights":{"0":0,"1":0,"2":0,"3":0,"4":0}},"outputMatrix":{"rows":5,"columns":5,"weights":{"0":-0.07847432792186737,"1":0.03061964362859726,"2":0.041870903223752975,"3":0.07958288490772247,"4":-0.052423395216464996,"5":-0.058716751635074615,"6":0.04608875513076782,"7":-0.06554902344942093,"8":0.05805017799139023,"9":0.03481675684452057,"10":0.003913730848580599,"11":-0.04069262370467186,"12":0.016709299758076668,"13":0.06373260915279388,"14":0.051892202347517014,"15":0.06793225556612015,"16":0.009422529488801956,"17":0.015372554771602154,"18":0.04226946085691452,"19":0.03961646929383278,"20":-0.051353517919778824,"21":-0.03132472187280655,"22":0.0062410118989646435,"23":-0.07783548533916473,"24":0.05398048087954521}},"outputHidden":{"rows":5,"columns":5,"weights":{"0":-0.07287022471427917,"1":-0.06981415301561356,"2":0.035022005438804626,"3":0.00317583279684186,"4":-0.02614089660346508,"5":-0.06600543111562729,"6":-0.004856465384364128,"7":-0.07448748499155045,"8":-0.02623281069099903,"9":0.054908011108636856,"10":0.06398019939661026,"11":0.0073538972064852715,"12":-0.07041165977716446,"13":-0.04318812116980553,"14":-0.03380449488759041,"15":0.04790790379047394,"16":0.03866502642631531,"17":0.0604267418384552,"18":0.0482550710439682,"19":-0.001137243234552443,"20":0.011309477500617504,"21":-0.01154809258878231,"22":-0.006015206221491098,"23":0.0617900975048542,"24":-0.05910617113113403}},"outputBias":{"rows":5,"columns":1,"weights":{"0":-0.0002610256487969309,"1":-0.0014123147120699286,"2":-0.00016012015112210065,"3":0.0005483413697220385,"4":0.00007417496090056375}},"cellActivationMatrix":{"rows":5,"columns":5,"weights":{"0":-0.06459808349609375,"1":-0.051744941622018814,"2":-0.03172832727432251,"3":0.054470937699079514,"4":0.03356507048010826,"5":-0.07337698340415955,"6":-0.08287215977907181,"7":0.10418812930583954,"8":-0.10463884472846985,"9":0.09934540092945099,"10":0.057275667786598206,"11":-0.007459816988557577,"12":0.017306260764598846,"13":-0.017328010872006416,"14":0.06553499400615692,"15":-0.010803179815411568,"16":-0.0559760183095932,"17":-0.0320318378508091,"18":0.03980579599738121,"19":0.007612164132297039,"20":-0.04985659942030907,"21":0.05572982877492905,"22":0.08207142353057861,"23":-0.045262500643730164,"24":0.02419876866042614}},"cellActivationHidden":{"rows":5,"columns":5,"weights":{"0":-0.11885309219360352,"1":0.2470266968011856,"2":0.044068481773138046,"3":-0.11193034797906876,"4":-0.10801512748003006,"5":-1.0114758014678955,"6":1.0787369012832642,"7":0.11397611349821091,"8":-0.6900415420532227,"9":-0.21128135919570923,"10":-1.6059507131576538,"11":1.6492844820022583,"12":0.19169671833515167,"13":-0.9949949383735657,"14":-0.2855893671512604,"15":-0.7920282483100891,"16":0.8054782748222351,"17":0.005864409729838371,"18":-0.4762820303440094,"19":-0.18620997667312622,"20":-0.10730939358472824,"21":0.13807570934295654,"22":0.023364242166280746,"23":-0.05314526706933975,"24":-0.06652010977268219}},"cellActivationBias":{"rows":5,"columns":1,"weights":{"0":-0.00928990263491869,"1":0.10698328912258148,"2":0.2566942870616913,"3":0.0838393047451973,"4":0.035185568034648895}}},{"inputMatrix":{"rows":5,"columns":5,"weights":{"0":-3.793929100036621,"1":3.7354536056518555,"2":0.3046157956123352,"3":-2.402127265930176,"4":-0.7742328643798828,"5":-0.9100496172904968,"6":0.9115519523620605,"7":-0.010468036867678165,"8":-0.4721065163612366,"9":-0.23114962875843048,"10":0.3176614046096802,"11":-0.2213180959224701,"12":-0.05384601280093193,"13":0.17627736926078796,"14":0.05133841559290886,"15":-3.1760127544403076,"16":3.1987552642822266,"17":0.15364712476730347,"18":-1.9479817152023315,"19":-0.699414849281311,"20":0.7931463122367859,"21":-0.7549094557762146,"22":-0.012095704674720764,"23":0.5735805034637451,"24":0.12598469853401184}},"inputHidden":{"rows":5,"columns":5,"weights":{"0":-9.488636016845703,"1":9.250056266784668,"2":-9.410613059997559,"3":9.40404987335205,"4":9.331768989562988,"5":-9.13748550415039,"6":6.57573127746582,"7":-7.4408063888549805,"8":8.785859107971191,"9":8.068851470947266,"10":7.157828330993652,"11":-2.4902193546295166,"12":3.281693458557129,"13":-5.541370391845703,"14":-4.119628429412842,"15":-9.49740219116211,"16":9.168063163757324,"17":-9.319372177124023,"18":9.386380195617676,"19":9.349052429199219,"20":9.192691802978516,"21":-6.371843338012695,"22":7.213248252868652,"23":-8.7601957321167,"24":-7.872272491455078}},"inputBias":{"rows":5,"columns":1,"weights":{"0":0.5576525926589966,"1":0.07556793838739395,"2":-0.018303271383047104,"3":0.4405532479286194,"4":-0.10431887209415436}},"forgetMatrix":{"rows":5,"columns":5,"weights":{"0":-1.3039658069610596,"1":1.425537347793579,"2":0.09289522469043732,"3":-0.9096657633781433,"4":-0.23818930983543396,"5":-0.25866299867630005,"6":0.29517117142677307,"7":0.0686284527182579,"8":-0.1268179565668106,"9":-0.04371331259608269,"10":0.12192131578922272,"11":-0.0798429474234581,"12":-0.06367544084787369,"13":-0.006543368101119995,"14":-0.036362066864967346,"15":-1.0912365913391113,"16":1.1062190532684326,"17":0.016514942049980164,"18":-0.71978360414505,"19":-0.15983173251152039,"20":0.2550540566444397,"21":-0.294860303401947,"22":-0.07330790162086487,"23":0.12278026342391968,"24":0.06296823173761368}},"forgetHidden":{"rows":5,"columns":5,"weights":{"0":-9.323883056640625,"1":7.894307613372803,"2":-8.4834566116333,"3":9.162311553955078,"4":8.797892570495605,"5":-7.575418949127197,"6":2.815171003341675,"7":-3.6130709648132324,"8":6.021478176116943,"9":4.418514728546143,"10":3.493133068084717,"11":-0.8237515091896057,"12":1.187931776046753,"13":-2.2073400020599365,"14":-1.4346821308135986,"15":-9.365074157714844,"16":7.44803524017334,"17":-8.089323043823242,"18":9.115928649902344,"19":8.589668273925781,"20":7.352002143859863,"21":-2.760244607925415,"22":3.4487416744232178,"23":-5.814862251281738,"24":-4.2115797996521}},"forgetBias":{"rows":5,"columns":1,"weights":{"0":0,"1":0,"2":0,"3":0,"4":0}},"outputMatrix":{"rows":5,"columns":5,"weights":{"0":-4.806045055389404,"1":4.787683486938477,"2":0.3904288411140442,"3":-3.1781468391418457,"4":-1.1123502254486084,"5":-1.1323621273040771,"6":1.2047576904296875,"7":0.08354420214891434,"8":-0.6369713544845581,"9":-0.2353922426700592,"10":0.36190474033355713,"11":-0.2820788025856018,"12":-0.0383407399058342,"13":0.23096363246440887,"14":0.085252545773983,"15":-4.065642833709717,"16":4.1018900871276855,"17":0.3300613462924957,"18":-2.607149362564087,"19":-0.8978509306907654,"20":1.0408309698104858,"21":-1.0515930652618408,"22":-0.09653249382972717,"23":0.6734685897827148,"24":0.1992204785346985}},"outputHidden":{"rows":5,"columns":5,"weights":{"0":-9.505186080932617,"1":9.296679496765137,"2":-9.39260196685791,"3":9.379400253295898,"4":9.37221622467041,"5":-9.245208740234375,"6":7.517244338989258,"7":-8.167555809020996,"8":9.0541353225708,"9":8.671256065368652,"10":8.040423393249512,"11":-3.39922833442688,"12":4.167746067047119,"13":-6.543362617492676,"14":-5.0255208015441895,"15":-9.426067352294922,"16":9.280353546142578,"17":-9.415268898010254,"18":9.516423225402832,"19":9.356555938720703,"20":9.31281852722168,"21":-7.346921443939209,"22":8.020014762878418,"23":-9.054048538208008,"24":-8.488977432250977}},"outputBias":{"rows":5,"columns":1,"weights":{"0":0.5576543211936951,"1":0.07439327239990234,"2":-0.017588786780834198,"3":0.43924248218536377,"4":-0.10341863334178925}},"cellActivationMatrix":{"rows":5,"columns":5,"weights":{"0":9.394673347473145,"1":-9.444222450256348,"2":-4.22584867477417,"3":9.284432411193848,"4":7.701051235198975,"5":-9.281725883483887,"6":9.379561424255371,"7":3.7800891399383545,"8":-9.103348731994629,"9":-7.407376766204834,"10":-7.671634197235107,"11":7.720462322235107,"12":0.9295826554298401,"13":-6.189603805541992,"14":-2.5302226543426514,"15":-9.487646102905273,"16":9.415040969848633,"17":5.212635517120361,"18":-9.337963104248047,"19":-8.355133056640625,"20":9.029208183288574,"21":-9.083962440490723,"22":-2.30112886428833,"23":8.56515884399414,"24":5.325769901275635}},"cellActivationHidden":{"rows":5,"columns":5,"weights":{"0":9.448379516601562,"1":-9.452054023742676,"2":9.490825653076172,"3":-9.449992179870605,"4":-9.498766899108887,"5":-9.510604858398438,"6":9.436124801635742,"7":-9.520429611206055,"8":9.406777381896973,"9":9.406972885131836,"10":-9.535829544067383,"11":9.507959365844727,"12":-9.42881965637207,"13":9.42282772064209,"14":9.510991096496582,"15":-9.542015075683594,"16":9.436873435974121,"17":-9.48166275024414,"18":9.51622486114502,"19":9.517583847045898,"20":9.416569709777832,"21":-9.532271385192871,"22":9.54908275604248,"23":-9.410017967224121,"24":-9.51145076751709}},"cellActivationBias":{"rows":5,"columns":1,"weights":{"0":-6.662174701690674,"1":4.697321891784668,"2":1.150963544845581,"3":7.617834091186523,"4":-4.155584335327148}}},{"inputMatrix":{"rows":5,"columns":5,"weights":{"0":1.3071600198745728,"1":-5.267035961151123,"2":4.094701766967773,"3":-2.073744773864746,"4":-3.242541790008545,"5":5.380147457122803,"6":-9.407116889953613,"7":9.441377639770508,"8":-8.661796569824219,"9":-9.411352157592773,"10":7.280616760253906,"11":-9.459382057189941,"12":9.420949935913086,"13":-9.429154396057129,"14":-9.431487083435059,"15":9.5073823928833,"16":-9.493946075439453,"17":9.420207977294922,"18":-9.397331237792969,"19":-9.51046371459961,"20":-8.970717430114746,"21":9.550780296325684,"22":-9.43692684173584,"23":9.509308815002441,"24":9.47556209564209}},"inputHidden":{"rows":5,"columns":5,"weights":{"0":-0.26312991976737976,"1":-0.2687152624130249,"2":0.12322372943162918,"3":-0.17356128990650177,"4":0.6094144582748413,"5":-0.7649665474891663,"6":-0.7540968656539917,"7":0.834096372127533,"8":-0.8755965232849121,"9":2.614013433456421,"10":-1.0805503129959106,"11":-1.0183231830596924,"12":1.0170772075653076,"13":-1.0556776523590088,"14":3.6547610759735107,"15":-9.516257286071777,"16":-9.490316390991211,"17":9.488327026367188,"18":-9.456344604492188,"19":9.550024032592773,"20":1.3016630411148071,"21":1.3629930019378662,"22":-1.297036051750183,"23":1.3119479417800903,"24":-4.299917697906494}},"inputBias":{"rows":5,"columns":1,"weights":{"0":-9.475095748901367,"1":-9.441408157348633,"2":-9.409515380859375,"3":-3.403897762298584,"4":9.323249816894531}},"forgetMatrix":{"rows":5,"columns":5,"weights":{"0":4.615063190460205,"1":-9.526111602783203,"2":9.449069023132324,"3":-7.35601282119751,"4":-9.483145713806152,"5":9.465987205505371,"6":-9.397346496582031,"7":9.545591354370117,"8":-9.440302848815918,"9":-9.502636909484863,"10":9.404722213745117,"11":-9.457072257995605,"12":9.456747055053711,"13":-9.544082641601562,"14":-9.501357078552246,"15":9.402755737304688,"16":-9.04691219329834,"17":9.180009841918945,"18":-9.47713851928711,"19":-9.32874584197998,"20":-9.535189628601074,"21":9.447888374328613,"22":-9.431180953979492,"23":9.500864028930664,"24":9.550307273864746}},"forgetHidden":{"rows":5,"columns":5,"weights":{"0":-0.7315258979797363,"1":-0.7533700466156006,"2":0.724867045879364,"3":-0.7678232192993164,"4":2.214121103286743,"5":-2.8209924697875977,"6":-2.867371082305908,"7":2.778043270111084,"8":-2.9566714763641357,"9":9.52664566040039,"10":-3.6813316345214844,"11":-3.86421537399292,"12":3.6258034706115723,"13":-3.8552439212799072,"14":9.426340103149414,"15":-9.429627418518066,"16":-9.471160888671875,"17":9.487104415893555,"18":-9.423040390014648,"19":9.454087257385254,"20":3.787907123565674,"21":3.875082015991211,"22":-3.5708236694335938,"23":3.879711627960205,"24":-9.435182571411133}},"forgetBias":{"rows":5,"columns":1,"weights":{"0":0,"1":0,"2":0,"3":0,"4":0}},"outputMatrix":{"rows":5,"columns":5,"weights":{"0":0.807888925075531,"1":-3.3571829795837402,"2":2.5241072177886963,"3":-1.2830743789672852,"4":-1.9763381481170654,"5":3.249845266342163,"6":-9.468128204345703,"7":9.46435260772705,"8":-5.269350528717041,"9":-7.959959983825684,"10":4.276943206787109,"11":-9.457663536071777,"12":9.409794807434082,"13":-6.81449556350708,"14":-9.41421890258789,"15":9.519262313842773,"16":-9.485224723815918,"17":9.517675399780273,"18":-9.462332725524902,"19":-9.530911445617676,"20":-6.7600789070129395,"21":9.556753158569336,"22":-9.549934387207031,"23":9.54871940612793,"24":9.479485511779785}},"outputHidden":{"rows":5,"columns":5,"weights":{"0":-0.14383988082408905,"1":-0.09401730448007584,"2":0.12942710518836975,"3":-0.07676809281110764,"4":0.3692380487918854,"5":-0.5368295311927795,"6":-0.5485813617706299,"7":0.5310868620872498,"8":-0.46516138315200806,"9":1.5196433067321777,"10":-0.6230428218841553,"11":-0.6188635230064392,"12":0.6097931265830994,"13":-0.6787761449813843,"14":2.1540684700012207,"15":-9.519932746887207,"16":-9.536772727966309,"17":9.539603233337402,"18":-9.455473899841309,"19":9.40152645111084,"20":1.0390262603759766,"21":1.0649698972702026,"22":-0.9404430985450745,"23":1.086110234260559,"24":-3.3445167541503906}},"outputBias":{"rows":5,"columns":1,"weights":{"0":-9.475706100463867,"1":-9.451111793518066,"2":-9.42821979522705,"3":-3.8508527278900146,"4":9.324442863464355}},"cellActivationMatrix":{"rows":5,"columns":5,"weights":{"0":7.580594062805176,"1":-2.9227921962738037,"2":3.7066233158111572,"3":-6.113725662231445,"4":-4.611867427825928,"5":9.556525230407715,"6":-9.516427040100098,"7":9.522075653076172,"8":-9.456531524658203,"9":-9.540206909179688,"10":-9.421966552734375,"11":9.140653610229492,"12":-9.302985191345215,"13":9.468764305114746,"14":9.263547897338867,"15":9.496509552001953,"16":-8.810555458068848,"17":9.083170890808105,"18":-9.36424732208252,"19":-9.175130844116211,"20":1.1406968832015991,"21":-4.688823699951172,"22":3.5168778896331787,"23":-1.8378263711929321,"24":-2.6914870738983154}},"cellActivationHidden":{"rows":5,"columns":5,"weights":{"0":-9.393527030944824,"1":-9.367844581604004,"2":9.39352035522461,"3":-9.394133567810059,"4":8.859724998474121,"5":-9.437295913696289,"6":-9.501668930053711,"7":9.523286819458008,"8":-9.49573040008545,"9":9.5100679397583,"10":9.513689041137695,"11":9.531476974487305,"12":-9.45421028137207,"13":9.483278274536133,"14":-9.546076774597168,"15":-9.4920654296875,"16":-9.427000999450684,"17":9.538360595703125,"18":-9.44900131225586,"19":9.443746566772461,"20":-0.09624838829040527,"21":-0.2382260113954544,"22":0.10570970922708511,"23":-0.2488868683576584,"24":0.5758556723594666}},"cellActivationBias":{"rows":5,"columns":1,"weights":{"0":5.455739498138428,"1":-3.744189977645874,"2":-3.0800940990448,"3":0.8847457766532898,"4":-9.706887245178223}}}],"outputConnector":{"rows":5,"columns":5,"weights":{"0":-0.07241666316986084,"1":-0.03470983728766441,"2":-0.00010010447294916958,"3":0.042712606489658356,"4":-0.16842202842235565,"5":0.05909257382154465,"6":0.02832871302962303,"7":0.0043132975697517395,"8":0.05716048926115036,"9":-0.1708594411611557,"10":-0.06897573918104172,"11":0.06690031290054321,"12":0.017561649903655052,"13":-0.002936032135039568,"14":-0.1689395159482956,"15":-0.019060218706727028,"16":0.05817770957946777,"17":-0.05448717996478081,"18":0.0579131580889225,"19":-0.1687500774860382,"20":0.05635400861501694,"21":0.02385875955224037,"22":0.06572579592466354,"23":0.026472333818674088,"24":-0.16755768656730652}},"output":{"rows":5,"columns":1,"weights":{"0":-0.12667390704154968,"1":-0.12190297245979309,"2":-0.11954011768102646,"3":-0.1193709746003151,"4":-0.126825213432312}}}