{"type":"LSTMTimeStep","options":{"inputSize":5,"hiddenLayers":[11],"outputSize":5,"learningRate":0.01,"decayRate":0.999,"smoothEps":1e-8,"regc":0.000001,"clipval":5},"hiddenLayers":[{"inputMatrix":{"rows":11,"columns":5,"weights":{"0":0.8738512992858887,"1":0.8400187492370605,"2":1.05106520652771,"3":0.7896079421043396,"4":0.8493319153785706,"5":0.8716089725494385,"6":0.7926079630851746,"7":0.9699299931526184,"8":0.7924451231956482,"9":0.8107092380523682,"10":0.40805718302726746,"11":0.3262462019920349,"12":0.5335696935653687,"13":0.33383724093437195,"14":0.3344022333621979,"15":3.6999666690826416,"16":3.4008255004882812,"17":4.462906837463379,"18":3.101741313934326,"19":3.5042738914489746,"20":1.2365108728408813,"21":1.2827130556106567,"22":1.3277736902236938,"23":1.275341510772705,"24":1.255107045173645,"25":0.15043894946575165,"26":-0.14448045194149017,"27":0.4504104256629944,"28":-0.3508893847465515,"29":-0.1916821300983429,"30":2.8762428760528564,"31":2.6505815982818604,"32":3.4961421489715576,"33":2.5133814811706543,"34":2.764648199081421,"35":1.3303487300872803,"36":1.0601139068603516,"37":1.5128188133239746,"38":1.0545037984848022,"39":1.160376787185669,"40":3.0988218784332275,"41":3.0987603664398193,"42":4.097834587097168,"43":2.4867303371429443,"44":3.0114331245422363,"45":1.3529971837997437,"46":1.1551761627197266,"47":1.2088260650634766,"48":1.450670838356018,"49":1.2432464361190796,"50":2.3271069526672363,"51":1.9318718910217285,"52":2.039025068283081,"53":2.0701310634613037,"54":2.121490716934204}},"inputHidden":{"rows":11,"columns":11,"weights":{"0":-0.15426179766654968,"1":0.04970671609044075,"2":-0.6701551675796509,"3":0.9123336672782898,"4":-0.21468748152256012,"5":-0.5089364647865295,"6":0.12646767497062683,"7":-0.6850363612174988,"8":0.14344669878482819,"9":-0.4064408242702484,"10":-0.6765034198760986,"11":-0.6174857020378113,"12":0.7980857491493225,"13":0.4444003999233246,"14":0.11209693551063538,"15":0.22640173137187958,"16":-0.9795892834663391,"17":-0.07830166816711426,"18":-0.40284010767936707,"19":-0.24849051237106323,"20":-0.9841646552085876,"21":-1.240956425666809,"22":0.985820472240448,"23":-1.7145124673843384,"24":0.32372090220451355,"25":0.30739060044288635,"26":-0.430482417345047,"27":-0.29359370470046997,"28":1.1787805557250977,"29":-1.4641172885894775,"30":0.08729997277259827,"31":0.4005734324455261,"32":-1.944926381111145,"33":0.48642629384994507,"34":-0.17124821245670319,"35":-0.3389918804168701,"36":0.22720947861671448,"37":-0.7904641032218933,"38":-0.019717732444405556,"39":0.12492641061544418,"40":-0.14342913031578064,"41":-0.6923730373382568,"42":0.680428683757782,"43":-1.047408938407898,"44":-1.3551684617996216,"45":-0.6149038672447205,"46":-0.17282605171203613,"47":0.101376011967659,"48":1.3480197191238403,"49":-0.594629168510437,"50":0.07687125355005264,"51":-0.6636728048324585,"52":-0.2845289707183838,"53":0.18912900984287262,"54":-0.017158113420009613,"55":2.3783645629882812,"56":-0.9704793691635132,"57":-1.213728904724121,"58":-2.476132869720459,"59":-1.4697868824005127,"60":-1.2852540016174316,"61":3.1602141857147217,"62":-4.802055835723877,"63":0.31437504291534424,"64":-0.48768407106399536,"65":-1.3465158939361572,"66":0.3910558819770813,"67":0.04143272712826729,"68":0.11636266857385635,"69":-0.5114880204200745,"70":2.3228816986083984,"71":2.06008243560791,"72":-3.8440661430358887,"73":2.5480964183807373,"74":0.015014370903372765,"75":1.0358506441116333,"76":2.65287709236145,"77":-1.805163025856018,"78":-0.11125285178422928,"79":-1.3974789381027222,"80":-1.8004846572875977,"81":2.041260004043579,"82":-1.2769534587860107,"83":2.681711196899414,"84":-0.781749427318573,"85":1.819518804550171,"86":-2.7467470169067383,"87":-1.7991381883621216,"88":1.4923073053359985,"89":-0.6984052658081055,"90":-0.2654820382595062,"91":-0.707758903503418,"92":0.5800299048423767,"93":0.6575163006782532,"94":0.5984430313110352,"95":-0.7049842476844788,"96":-2.605039119720459,"97":0.2168249785900116,"98":-0.2710898220539093,"99":0.9543062448501587,"100":0.10628626495599747,"101":0.21940089762210846,"102":-0.8472421169281006,"103":-0.036885108798742294,"104":-0.26095354557037354,"105":-0.5770363807678223,"106":-1.11331307888031,"107":-0.6330365538597107,"108":1.53435218334198,"109":-1.3439861536026,"110":0.7014108896255493,"111":-0.030178535729646683,"112":0.2805836796760559,"113":0.6127806901931763,"114":0.7208136916160583,"115":0.06649024039506912,"116":-1.1053032875061035,"117":-0.8496230840682983,"118":0.02465357445180416,"119":-1.2348246574401855,"120":-3.1094305515289307}},"inputBias":{"rows":11,"columns":1,"weights":{"0":1.540350079536438,"1":0.1704631745815277,"2":2.0606677532196045,"3":0.2642641067504883,"4":3.2266528606414795,"5":3.151390314102173,"6":5.5055084228515625,"7":2.9430787563323975,"8":3.005126953125,"9":3.2855615615844727,"10":0.03430642932653427}},"forgetMatrix":{"rows":11,"columns":5,"weights":{"0":0.13572636246681213,"1":0.13229817152023315,"2":0.17455723881721497,"3":0.11328069120645523,"4":0.12983183562755585,"5":-0.26400524377822876,"6":-0.3168477714061737,"7":-0.02357649803161621,"8":-0.30447593331336975,"9":-0.2942418158054352,"10":-0.7071996927261353,"11":-0.9608182311058044,"12":-0.1814689338207245,"13":-0.7369623184204102,"14":-0.8404683470726013,"15":0.2514188289642334,"16":0.23794008791446686,"17":0.31530871987342834,"18":0.2091953456401825,"19":0.23951682448387146,"20":-0.18201597034931183,"21":-0.01434769295156002,"22":-0.000180469112819992,"23":0.21992036700248718,"24":-0.09685046970844269,"25":-0.28817957639694214,"26":-0.5774750113487244,"27":-0.2376352697610855,"28":-0.3355064392089844,"29":-0.4274786412715912,"30":-1.6878079175949097,"31":-2.7021706104278564,"32":-1.0841152667999268,"33":-1.9057079553604126,"34":-2.1811892986297607,"35":-0.40146756172180176,"36":-0.5109588503837585,"37":-0.20030270516872406,"38":-0.36378389596939087,"39":-0.4586379826068878,"40":-0.6536461710929871,"41":-0.6959531903266907,"42":-0.4212528169155121,"43":-0.5944559574127197,"44":-0.6818020939826965,"45":-0.7260271310806274,"46":-0.7110336422920227,"47":-0.5111135244369507,"48":-0.6720274686813354,"49":-0.7248811721801758,"50":0.7409690618515015,"51":-0.238178551197052,"52":-0.022762982174754143,"53":0.7156606316566467,"54":0.3037196397781372}},"forgetHidden":{"rows":11,"columns":11,"weights":{"0":0.4071429669857025,"1":-0.010896102525293827,"2":-0.2029661387205124,"3":-0.07521839439868927,"4":-0.29078543186187744,"5":0.5241795778274536,"6":-0.03718774393200874,"7":0.07674229145050049,"8":-0.010061098262667656,"9":0.057429634034633636,"10":0.22938309609889984,"11":0.14897024631500244,"12":-0.7116391062736511,"13":0.0968254953622818,"14":-0.1343790739774704,"15":-0.33293673396110535,"16":-0.10577578842639923,"17":-0.24527189135551453,"18":0.2692035436630249,"19":-0.12682543694972992,"20":0.11608912795782089,"21":0.5623693466186523,"22":0.5046009421348572,"23":0.3441798686981201,"24":-3.2320291996002197,"25":-0.024335088208317757,"26":-0.729982852935791,"27":-0.4968146085739136,"28":-0.11160082370042801,"29":0.1348077654838562,"30":0.0123990997672081,"31":0.5957188010215759,"32":-0.2852300703525543,"33":0.4824270009994507,"34":-0.11012987792491913,"35":-0.6659080386161804,"36":0.19307254254817963,"37":-0.6018911004066467,"38":0.16193316876888275,"39":0.10234992206096649,"40":-0.20096352696418762,"41":-0.7827616930007935,"42":0.003099807072430849,"43":0.24570302665233612,"44":0.5977919697761536,"45":0.3524087369441986,"46":-2.364861249923706,"47":-0.6099641919136047,"48":-9.24380111694336,"49":-3.877344846725464,"50":2.4143645763397217,"51":-2.25872802734375,"52":1.4367350339889526,"53":-1.4139659404754639,"54":-0.6711384057998657,"55":0.45293930172920227,"56":-0.2109789401292801,"57":-2.0235517024993896,"58":-0.3555419445037842,"59":-2.3112030029296875,"60":-3.2223048210144043,"61":1.783157229423523,"62":-1.7125083208084106,"63":0.447721004486084,"64":-1.293147325515747,"65":-1.7556926012039185,"66":0.6421806812286377,"67":0.20265315473079681,"68":-0.7626155614852905,"69":0.05026891082525253,"70":-0.6732254028320312,"71":-1.395043134689331,"72":4.118498802185059,"73":-0.6426328420639038,"74":-0.9384400844573975,"75":-2.690272092819214,"76":2.7211153507232666,"77":0.5168411135673523,"78":0.06354799121618271,"79":-1.2056317329406738,"80":-0.6873223781585693,"81":-0.14868329465389252,"82":-1.6449037790298462,"83":1.135550618171692,"84":-2.9722681045532227,"85":0.7415540814399719,"86":-1.0665338039398193,"87":-1.4626002311706543,"88":0.48287537693977356,"89":-0.39409926533699036,"90":-0.3726138174533844,"91":-0.5148244500160217,"92":-0.6003028750419617,"93":-0.29136425256729126,"94":0.7471656203269958,"95":-0.6065334677696228,"96":2.155276298522949,"97":-0.24112571775913239,"98":-0.2614898085594177,"99":0.5334815382957458,"100":-0.15152882039546967,"101":-0.39492911100387573,"102":-0.7608734965324402,"103":-2.987536668777466,"104":-1.3434298038482666,"105":1.196920394897461,"106":-0.5494490265846252,"107":-0.13043582439422607,"108":-4.872572898864746,"109":0.11131508648395538,"110":0.05505068600177765,"111":0.5304833054542542,"112":-2.6824233531951904,"113":0.0035918219946324825,"114":-0.878525972366333,"115":-1.3224807977676392,"116":0.9755827188491821,"117":-2.3487401008605957,"118":1.6365211009979248,"119":-1.2077003717422485,"120":1.8372342586517334}},"forgetBias":{"rows":11,"columns":1,"weights":{"0":0,"1":0,"2":0,"3":0,"4":0,"5":0,"6":0,"7":0,"8":0,"9":0,"10":0}},"outputMatrix":{"rows":11,"columns":5,"weights":{"0":-1.0646523237228394,"1":-0.5461074113845825,"2":0.18246136605739594,"3":-1.487411379814148,"4":-0.8670685887336731,"5":-0.7062512040138245,"6":-0.09202909469604492,"7":0.15218736231327057,"8":-0.6432734727859497,"9":-0.24527135491371155,"10":-0.6927449107170105,"11":-1.9399570226669312,"12":-0.08945685625076294,"13":-1.3424274921417236,"14":-1.9909695386886597,"15":1.5278255939483643,"16":1.2344815731048584,"17":2.5277528762817383,"18":0.7837175726890564,"19":1.2904863357543945,"20":-1.773507833480835,"21":-6.623266696929932,"22":-0.7468748092651367,"23":-7.6397857666015625,"24":-7.2179412841796875,"25":-0.779990553855896,"26":-1.6557945013046265,"27":0.7384965419769287,"28":-2.9839158058166504,"29":-2.2348508834838867,"30":-0.8168271780014038,"31":-1.1902334690093994,"32":-0.05924777686595917,"33":-0.42353639006614685,"34":-0.746675968170166,"35":9.91105842590332,"36":7.460345268249512,"37":10.226038932800293,"38":8.473098754882812,"39":8.351006507873535,"40":2.4679677486419678,"41":2.1877808570861816,"42":3.2249481678009033,"43":2.5577657222747803,"44":2.302377939224243,"45":-4.614956378936768,"46":-4.343246936798096,"47":-4.239262580871582,"48":-4.870041847229004,"49":-4.453516960144043,"50":-1.402483582496643,"51":-2.6574673652648926,"52":1.4685975313186646,"53":-2.658912420272827,"54":-1.7087457180023193}},"outputHidden":{"rows":11,"columns":11,"weights":{"0":-0.14494487643241882,"1":-0.19791841506958008,"2":-0.18844883143901825,"3":-0.543803334236145,"4":-1.7408759593963623,"5":-1.716732144355774,"6":-2.064307451248169,"7":3.093749761581421,"8":-0.4591871201992035,"9":-1.4389442205429077,"10":-0.020953115075826645,"11":-0.1660134345293045,"12":0.45107296109199524,"13":0.2206752896308899,"14":-0.18168905377388,"15":0.07738237082958221,"16":-1.0328096151351929,"17":-1.130750298500061,"18":-0.09409154951572418,"19":0.2447584569454193,"20":-1.3116004467010498,"21":1.0773658752441406,"22":-0.04126574844121933,"23":-0.3531741201877594,"24":-0.971000611782074,"25":-1.246530294418335,"26":1.3670599460601807,"27":-0.1985168308019638,"28":-1.2184062004089355,"29":2.0971827507019043,"30":-0.5173802971839905,"31":-1.3148646354675293,"32":1.5532734394073486,"33":0.10657797753810883,"34":0.1833525002002716,"35":0.4233250617980957,"36":-0.20828299224376678,"37":-0.2302394062280655,"38":-0.7711188793182373,"39":1.1905298233032227,"40":-0.5652902126312256,"41":0.5085363388061523,"42":-0.02722443826496601,"43":-0.7717723846435547,"44":-2.507894992828369,"45":0.6686415076255798,"46":1.6847224235534668,"47":-1.426866054534912,"48":-2.1110050678253174,"49":2.435133695602417,"50":1.532935380935669,"51":0.8277004361152649,"52":0.2550206780433655,"53":-0.641070544719696,"54":-0.8490526676177979,"55":1.9297200441360474,"56":-0.38898965716362,"57":1.3914947509765625,"58":-2.4643394947052,"59":-2.048328399658203,"60":1.4166755676269531,"61":-0.15231956541538239,"62":-0.8081245422363281,"63":-0.4359361231327057,"64":0.6664409041404724,"65":-1.1638844013214111,"66":2.452115058898926,"67":2.2217507362365723,"68":-1.071912169456482,"69":0.8968468308448792,"70":4.744716167449951,"71":-0.24561457335948944,"72":3.0386533737182617,"73":-0.36142751574516296,"74":2.3264758586883545,"75":-3.2330071926116943,"76":2.100592613220215,"77":0.11837326735258102,"78":1.4867072105407715,"79":2.457625389099121,"80":0.3777060806751251,"81":3.5219943523406982,"82":3.9780900478363037,"83":1.1817363500595093,"84":-2.3519136905670166,"85":0.6415629982948303,"86":-0.32192355394363403,"87":-0.6221734285354614,"88":-0.2159462869167328,"89":0.09144097566604614,"90":0.07833661139011383,"91":-0.43983152508735657,"92":0.4333679676055908,"93":0.2978728711605072,"94":-2.184591770172119,"95":0.8482369780540466,"96":4.857832908630371,"97":-0.02615429274737835,"98":-0.22437003254890442,"99":-0.4011528193950653,"100":-0.2190270870923996,"101":1.3091706037521362,"102":-2.3804595470428467,"103":-1.33966863155365,"104":1.150186538696289,"105":2.695209503173828,"106":-0.6033148169517517,"107":1.5039488077163696,"108":-2.6915764808654785,"109":-1.5916846990585327,"110":-0.3884759843349457,"111":1.5059707164764404,"112":-0.553530216217041,"113":-0.08842945843935013,"114":-1.1186916828155518,"115":0.2547690272331238,"116":2.4412953853607178,"117":-1.034623146057129,"118":-0.40917474031448364,"119":-2.3649680614471436,"120":0.36049655079841614}},"outputBias":{"rows":11,"columns":1,"weights":{"0":-7.6804399490356445,"1":-8.310379028320312,"2":-7.772860527038574,"3":-7.4606547355651855,"4":-5.283832550048828,"5":-7.132046699523926,"6":-6.939705848693848,"7":-10.167980194091797,"8":-7.3743720054626465,"9":-4.15048885345459,"10":-3.4390041828155518}},"cellActivationMatrix":{"rows":11,"columns":5,"weights":{"0":0.7804645895957947,"1":0.9796270132064819,"2":0.6215778589248657,"3":1.1109670400619507,"4":1.0094993114471436,"5":-0.0874200239777565,"6":0.9644723534584045,"7":0.6372424364089966,"8":0.31187140941619873,"9":0.6697691679000854,"10":0.6891528367996216,"11":0.6088082790374756,"12":0.7073516249656677,"13":0.6783424019813538,"14":0.6502559185028076,"15":0.1420643925666809,"16":-1.1370880603790283,"17":0.5214956998825073,"18":-1.2769012451171875,"19":-1.0353119373321533,"20":-0.1737002581357956,"21":-1.8670586347579956,"22":-0.28655749559402466,"23":-1.694946050643921,"24":-2.2259254455566406,"25":0.3090907633304596,"26":0.18145126104354858,"27":0.34990280866622925,"28":0.2042224407196045,"29":0.17293255031108856,"30":-1.1440277099609375,"31":-0.9454051852226257,"32":-1.7524093389511108,"33":-0.5608898401260376,"34":-0.8961896896362305,"35":0.7818507552146912,"36":1.1613584756851196,"37":2.012862205505371,"38":0.11787702143192291,"39":0.8934443593025208,"40":-1.1912243366241455,"41":-0.10470784455537796,"42":-1.158136010169983,"43":-0.9491535425186157,"44":-0.0240924209356308,"45":0.6466795802116394,"46":0.7820298075675964,"47":0.7404211163520813,"48":0.704939067363739,"49":0.7505120635032654,"50":0.4400288760662079,"51":1.192555546760559,"52":3.8464276790618896,"53":-1.2171002626419067,"54":0.6228995323181152}},"cellActivationHidden":{"rows":11,"columns":11,"weights":{"0":-0.08085930347442627,"1":-0.2748824656009674,"2":0.16105401515960693,"3":0.5833243727684021,"4":0.7149925231933594,"5":-0.04519058018922806,"6":0.007925447076559067,"7":0.2785591781139374,"8":-0.5833720564842224,"9":0.21314160525798798,"10":0.145157590508461,"11":-0.40840792655944824,"12":0.5324674844741821,"13":-1.7881277799606323,"14":0.7346164584159851,"15":-0.4448871612548828,"16":-0.12895099818706512,"17":-1.5727691650390625,"18":1.9710170030593872,"19":-1.4877045154571533,"20":-0.27556511759757996,"21":-2.035193681716919,"22":0.43661513924598694,"23":-0.6515765190124512,"24":-0.13313205540180206,"25":-0.0851299837231636,"26":-0.7840914130210876,"27":-0.7288743257522583,"28":0.7764747738838196,"29":-1.3286486864089966,"30":-0.14432618021965027,"31":-0.6942492723464966,"32":-0.6535535454750061,"33":0.5615635514259338,"34":-0.0449419803917408,"35":4.721982955932617,"36":0.38407355546951294,"37":0.720607578754425,"38":0.15913479030132294,"39":0.8107135891914368,"40":-1.047054409980774,"41":-0.521212637424469,"42":0.5483487844467163,"43":0.07138554751873016,"44":0.8404696583747864,"45":1.8599542379379272,"46":1.3861963748931885,"47":-1.7718899250030518,"48":-0.8989243507385254,"49":0.5164404511451721,"50":-4.148810386657715,"51":-0.9747328758239746,"52":-1.3739084005355835,"53":1.0556765794754028,"54":-1.8280894756317139,"55":1.0020414590835571,"56":-0.5311279296875,"57":0.061381157487630844,"58":-0.6134825944900513,"59":0.21094544231891632,"60":-0.5898347496986389,"61":1.8818284273147583,"62":-2.6758193969726562,"63":0.9653819799423218,"64":-1.1557300090789795,"65":-0.17400163412094116,"66":0.7240674495697021,"67":-1.4312535524368286,"68":-0.2323533147573471,"69":1.399623155593872,"70":-1.949342131614685,"71":0.5378428101539612,"72":0.35730215907096863,"73":-0.21640782058238983,"74":-1.017833948135376,"75":0.933208703994751,"76":1.3184670209884644,"77":-0.3332236409187317,"78":-0.014926374889910221,"79":0.776588499546051,"80":0.2711724042892456,"81":2.0659615993499756,"82":0.5552775859832764,"83":-1.7094366550445557,"84":1.122069239616394,"85":-0.39857736229896545,"86":0.06852447986602783,"87":1.0624051094055176,"88":-0.45310208201408386,"89":-0.35969993472099304,"90":0.2126964032649994,"91":0.3933012783527374,"92":-2.551759719848633,"93":-1.7094295024871826,"94":0.0002776967012323439,"95":-1.7614521980285645,"96":2.249040365219116,"97":-2.043471336364746,"98":-0.6872003674507141,"99":-0.05766422674059868,"100":0.741173505783081,"101":-0.24622677266597748,"102":-0.4197569787502289,"103":-0.07538069039583206,"104":-0.8526827692985535,"105":-0.06594737619161606,"106":-0.8368814587593079,"107":0.8738638162612915,"108":-1.4868091344833374,"109":-1.0345313549041748,"110":-0.7017939686775208,"111":-0.7904790043830872,"112":0.7270588874816895,"113":-0.6822830438613892,"114":-1.1205241680145264,"115":-0.5613350868225098,"116":3.497434377670288,"117":-0.7896291017532349,"118":0.08648686110973358,"119":0.2942817509174347,"120":4.375816822052002}},"cellActivationBias":{"rows":11,"columns":1,"weights":{"0":1.2909384965896606,"1":0.7179079055786133,"2":1.3407065868377686,"3":2.020925521850586,"4":2.10540509223938,"5":2.1554253101348877,"6":-3.3184123039245605,"7":2.279230833053589,"8":-2.0273191928863525,"9":2.4691927433013916,"10":-2.952425718307495}}}],"outputConnector":{"rows":5,"columns":11,"weights":{"0":-2.806323289871216,"1":1.7229459285736084,"2":0.8483917713165283,"3":3.084144115447998,"4":-2.912973165512085,"5":-4.1579999923706055,"6":-3.0475239753723145,"7":2.3740406036376953,"8":-0.22396212816238403,"9":-2.1357996463775635,"10":-10.551047325134277,"11":1.308210849761963,"12":-2.4774153232574463,"13":1.6934363842010498,"14":-2.511435031890869,"15":-4.277887344360352,"16":1.1332396268844604,"17":1.1925828456878662,"18":1.4656791687011719,"19":-0.9312353134155273,"20":-1.002640962600708,"21":-1.3625751733779907,"22":-3.804551839828491,"23":-1.407282829284668,"24":0.07940075546503067,"25":-0.6445083022117615,"26":-4.7602691650390625,"27":2.1501986980438232,"28":3.2306861877441406,"29":0.8996419906616211,"30":1.1109422445297241,"31":-1.7692114114761353,"32":7.759510040283203,"33":2.2455193996429443,"34":-2.8516578674316406,"35":0.7891616821289062,"36":-1.5261386632919312,"37":-0.043065231293439865,"38":0.2564428448677063,"39":1.8750983476638794,"40":0.03553204983472824,"41":0.44252562522888184,"42":1.2402417659759521,"43":4.987776756286621,"44":-2.231415271759033,"45":-0.8607060313224792,"46":3.3325345516204834,"47":-1.0982052087783813,"48":-6.347164630889893,"49":0.6357137560844421,"50":6.430892467498779,"51":1.2088124752044678,"52":-0.4023229777812958,"53":-3.2255465984344482,"54":11.84305477142334}},"output":{"rows":5,"columns":1,"weights":{"0":-0.08730331063270569,"1":0.02837337553501129,"2":0.1508634239435196,"3":0.0902809277176857,"4":0.22062432765960693}}}