{"type":"LSTMTimeStep","options":{"inputSize":5,"hiddenLayers":[12],"outputSize":5,"learningRate":0.01,"decayRate":0.999,"smoothEps":1e-8,"regc":0.000001,"clipval":5},"hiddenLayers":[{"inputMatrix":{"rows":12,"columns":5,"weights":{"0":-0.006861725356429815,"1":-0.007119595073163509,"2":-0.00708409259095788,"3":-0.007233501877635717,"4":-0.007049144245684147,"5":-0.011085509322583675,"6":-0.025732949376106262,"7":0.0021455264650285244,"8":-0.026993943378329277,"9":-0.016258064657449722,"10":-0.0022417218424379826,"11":-0.013153052888810635,"12":-0.0052655404433608055,"13":-0.0008286462398245931,"14":-0.004296462517231703,"15":-0.03983360156416893,"16":-0.045832473784685135,"17":-0.04011675715446472,"18":-0.03980245441198349,"19":-0.038654521107673645,"20":-0.0012754540657624602,"21":-0.0007779267034493387,"22":-0.00040538664325140417,"23":-0.0018344371346756816,"24":-0.0015098019503057003,"25":-0.04140264913439751,"26":-0.035173993557691574,"27":-0.03941652551293373,"28":-0.03892647102475166,"29":-0.03929045423865318,"30":0.00945806410163641,"31":0.008461200632154942,"32":0.009228735230863094,"33":0.008481492288410664,"34":0.008695028722286224,"35":0.009987111203372478,"36":0.010725684463977814,"37":0.010838335379958153,"38":0.009548013098537922,"39":0.01038823090493679,"40":-0.0018489001085981727,"41":-0.0033192348200827837,"42":-0.001581589225679636,"43":-0.0010857267770916224,"44":-0.0010999386431649327,"45":-0.009915564209222794,"46":-0.003989358898252249,"47":-0.00809299387037754,"48":-0.010177871212363243,"49":-0.00841972604393959,"50":-0.059323593974113464,"51":-0.0655275508761406,"52":-0.06267936527729034,"53":-0.06221722066402435,"54":-0.05797485262155533,"55":-0.001351000159047544,"56":0.03104592300951481,"57":0.0032950364984571934,"58":0.0003157282480970025,"59":0.014177131466567516}},"inputHidden":{"rows":12,"columns":12,"weights":{"0":3.7851133346557617,"1":0.5249862670898438,"2":-2.8759286403656006,"3":-9.821487426757812,"4":-2.0543253421783447,"5":8.808886528015137,"6":-0.7991517782211304,"7":-2.2807209491729736,"8":2.765254020690918,"9":4.873944282531738,"10":-18.656984329223633,"11":1.5431498289108276,"12":-3.050348997116089,"13":2.248570442199707,"14":8.765376091003418,"15":12.863167762756348,"16":-1.5269949436187744,"17":-5.493538856506348,"18":6.916275501251221,"19":-1.9763027429580688,"20":4.0257887840271,"21":20.03714370727539,"22":8.77544116973877,"23":-3.919229030609131,"24":1.0344135761260986,"25":0.11466526240110397,"26":-15.11717414855957,"27":-3.459547996520996,"28":-5.355091094970703,"29":2.8522419929504395,"30":-2.687514543533325,"31":-0.31716740131378174,"32":3.4481747150421143,"33":5.234529972076416,"34":5.159712314605713,"35":3.003100872039795,"36":2.3176960945129395,"37":-10.88240909576416,"38":5.939141750335693,"39":-5.687684535980225,"40":1.2670663595199585,"41":5.470615386962891,"42":-2.6470160484313965,"43":-6.009009838104248,"44":-0.15620191395282745,"45":-40.14269256591797,"46":-4.679975986480713,"47":2.6272222995758057,"48":1.6098772287368774,"49":6.029332160949707,"50":-29.019832611083984,"51":-5.172085762023926,"52":-1.524040699005127,"53":4.549582481384277,"54":-0.44331833720207214,"55":-0.18912793695926666,"56":2.1106441020965576,"57":5.016981601715088,"58":-3.3911588191986084,"59":1.025924563407898,"60":1.2214051485061646,"61":10.072040557861328,"62":-17.25528335571289,"63":-5.5030622482299805,"64":-15.795485496520996,"65":-3.2658891677856445,"66":-2.385763645172119,"67":2.6475868225097656,"68":-0.46835580468177795,"69":26.505001068115234,"70":-2.0501794815063477,"71":2.701646089553833,"72":0.8708619475364685,"73":-1.8848304748535156,"74":4.992452144622803,"75":-0.8889485597610474,"76":0.2927159368991852,"77":1.6220580339431763,"78":0.30116209387779236,"79":-0.8050102591514587,"80":-0.7715664505958557,"81":5.251928329467773,"82":3.5331056118011475,"83":1.542826771736145,"84":0.6160032153129578,"85":1.3671022653579712,"86":-2.9777183532714844,"87":-4.012277603149414,"88":2.9222378730773926,"89":3.6239140033721924,"90":2.0632128715515137,"91":-0.25638216733932495,"92":0.8557958006858826,"93":7.503750324249268,"94":-10.566871643066406,"95":-0.4065924286842346,"96":1.0705115795135498,"97":-0.39509445428848267,"98":-4.68302059173584,"99":-0.12598411738872528,"100":-0.035548336803913116,"101":1.0732879638671875,"102":-0.24507416784763336,"103":-0.5063127875328064,"104":1.7058888673782349,"105":-8.056572914123535,"106":-5.588475227355957,"107":0.04971897974610329,"108":-0.7295194864273071,"109":1.405824899673462,"110":-4.176177501678467,"111":1.118270993232727,"112":-3.7696533203125,"113":0.5781735777854919,"114":-1.6126290559768677,"115":-1.857351303100586,"116":0.2622520923614502,"117":-2.4244415760040283,"118":8.209532737731934,"119":0.4804823398590088,"120":2.0306804180145264,"121":0.004580270033329725,"122":4.2578606605529785,"123":-6.090248107910156,"124":-0.6198732256889343,"125":1.278510570526123,"126":-4.37991189956665,"127":9.16299057006836,"128":3.5143520832061768,"129":-26.405824661254883,"130":4.978919982910156,"131":0.21399205923080444,"132":-5.724836349487305,"133":0.6134992837905884,"134":10.53660774230957,"135":0.46083012223243713,"136":-1.1632359027862549,"137":3.1326375007629395,"138":-0.3723205029964447,"139":-3.0545642375946045,"140":-0.63357013463974,"141":-32.04283905029297,"142":-8.562962532043457,"143":1.8223516941070557}},"inputBias":{"rows":12,"columns":1,"weights":{"0":8.451080322265625,"1":3.2771339416503906,"2":-0.5383358597755432,"3":13.485170364379883,"4":0.4805780053138733,"5":17.7597713470459,"6":-0.7363879084587097,"7":-0.48021847009658813,"8":1.2157292366027832,"9":-1.1696323156356812,"10":1.3178077936172485,"11":-2.0415821075439453}},"forgetMatrix":{"rows":12,"columns":5,"weights":{"0":0.016354432329535484,"1":0.022854458540678024,"2":0.03243301063776016,"3":-0.025110114365816116,"4":0.016344038769602776,"5":-0.12796004116535187,"6":0.10778175294399261,"7":-0.2633671164512634,"8":-0.15436848998069763,"9":-0.04857582226395607,"10":-0.07001431286334991,"11":-0.043295878916978836,"12":-0.017959367483854294,"13":-0.059873685240745544,"14":-0.0379263274371624,"15":0.08331986516714096,"16":-0.01924384944140911,"17":0.03608178347349167,"18":-0.04082968458533287,"19":-0.01791006699204445,"20":0.023563992232084274,"21":-0.017609853297472,"22":-0.0045212022960186005,"23":-0.02973857708275318,"24":0.016080522909760475,"25":-0.007908277213573456,"26":0.005132727324962616,"27":0.010085800662636757,"28":-0.03345907852053642,"29":-0.0009433996165171266,"30":1.2453765869140625,"31":1.2164300680160522,"32":1.2401208877563477,"33":1.2223665714263916,"34":1.2339459657669067,"35":0.01790427416563034,"36":0.021118303760886192,"37":0.01769350841641426,"38":0.021048542112112045,"39":0.01989540457725525,"40":-0.0021017398685216904,"41":0.028241613879799843,"42":-0.024061646312475204,"43":0.020844710990786552,"44":0.011471041478216648,"45":3.707401752471924,"46":3.666330575942993,"47":3.6251308917999268,"48":3.8174824714660645,"49":3.7288103103637695,"50":0.475383996963501,"51":0.10213910788297653,"52":0.2761422097682953,"53":0.3390260338783264,"54":0.30390074849128723,"55":0.02358599193394184,"56":0.04247836768627167,"57":0.012223433703184128,"58":0.014547391794621944,"59":0.035487864166498184}},"forgetHidden":{"rows":12,"columns":12,"weights":{"0":-1.6067811250686646,"1":-2.1167209148406982,"2":-0.9072577357292175,"3":-1.7372307777404785,"4":0.14307665824890137,"5":2.1398556232452393,"6":4.011620044708252,"7":-1.4277900457382202,"8":-3.771135091781616,"9":0.03336201608181,"10":0.7612958550453186,"11":-2.42789363861084,"12":-2.7428526878356934,"13":5.961419105529785,"14":-6.485757827758789,"15":3.25913143157959,"16":-16.01014518737793,"17":-4.233551025390625,"18":-20.047677993774414,"19":8.525660514831543,"20":21.6550350189209,"21":-12.29966926574707,"22":10.277410507202148,"23":2.727149248123169,"24":-4.6449127197265625,"25":1.9206082820892334,"26":-3.2606892585754395,"27":6.860236644744873,"28":6.628665924072266,"29":0.2657921314239502,"30":11.94259262084961,"31":5.44611930847168,"32":4.335368633270264,"33":30.232440948486328,"34":-5.05066442489624,"35":2.0344479084014893,"36":-4.830185890197754,"37":3.0720362663269043,"38":-13.38603401184082,"39":18.23746109008789,"40":3.6642065048217773,"41":12.62144947052002,"42":24.536373138427734,"43":7.3155012130737305,"44":12.671785354614258,"45":23.497323989868164,"46":-13.152256965637207,"47":-19.138113021850586,"48":9.2178955078125,"49":-9.388838768005371,"50":-164.31173706054688,"51":-7.036098957061768,"52":-11.9136323928833,"53":-0.21229861676692963,"54":2.390117883682251,"55":-3.2671823501586914,"56":7.657642841339111,"57":-47.13300704956055,"58":5.883603096008301,"59":2.3877217769622803,"60":-0.38019439578056335,"61":0.22611673176288605,"62":-4.9430952072143555,"63":-0.4988476037979126,"64":1.4947835206985474,"65":-2.646908760070801,"66":-1.187714695930481,"67":0.44310712814331055,"68":3.8265883922576904,"69":-4.791848659515381,"70":13.137734413146973,"71":6.357487201690674,"72":1.5150448083877563,"73":22.66275405883789,"74":7.79205322265625,"75":4.754026412963867,"76":-4.800684452056885,"77":-0.38023948669433594,"78":-6.184096813201904,"79":0.4446701407432556,"80":4.707391738891602,"81":-18.600299835205078,"82":-0.926788330078125,"83":1.8386465311050415,"84":1.1871148347854614,"85":13.050520896911621,"86":19.51997184753418,"87":-2.3344404697418213,"88":2.467278480529785,"89":8.296562194824219,"90":2.0466744899749756,"91":1.264187216758728,"92":-6.0746073722839355,"93":22.956655502319336,"94":1.8893650770187378,"95":0.7581076622009277,"96":2.383340358734131,"97":0.9284744262695312,"98":-16.44314193725586,"99":2.3212897777557373,"100":2.696772813796997,"101":1.8716626167297363,"102":-0.9603447318077087,"103":-0.9152605533599854,"104":-1.2207367420196533,"105":7.3165106773376465,"106":-81.8988265991211,"107":-1.453070878982544,"108":-1.2621499300003052,"109":1.886078953742981,"110":-6.401952266693115,"111":-1.3277627229690552,"112":-7.146543025970459,"113":-2.6484620571136475,"114":-0.9020134806632996,"115":7.317039489746094,"116":1.3427722454071045,"117":-0.12504394352436066,"118":30.981042861938477,"119":-5.597696781158447,"120":-0.7285466194152832,"121":-5.847805023193359,"122":4.054145336151123,"123":7.492122173309326,"124":12.95100212097168,"125":21.091997146606445,"126":8.524515151977539,"127":6.24484395980835,"128":46.465145111083984,"129":-47.303565979003906,"130":6.975647449493408,"131":-2.995861768722534,"132":-0.9380447864532471,"133":8.933890342712402,"134":13.93117904663086,"135":2.2963309288024902,"136":6.03535795211792,"137":22.25022315979004,"138":2.432335615158081,"139":4.202923774719238,"140":-7.3441548347473145,"141":-24.974611282348633,"142":-12.344478607177734,"143":0.6683607697486877}},"forgetBias":{"rows":12,"columns":1,"weights":{"0":0,"1":0,"2":0,"3":0,"4":0,"5":0,"6":0,"7":0,"8":0,"9":0,"10":0,"11":0}},"outputMatrix":{"rows":12,"columns":5,"weights":{"0":0.018029259517788887,"1":0.008961020037531853,"2":0.031746070832014084,"3":-0.0013381722383201122,"4":0.006679784040898085,"5":0.022942766547203064,"6":-0.14942307770252228,"7":0.04283154755830765,"8":0.04011045768857002,"9":0.02922193892300129,"10":0.00657768314704299,"11":0.005492994096130133,"12":0.0030342673417180777,"13":0.009148450568318367,"14":0.006035184487700462,"15":0.011443509720265865,"16":-0.021023055538535118,"17":0.023364637047052383,"18":-0.02736649662256241,"19":0.0012652005534619093,"20":0.012780537828803062,"21":-0.0034727451857179403,"22":0.035132814198732376,"23":-0.0007113144383765757,"24":0.0046855066902935505,"25":0.032529570162296295,"26":-0.0695316419005394,"27":-0.004448737949132919,"28":0.022251801565289497,"29":0.07184424251317978,"30":0.00936854537576437,"31":0.0100359246134758,"32":0.009944741614162922,"33":0.00946599617600441,"34":0.009604651480913162,"35":0.011031650006771088,"36":0.011414870619773865,"37":0.011250726878643036,"38":0.011185945942997932,"39":0.011162444949150085,"40":0.005693326238542795,"41":0.0141599727794528,"42":0.0004371151444502175,"43":0.010411180555820465,"44":0.007441521622240543,"45":0.0029559240210801363,"46":0.005536236800253391,"47":0.004238829016685486,"48":0.001142925932072103,"49":0.004201282747089863,"50":-0.03555223345756531,"51":-0.09481638669967651,"52":-0.036714475601911545,"53":-0.06825211644172668,"54":-0.053245510905981064,"55":0.01832345314323902,"56":0.031167032197117805,"57":0.025758104398846626,"58":0.020599620416760445,"59":0.03531252220273018}},"outputHidden":{"rows":12,"columns":12,"weights":{"0":0.5608254075050354,"1":-0.017640577629208565,"2":-7.216458320617676,"3":2.0100927352905273,"4":1.5998402833938599,"5":-3.86057186126709,"6":4.8202338218688965,"7":-0.38906869292259216,"8":-4.399198055267334,"9":4.580414295196533,"10":-2.2310361862182617,"11":-0.7544689178466797,"12":-9.517354965209961,"13":1.4784059524536133,"14":12.698180198669434,"15":16.4862117767334,"16":8.05933666229248,"17":-1.478397011756897,"18":9.692286491394043,"19":-1.6653460264205933,"20":1.9192392826080322,"21":-10.087696075439453,"22":10.671222686767578,"23":-5.372387409210205,"24":-1.7141393423080444,"25":-0.3310912847518921,"26":9.291706085205078,"27":-3.1993374824523926,"28":-0.2954263985157013,"29":-2.587944269180298,"30":-1.3928778171539307,"31":1.9573991298675537,"32":1.579061508178711,"33":0.042306043207645416,"34":-5.598941802978516,"35":-2.3181495666503906,"36":4.378697872161865,"37":0.9739481210708618,"38":7.063459873199463,"39":6.497128009796143,"40":-2.7771573066711426,"41":0.37406590580940247,"42":-0.7746466398239136,"43":-2.7097363471984863,"44":-2.4077203273773193,"45":0.6041412353515625,"46":4.430553913116455,"47":-0.3670112192630768,"48":1.1086525917053223,"49":-0.07925713062286377,"50":1.356540560722351,"51":-0.403214693069458,"52":-2.441051483154297,"53":2.0503175258636475,"54":0.9493380188941956,"55":0.5181315541267395,"56":0.053196411579847336,"57":-7.027791500091553,"58":4.010135650634766,"59":1.9003430604934692,"60":-1.6723041534423828,"61":0.47688812017440796,"62":3.146545171737671,"63":0.11274977028369904,"64":4.072439193725586,"65":0.5001204013824463,"66":-4.809103012084961,"67":3.00840425491333,"68":-2.3834264278411865,"69":-5.477833271026611,"70":18.649202346801758,"71":-2.0059871673583984,"72":0.5613301396369934,"73":1.629150152206421,"74":4.917806625366211,"75":-3.341562271118164,"76":1.3828003406524658,"77":0.051884666085243225,"78":-0.37836727499961853,"79":0.21684353053569794,"80":0.5756840705871582,"81":-0.9372712969779968,"82":-0.3242943584918976,"83":0.42253920435905457,"84":1.5180999040603638,"85":-0.8847857117652893,"86":5.606136798858643,"87":-3.3427350521087646,"88":0.18505996465682983,"89":3.524258852005005,"90":-1.386103630065918,"91":0.47560083866119385,"92":0.571925163269043,"93":-4.67742395401001,"94":7.536181926727295,"95":1.7210720777511597,"96":0.02360929548740387,"97":-0.47661516070365906,"98":-26.841833114624023,"99":-4.517299175262451,"100":-2.925337553024292,"101":-0.12012914568185806,"102":-3.0740318298339844,"103":-2.5291473865509033,"104":1.8835124969482422,"105":-4.5179595947265625,"106":0.8942052721977234,"107":2.698831796646118,"108":1.4008909463882446,"109":-1.1977719068527222,"110":0.2641277611255646,"111":-0.36586102843284607,"112":0.7727491855621338,"113":-0.27483245730400085,"114":-0.20266100764274597,"115":0.038335446268320084,"116":-0.6854261159896851,"117":1.6645805835723877,"118":-3.0130996704101562,"119":0.9918457269668579,"120":-7.258632183074951,"121":5.42522668838501,"122":-44.50409698486328,"123":13.190950393676758,"124":-19.40498161315918,"125":2.139845848083496,"126":0.5714797377586365,"127":0.2685246467590332,"128":14.612164497375488,"129":7.058267116546631,"130":-9.425710678100586,"131":9.541481971740723,"132":-0.8596821427345276,"133":14.707757949829102,"134":10.537090301513672,"135":2.299058198928833,"136":6.776144981384277,"137":-0.7181963920593262,"138":6.950312614440918,"139":3.962420701980591,"140":0.6623777151107788,"141":4.055446147918701,"142":-19.096057891845703,"143":-1.6721347570419312}},"outputBias":{"rows":12,"columns":1,"weights":{"0":1.3351291418075562,"1":2.69844126701355,"2":-0.7398780584335327,"3":-0.16638948023319244,"4":-0.9151596426963806,"5":0.13638854026794434,"6":-0.5547889471054077,"7":-0.8096153736114502,"8":1.1267117261886597,"9":-1.605231523513794,"10":0.732154905796051,"11":-8.75094985961914}},"cellActivationMatrix":{"rows":12,"columns":5,"weights":{"0":0.017511360347270966,"1":0.019160937517881393,"2":0.018120015040040016,"3":0.01873003877699375,"4":0.01827789656817913,"5":-0.01188614685088396,"6":0.024094685912132263,"7":-0.02003723569214344,"8":-0.01439589262008667,"9":-0.0076842159032821655,"10":-0.02830740436911583,"11":0.08706697076559067,"12":-0.0319567546248436,"13":-0.031119845807552338,"14":-0.010601126588881016,"15":0.002882019616663456,"16":0.01920490339398384,"17":-0.008503169752657413,"18":0.0013221222907304764,"19":0.009489335119724274,"20":0.0016711943317204714,"21":-0.01814466528594494,"22":-0.004383689723908901,"23":0.001321423682384193,"24":-0.007950027473270893,"25":-0.0000035735135952563724,"26":-0.00007411883416352794,"27":-0.00016328049241565168,"28":0.0001938944187713787,"29":4.2488076701374666e-7,"30":-0.007220823783427477,"31":0.0020522698760032654,"32":0.0021137800067663193,"33":-0.010556511580944061,"34":-0.004534101113677025,"35":-0.005205709487199783,"36":-0.004993478301912546,"37":-0.005041688214987516,"38":-0.005461013410240412,"39":-0.0050936127081513405,"40":0.009424897842109203,"41":0.004689310677349567,"42":0.007194689474999905,"43":0.006963332183659077,"44":0.005729975178837776,"45":-0.058300841599702835,"46":-0.08689922839403152,"47":-0.06849207729101181,"48":-0.053897224366664886,"49":-0.07411133497953415,"50":0.16326302289962769,"51":0.15622739493846893,"52":0.19190165400505066,"53":0.18690548837184906,"54":0.20615096390247345,"55":0.005693173501640558,"56":0.00593461561948061,"57":0.005614881403744221,"58":0.006051768083125353,"59":0.005808706860989332}},"cellActivationHidden":{"rows":12,"columns":12,"weights":{"0":-2.4574005603790283,"1":2.5937416553497314,"2":3.715369939804077,"3":-0.07642266154289246,"4":4.872570991516113,"5":3.351405382156372,"6":2.3257639408111572,"7":1.2365704774856567,"8":0.39727580547332764,"9":0.29468607902526855,"10":1.9600648880004883,"11":0.24051758646965027,"12":-4.028833866119385,"13":-0.31568118929862976,"14":5.757249355316162,"15":5.901500225067139,"16":-1.075685739517212,"17":-1.13692045211792,"18":0.9547821283340454,"19":-0.9145718812942505,"20":1.4662235975265503,"21":18.6212158203125,"22":17.829811096191406,"23":-1.0129408836364746,"24":-1.928127646446228,"25":-0.7935401201248169,"26":-7.183855056762695,"27":1.6276582479476929,"28":5.3182244300842285,"29":-5.075068473815918,"30":-0.6166582703590393,"31":4.375785827636719,"32":-3.4879865646362305,"33":11.224992752075195,"34":-2.9000096321105957,"35":-7.7685394287109375,"36":0.7032247185707092,"37":3.971379518508911,"38":-5.083436965942383,"39":-0.507023811340332,"40":-2.13942813873291,"41":0.4150921106338501,"42":0.4897690713405609,"43":-2.1899890899658203,"44":0.5813778042793274,"45":14.731263160705566,"46":-5.760743141174316,"47":1.6736310720443726,"48":-0.6898626089096069,"49":3.931886672973633,"50":-2.956956624984741,"51":-3.490891933441162,"52":-1.926255226135254,"53":0.7003148794174194,"54":-4.550848960876465,"55":1.8621695041656494,"56":-4.079200744628906,"57":-3.27988600730896,"58":25.14024543762207,"59":0.19624190032482147,"60":-0.05103399232029915,"61":0.02470053732395172,"62":0.32582780718803406,"63":0.18489480018615723,"64":-0.22496524453163147,"65":-0.1434430330991745,"66":0.023353828117251396,"67":0.06025590002536774,"68":-0.04361497983336449,"69":1.6794426441192627,"70":0.07191456854343414,"71":-0.1119798943400383,"72":-1.2305160760879517,"73":-0.0624673031270504,"74":5.043172836303711,"75":-1.3049938678741455,"76":1.9512310028076172,"77":-0.47821328043937683,"78":0.7498363256454468,"79":-0.7898784875869751,"80":-0.16380783915519714,"81":10.045812606811523,"82":-3.312565565109253,"83":1.4601024389266968,"84":-0.039009563624858856,"85":5.011676788330078,"86":1.0175623893737793,"87":1.188399314880371,"88":0.21963070333003998,"89":-0.6894817352294922,"90":0.18466982245445251,"91":0.18487785756587982,"92":0.4012796878814697,"93":3.867412567138672,"94":-0.9869465827941895,"95":-0.09314587712287903,"96":-0.1765369325876236,"97":0.3412697911262512,"98":1.242949366569519,"99":0.4009593427181244,"100":0.7101446986198425,"101":-0.028046386316418648,"102":0.7046989798545837,"103":-0.11401522159576416,"104":-0.8216502666473389,"105":-4.773049831390381,"106":3.164640426635742,"107":-0.6983294486999512,"108":3.383429527282715,"109":-1.185227870941162,"110":1.5339765548706055,"111":10.229257583618164,"112":6.960525989532471,"113":-9.969578742980957,"114":10.613142013549805,"115":15.335922241210938,"116":-7.310122013092041,"117":-22.769071578979492,"118":6.663553237915039,"119":0.6395138502120972,"120":4.051689147949219,"121":-2.7337238788604736,"122":1.4162768125534058,"123":-14.541886329650879,"124":3.147120714187622,"125":1.0175641775131226,"126":11.68752384185791,"127":-4.2253947257995605,"128":4.019411563873291,"129":-18.214914321899414,"130":-15.309906005859375,"131":1.1382265090942383,"132":0.28913819789886475,"133":-0.1367076337337494,"134":4.209204196929932,"135":0.5998300909996033,"136":0.5218378901481628,"137":0.17860378324985504,"138":-0.3709855079650879,"139":-0.4063863754272461,"140":-1.6768394708633423,"141":-12.327611923217773,"142":6.030271530151367,"143":0.5478401184082031}},"cellActivationBias":{"rows":12,"columns":1,"weights":{"0":-12.034500122070312,"1":2.7762322425842285,"2":1.3694425821304321,"3":-0.18359491229057312,"4":0.5124399065971375,"5":-0.25920620560646057,"6":0.4244229793548584,"7":0.7773650288581848,"8":-0.5903584957122803,"9":4.677970886230469,"10":-0.12357977777719498,"11":0.05442778393626213}}}],"outputConnector":{"rows":5,"columns":12,"weights":{"0":35.07001495361328,"1":-35.940799713134766,"2":-13.16686725616455,"3":-181.33566284179688,"4":-44.808475494384766,"5":16.15595817565918,"6":-12.58732795715332,"7":-12.89077377319336,"8":53.5179328918457,"9":-152.28468322753906,"10":-59.201210021972656,"11":16.767946243286133,"12":34.66183090209961,"13":-37.640193939208984,"14":-8.953229904174805,"15":-182.7594451904297,"16":-43.100685119628906,"17":13.794779777526855,"18":-12.511611938476562,"19":-12.702133178710938,"20":51.31032180786133,"21":-138.39060974121094,"22":-64.14166259765625,"23":16.628868103027344,"24":35.032222747802734,"25":-36.36079025268555,"26":-10.892311096191406,"27":-183.67886352539062,"28":-44.02901840209961,"29":15.84879207611084,"30":-12.530338287353516,"31":-12.768646240234375,"32":52.53889846801758,"33":-146.4329833984375,"34":-61.007720947265625,"35":16.720401763916016,"36":34.95515441894531,"37":-36.82809829711914,"38":-10.997299194335938,"39":-182.156982421875,"40":-43.930694580078125,"41":15.223671913146973,"42":-12.527132987976074,"43":-12.808218955993652,"44":52.48613357543945,"45":-145.66732788085938,"46":-61.559268951416016,"47":16.74091339111328,"48":34.9171142578125,"49":-36.68827438354492,"50":-10.893869400024414,"51":-182.80934143066406,"52":-43.92499542236328,"53":15.34941577911377,"54":-12.558783531188965,"55":-12.822364807128906,"56":52.4083251953125,"57":-146.0620880126953,"58":-61.487571716308594,"59":16.744766235351562}},"output":{"rows":5,"columns":1,"weights":{"0":84.00082397460938,"1":83.60839080810547,"2":83.70905303955078,"3":84.01220703125,"4":83.89398193359375}}}