{"avgs":{"error":149703.19016628168,"trainTime":923858,"testTime":145,"iterations":1000,"trainError":319.34734010619303},"stats":{"truePos":null,"trueNeg":null,"falsePos":null,"falseNeg":null,"total":null,"precision":null,"recall":null,"accuracy":null,"testSize":1791.75,"trainSize":5375.25},"sets":[{"error":0.010104202498619467,"misclasses":[],"trainTime":1061518,"testTime":148,"iterations":1000,"trainError":0.5195371263170723,"learningRate":0.3,"hiddenLayers":[11],"network":{"type":"LSTMTimeStep","options":{"inputSize":5,"hiddenLayers":[11],"outputSize":5,"decayRate":0.999,"smoothEps":1e-8,"regc":0.000001,"clipval":5},"hiddenLayers":[{"inputMatrix":{"rows":11,"columns":5,"weights":{"0":-5.570506572723389,"1":-5.533124923706055,"2":-5.564361572265625,"3":-5.557657718658447,"4":-5.551022529602051,"5":-13.794272422790527,"6":-13.842435836791992,"7":-13.797171592712402,"8":-13.807011604309082,"9":-13.816495895385742,"10":-40.640682220458984,"11":-40.925010681152344,"12":-40.752567291259766,"13":-40.79911422729492,"14":-40.79328155517578,"15":-18.822185516357422,"16":-18.571950912475586,"17":-18.707962036132812,"18":-18.683639526367188,"19":-18.688430786132812,"20":-40.35148239135742,"21":-40.5601806640625,"22":-40.49924850463867,"23":-40.46096420288086,"24":-40.447208404541016,"25":-13.127326011657715,"26":-13.126141548156738,"27":-13.13723373413086,"28":-13.15822982788086,"29":-13.150079727172852,"30":-10.428824424743652,"31":-10.423150062561035,"32":-10.432332992553711,"33":-10.420513153076172,"34":-10.425525665283203,"35":7.906423568725586,"36":7.993999481201172,"37":7.876088619232178,"38":8.017722129821777,"39":7.975839614868164,"40":-52.37943649291992,"41":-52.38429641723633,"42":-52.47361373901367,"43":-52.375244140625,"44":-52.3643684387207,"45":-82.01148223876953,"46":-82.49269104003906,"47":-82.25431060791016,"48":-82.43952178955078,"49":-82.3251953125,"50":-18.90991973876953,"51":-18.099164962768555,"52":-18.525739669799805,"53":-18.473392486572266,"54":-18.488115310668945}},"inputHidden":{"rows":11,"columns":11,"weights":{"0":2.4829204082489014,"1":-0.04218311980366707,"2":0.0007746361661702394,"3":0.17668013274669647,"4":-0.06779546290636063,"5":0.11297150701284409,"6":-2.140030860900879,"7":0.06810016185045242,"8":-0.03511452674865723,"9":0.2076508104801178,"10":0.03355902433395386,"11":0.0204144436866045,"12":-23.91373634338379,"13":-0.7222684621810913,"14":0.1629616916179657,"15":0.5934435725212097,"16":0.10543086379766464,"17":-0.0360601581633091,"18":-1.4191033840179443,"19":0.010908592492341995,"20":0.04395410045981407,"21":-0.04602890834212303,"22":-0.03408195450901985,"23":-0.009261232800781727,"24":-3.6091747283935547,"25":0.1334214061498642,"26":0.12344220280647278,"27":0.13614895939826965,"28":-0.03858759254217148,"29":0.07008318603038788,"30":-0.07071825116872787,"31":0.5245004296302795,"32":0.04360970854759216,"33":-0.1241104006767273,"34":0.018966997042298317,"35":-0.2586449980735779,"36":-4.853085517883301,"37":0.08622011542320251,"38":-0.5878087878227234,"39":0.012102795764803886,"40":0.11770179122686386,"41":0.3218781650066376,"42":-0.05741943046450615,"43":-0.6626593470573425,"44":-0.21523438394069672,"45":0.6608372330665588,"46":0.3943292200565338,"47":-0.11027931421995163,"48":36.760108947753906,"49":15.211753845214844,"50":-0.061084117740392685,"51":-12.94739818572998,"52":-1.8729147911071777,"53":8.8764009475708,"54":-0.009042096324265003,"55":0.1662893444299698,"56":0.13962481915950775,"57":-0.8594793677330017,"58":-0.16710934042930603,"59":-15.02950382232666,"60":12.495858192443848,"61":0.15618997812271118,"62":1.0631986856460571,"63":-1.438395619392395,"64":18.3566951751709,"65":-0.4163498878479004,"66":0.9504677057266235,"67":-0.050835248082876205,"68":-0.2949882447719574,"69":0.09266386181116104,"70":-0.4477294087409973,"71":0.13805198669433594,"72":-2.686249256134033,"73":-0.1477968990802765,"74":-0.392558217048645,"75":1.0125455856323242,"76":0.20540864765644073,"77":-0.4506712257862091,"78":-0.04765395075082779,"79":0.06122152507305145,"80":-0.005739122629165649,"81":1.7905700206756592,"82":6.015279769897461,"83":0.22653843462467194,"84":-0.5682573914527893,"85":-5.629471778869629,"86":2.5958549976348877,"87":-0.8471072912216187,"88":0.04617900028824806,"89":0.06599616259336472,"90":-1.9691797494888306,"91":0.3280668556690216,"92":15.125531196594238,"93":4.123576641082764,"94":-0.01810384914278984,"95":-6.582955360412598,"96":-4.669800758361816,"97":12.941347122192383,"98":0.1138203963637352,"99":-0.11717770993709564,"100":0.26890262961387634,"101":-0.9390922784805298,"102":0.14498405158519745,"103":10.27197551727295,"104":-20.20697593688965,"105":-0.3549628257751465,"106":-18.880661010742188,"107":2.050800323486328,"108":-36.9383544921875,"109":5.741024017333984,"110":0.07596208155155182,"111":-0.05105083808302879,"112":0.054268356412649155,"113":0.4092075824737549,"114":-0.3149115741252899,"115":1.2305231094360352,"116":-0.02250833623111248,"117":0.39687418937683105,"118":-0.08015543967485428,"119":-1.8072340488433838,"120":0.15107780694961548}},"inputBias":{"rows":11,"columns":1,"weights":{"0":-5.627689838409424,"1":-11.40381145477295,"2":-8.580548286437988,"3":-11.962483406066895,"4":-12.58676815032959,"5":-8.564871788024902,"6":-9.889089584350586,"7":-8.006186485290527,"8":-11.721034049987793,"9":-8.7335844039917,"10":-8.364896774291992}},"forgetMatrix":{"rows":11,"columns":5,"weights":{"0":-1.0468803644180298,"1":-1.0740978717803955,"2":-1.072503685951233,"3":-1.0644179582595825,"4":-1.064800500869751,"5":2.3862016201019287,"6":2.547600030899048,"7":2.4707870483398438,"8":2.4708423614501953,"9":2.461033344268799,"10":-14.74129581451416,"11":-14.5621919631958,"12":-14.640950202941895,"13":-14.655693054199219,"14":-14.660345077514648,"15":-8.651665687561035,"16":-8.551377296447754,"17":-8.569957733154297,"18":-8.599889755249023,"19":-8.602453231811523,"20":9.095863342285156,"21":9.50521469116211,"22":9.187888145446777,"23":9.462712287902832,"24":9.370523452758789,"25":-19.322420120239258,"26":-19.280725479125977,"27":-19.29636573791504,"28":-19.28307342529297,"29":-19.29212760925293,"30":-3.7469518184661865,"31":-3.7217206954956055,"32":-3.7419850826263428,"33":-3.725724220275879,"34":-3.726095676422119,"35":-23.292978286743164,"36":-23.552478790283203,"37":-23.695043563842773,"38":-23.25922393798828,"39":-23.243755340576172,"40":-9.58871078491211,"41":-9.666741371154785,"42":-9.61425495147705,"43":-9.605583190917969,"44":-9.630101203918457,"45":16.369476318359375,"46":16.887645721435547,"47":16.481731414794922,"48":16.43299674987793,"49":16.62525749206543,"50":-6.934384822845459,"51":-6.872176647186279,"52":-6.896572113037109,"53":-6.893590927124023,"54":-6.897134780883789}},"forgetHidden":{"rows":11,"columns":11,"weights":{"0":-4.835208415985107,"1":-0.04375898838043213,"2":0.044083163142204285,"3":-0.28859588503837585,"4":-0.043756939470767975,"5":0.05461953207850456,"6":-0.2880266308784485,"7":-0.14505288004875183,"8":-0.042397815734148026,"9":-0.1529923975467682,"10":0.043499186635017395,"11":0.043350011110305786,"12":-7.217385292053223,"13":-0.050543561577796936,"14":0.04384848475456238,"15":0.04917311668395996,"16":0.11361845582723618,"17":-0.045254502445459366,"18":0.04650506377220154,"19":0.044091615825891495,"20":0.03877444192767143,"21":-0.04387374594807625,"22":-0.07670468091964722,"23":-0.044856637716293335,"24":-22.341873168945312,"25":-0.0386810377240181,"26":-0.03226219862699509,"27":-0.04198886454105377,"28":0.05219273269176483,"29":-0.04605474695563316,"30":-0.06671850383281708,"31":-0.0448625385761261,"32":0.041926708072423935,"33":-0.3009307086467743,"34":0.08058816939592361,"35":0.03075237199664116,"36":-1.1281089782714844,"37":0.2668360471725464,"38":-0.02885648049414158,"39":0.0074557773768901825,"40":-0.11633029580116272,"41":-0.05392474681138992,"42":-0.04219067469239235,"43":-0.4411059021949768,"44":-0.049367938190698624,"45":-0.052453599870204926,"46":0.04229867458343506,"47":0.15446792542934418,"48":0.7537460923194885,"49":-27.985950469970703,"50":0.03705659881234169,"51":-8.200814247131348,"52":14.30196475982666,"53":6.96318244934082,"54":0.059931159019470215,"55":0.6078000664710999,"56":0.038318634033203125,"57":-0.04392281174659729,"58":-0.09161695092916489,"59":-3.1998932361602783,"60":12.124070167541504,"61":-0.5742354393005371,"62":-2.720092535018921,"63":14.181961059570312,"64":19.804214477539062,"65":-0.14693893492221832,"66":-0.6041908860206604,"67":-0.045003339648246765,"68":0.04277471452951431,"69":-0.2943381369113922,"70":-0.24463289976119995,"71":0.16805677115917206,"72":2.088373899459839,"73":-0.46470630168914795,"74":0.053312648087739944,"75":0.37438327074050903,"76":0.04352244734764099,"77":0.3774426281452179,"78":-0.04407201334834099,"79":0.04355519264936447,"80":-0.0345919206738472,"81":1.8895459175109863,"82":4.216060161590576,"83":0.054031550884246826,"84":7.3741278648376465,"85":12.199130058288574,"86":-7.5301055908203125,"87":0.5062289834022522,"88":-0.04955790936946869,"89":-0.03646613657474518,"90":0.039451852440834045,"91":0.01227542757987976,"92":-7.206981658935547,"93":2.408781051635742,"94":0.051340192556381226,"95":5.9359517097473145,"96":7.163315296173096,"97":21.37973403930664,"98":0.05266185104846954,"99":-0.4919114112854004,"100":-0.09651985764503479,"101":0.3838959336280823,"102":-0.02038254588842392,"103":17.71274757385254,"104":8.72423267364502,"105":0.004574658814817667,"106":9.805418014526367,"107":-1.372274398803711,"108":3.5061280727386475,"109":1.1969139575958252,"110":-0.046897437423467636,"111":-0.04378253221511841,"112":0.04340862110257149,"113":0.42215847969055176,"114":0.4794408082962036,"115":0.07540450990200043,"116":0.041454557329416275,"117":0.3270655870437622,"118":-0.043868765234947205,"119":-0.2110384702682495,"120":-0.4315284192562103}},"forgetBias":{"rows":11,"columns":1,"weights":{"0":0,"1":0,"2":0,"3":0,"4":0,"5":0,"6":0,"7":0,"8":0,"9":0,"10":0}},"outputMatrix":{"rows":11,"columns":5,"weights":{"0":-13.243383407592773,"1":-13.142033576965332,"2":-13.212806701660156,"3":-13.195234298706055,"4":-13.192985534667969,"5":-13.208304405212402,"6":-13.296972274780273,"7":-13.231104850769043,"8":-13.228813171386719,"9":-13.250094413757324,"10":-29.74020004272461,"11":-30.13599395751953,"12":-29.780406951904297,"13":-29.919233322143555,"14":-29.964866638183594,"15":-17.026309967041016,"16":-16.885343551635742,"17":-16.93840789794922,"18":-16.956525802612305,"19":-16.95382308959961,"20":-21.87801170349121,"21":-21.629772186279297,"22":-21.815692901611328,"23":-21.753143310546875,"24":-21.55263900756836,"25":-8.563002586364746,"26":-8.068241119384766,"27":-8.595349311828613,"28":-8.585034370422363,"29":-8.357417106628418,"30":-9.400882720947266,"31":-9.357232093811035,"32":-9.373268127441406,"33":-9.35964584350586,"34":-9.358843803405762,"35":2.235910415649414,"36":2.32007098197937,"37":2.19240403175354,"38":2.3728010654449463,"39":2.3226447105407715,"40":8.67406177520752,"41":8.065214157104492,"42":8.361525535583496,"43":8.432806968688965,"44":8.343457221984863,"45":-59.347450256347656,"46":-59.656761169433594,"47":-59.10962677001953,"48":-59.937007904052734,"49":-59.61750030517578,"50":-16.426219940185547,"51":-15.764801025390625,"52":-16.14232635498047,"53":-16.031949996948242,"54":-16.039690017700195}},"outputHidden":{"rows":11,"columns":11,"weights":{"0":6.188479423522949,"1":-0.06750011444091797,"2":-2.3970444202423096,"3":-0.13045231997966766,"4":0.05082324147224426,"5":0.26392027735710144,"6":-0.698830783367157,"7":0.22465936839580536,"8":-0.012190616689622402,"9":-0.051198411732912064,"10":-0.04130622744560242,"11":0.02041589841246605,"12":-20.13504981994629,"13":-0.718204140663147,"14":0.030236011371016502,"15":0.5591555833816528,"16":-0.024413179606199265,"17":-0.0387134812772274,"18":-4.39200496673584,"19":0.010597668588161469,"20":0.030341729521751404,"21":-0.040106549859046936,"22":-1.3516572713851929,"23":1.1976293325424194,"24":11.254768371582031,"25":-0.7346947193145752,"26":1.92103111743927,"27":-0.7038464546203613,"28":2.388598680496216,"29":-0.014270489104092121,"30":-1.7302619218826294,"31":1.2918784618377686,"32":0.024082517251372337,"33":-0.1846848428249359,"34":0.026795634999871254,"35":-0.46189045906066895,"36":-2.3644392490386963,"37":0.9109229445457458,"38":-0.27934572100639343,"39":0.03359499201178551,"40":0.1549161821603775,"41":0.2817055881023407,"42":-0.6644055247306824,"43":-0.343359112739563,"44":-0.018095603212714195,"45":-0.03826338052749634,"46":-0.18769027292728424,"47":-0.04003497585654259,"48":11.01228141784668,"49":-3.077387809753418,"50":-0.21310213208198547,"51":-8.538961410522461,"52":10.95324420928955,"53":15.266353607177734,"54":0.5556982159614563,"55":-0.1758868545293808,"56":0.03161424398422241,"57":-0.5418895483016968,"58":0.11795034259557724,"59":-3.6358532905578613,"60":3.7882027626037598,"61":-0.2236916720867157,"62":7.0475335121154785,"63":-9.952470779418945,"64":11.616063117980957,"65":-1.2145450115203857,"66":1.6907285451889038,"67":-0.045196548104286194,"68":-0.2948910892009735,"69":0.20936021208763123,"70":-0.48108452558517456,"71":0.24606429040431976,"72":-1.6411828994750977,"73":-0.4800458252429962,"74":-0.27564167976379395,"75":0.08512995392084122,"76":-0.1313968449831009,"77":-0.23196902871131897,"78":-0.05169641971588135,"79":0.0743245854973793,"80":0.81649249792099,"81":-11.546761512756348,"82":-7.996737957000732,"83":0.8149412274360657,"84":2.0814380645751953,"85":13.356297492980957,"86":3.95115065574646,"87":0.052397631108760834,"88":0.027702800929546356,"89":-0.025037046521902084,"90":-1.6102558374404907,"91":0.0199511107057333,"92":-34.14952850341797,"93":-9.87431812286377,"94":0.08452868461608887,"95":21.48716163635254,"96":-23.775724411010742,"97":29.863590240478516,"98":-0.07231473177671432,"99":-0.1947128176689148,"100":0.09044283628463745,"101":-0.5777518153190613,"102":-0.11271986365318298,"103":13.792229652404785,"104":-8.97047233581543,"105":-1.1270411014556885,"106":-13.304142951965332,"107":-2.447906255722046,"108":-13.666681289672852,"109":5.021589756011963,"110":0.06880103796720505,"111":-0.05036220699548721,"112":0.053665995597839355,"113":-0.1416492909193039,"114":0.1471824198961258,"115":1.205223798751831,"116":-0.054106421768665314,"117":0.044962313026189804,"118":-0.08398036658763885,"119":-2.0558090209960938,"120":-0.5325344800949097}},"outputBias":{"rows":11,"columns":1,"weights":{"0":-11.335755348205566,"1":-3.601283311843872,"2":-9.86522388458252,"3":-8.781110763549805,"4":-5.240018844604492,"5":-9.295572280883789,"6":-9.113420486450195,"7":-14.21489429473877,"8":-4.412925720214844,"9":-5.982657432556152,"10":-8.205265045166016}},"cellActivationMatrix":{"rows":11,"columns":5,"weights":{"0":-0.281149685382843,"1":-0.27411454916000366,"2":-0.27424684166908264,"3":-0.27863091230392456,"4":-0.2780510485172272,"5":0.6464366912841797,"6":0.6584775447845459,"7":0.6667331457138062,"8":0.665264368057251,"9":0.6498056650161743,"10":-3.4241926670074463,"11":-3.6291353702545166,"12":-3.5123660564422607,"13":-3.5197408199310303,"14":-3.544142961502075,"15":-4.818762302398682,"16":-4.738949298858643,"17":-4.771676063537598,"18":-4.777956962585449,"19":-4.783336639404297,"20":2.581617593765259,"21":2.7525036334991455,"22":2.6421852111816406,"23":2.6155078411102295,"24":2.6419425010681152,"25":6.600772380828857,"26":6.713181018829346,"27":6.637679576873779,"28":6.5693583488464355,"29":6.660118103027344,"30":0.7343184947967529,"31":0.7801991701126099,"32":0.7508436441421509,"33":0.755294144153595,"34":0.7524415254592896,"35":2.92384672164917,"36":2.8866429328918457,"37":2.891343355178833,"38":2.8957295417785645,"39":2.903655529022217,"40":2.2599716186523438,"41":2.0609071254730225,"42":2.2166764736175537,"43":2.1429038047790527,"44":2.144043445587158,"45":45.36183547973633,"46":44.019405364990234,"47":44.09183120727539,"48":45.34832763671875,"49":44.7100944519043,"50":-5.441884994506836,"51":-5.393953800201416,"52":-5.437350749969482,"53":-5.433262825012207,"54":-5.418539524078369}},"cellActivationHidden":{"rows":11,"columns":11,"weights":{"0":-2.9114561080932617,"1":-0.04466783255338669,"2":0.029776491224765778,"3":0.11463936418294907,"4":0.035070810467004776,"5":-0.07233336567878723,"6":-0.031332530081272125,"7":0.498282253742218,"8":0.06241423264145851,"9":0.06476572901010513,"10":0.6252362132072449,"11":0.04400995001196861,"12":-7.379396438598633,"13":-0.04139131307601929,"14":0.04457623139023781,"15":-0.15442141890525818,"16":0.1292288899421692,"17":-0.04416349157691002,"18":-2.08648943901062,"19":0.04364962503314018,"20":0.04619224742054939,"21":-0.043733686208724976,"22":0.24664951860904694,"23":-0.010364595800638199,"24":1.2987641096115112,"25":0.09449442476034164,"26":-0.02454547770321369,"27":0.10768970847129822,"28":-0.029253844171762466,"29":-0.06261131912469864,"30":0.18632256984710693,"31":0.009609034284949303,"32":-0.04444071277976036,"33":0.12355493009090424,"34":-0.004661183338612318,"35":0.02998809516429901,"36":-1.4136991500854492,"37":0.12802109122276306,"38":0.5752341151237488,"39":-0.030964290723204613,"40":0.06318625807762146,"41":0.08117739111185074,"42":-0.6533638834953308,"43":0.843864917755127,"44":-0.04693574458360672,"45":0.06832319498062134,"46":-0.0906534492969513,"47":-0.004892857279628515,"48":-2.296107053756714,"49":-6.9128193855285645,"50":-0.524000883102417,"51":-0.037395209074020386,"52":-0.056013256311416626,"53":-9.524707794189453,"54":0.037418801337480545,"55":-0.2619825601577759,"56":-0.15551172196865082,"57":0.6302063465118408,"58":-0.08118462562561035,"59":-14.952510833740234,"60":-8.694396018981934,"61":0.17725013196468353,"62":15.799057960510254,"63":2.009126901626587,"64":-0.13818280398845673,"65":-1.0018956661224365,"66":-0.14353981614112854,"67":0.0257094856351614,"68":-0.037962157279253006,"69":0.06387104094028473,"70":0.2897460162639618,"71":0.21927152574062347,"72":-0.7331568598747253,"73":0.5521194338798523,"74":-0.0035681563895195723,"75":-0.5000879168510437,"76":-0.04642307385802269,"77":-0.041603751480579376,"78":-0.017106562852859497,"79":0.0186393391340971,"80":0.11546950787305832,"81":3.3179237842559814,"82":-1.752705693244934,"83":0.021508872509002686,"84":0.5408989787101746,"85":-0.4235367476940155,"86":1.901118278503418,"87":0.2684766352176666,"88":-0.06906389445066452,"89":-0.07743850350379944,"90":0.18134865164756775,"91":-0.02249390445649624,"92":1.8202639818191528,"93":8.702361106872559,"94":-0.0071977912448346615,"95":-12.496723175048828,"96":-15.483034133911133,"97":-6.127127647399902,"98":-0.025472240522503853,"99":-0.635404646396637,"100":-0.3905138671398163,"101":0.8683032989501953,"102":0.7694035172462463,"103":-6.793898582458496,"104":10.954668998718262,"105":-1.996878981590271,"106":0.3598572611808777,"107":11.771856307983398,"108":-21.195476531982422,"109":-0.4913095235824585,"110":0.13088126480579376,"111":0.043103281408548355,"112":-0.04382824897766113,"113":-0.24484628438949585,"114":1.3742467164993286,"115":0.324885755777359,"116":0.10464375466108322,"117":-0.22344909608364105,"118":0.03887588158249855,"119":-0.1080716997385025,"120":-2.0928993225097656}},"cellActivationBias":{"rows":11,"columns":1,"weights":{"0":4.490403652191162,"1":5.285706520080566,"2":-5.052248001098633,"3":-5.111036777496338,"4":-4.864333629608154,"5":4.430995464324951,"6":0.6548487544059753,"7":9.707269668579102,"8":5.137580871582031,"9":8.729613304138184,"10":-4.24470329284668}}}],"outputConnector":{"rows":5,"columns":11,"weights":{"0":-2.0551505088806152,"1":-0.5994672179222107,"2":0.6258630156517029,"3":3.16507887840271,"4":-2.393592596054077,"5":4.587662696838379,"6":1.3212780952453613,"7":-5.500266075134277,"8":-1.7760612964630127,"9":-3.870476007461548,"10":-1.8412556648254395,"11":-1.9546934366226196,"12":-0.4388825297355652,"13":0.11302679032087326,"14":2.741983652114868,"15":-2.3418476581573486,"16":4.761955261230469,"17":1.4284954071044922,"18":-5.515482425689697,"19":-1.698845624923706,"20":-3.683652400970459,"21":-0.939262866973877,"22":-2.0978169441223145,"23":-0.5218811631202698,"24":0.49690335988998413,"25":2.932649850845337,"26":-2.3552913665771484,"27":4.718734264373779,"28":1.4354561567306519,"29":-5.450963973999023,"30":-1.763063907623291,"31":-3.7508432865142822,"32":-1.4174607992172241,"33":-1.925236463546753,"34":-0.5145907402038574,"35":0.3014545738697052,"36":3.0097243785858154,"37":-2.423428773880005,"38":4.599343776702881,"39":1.3948795795440674,"40":-5.569589614868164,"41":-1.7289681434631348,"42":-3.795152187347412,"43":-1.4246424436569214,"44":-2.001899003982544,"45":-0.5256997346878052,"46":0.4160739779472351,"47":2.958987236022949,"48":-2.3617632389068604,"49":4.625607967376709,"50":1.4070552587509155,"51":-5.52379846572876,"52":-1.745853066444397,"53":-3.77424955368042,"54":-1.4435268640518188}},"output":{"rows":5,"columns":1,"weights":{"0":0.010783038102090359,"1":0.006281944923102856,"2":0.010299863293766975,"3":0.005374054424464703,"4":0.008990180678665638}}}},{"error":0.07511091594430169,"misclasses":[{"input":[[0.07715499,0.07643,0.07715499,0.076625,0.07688424],[0.0774445,0.076625,0.07664501,0.07721312,0.07713214],[0.077425,0.07675526,0.07721313,0.07687,0.07710578],[0.07711815,0.07600161,0.07699912,0.07661026,0.07638719],[0.07686454,0.074711,0.07669708,0.075,0.07558222],[0.07571999,0.0745,0.075,0.07466,0.07519543],[0.07469,0.07258574,0.07463501,0.07304415,0.07360628],[0.0741,0.07258575,0.07299,0.07360474,0.07355581],[0.07466,0.07349,0.07360475,0.07402,0.07402066],[0.07416,0.07287128,0.07402,0.07336,0.07343733]],"output":[[0.07370731,0.07287378,0.07352,0.07309533,0.07332139]],"actual":[{"0":-0.07218308746814728,"1":-0.075163833796978,"2":-0.07267202436923981,"3":-0.07608556747436523,"4":-0.07316820323467255}]},{"input":[[0.07252805,0.0714,0.07205,0.07238799,0.07191414],[0.07286636,0.072075,0.07238799,0.07215501,0.07241031],[0.07215501,0.071075,0.072155,0.07177998,0.07171549],[0.07186205,0.0709312,0.07177998,0.071225,0.07127905],[0.07139,0.0704953,0.07103402,0.07099995,0.0708071],[0.07166111,0.07087,0.07096501,0.070931,0.07114711],[0.07123927,0.07001385,0.07093527,0.07067,0.07050836],[0.07143897,0.07053658,0.07067498,0.07125027,0.07091224],[0.071645,0.07100001,0.07125001,0.07142197,0.07139807],[0.07198083,0.07084245,0.07143757,0.07084245,0.07128718]],"output":[[0.071045,0.070711,0.07084246,0.0709,0.07081895]],"actual":[{"0":-0.07218308746814728,"1":-0.075163833796978,"2":-0.07267202436923981,"3":-0.07608556747436523,"4":-0.07316820323467255}]},{"input":[[0.09481471,0.085777,0.08638,0.09100001,0.09046528],[0.0929567,0.08732202,0.09115932,0.08849998,0.08960693],[0.09180336,0.08756001,0.08843442,0.091,0.09015959],[0.091665,0.0863,0.09102726,0.08699999,0.08915074],[0.087707,0.0844066,0.087,0.08551714,0.08599324],[0.08636048,0.07320001,0.08555704,0.0791,0.08011024],[0.08589305,0.07819239,0.079,0.08306604,0.0816556],[0.0864,0.082,0.08306603,0.08502661,0.0837395],[0.08553622,0.08175864,0.08502661,0.08198999,0.08380355],[0.08312399,0.0806,0.08199,0.08188354,0.08183149]],"output":[[0.0843,0.08029171,0.08188354,0.08265862,0.08219454]],"actual":[{"0":-0.07218308746814728,"1":-0.075163833796978,"2":-0.07267202436923981,"3":-0.07608556747436523,"4":-0.07316820323467255}]},{"input":[[0.1026699,0.09517869,0.096373,0.1007286,0.10001727],[0.1018171,0.097,0.10070001,0.09777,0.09873731],[0.0986,0.0938,0.09777001,0.09674453,0.09627915],[0.09749987,0.08688888,0.09680813,0.08699999,0.09234086],[0.0921,0.0832,0.08699999,0.08638,0.08744949],[0.09481471,0.085777,0.08638,0.09100001,0.09046528],[0.0929567,0.08732202,0.09115932,0.08849998,0.08960693],[0.09180336,0.08756001,0.08843442,0.091,0.09015959],[0.091665,0.0863,0.09102726,0.08699999,0.08915074],[0.087707,0.0844066,0.087,0.08551714,0.08599324]],"output":[[0.08636048,0.07320001,0.08555704,0.0791,0.08011024]],"actual":[{"0":-0.07218308746814728,"1":-0.075163833796978,"2":-0.07267202436923981,"3":-0.07608556747436523,"4":-0.07316820323467255}]},{"input":[[0.09109676,0.08869903,0.09050337,0.08955251,0.08976643],[0.091103,0.08685682,0.08945405,0.08808,0.08910439],[0.08869933,0.0866,0.08816592,0.08691001,0.08732376],[0.0876,0.0854,0.08703618,0.085805,0.08638852],[0.08644692,0.082,0.08590004,0.08267329,0.08410669],[0.0834,0.07812002,0.08267329,0.08040002,0.08102333],[0.08068816,0.074,0.08040002,0.07509061,0.07766706],[0.0813288,0.07401,0.0751,0.08050002,0.07749298],[0.08390566,0.077617,0.08050029,0.07780004,0.08117435],[0.08301873,0.07780006,0.07780006,0.08127,0.08046979]],"output":[[0.084,0.08062058,0.08127001,0.08325875,0.08258351]],"actual":[{"0":-0.07218308746814728,"1":-0.075163833796978,"2":-0.07267202436923981,"3":-0.07608556747436523,"4":-0.07316820323467255}]},{"input":[[0.06917,0.06534553,0.069092,0.06611401,0.06714875],[0.06857688,0.06590067,0.0662,0.0682004,0.06731542],[0.0714005,0.06771334,0.0682004,0.06970602,0.06993121],[0.07213708,0.0692057,0.06965,0.06999996,0.07065127],[0.0702448,0.06818283,0.06989701,0.06996042,0.06953295],[0.07018797,0.0678,0.06996042,0.06889139,0.06885628],[0.07045,0.06852943,0.068904,0.07019999,0.06967289],[0.07189318,0.06959083,0.0702,0.0698,0.07055534],[0.0734,0.0688773,0.06980524,0.07237291,0.07141099],[0.07335326,0.069,0.072475,0.06967714,0.07145808]],"output":[[0.07085379,0.06870108,0.06968703,0.06928104,0.06999286]],"actual":[{"0":-0.07218308746814728,"1":-0.075163833796978,"2":-0.07267202436923981,"3":-0.07608556747436523,"4":-0.07316820323467255}]},{"input":[[0.083243,0.08241249,0.08308845,0.08264227,0.08282561],[0.08368726,0.08241,0.082661,0.08344311,0.08322532],[0.08381106,0.0826631,0.08341328,0.08338,0.08328844],[0.08349971,0.08260143,0.083375,0.08260999,0.08319412],[0.08263786,0.0810675,0.08260015,0.08128429,0.08196297],[0.08140851,0.08,0.08128401,0.08045615,0.08055763],[0.08096485,0.0795,0.08045615,0.08044064,0.08009197],[0.08091609,0.079,0.08061,0.079125,0.0801482],[0.07974602,0.07808367,0.07911044,0.07913066,0.07885694],[0.07927978,0.0773839,0.07913066,0.07774929,0.07824503]],"output":[[0.07823231,0.07575751,0.0777743,0.07795999,0.07691448]],"actual":[{"0":-0.07218308746814728,"1":-0.075163833796978,"2":-0.07267202436923981,"3":-0.07608556747436523,"4":-0.07316820323467255}]},{"input":[[0.08047622,0.079495,0.08037026,0.07982026,0.08001827],[0.07988999,0.07863087,0.07980528,0.07894197,0.07935216],[0.07943582,0.07789022,0.07889316,0.07819313,0.0786788],[0.0789,0.0772772,0.07819313,0.07881869,0.07814955],[0.07947943,0.07849032,0.07881869,0.07899999,0.07908289],[0.07958866,0.07809,0.079035,0.07848931,0.07885686],[0.079305,0.07807041,0.07848932,0.07908,0.07884988],[0.07974769,0.07891813,0.07902167,0.0792,0.07932392],[0.07967275,0.07893072,0.0792,0.07922163,0.07931574],[0.0804929,0.07922135,0.07922135,0.07971822,0.08002479]],"output":[[0.0803842,0.07951,0.07971822,0.07995,0.07993443]],"actual":[{"0":-0.07218308746814728,"1":-0.075163833796978,"2":-0.07267202436923981,"3":-0.07608556747436523,"4":-0.07316820323467255}]},{"input":[[0.08257353,0.08057,0.08075659,0.08187686,0.08197865],[0.08313112,0.0798,0.08187687,0.08054527,0.0817091],[0.08087599,0.0798,0.08069205,0.080744,0.08024969],[0.0817,0.08042586,0.08071502,0.08103573,0.08099857],[0.08193395,0.08056,0.080785,0.081775,0.08138398],[0.0825,0.08174027,0.08178135,0.08226,0.08230465],[0.0825,0.08199958,0.08226,0.0825,0.08229843],[0.08336779,0.08238495,0.0825,0.08270186,0.08279271],[0.08290937,0.0819,0.08270186,0.08214107,0.08222367],[0.08323848,0.082015,0.08218396,0.08314747,0.08252763]],"output":[[0.08460325,0.08284,0.08307208,0.08368473,0.08393958]],"actual":[{"0":-0.07218308746814728,"1":-0.075163833796978,"2":-0.07267202436923981,"3":-0.07608556747436523,"4":-0.07316820323467255}]},{"input":[[0.09417528,0.08700535,0.09199506,0.09390609,0.09047062],[0.0954,0.09082801,0.09390609,0.09356636,0.09331372],[0.094,0.09098442,0.09356637,0.09276,0.09270073],[0.09419604,0.084,0.09275497,0.09219501,0.08915104],[0.095,0.082,0.09219501,0.0899266,0.08999044],[0.0924821,0.08775001,0.09008697,0.0902537,0.08994812],[0.09196097,0.087,0.09025368,0.08709025,0.08880667],[0.08749999,0.08245758,0.08730206,0.08330525,0.08465483],[0.088995,0.083,0.08343991,0.0883,0.08677128],[0.094,0.08738895,0.0883,0.09175901,0.09111274]],"output":[[0.09232394,0.0887,0.09175901,0.08920011,0.09078489]],"actual":[{"0":-0.07218308746814728,"1":-0.075163833796978,"2":-0.07267202436923981,"3":-0.07608556747436523,"4":-0.07316820323467255}]},{"input":[[0.09245,0.0918,0.0924499,0.09227101,0.09237308],[0.09245,0.09010868,0.09213341,0.092164,0.09167209],[0.09238931,0.09077,0.09219173,0.0916,0.09125126],[0.0918203,0.09050001,0.0916,0.09150908,0.09110551],[0.0920976,0.08893061,0.09150908,0.08960113,0.09020209],[0.09112129,0.0893,0.08960113,0.091005,0.09044419],[0.09122464,0.0903014,0.09099898,0.09121481,0.09077615],[0.09167344,0.0903478,0.09111779,0.09100006,0.09117497],[0.0919595,0.09055996,0.09119853,0.09139934,0.09135314],[0.09333239,0.09036079,0.09139934,0.09199983,0.09225997]],"output":[[0.09380886,0.0917,0.0919998,0.09200016,0.0925304]],"actual":[{"0":-0.07218308746814728,"1":-0.075163833796978,"2":-0.07267202436923981,"3":-0.07608556747436523,"4":-0.07316820323467255}]},{"input":[[0.069825,0.069192,0.06969,0.06949,0.06942905],[0.07017333,0.0693,0.069495,0.06989733,0.06973104],[0.0702,0.06919509,0.06989733,0.069535,0.06987616],[0.06991801,0.06941002,0.069565,0.069703,0.06961364],[0.0701,0.06920692,0.06970299,0.0692995,0.06975685],[0.06931888,0.06865295,0.06929933,0.06886065,0.06905186],[0.07005622,0.06886043,0.06886043,0.07001248,0.06962892],[0.070055,0.06959397,0.070055,0.069885,0.06986209],[0.07017613,0.06986501,0.06986524,0.070108,0.07003974],[0.07047015,0.06973041,0.07004001,0.070005,0.06997339]],"output":[[0.07005,0.06937944,0.06997744,0.06952811,0.0697109]],"actual":[{"0":-0.07218308746814728,"1":-0.075163833796978,"2":-0.07267202436923981,"3":-0.07608556747436523,"4":-0.07316820323467255}]},{"input":[[0.07260003,0.071595,0.07163675,0.07169756,0.07200262],[0.07187162,0.071154,0.07163519,0.0716019,0.0714777],[0.07168609,0.0687,0.07150701,0.07041,0.07004519],[0.0715,0.06981259,0.07034428,0.07035478,0.07062064],[0.0715,0.07016768,0.07035477,0.07076661,0.07100319],[0.07096872,0.06964767,0.07076661,0.06987331,0.07032494],[0.07037803,0.06960903,0.06986199,0.06983397,0.06997929],[0.07035303,0.06939141,0.069834,0.07003363,0.06987592],[0.07073631,0.06975,0.07003365,0.07049495,0.07035631],[0.07080106,0.0699733,0.07056693,0.07034977,0.07023917]],"output":[[0.07052636,0.06998501,0.07034999,0.07022015,0.07026085]],"actual":[{"0":-0.07218308746814728,"1":-0.075163833796978,"2":-0.07267202436923981,"3":-0.07608556747436523,"4":-0.07316820323467255}]},{"input":[[0.06290001,0.05941002,0.06040001,0.0629,0.06077467],[0.06691,0.062367,0.0629,0.06679997,0.06449522],[0.0675,0.06384786,0.06679997,0.06708558,0.06598032],[0.07053358,0.066,0.06708557,0.06972499,0.06895331],[0.07238998,0.0683,0.069788,0.07229998,0.07056839],[0.07431999,0.06685,0.07220001,0.0713,0.07141055],[0.0777,0.0698001,0.0713,0.07760097,0.07340278],[0.0865,0.071,0.07763532,0.0785,0.07971802],[0.08398982,0.07563322,0.07859999,0.0773,0.07983375],[0.0791,0.0712,0.07740839,0.07820001,0.07551209]],"output":[[0.0782,0.06851001,0.077999,0.07468504,0.07355457]],"actual":[{"0":-0.07218308746814728,"1":-0.075163833796978,"2":-0.07267202436923981,"3":-0.07608556747436523,"4":-0.07316820323467255}]},{"input":[[0.07888441,0.07800001,0.07874,0.07857,0.07837014],[0.07911566,0.07854929,0.07857,0.07898,0.07898056],[0.079255,0.07851054,0.0789103,0.078775,0.07889833],[0.07914448,0.07857571,0.07869434,0.07892028,0.07891641],[0.07907625,0.07728707,0.078965,0.07863304,0.07833326],[0.07877899,0.07800001,0.078445,0.078135,0.07839862],[0.07887802,0.07797385,0.07816535,0.07875,0.07829564],[0.07931445,0.07860768,0.07872178,0.07927615,0.0791244],[0.0792956,0.07896286,0.07924999,0.07907477,0.07918043],[0.0793,0.07893625,0.07907478,0.079246,0.07916139]],"output":[[0.0793,0.07880318,0.07925025,0.07908025,0.07906485]],"actual":[{"0":-0.07218308746814728,"1":-0.075163833796978,"2":-0.07267202436923981,"3":-0.07608556747436523,"4":-0.07316820323467255}]},{"input":[[0.06660001,0.0643097,0.06440009,0.0665,0.06524184],[0.0688,0.0662,0.0665,0.06784454,0.06763071],[0.0697,0.06536996,0.06784437,0.069,0.06745001],[0.077,0.06897,0.069,0.07669995,0.07302276],[0.07986799,0.0743204,0.0767,0.07474798,0.07651051],[0.07595435,0.07220001,0.07474798,0.0735,0.0741752],[0.07505,0.06930063,0.0735,0.07355686,0.0724257],[0.07680066,0.07289223,0.0735,0.07599992,0.07486593],[0.0778,0.07510024,0.07580193,0.0756,0.07645105],[0.07900687,0.07540281,0.0756,0.0789392,0.0773606]],"output":[[0.08027845,0.0775,0.0789385,0.08010002,0.07919795]],"actual":[{"0":-0.07218308746814728,"1":-0.075163833796978,"2":-0.07267202436923981,"3":-0.07608556747436523,"4":-0.07316820323467255}]},{"input":[[0.06122169,0.0583,0.05976382,0.06040001,0.06014832],[0.06290001,0.05941002,0.06040001,0.0629,0.06077467],[0.06691,0.062367,0.0629,0.06679997,0.06449522],[0.0675,0.06384786,0.06679997,0.06708558,0.06598032],[0.07053358,0.066,0.06708557,0.06972499,0.06895331],[0.07238998,0.0683,0.069788,0.07229998,0.07056839],[0.07431999,0.06685,0.07220001,0.0713,0.07141055],[0.0777,0.0698001,0.0713,0.07760097,0.07340278],[0.0865,0.071,0.07763532,0.0785,0.07971802],[0.08398982,0.07563322,0.07859999,0.0773,0.07983375]],"output":[[0.0791,0.0712,0.07740839,0.07820001,0.07551209]],"actual":[{"0":-0.07218308746814728,"1":-0.075163833796978,"2":-0.07267202436923981,"3":-0.07608556747436523,"4":-0.07316820323467255}]},{"input":[[0.08693138,0.08562983,0.08665001,0.08629275,0.08620575],[0.0864583,0.08363301,0.08629275,0.08366667,0.08461346],[0.0883841,0.08288271,0.08368308,0.08713882,0.08541208],[0.08999998,0.08675176,0.08713882,0.0889791,0.08850375],[0.09146884,0.08730001,0.08897911,0.08970515,0.08904602],[0.09101632,0.08883,0.08970515,0.09050337,0.09004932],[0.09109676,0.08869903,0.09050337,0.08955251,0.08976643],[0.091103,0.08685682,0.08945405,0.08808,0.08910439],[0.08869933,0.0866,0.08816592,0.08691001,0.08732376],[0.0876,0.0854,0.08703618,0.085805,0.08638852]],"output":[[0.08644692,0.082,0.08590004,0.08267329,0.08410669]],"actual":[{"0":-0.07218308746814728,"1":-0.075163833796978,"2":-0.07267202436923981,"3":-0.07608556747436523,"4":-0.07316820323467255}]},{"input":[[0.08370223,0.0812,0.08250004,0.08163591,0.0826778],[0.08253122,0.0802936,0.08163591,0.08086794,0.08137648],[0.082,0.0793799,0.08086794,0.0795,0.08043922],[0.07968,0.0501,0.07938626,0.07331113,0.07158002],[0.07594722,0.07099926,0.07402699,0.07115535,0.07339626],[0.0734657,0.06800033,0.07102202,0.07212359,0.07106898],[0.07538717,0.07179634,0.07317029,0.07284932,0.07357526],[0.0738871,0.07198376,0.07379999,0.07198376,0.07267741],[0.07389986,0.07146844,0.0731,0.0732441,0.07264264],[0.07635721,0.07181434,0.0732441,0.0756478,0.07420245]],"output":[[0.07585807,0.07429461,0.075648,0.07437631,0.07500228]],"actual":[{"0":-0.07218308746814728,"1":-0.075163833796978,"2":-0.07267202436923981,"3":-0.07608556747436523,"4":-0.07316820323467255}]},{"input":[[0.08934163,0.0866,0.088,0.08858829,0.08810325],[0.091,0.08814987,0.08862343,0.08814987,0.08955591],[0.08947931,0.08680005,0.08825053,0.08802298,0.08800859],[0.08867,0.08735291,0.08796,0.08795003,0.08813341],[0.0899,0.08754124,0.08795499,0.08988724,0.08841051],[0.09060009,0.0885,0.08988724,0.08942895,0.08956454],[0.09,0.0885,0.08970424,0.08867,0.08941069],[0.08910131,0.0869,0.08866999,0.08690003,0.08803106],[0.08842485,0.08666975,0.08699758,0.08811204,0.0874112],[0.08811204,0.086,0.08811204,0.08635043,0.08690953]],"output":[[0.086654,0.08551001,0.08629987,0.086005,0.08612197]],"actual":[{"0":-0.07218308746814728,"1":-0.075163833796978,"2":-0.07267202436923981,"3":-0.07608556747436523,"4":-0.07316820323467255}]},{"input":[[0.08102616,0.0798747,0.07998455,0.08079373,0.08051213],[0.08214659,0.08035596,0.08079373,0.081,0.08107528],[0.0816,0.0806,0.081,0.08080969,0.08116631],[0.08199,0.08063021,0.08080965,0.08163565,0.08137622],[0.08569799,0.08156803,0.08178201,0.08565496,0.08331963],[0.08576172,0.0828,0.085415,0.08505114,0.08459948],[0.086,0.08397347,0.0850232,0.0855495,0.08472285],[0.0856,0.08345,0.08545506,0.08394499,0.08491057],[0.08598879,0.0827029,0.08394499,0.08360292,0.08385505],[0.08466897,0.08323944,0.08357,0.08429798,0.08382952]],"output":[[0.08428799,0.08251002,0.08428799,0.083192,0.08353626]],"actual":[{"0":-0.07218308746814728,"1":-0.075163833796978,"2":-0.07267202436923981,"3":-0.07608556747436523,"4":-0.07316820323467255}]},{"input":[[0.07915405,0.07875109,0.07904998,0.078905,0.07899261],[0.07917696,0.07864418,0.07891,0.07881304,0.07893673],[0.0792,0.07872,0.07882472,0.07874,0.07893453],[0.07888441,0.07800001,0.07874,0.07857,0.07837014],[0.07911566,0.07854929,0.07857,0.07898,0.07898056],[0.079255,0.07851054,0.0789103,0.078775,0.07889833],[0.07914448,0.07857571,0.07869434,0.07892028,0.07891641],[0.07907625,0.07728707,0.078965,0.07863304,0.07833326],[0.07877899,0.07800001,0.078445,0.078135,0.07839862],[0.07887802,0.07797385,0.07816535,0.07875,0.07829564]],"output":[[0.07931445,0.07860768,0.07872178,0.07927615,0.0791244]],"actual":[{"0":-0.07218308746814728,"1":-0.075163833796978,"2":-0.07267202436923981,"3":-0.07608556747436523,"4":-0.07316820323467255}]},{"input":[[0.07260998,0.07015705,0.07251947,0.07182956,0.07133708],[0.07393123,0.0716051,0.07171851,0.073653,0.07308126],[0.07459999,0.0733898,0.07365,0.07349475,0.07405613],[0.0735,0.0724,0.07342951,0.07272109,0.07283647],[0.07384247,0.07272186,0.07272186,0.07380973,0.07335067],[0.07433435,0.07340001,0.07380475,0.07406,0.07393637],[0.07475357,0.07386389,0.07406,0.07439525,0.07434247],[0.075134,0.07439525,0.07448,0.07457047,0.07480013],[0.0748,0.07424376,0.07458816,0.074325,0.07448872],[0.074839,0.07388396,0.07443419,0.07457065,0.074387]],"output":[[0.07476199,0.07387895,0.07457066,0.07415898,0.07429317]],"actual":[{"0":-0.07218308746814728,"1":-0.075163833796978,"2":-0.07267202436923981,"3":-0.07608556747436523,"4":-0.07316820323467255}]},{"input":[[0.08189987,0.081,0.08189987,0.08142873,0.08145144],[0.08129007,0.08000004,0.081255,0.08063653,0.08063873],[0.08098061,0.08,0.08050009,0.08014864,0.08051112],[0.0803499,0.079232,0.08029894,0.07973505,0.07972339],[0.07971911,0.07807623,0.07971911,0.07860846,0.07851226],[0.0796531,0.0782,0.07842245,0.07840802,0.07882247],[0.07945147,0.07717598,0.07840794,0.07898991,0.0785127],[0.0790551,0.07830003,0.0788361,0.07871094,0.07865339],[0.07919919,0.07720903,0.07878965,0.07799941,0.0783175],[0.07799932,0.07701443,0.07799932,0.077572,0.07751765]],"output":[[0.07762309,0.076,0.077562,0.07634292,0.0766562]],"actual":[{"0":-0.07218308746814728,"1":-0.075163833796978,"2":-0.07267202436923981,"3":-0.07608556747436523,"4":-0.07316820323467255}]},{"input":[[0.09082999,0.089,0.0908,0.09008338,0.09017867],[0.09442655,0.0897,0.09008338,0.09331,0.09208475],[0.09447566,0.090105,0.09331,0.09049797,0.09262898],[0.0925,0.09,0.09049799,0.09179996,0.09115312],[0.0934287,0.0916584,0.09209998,0.09217606,0.09240019],[0.093,0.09165837,0.09221693,0.09239894,0.09224046],[0.09283021,0.09183014,0.09239894,0.0928,0.09232238],[0.0941,0.09230001,0.0928,0.09303,0.0930456],[0.09399997,0.09293,0.09309995,0.09399997,0.0933963],[0.0951735,0.09244108,0.093999,0.09480958,0.09413249]],"output":[[0.09572,0.0932,0.09485213,0.09346,0.09436882]],"actual":[{"0":-0.07218308746814728,"1":-0.075163833796978,"2":-0.07267202436923981,"3":-0.07608556747436523,"4":-0.07316820323467255}]},{"input":[[0.10113793,0.09988669,0.10036133,0.10077769,0.10078788],[0.10111924,0.1000623,0.10077754,0.10054194,0.10057981],[0.10077073,0.10006,0.1005419,0.10027533,0.10058693],[0.10059999,0.09883001,0.10051974,0.09944719,0.09968205],[0.10009141,0.09920209,0.09944182,0.09963231,0.09955342],[0.09984409,0.0984048,0.09984409,0.099,0.09885191],[0.09927031,0.09834505,0.099,0.09871726,0.09881766],[0.0991,0.0978,0.09879298,0.09889873,0.09861716],[0.09889875,0.097,0.09889873,0.09737111,0.09785072],[0.09761507,0.09688801,0.097432,0.09753861,0.09733575]],"output":[[0.09829456,0.09688803,0.09753861,0.09729744,0.09749518]],"actual":[{"0":-0.07218308746814728,"1":-0.075163833796978,"2":-0.07267202436923981,"3":-0.07608556747436523,"4":-0.07316820323467255}]},{"input":[[0.07439374,0.07321515,0.07414593,0.07338,0.07367308],[0.07345,0.07267545,0.07338,0.07297465,0.07303231],[0.07297465,0.07200471,0.07297465,0.0725,0.0725059],[0.07260998,0.07015705,0.07251947,0.07182956,0.07133708],[0.07393123,0.0716051,0.07171851,0.073653,0.07308126],[0.07459999,0.0733898,0.07365,0.07349475,0.07405613],[0.0735,0.0724,0.07342951,0.07272109,0.07283647],[0.07384247,0.07272186,0.07272186,0.07380973,0.07335067],[0.07433435,0.07340001,0.07380475,0.07406,0.07393637],[0.07475357,0.07386389,0.07406,0.07439525,0.07434247]],"output":[[0.075134,0.07439525,0.07448,0.07457047,0.07480013]],"actual":[{"0":-0.07218308746814728,"1":-0.075163833796978,"2":-0.07267202436923981,"3":-0.07608556747436523,"4":-0.07316820323467255}]},{"input":[[0.07880462,0.07766005,0.07824468,0.07821,0.07804137],[0.07857861,0.07766688,0.07821,0.0777028,0.07815896],[0.07797455,0.07658001,0.07770279,0.0768075,0.0771373],[0.0771273,0.07462833,0.07692,0.07578,0.07585884],[0.07716572,0.07496331,0.075845,0.07709315,0.0755877],[0.07777975,0.07592535,0.07709339,0.07592535,0.07694277],[0.0763855,0.07543,0.07594484,0.076275,0.07596065],[0.07686812,0.07593389,0.0762882,0.076725,0.07645673],[0.0774537,0.07664545,0.07664545,0.07700794,0.07704297],[0.07738,0.0767237,0.07703331,0.07727,0.07706863]],"output":[[0.07727008,0.07626551,0.07727008,0.076475,0.07661845]],"actual":[{"0":-0.07218308746814728,"1":-0.075163833796978,"2":-0.07267202436923981,"3":-0.07608556747436523,"4":-0.07316820323467255}]},{"input":[[0.09138929,0.08981454,0.09115239,0.0899,0.09042846],[0.09129999,0.08995981,0.09015466,0.09067625,0.09075338],[0.09112498,0.088,0.09105889,0.08884,0.08892783],[0.089639,0.08542012,0.08884,0.0893602,0.08823186],[0.09,0.08888888,0.08957999,0.08999999,0.08950639],[0.09022887,0.089074,0.08996771,0.08998969,0.08962508],[0.09022887,0.08931594,0.08998961,0.09,0.08989358],[0.09079052,0.08897526,0.09022887,0.08983695,0.09009996],[0.09055454,0.0893303,0.08999981,0.09001709,0.08998501],[0.091,0.0895009,0.09001697,0.09099997,0.09036218]],"output":[[0.09263199,0.09029309,0.09099997,0.0913465,0.09154254]],"actual":[{"0":-0.07218308746814728,"1":-0.075163833796978,"2":-0.07267202436923981,"3":-0.07608556747436523,"4":-0.07316820323467255}]},{"input":[[0.07384247,0.07272186,0.07272186,0.07380973,0.07335067],[0.07433435,0.07340001,0.07380475,0.07406,0.07393637],[0.07475357,0.07386389,0.07406,0.07439525,0.07434247],[0.075134,0.07439525,0.07448,0.07457047,0.07480013],[0.0748,0.07424376,0.07458816,0.074325,0.07448872],[0.074839,0.07388396,0.07443419,0.07457065,0.074387],[0.07476199,0.07387895,0.07457066,0.07415898,0.07429317],[0.07485935,0.073855,0.07415973,0.07433399,0.07426556],[0.07787249,0.0743,0.074334,0.07738037,0.07606354],[0.0789429,0.077,0.07757333,0.07813017,0.07807807]],"output":[[0.07868,0.0769,0.07813017,0.07831427,0.07779594]],"actual":[{"0":-0.07218308746814728,"1":-0.075163833796978,"2":-0.07267202436923981,"3":-0.07608556747436523,"4":-0.07316820323467255}]},{"input":[[0.08288117,0.08184538,0.08228675,0.08211496,0.08247164],[0.08211999,0.08141569,0.08206499,0.08148493,0.08170671],[0.08147496,0.0789,0.08147491,0.07919999,0.07988337],[0.0793113,0.07725951,0.07919997,0.07871505,0.07834384],[0.0818,0.07854231,0.07871505,0.08100467,0.08035305],[0.08142859,0.07999419,0.081,0.079999,0.08066875],[0.08084319,0.079779,0.08003,0.08071757,0.08033067],[0.0817,0.07905676,0.0806517,0.07948241,0.08060925],[0.07994979,0.07781666,0.07923403,0.07945,0.0784422],[0.08053569,0.07929275,0.07945,0.08026,0.07995827]],"output":[[0.08068582,0.07936129,0.08026,0.07952194,0.07990207]],"actual":[{"0":-0.07218308746814728,"1":-0.075163833796978,"2":-0.07267202436923981,"3":-0.07608556747436523,"4":-0.07316820323467255}]},{"input":[[0.1404,0.13836017,0.1401111,0.13898999,0.13925553],[0.13919977,0.13802211,0.1388,0.1381,0.13853035],[0.1412,0.137201,0.13828,0.1404,0.13872466],[0.14097167,0.13796461,0.1404,0.13879999,0.13950859],[0.14048999,0.13868001,0.13879999,0.13872003,0.13953583],[0.139,0.13751902,0.13873,0.1380003,0.13827801],[0.13841998,0.11300001,0.1380003,0.125434,0.12728864],[0.13197925,0.12155,0.1255,0.13029997,0.12679737],[0.1337,0.125,0.13029996,0.12654063,0.12906144],[0.12739988,0.123741,0.1265005,0.1247988,0.12600287]],"output":[[0.12599874,0.1231,0.1247988,0.12409999,0.12425055]],"actual":[{"0":-0.07218308746814728,"1":-0.075163833796978,"2":-0.07267202436923981,"3":-0.07608556747436523,"4":-0.07316820323467255}]},{"input":[[0.08052987,0.079501,0.08035,0.0798102,0.0799962],[0.079944,0.07860079,0.0798102,0.0793999,0.07926277],[0.07959486,0.07863499,0.07941164,0.07885407,0.07919755],[0.07972045,0.07851477,0.07885406,0.07900142,0.079031],[0.08195123,0.0784475,0.07900142,0.08096824,0.08023772],[0.08578924,0.08064501,0.08096824,0.08549985,0.08397214],[0.086398,0.08362106,0.08544579,0.08514955,0.0849015],[0.08789053,0.08492802,0.08514955,0.08661057,0.08656063],[0.09375,0.08660001,0.08661057,0.09340001,0.09103261],[0.09372,0.08835003,0.09349,0.08989995,0.09109507]],"output":[[0.0911912,0.08557729,0.08989995,0.08939848,0.08828032]],"actual":[{"0":-0.07218308746814728,"1":-0.075163833796978,"2":-0.07267202436923981,"3":-0.07608556747436523,"4":-0.07316820323467255}]},{"input":[[0.14101,0.13200006,0.13851406,0.13850102,0.13634694],[0.14049996,0.13220002,0.1386329,0.13262673,0.13522203],[0.13578999,0.1294,0.13259,0.13467599,0.13259972],[0.1385,0.1338,0.13467598,0.13649,0.13625934],[0.1428387,0.13624786,0.1366997,0.14250191,0.14004336],[0.14273,0.13687,0.14250191,0.13958636,0.13961158],[0.142,0.138989,0.13989995,0.14038985,0.1404798],[0.14319632,0.14002707,0.14033609,0.14279995,0.1419088],[0.14491,0.142081,0.14244002,0.14441311,0.14368417],[0.14479,0.143,0.14441325,0.14303006,0.14354711]],"output":[[0.14342999,0.142,0.14303006,0.14275711,0.14254105]],"actual":[{"0":-0.07218308746814728,"1":-0.075163833796978,"2":-0.07267202436923981,"3":-0.07608556747436523,"4":-0.07316820323467255}]},{"input":[[0.08196811,0.08053896,0.08092029,0.08159494,0.08137555],[0.0818,0.07941,0.0815,0.07984998,0.08034691],[0.08008553,0.07910834,0.07984998,0.07927001,0.07956855],[0.0808376,0.07922,0.07927026,0.08032,0.08023735],[0.08081975,0.08002694,0.08031976,0.08070126,0.08037044],[0.0810985,0.08023357,0.0805005,0.08085948,0.0807529],[0.0813754,0.080305,0.08062341,0.08064019,0.08074537],[0.08135,0.08049001,0.0806912,0.08104999,0.08101817],[0.082,0.08090756,0.08090756,0.08151051,0.08162526],[0.08191182,0.08121724,0.08145757,0.081525,0.08163753]],"output":[[0.08176312,0.0810445,0.08135024,0.081555,0.08150081]],"actual":[{"0":-0.07218308746814728,"1":-0.075163833796978,"2":-0.07267202436923981,"3":-0.07608556747436523,"4":-0.07316820323467255}]},{"input":[[0.08060403,0.07676536,0.08039109,0.07835221,0.07805607],[0.079625,0.07768396,0.07835221,0.07937585,0.07821744],[0.0798,0.0781075,0.0793759,0.078965,0.07931894],[0.08046196,0.07880039,0.07920425,0.08027,0.07942626],[0.080875,0.0798213,0.08027,0.08079,0.0804704],[0.08087947,0.07985237,0.08079,0.08074629,0.08038845],[0.08094201,0.08028731,0.08075045,0.0808,0.08068498],[0.0815,0.08058909,0.0808,0.08121262,0.08107005],[0.08436723,0.0810817,0.08121262,0.0842823,0.08268328],[0.08509874,0.08372455,0.08430591,0.0845,0.08451351]],"output":[[0.08503998,0.0836114,0.08436501,0.08390533,0.08421463]],"actual":[{"0":-0.07218308746814728,"1":-0.075163833796978,"2":-0.07267202436923981,"3":-0.07608556747436523,"4":-0.07316820323467255}]},{"input":[[0.07539999,0.07470491,0.075341,0.07534602,0.07503558],[0.07602503,0.0747,0.07534602,0.075591,0.07553565],[0.07587193,0.07528102,0.07546012,0.07586504,0.07560199],[0.07631846,0.07553203,0.07586504,0.07557798,0.07586361],[0.07586122,0.07443041,0.07553203,0.07505996,0.07532531],[0.07512504,0.073856,0.07487303,0.07448197,0.07460124],[0.0747135,0.07316167,0.07446193,0.07460313,0.07394839],[0.074867,0.073,0.07456002,0.07382608,0.07397462],[0.07507776,0.07364724,0.073826,0.074909,0.07449319],[0.075383,0.07418941,0.07492861,0.074915,0.07487759]],"output":[[0.07504495,0.0735497,0.07491497,0.07417,0.07421018]],"actual":[{"0":-0.07218308746814728,"1":-0.075163833796978,"2":-0.07267202436923981,"3":-0.07608556747436523,"4":-0.07316820323467255}]},{"input":[[0.08354583,0.08161092,0.08248086,0.08220564,0.08243714],[0.085898,0.08204632,0.0822,0.08540002,0.08449139],[0.08597,0.08361,0.08549993,0.08409999,0.08463628],[0.0851,0.0825,0.08409999,0.08416071,0.08411481],[0.0852,0.084,0.08416071,0.08411009,0.08441636],[0.0902,0.08329791,0.08411009,0.0901,0.08716636],[0.10078732,0.08683318,0.09013355,0.09870001,0.09328525],[0.1115,0.09582701,0.09870003,0.09848001,0.10199353],[0.09962165,0.09334724,0.09848001,0.096373,0.09629242],[0.1026699,0.09517869,0.096373,0.1007286,0.10001727]],"output":[[0.1018171,0.097,0.10070001,0.09777,0.09873731]],"actual":[{"0":-0.07218308746814728,"1":-0.075163833796978,"2":-0.07267202436923981,"3":-0.07608556747436523,"4":-0.07316820323467255}]},{"input":[[0.1055,0.103,0.10491254,0.10318913,0.10399858],[0.10515999,0.10188646,0.1033,0.10507529,0.1035459],[0.1054,0.10254351,0.10514989,0.1033,0.10422466],[0.10415508,0.10100622,0.10330001,0.10265999,0.10220126],[0.10335293,0.0984,0.10258872,0.10002177,0.10056131],[0.10533966,0.0992279,0.10001176,0.10280831,0.10215174],[0.10290001,0.10072416,0.10282,0.10185681,0.10204059],[0.10246825,0.10021288,0.10166632,0.10190006,0.10123987],[0.10549999,0.10117778,0.10191,0.1041,0.10365925],[0.10560101,0.10379855,0.10402796,0.10499994,0.10471604]],"output":[[0.10499994,0.102002,0.10492215,0.10309951,0.10301759]],"actual":[{"0":-0.07218308746814728,"1":-0.075163833796978,"2":-0.07267202436923981,"3":-0.07608556747436523,"4":-0.07316820323467255}]},{"input":[[0.084,0.08304807,0.08383145,0.083375,0.08358645],[0.0839,0.083175,0.08338001,0.08372999,0.083682],[0.08424992,0.08330711,0.08380499,0.08420749,0.08381982],[0.08433389,0.08337688,0.08420749,0.08421,0.08391432],[0.08423788,0.08353023,0.08421,0.08380502,0.08393314],[0.08489999,0.08375,0.08381491,0.08481455,0.08441411],[0.08571675,0.0846,0.08479977,0.08503416,0.08513574],[0.08512977,0.08422648,0.08503416,0.08473,0.08468951],[0.08489,0.0837,0.08471501,0.08455689,0.08426573],[0.08549,0.08399439,0.084525,0.08513,0.0849043]],"output":[[0.0856,0.08505503,0.08513,0.08552504,0.08538797]],"actual":[{"0":-0.07218308746814728,"1":-0.075163833796978,"2":-0.07267202436923981,"3":-0.07608556747436523,"4":-0.07316820323467255}]},{"input":[[0.1033,0.09969139,0.10240698,0.10070502,0.10118648],[0.10157613,0.09949489,0.10070501,0.09949489,0.10066124],[0.10020036,0.096,0.09949997,0.09696069,0.09783217],[0.09981045,0.096855,0.09696069,0.09794647,0.09846968],[0.09861897,0.0956,0.097942,0.09637649,0.09676443],[0.09700501,0.09314993,0.09633197,0.0960602,0.0949854],[0.09828,0.09569548,0.0960602,0.09670868,0.09696523],[0.09737591,0.09387972,0.09670867,0.09484001,0.09520567],[0.09828,0.0946826,0.09484,0.09793757,0.0965993],[0.0983,0.09401001,0.09793757,0.0957281,0.09600345]],"output":[[0.0964,0.093776,0.09562867,0.09631526,0.09522207]],"actual":[{"0":-0.07218308746814728,"1":-0.075163833796978,"2":-0.07267202436923981,"3":-0.07608556747436523,"4":-0.07316820323467255}]},{"input":[[0.08446526,0.083525,0.084015,0.084338,0.08406512],[0.084701,0.08353496,0.08434635,0.08425001,0.08421032],[0.0846,0.08361,0.08425001,0.08434152,0.08419056],[0.08473053,0.08362906,0.08434153,0.08468018,0.08434752],[0.08549999,0.083,0.08465,0.0850246,0.08438354],[0.08529458,0.08443693,0.08494026,0.08447501,0.08487983],[0.08479,0.08424792,0.084515,0.084436,0.08449853],[0.08516399,0.08408,0.08443599,0.08499501,0.0845619],[0.085,0.08314805,0.084975,0.08351892,0.08397815],[0.08400862,0.08253686,0.08348043,0.08287532,0.08318534]],"output":[[0.08415287,0.08251713,0.08298,0.08379499,0.08326237]],"actual":[{"0":-0.07218308746814728,"1":-0.075163833796978,"2":-0.07267202436923981,"3":-0.07608556747436523,"4":-0.07316820323467255}]},{"input":[[0.06915,0.06861383,0.069085,0.06873974,0.06882686],[0.0699119,0.06871,0.068785,0.06975,0.06915715],[0.069825,0.069192,0.06969,0.06949,0.06942905],[0.07017333,0.0693,0.069495,0.06989733,0.06973104],[0.0702,0.06919509,0.06989733,0.069535,0.06987616],[0.06991801,0.06941002,0.069565,0.069703,0.06961364],[0.0701,0.06920692,0.06970299,0.0692995,0.06975685],[0.06931888,0.06865295,0.06929933,0.06886065,0.06905186],[0.07005622,0.06886043,0.06886043,0.07001248,0.06962892],[0.070055,0.06959397,0.070055,0.069885,0.06986209]],"output":[[0.07017613,0.06986501,0.06986524,0.070108,0.07003974]],"actual":[{"0":-0.07218308746814728,"1":-0.075163833796978,"2":-0.07267202436923981,"3":-0.07608556747436523,"4":-0.07316820323467255}]},{"input":[[0.07198012,0.07092701,0.0711595,0.071437,0.07149606],[0.07189,0.07128463,0.07143698,0.07133069,0.07154648],[0.07182208,0.07099694,0.07135536,0.071605,0.07140999],[0.071717,0.07119429,0.071605,0.07128997,0.07133985],[0.07138975,0.07087,0.07128996,0.07114976,0.07109976],[0.071415,0.0705,0.07115,0.0707,0.07087002],[0.070785,0.06997636,0.07068064,0.06997636,0.0704195],[0.07013,0.06973445,0.07,0.06989631,0.06993565],[0.0699,0.06800009,0.0699,0.06827699,0.0687415],[0.06849745,0.06807358,0.068277,0.06811501,0.06831518]],"output":[[0.06890924,0.06764456,0.06811502,0.0678,0.06831096]],"actual":[{"0":-0.07218308746814728,"1":-0.075163833796978,"2":-0.07267202436923981,"3":-0.07608556747436523,"4":-0.07316820323467255}]},{"input":[[0.07437809,0.07292668,0.07396665,0.07350001,0.07364558],[0.07406484,0.07270501,0.0735,0.07343999,0.07344406],[0.0738,0.07231,0.07347336,0.072969,0.07294326],[0.07296941,0.0715335,0.07296,0.07203006,0.07224532],[0.073925,0.07195478,0.07203006,0.07380475,0.073107],[0.07407259,0.0729781,0.07380449,0.07312562,0.07333174],[0.07473199,0.07253182,0.07312562,0.074695,0.07363449],[0.07643999,0.07425372,0.07458,0.07483445,0.07528688],[0.076225,0.07473,0.07481,0.07559399,0.07553461],[0.07618393,0.074845,0.075594,0.07585986,0.07564305]],"output":[[0.07746715,0.07568557,0.07585986,0.076085,0.07666518]],"actual":[{"0":-0.07218308746814728,"1":-0.075163833796978,"2":-0.07267202436923981,"3":-0.07608556747436523,"4":-0.07316820323467255}]},{"input":[[0.0770807,0.07627,0.07704999,0.07703364,0.07670047],[0.07703364,0.076675,0.07695,0.07671752,0.07684735],[0.07699719,0.076598,0.07670752,0.076715,0.07670743],[0.07702061,0.07664166,0.07664942,0.0769,0.07692905],[0.07760563,0.07650244,0.0769,0.07681,0.07709759],[0.07749168,0.07680501,0.07681,0.07714052,0.07723348],[0.0775,0.077,0.0771945,0.077145,0.07735187],[0.07739539,0.07692493,0.077135,0.07738,0.0771027],[0.0798,0.07739564,0.07739564,0.079335,0.07863727],[0.08010199,0.0787941,0.079335,0.0794355,0.07949114]],"output":[[0.07968962,0.0790593,0.07943,0.07968962,0.07926323]],"actual":[{"0":-0.07218308746814728,"1":-0.075163833796978,"2":-0.07267202436923981,"3":-0.07608556747436523,"4":-0.07316820323467255}]},{"input":[[0.07799899,0.07579673,0.07785096,0.0765242,0.07688162],[0.0768233,0.07582705,0.07662859,0.076561,0.07645316],[0.0775,0.076482,0.07656589,0.07740172,0.07710518],[0.0778,0.07670005,0.0774,0.07748431,0.07739975],[0.07829816,0.0768,0.0774804,0.07700385,0.07764758],[0.07729997,0.07640101,0.07700385,0.0765,0.07684311],[0.0769,0.07610245,0.07656191,0.07671483,0.07650421],[0.07713065,0.07640647,0.07683903,0.07650205,0.07677534],[0.076705,0.07491143,0.07651318,0.07519321,0.07567065],[0.07556899,0.07484013,0.07500027,0.07505,0.07517254]],"output":[[0.0753951,0.07494534,0.07505755,0.07531107,0.07519687]],"actual":[{"0":-0.07218308746814728,"1":-0.075163833796978,"2":-0.07267202436923981,"3":-0.07608556747436523,"4":-0.07316820323467255}]},{"input":[[0.09016992,0.08692918,0.089515,0.08789897,0.08832141],[0.0884888,0.0858,0.08789998,0.08617652,0.08736688],[0.08868661,0.08549152,0.08626049,0.0873725,0.08665339],[0.08899879,0.0866,0.0873725,0.088,0.08772953],[0.09541013,0.08794301,0.088,0.0928,0.09264842],[0.094302,0.09100004,0.09288,0.09191955,0.09270579],[0.0941,0.0915,0.09191955,0.0929001,0.09282261],[0.09899999,0.0926916,0.09290009,0.09894,0.09679552],[0.10001005,0.0968,0.09894,0.09979001,0.09838113],[0.10042999,0.096401,0.09979001,0.09712,0.09856422]],"output":[[0.09789498,0.09570001,0.09712,0.09570001,0.09648362]],"actual":[{"0":-0.07218308746814728,"1":-0.075163833796978,"2":-0.07267202436923981,"3":-0.07608556747436523,"4":-0.07316820323467255}]},{"input":[[0.08424992,0.08330711,0.08380499,0.08420749,0.08381982],[0.08433389,0.08337688,0.08420749,0.08421,0.08391432],[0.08423788,0.08353023,0.08421,0.08380502,0.08393314],[0.08489999,0.08375,0.08381491,0.08481455,0.08441411],[0.08571675,0.0846,0.08479977,0.08503416,0.08513574],[0.08512977,0.08422648,0.08503416,0.08473,0.08468951],[0.08489,0.0837,0.08471501,0.08455689,0.08426573],[0.08549,0.08399439,0.084525,0.08513,0.0849043],[0.0856,0.08505503,0.08513,0.08552504,0.08538797],[0.08578599,0.08510768,0.08552504,0.08539821,0.08550034]],"output":[[0.08562,0.08497275,0.08533,0.08511363,0.08513786]],"actual":[{"0":-0.07218308746814728,"1":-0.075163833796978,"2":-0.07267202436923981,"3":-0.07608556747436523,"4":-0.07316820323467255}]},{"input":[[0.0856,0.08505503,0.08513,0.08552504,0.08538797],[0.08578599,0.08510768,0.08552504,0.08539821,0.08550034],[0.08562,0.08497275,0.08533,0.08511363,0.08513786],[0.085145,0.0843,0.08511607,0.08432026,0.08471212],[0.0845,0.08382,0.08433001,0.08392555,0.08418084],[0.083995,0.08336797,0.08392555,0.0837,0.08371064],[0.08649992,0.08349979,0.08369501,0.08411479,0.08462484],[0.084305,0.08335008,0.084115,0.083715,0.08385599],[0.08373913,0.083,0.0837105,0.08329999,0.0833341],[0.08337,0.08242,0.08329991,0.083,0.0828174]],"output":[[0.08325612,0.082715,0.083,0.0831,0.08298293]],"actual":[{"0":-0.07218308746814728,"1":-0.075163833796978,"2":-0.07267202436923981,"3":-0.07608556747436523,"4":-0.07316820323467255}]},{"input":[[0.071,0.06972526,0.07027001,0.0707211,0.07027785],[0.07100999,0.070135,0.0707211,0.07042,0.07062398],[0.07106437,0.0701,0.0704456,0.07075215,0.07061205],[0.07075212,0.06970324,0.07075212,0.07021202,0.07015649],[0.07218059,0.069871,0.07021201,0.07001233,0.07061755],[0.07075,0.07000001,0.0701052,0.07074996,0.07039591],[0.071,0.07050996,0.07074995,0.07067298,0.07082441],[0.0709,0.0703,0.07067298,0.07067312,0.07052487],[0.071,0.07045951,0.0709,0.07072,0.07085374],[0.07244,0.07050801,0.07072,0.07189966,0.07153934]],"output":[[0.0725,0.071099,0.07189966,0.0717,0.07155542]],"actual":[{"0":-0.07218308746814728,"1":-0.075163833796978,"2":-0.07267202436923981,"3":-0.07608556747436523,"4":-0.07316820323467255}]},{"input":[[0.0782,0.06851001,0.077999,0.07468504,0.07355457],[0.07609998,0.06779999,0.07466207,0.07505005,0.07253118],[0.078,0.07397843,0.07522144,0.07598,0.07543809],[0.07598,0.07170001,0.07581601,0.0737,0.07375117],[0.07669545,0.07099034,0.0737,0.07598169,0.07334344],[0.07634354,0.0726,0.07567922,0.07319,0.07450101],[0.07534365,0.07310001,0.07310001,0.07445,0.07420075],[0.07648864,0.07323992,0.07445,0.07624998,0.07472304],[0.08181,0.07510736,0.07624998,0.07960007,0.07910322],[0.0815,0.07828268,0.0798,0.0804021,0.0797315]],"output":[[0.08471099,0.078848,0.08031196,0.08013001,0.08181471]],"actual":[{"0":-0.07218308746814728,"1":-0.075163833796978,"2":-0.07267202436923981,"3":-0.07608556747436523,"4":-0.07316820323467255}]},{"input":[[0.144111,0.14112801,0.14138243,0.143154,0.14269646],[0.14384998,0.14057,0.14339789,0.14110009,0.14177216],[0.14209998,0.1381001,0.14100009,0.14000002,0.1402994],[0.14094247,0.13901002,0.14013906,0.14024989,0.13997221],[0.1416,0.14,0.14019957,0.14083234,0.14069138],[0.1412,0.139,0.14083233,0.14010003,0.14003248],[0.1409005,0.13934459,0.14010003,0.1395,0.14010635],[0.14040391,0.13885101,0.139345,0.14012003,0.1395498],[0.1404,0.13836017,0.1401111,0.13898999,0.13925553],[0.13919977,0.13802211,0.1388,0.1381,0.13853035]],"output":[[0.1412,0.137201,0.13828,0.1404,0.13872466]],"actual":[{"0":-0.07218308746814728,"1":-0.075163833796978,"2":-0.07267202436923981,"3":-0.07608556747436523,"4":-0.07316820323467255}]},{"input":[[0.07238969,0.06800104,0.06819999,0.07104014,0.06965916],[0.07296796,0.0700329,0.07111984,0.07038424,0.07147],[0.071,0.06819028,0.0705094,0.06871113,0.06930579],[0.07136983,0.0671121,0.06877522,0.07098,0.06975009],[0.07134999,0.06945009,0.07093359,0.07032699,0.07049333],[0.07180097,0.07003209,0.07034546,0.07065581,0.0711018],[0.07206068,0.07035476,0.07072645,0.07194998,0.07129728],[0.07233939,0.07076796,0.07199961,0.07229587,0.07166835],[0.07428893,0.07198739,0.07214748,0.07310506,0.07329791],[0.07395,0.07215607,0.0731506,0.07297734,0.07292299]],"output":[[0.0735,0.07263001,0.073,0.07310495,0.07301209]],"actual":[{"0":-0.07218308746814728,"1":-0.075163833796978,"2":-0.07267202436923981,"3":-0.07608556747436523,"4":-0.07316820323467255}]},{"input":[[0.10838407,0.10503834,0.1082551,0.10548,0.10644464],[0.10578129,0.10320001,0.10547999,0.10491254,0.10487882],[0.1055,0.103,0.10491254,0.10318913,0.10399858],[0.10515999,0.10188646,0.1033,0.10507529,0.1035459],[0.1054,0.10254351,0.10514989,0.1033,0.10422466],[0.10415508,0.10100622,0.10330001,0.10265999,0.10220126],[0.10335293,0.0984,0.10258872,0.10002177,0.10056131],[0.10533966,0.0992279,0.10001176,0.10280831,0.10215174],[0.10290001,0.10072416,0.10282,0.10185681,0.10204059],[0.10246825,0.10021288,0.10166632,0.10190006,0.10123987]],"output":[[0.10549999,0.10117778,0.10191,0.1041,0.10365925]],"actual":[{"0":-0.07218308746814728,"1":-0.075163833796978,"2":-0.07267202436923981,"3":-0.07608556747436523,"4":-0.07316820323467255}]},{"input":[[0.06945561,0.06843344,0.06885831,0.06886088,0.0689605],[0.06919997,0.06803079,0.06886431,0.06848123,0.06872046],[0.06909999,0.06814457,0.06848123,0.068725,0.0686725],[0.06931061,0.06841,0.06882214,0.06920719,0.06890041],[0.0703071,0.06894915,0.06930705,0.0703071,0.0696983],[0.07032898,0.0695414,0.07030711,0.069996,0.06991065],[0.0745,0.06980295,0.06999599,0.07413345,0.07255766],[0.0757,0.073,0.07413345,0.07300001,0.07459574],[0.07375638,0.0721101,0.07300599,0.07277056,0.07287943],[0.07392299,0.0718,0.07277052,0.07264163,0.07297474]],"output":[[0.07357148,0.07203595,0.07271997,0.07295154,0.07277125]],"actual":[{"0":-0.07218308746814728,"1":-0.075163833796978,"2":-0.07267202436923981,"3":-0.07608556747436523,"4":-0.07316820323467255}]},{"input":[[0.07264176,0.0713,0.07165,0.07241053,0.07207511],[0.07254,0.07187856,0.07240035,0.07242,0.07217711],[0.07287574,0.07226688,0.07242,0.07257149,0.07257095],[0.0726815,0.07162,0.07257149,0.07163675,0.0721341],[0.07260003,0.071595,0.07163675,0.07169756,0.07200262],[0.07187162,0.071154,0.07163519,0.0716019,0.0714777],[0.07168609,0.0687,0.07150701,0.07041,0.07004519],[0.0715,0.06981259,0.07034428,0.07035478,0.07062064],[0.0715,0.07016768,0.07035477,0.07076661,0.07100319],[0.07096872,0.06964767,0.07076661,0.06987331,0.07032494]],"output":[[0.07037803,0.06960903,0.06986199,0.06983397,0.06997929]],"actual":[{"0":-0.07218308746814728,"1":-0.075163833796978,"2":-0.07267202436923981,"3":-0.07608556747436523,"4":-0.07316820323467255}]},{"input":[[0.08029999,0.07679924,0.08029999,0.07855488,0.07854854],[0.07899898,0.07717286,0.07848131,0.07761557,0.07802205],[0.07842592,0.077,0.07750002,0.07842592,0.07750526],[0.07844479,0.07701411,0.0784,0.07719621,0.07766477],[0.07732246,0.0709224,0.0772,0.073,0.07459255],[0.07550008,0.0714,0.07290002,0.07532002,0.07340376],[0.07767869,0.07248059,0.0753656,0.07622799,0.07506432],[0.07716667,0.075,0.07610643,0.07599399,0.07592953],[0.0784807,0.07432561,0.07599399,0.07629661,0.0762986],[0.078,0.0762018,0.07643416,0.07794252,0.07699034]],"output":[[0.0817,0.0774,0.07794252,0.08004459,0.08007316]],"actual":[{"0":-0.07218308746814728,"1":-0.075163833796978,"2":-0.07267202436923981,"3":-0.07608556747436523,"4":-0.07316820323467255}]},{"input":[[0.09690055,0.09350001,0.09495499,0.0945888,0.0951747],[0.09539991,0.0935,0.09450629,0.0937199,0.09447293],[0.09400971,0.09161,0.0937199,0.09170021,0.0926303],[0.09375213,0.08630998,0.09170021,0.091,0.08981713],[0.09122425,0.08911631,0.0909928,0.09069001,0.09018661],[0.09082999,0.089,0.0908,0.09008338,0.09017867],[0.09442655,0.0897,0.09008338,0.09331,0.09208475],[0.09447566,0.090105,0.09331,0.09049797,0.09262898],[0.0925,0.09,0.09049799,0.09179996,0.09115312],[0.0934287,0.0916584,0.09209998,0.09217606,0.09240019]],"output":[[0.093,0.09165837,0.09221693,0.09239894,0.09224046]],"actual":[{"0":-0.07218308746814728,"1":-0.075163833796978,"2":-0.07267202436923981,"3":-0.07608556747436523,"4":-0.07316820323467255}]},{"input":[[0.08719,0.08643696,0.0865548,0.08648487,0.08683494],[0.08800092,0.08648487,0.08648487,0.08770968,0.0875434],[0.08865001,0.08751985,0.08770968,0.08816334,0.08815543],[0.08816307,0.08742871,0.08816307,0.08775001,0.08778212],[0.08855,0.08766999,0.08788221,0.08801792,0.08797918],[0.08900496,0.08788,0.08803847,0.088995,0.08856256],[0.08934522,0.08842,0.088995,0.0884399,0.08895483],[0.08874056,0.0848,0.08842,0.0850931,0.08607634],[0.0855044,0.0836,0.08509309,0.08434987,0.08439358],[0.08435,0.08345,0.08421759,0.08417178,0.08383166]],"output":[[0.085,0.08379528,0.08417178,0.0847239,0.08446177]],"actual":[{"0":-0.07218308746814728,"1":-0.075163833796978,"2":-0.07267202436923981,"3":-0.07608556747436523,"4":-0.07316820323467255}]},{"input":[[0.0696669,0.06720271,0.06861999,0.0678,0.06857679],[0.0683457,0.06653011,0.0678,0.06656685,0.06738886],[0.06822872,0.0662,0.06656681,0.06820068,0.06681336],[0.06897505,0.06697293,0.06820069,0.06729676,0.06783327],[0.07416446,0.06712202,0.06739829,0.0718576,0.07039836],[0.078228,0.0711,0.0718576,0.07626,0.07431987],[0.078,0.07259685,0.07629232,0.07479004,0.07534624],[0.0764889,0.07322202,0.07479999,0.074,0.0744229],[0.07577508,0.07300115,0.07399999,0.07555996,0.07448857],[0.07592334,0.07150698,0.0755621,0.07249994,0.07360411]],"output":[[0.07328882,0.07180299,0.07249994,0.0727196,0.0725703]],"actual":[{"0":-0.07218308746814728,"1":-0.075163833796978,"2":-0.07267202436923981,"3":-0.07608556747436523,"4":-0.07316820323467255}]},{"input":[[0.0986,0.0938,0.09777001,0.09674453,0.09627915],[0.09749987,0.08688888,0.09680813,0.08699999,0.09234086],[0.0921,0.0832,0.08699999,0.08638,0.08744949],[0.09481471,0.085777,0.08638,0.09100001,0.09046528],[0.0929567,0.08732202,0.09115932,0.08849998,0.08960693],[0.09180336,0.08756001,0.08843442,0.091,0.09015959],[0.091665,0.0863,0.09102726,0.08699999,0.08915074],[0.087707,0.0844066,0.087,0.08551714,0.08599324],[0.08636048,0.07320001,0.08555704,0.0791,0.08011024],[0.08589305,0.07819239,0.079,0.08306604,0.0816556]],"output":[[0.0864,0.082,0.08306603,0.08502661,0.0837395]],"actual":[{"0":-0.07218308746814728,"1":-0.075163833796978,"2":-0.07267202436923981,"3":-0.07608556747436523,"4":-0.07316820323467255}]},{"input":[[0.07988999,0.07863087,0.07980528,0.07894197,0.07935216],[0.07943582,0.07789022,0.07889316,0.07819313,0.0786788],[0.0789,0.0772772,0.07819313,0.07881869,0.07814955],[0.07947943,0.07849032,0.07881869,0.07899999,0.07908289],[0.07958866,0.07809,0.079035,0.07848931,0.07885686],[0.079305,0.07807041,0.07848932,0.07908,0.07884988],[0.07974769,0.07891813,0.07902167,0.0792,0.07932392],[0.07967275,0.07893072,0.0792,0.07922163,0.07931574],[0.0804929,0.07922135,0.07922135,0.07971822,0.08002479],[0.0803842,0.07951,0.07971822,0.07995,0.07993443]],"output":[[0.080075,0.07943201,0.0799,0.07977028,0.07978953]],"actual":[{"0":-0.07218308746814728,"1":-0.075163833796978,"2":-0.07267202436923981,"3":-0.07608556747436523,"4":-0.07316820323467255}]},{"input":[[0.07080106,0.0699733,0.07056693,0.07034977,0.07023917],[0.07052636,0.06998501,0.07034999,0.07022015,0.07026085],[0.07056642,0.069727,0.07022017,0.06999885,0.07012434],[0.07021955,0.069,0.07000721,0.06917097,0.06957254],[0.06965,0.0687,0.06917095,0.0690001,0.06916312],[0.07043901,0.06896771,0.06900018,0.07027,0.06963651],[0.071,0.06972526,0.07027001,0.0707211,0.07027785],[0.07100999,0.070135,0.0707211,0.07042,0.07062398],[0.07106437,0.0701,0.0704456,0.07075215,0.07061205],[0.07075212,0.06970324,0.07075212,0.07021202,0.07015649]],"output":[[0.07218059,0.069871,0.07021201,0.07001233,0.07061755]],"actual":[{"0":-0.07218308746814728,"1":-0.075163833796978,"2":-0.07267202436923981,"3":-0.07608556747436523,"4":-0.07316820323467255}]},{"input":[[0.07017333,0.0693,0.069495,0.06989733,0.06973104],[0.0702,0.06919509,0.06989733,0.069535,0.06987616],[0.06991801,0.06941002,0.069565,0.069703,0.06961364],[0.0701,0.06920692,0.06970299,0.0692995,0.06975685],[0.06931888,0.06865295,0.06929933,0.06886065,0.06905186],[0.07005622,0.06886043,0.06886043,0.07001248,0.06962892],[0.070055,0.06959397,0.070055,0.069885,0.06986209],[0.07017613,0.06986501,0.06986524,0.070108,0.07003974],[0.07047015,0.06973041,0.07004001,0.070005,0.06997339],[0.07005,0.06937944,0.06997744,0.06952811,0.0697109]],"output":[[0.0699419,0.06935,0.06956555,0.06947845,0.06950709]],"actual":[{"0":-0.07218308746814728,"1":-0.075163833796978,"2":-0.07267202436923981,"3":-0.07608556747436523,"4":-0.07316820323467255}]},{"input":[[0.09798,0.09647854,0.09699548,0.09697038,0.09722299],[0.09703146,0.09461339,0.09679953,0.09624299,0.09603364],[0.09631566,0.0945,0.0962,0.095,0.09507636],[0.0954,0.09428801,0.094969,0.09529216,0.09481485],[0.09613905,0.09463093,0.09529215,0.0949662,0.0954579],[0.09550351,0.0944,0.0949662,0.09466518,0.09478267],[0.09548999,0.09411487,0.09464625,0.09469769,0.0946122],[0.09479319,0.09232744,0.09469769,0.09255002,0.09322227],[0.09255011,0.08850958,0.09255001,0.09005842,0.09045753],[0.09199411,0.0891,0.09005842,0.08975488,0.09037419]],"output":[[0.0904501,0.083,0.08970053,0.08770298,0.08730051]],"actual":[{"0":-0.07218308746814728,"1":-0.075163833796978,"2":-0.07267202436923981,"3":-0.07608556747436523,"4":-0.07316820323467255}]},{"input":[[0.11321931,0.105,0.11310001,0.1051,0.10824458],[0.10754,0.101,0.1051,0.10608015,0.10456438],[0.10835999,0.09800801,0.106,0.100627,0.10312161],[0.10237398,0.0951,0.100627,0.09601,0.09838312],[0.107,0.09266236,0.09601,0.105,0.10038847],[0.10529998,0.10000654,0.105,0.10451047,0.10310807],[0.105,0.09801168,0.10451047,0.09932,0.10060508],[0.10221569,0.098,0.09932,0.0988,0.10030561],[0.09904274,0.0928,0.09848862,0.09877,0.09589554],[0.10611957,0.0964012,0.09877,0.10527866,0.10093968]],"output":[[0.1121,0.1028,0.1052368,0.11179999,0.10814389]],"actual":[{"0":-0.07218308746814728,"1":-0.075163833796978,"2":-0.07267202436923981,"3":-0.07608556747436523,"4":-0.07316820323467255}]},{"input":[[0.09647499,0.0955,0.09614357,0.09556045,0.09595951],[0.0960494,0.09482007,0.09556045,0.09493319,0.09522923],[0.09576999,0.09479723,0.09509311,0.0952997,0.09522962],[0.0957,0.09085375,0.0952997,0.09154701,0.09269306],[0.093329,0.09148818,0.09154701,0.09219993,0.09227897],[0.09289055,0.09,0.0922006,0.09242492,0.0915429],[0.09311,0.09193001,0.09242483,0.093109,0.09241538],[0.0945,0.09292426,0.09307546,0.09431306,0.09372209],[0.09431305,0.09199673,0.09431305,0.09293,0.09304307],[0.09409124,0.09217784,0.09293,0.09275509,0.09328318]],"output":[[0.09373693,0.09186002,0.09275509,0.09200161,0.0924247]],"actual":[{"0":-0.07218308746814728,"1":-0.075163833796978,"2":-0.07267202436923981,"3":-0.07608556747436523,"4":-0.07316820323467255}]},{"input":[[0.122,0.11968562,0.1205,0.12152,0.12122633],[0.1251002,0.121304,0.12165001,0.12186001,0.12341142],[0.12258998,0.11999999,0.12186001,0.1205,0.12138183],[0.12160409,0.11907001,0.1205,0.12017537,0.11988004],[0.12284589,0.11935556,0.12017537,0.12158461,0.12103067],[0.12238549,0.12087,0.12158462,0.1219,0.12162202],[0.122,0.1192,0.1219,0.1214001,0.12100065],[0.12163546,0.1201,0.1214001,0.12041,0.12083234],[0.1213,0.11821,0.12041,0.11973727,0.11970114],[0.12120006,0.11874002,0.11973727,0.11874002,0.12005834]],"output":[[0.1209,0.11855,0.11874002,0.11863,0.11951043]],"actual":[{"0":-0.07218308746814728,"1":-0.075163833796978,"2":-0.07267202436923981,"3":-0.07608556747436523,"4":-0.07316820323467255}]},{"input":[[0.07142882,0.0684,0.06970997,0.071214,0.06967425],[0.07146654,0.0690583,0.07128999,0.069092,0.07000688],[0.06917,0.06534553,0.069092,0.06611401,0.06714875],[0.06857688,0.06590067,0.0662,0.0682004,0.06731542],[0.0714005,0.06771334,0.0682004,0.06970602,0.06993121],[0.07213708,0.0692057,0.06965,0.06999996,0.07065127],[0.0702448,0.06818283,0.06989701,0.06996042,0.06953295],[0.07018797,0.0678,0.06996042,0.06889139,0.06885628],[0.07045,0.06852943,0.068904,0.07019999,0.06967289],[0.07189318,0.06959083,0.0702,0.0698,0.07055534]],"output":[[0.0734,0.0688773,0.06980524,0.07237291,0.07141099]],"actual":[{"0":-0.07218308746814728,"1":-0.075163833796978,"2":-0.07267202436923981,"3":-0.07608556747436523,"4":-0.07316820323467255}]},{"input":[[0.0924821,0.08775001,0.09008697,0.0902537,0.08994812],[0.09196097,0.087,0.09025368,0.08709025,0.08880667],[0.08749999,0.08245758,0.08730206,0.08330525,0.08465483],[0.088995,0.083,0.08343991,0.0883,0.08677128],[0.094,0.08738895,0.0883,0.09175901,0.09111274],[0.09232394,0.0887,0.09175901,0.08920011,0.09078489],[0.09111825,0.0882,0.08920017,0.08926139,0.08953625],[0.09049998,0.08833061,0.08926145,0.08945973,0.08952107],[0.09171997,0.0889007,0.08947991,0.09149214,0.09035449],[0.09226808,0.09015,0.0914921,0.09148788,0.09115716]],"output":[[0.09233533,0.08985693,0.09121051,0.0903999,0.090905]],"actual":[{"0":-0.07218308746814728,"1":-0.075163833796978,"2":-0.07267202436923981,"3":-0.07608556747436523,"4":-0.07316820323467255}]},{"input":[[0.07151,0.07065441,0.07084501,0.07095207,0.07109346],[0.0715192,0.07095233,0.07095234,0.07134974,0.0713205],[0.071755,0.07124118,0.07124526,0.07144345,0.07155039],[0.0717303,0.07098186,0.07144345,0.07132026,0.07137795],[0.07157027,0.07094364,0.07134,0.07112069,0.07126431],[0.07168524,0.07107126,0.07112043,0.07161081,0.07135528],[0.071769,0.07131631,0.07161,0.07157169,0.07158411],[0.071785,0.07,0.07157501,0.070375,0.07058821],[0.071205,0.0702492,0.070375,0.0709145,0.07075551],[0.07147968,0.070676,0.07091375,0.07129499,0.07118705]],"output":[[0.0717,0.07115191,0.07117716,0.07137109,0.07142382]],"actual":[{"0":-0.07218308746814728,"1":-0.075163833796978,"2":-0.07267202436923981,"3":-0.07608556747436523,"4":-0.07316820323467255}]},{"input":[[0.09829456,0.09688803,0.09753861,0.09729744,0.09749518],[0.09864551,0.09712235,0.09739595,0.09791251,0.09806001],[0.0985158,0.09780351,0.09799392,0.0982769,0.09815744],[0.09877645,0.09750001,0.09846069,0.09790133,0.09823723],[0.09876916,0.09732265,0.098149,0.09862101,0.09791404],[0.09876999,0.0971,0.09862101,0.09825239,0.09793942],[0.0983,0.09738232,0.09828375,0.09784164,0.0979419],[0.0983,0.09730004,0.09784171,0.09791118,0.09775353],[0.09791118,0.096,0.09791118,0.09702,0.09675146],[0.09860507,0.09656113,0.09703546,0.0980001,0.09810257]],"output":[[0.09819997,0.09705124,0.0980001,0.097405,0.09760344]],"actual":[{"0":-0.07218308746814728,"1":-0.075163833796978,"2":-0.07267202436923981,"3":-0.07608556747436523,"4":-0.07316820323467255}]},{"input":[[0.078309,0.07710001,0.07829203,0.07746159,0.07768054],[0.0776147,0.07621656,0.07761392,0.07679,0.07682511],[0.07765124,0.07642027,0.07679026,0.07659688,0.07714447],[0.0772152,0.07497,0.07671,0.07694,0.07619749],[0.07746,0.07644036,0.07698552,0.07680078,0.07688345],[0.07694999,0.07552028,0.07680078,0.076345,0.07612231],[0.07725,0.07612001,0.07644126,0.07637,0.07672716],[0.07725139,0.07576593,0.07639,0.07660001,0.07662923],[0.0773125,0.07645026,0.07660001,0.07715499,0.07691148],[0.07715499,0.07643,0.07715499,0.076625,0.07688424]],"output":[[0.0774445,0.076625,0.07664501,0.07721312,0.07713214]],"actual":[{"0":-0.07218308746814728,"1":-0.075163833796978,"2":-0.07267202436923981,"3":-0.07608556747436523,"4":-0.07316820323467255}]},{"input":[[0.0864,0.082,0.08306603,0.08502661,0.0837395],[0.08553622,0.08175864,0.08502661,0.08198999,0.08380355],[0.08312399,0.0806,0.08199,0.08188354,0.08183149],[0.0843,0.08029171,0.08188354,0.08265862,0.08219454],[0.082989,0.07930828,0.08262825,0.08131685,0.08081626],[0.08249455,0.08080983,0.08143597,0.08165048,0.0817084],[0.08206564,0.08050011,0.08165048,0.08107033,0.08123877],[0.08133254,0.079,0.08122942,0.07990002,0.07983016],[0.08145229,0.07904001,0.07990004,0.08,0.08051013],[0.081294,0.07926038,0.07999999,0.08002484,0.08021491]],"output":[[0.08392838,0.0797982,0.08003,0.08176635,0.08222921]],"actual":[{"0":-0.07218308746814728,"1":-0.075163833796978,"2":-0.07267202436923981,"3":-0.07608556747436523,"4":-0.07316820323467255}]},{"input":[[0.091665,0.0863,0.09102726,0.08699999,0.08915074],[0.087707,0.0844066,0.087,0.08551714,0.08599324],[0.08636048,0.07320001,0.08555704,0.0791,0.08011024],[0.08589305,0.07819239,0.079,0.08306604,0.0816556],[0.0864,0.082,0.08306603,0.08502661,0.0837395],[0.08553622,0.08175864,0.08502661,0.08198999,0.08380355],[0.08312399,0.0806,0.08199,0.08188354,0.08183149],[0.0843,0.08029171,0.08188354,0.08265862,0.08219454],[0.082989,0.07930828,0.08262825,0.08131685,0.08081626],[0.08249455,0.08080983,0.08143597,0.08165048,0.0817084]],"output":[[0.08206564,0.08050011,0.08165048,0.08107033,0.08123877]],"actual":[{"0":-0.07218308746814728,"1":-0.075163833796978,"2":-0.07267202436923981,"3":-0.07608556747436523,"4":-0.07316820323467255}]},{"input":[[0.101548,0.099442,0.09993997,0.101297,0.10064866],[0.10193951,0.0986,0.10127165,0.09884071,0.1004106],[0.10119643,0.09850001,0.09922401,0.10060303,0.10021817],[0.10086212,0.1,0.10060303,0.10014251,0.10038703],[0.10057968,0.09799743,0.1002154,0.0984,0.09899853],[0.09864305,0.09629528,0.09843517,0.09722097,0.09716629],[0.09783397,0.0965,0.09758289,0.09715772,0.09727138],[0.0989766,0.09657001,0.0971805,0.09889639,0.09762813],[0.10029999,0.09868201,0.09889751,0.09969299,0.0997347],[0.101105,0.09942547,0.09969284,0.10110481,0.10033914]],"output":[[0.10137727,0.09955001,0.10110481,0.10061593,0.10051551]],"actual":[{"0":-0.07218308746814728,"1":-0.075163833796978,"2":-0.07267202436923981,"3":-0.07608556747436523,"4":-0.07316820323467255}]},{"input":[[0.06979314,0.06903341,0.06951501,0.06913,0.06938367],[0.06915,0.06861383,0.069085,0.06873974,0.06882686],[0.0699119,0.06871,0.068785,0.06975,0.06915715],[0.069825,0.069192,0.06969,0.06949,0.06942905],[0.07017333,0.0693,0.069495,0.06989733,0.06973104],[0.0702,0.06919509,0.06989733,0.069535,0.06987616],[0.06991801,0.06941002,0.069565,0.069703,0.06961364],[0.0701,0.06920692,0.06970299,0.0692995,0.06975685],[0.06931888,0.06865295,0.06929933,0.06886065,0.06905186],[0.07005622,0.06886043,0.06886043,0.07001248,0.06962892]],"output":[[0.070055,0.06959397,0.070055,0.069885,0.06986209]],"actual":[{"0":-0.07218308746814728,"1":-0.075163833796978,"2":-0.07267202436923981,"3":-0.07608556747436523,"4":-0.07316820323467255}]},{"input":[[0.07291522,0.0722678,0.07250633,0.07276468,0.0725495],[0.07292918,0.07230839,0.07276469,0.0725873,0.07265756],[0.07331556,0.07247924,0.0725873,0.07317597,0.07293506],[0.07365,0.07289825,0.07330895,0.07314342,0.0732428],[0.07350689,0.072462,0.07325245,0.0735,0.07301962],[0.07372753,0.07299466,0.07350312,0.07348381,0.07333607],[0.073727,0.07215627,0.07355802,0.07254862,0.07303614],[0.07287388,0.0705,0.072559,0.0708,0.07160768],[0.07221838,0.07051012,0.070864,0.07125,0.07144382],[0.07207807,0.0711,0.07125,0.07204,0.0717305]],"output":[[0.0725987,0.07189442,0.07204,0.0719,0.07220125]],"actual":[{"0":-0.07218308746814728,"1":-0.075163833796978,"2":-0.07267202436923981,"3":-0.07608556747436523,"4":-0.07316820323467255}]},{"input":[[0.14040391,0.13885101,0.139345,0.14012003,0.1395498],[0.1404,0.13836017,0.1401111,0.13898999,0.13925553],[0.13919977,0.13802211,0.1388,0.1381,0.13853035],[0.1412,0.137201,0.13828,0.1404,0.13872466],[0.14097167,0.13796461,0.1404,0.13879999,0.13950859],[0.14048999,0.13868001,0.13879999,0.13872003,0.13953583],[0.139,0.13751902,0.13873,0.1380003,0.13827801],[0.13841998,0.11300001,0.1380003,0.125434,0.12728864],[0.13197925,0.12155,0.1255,0.13029997,0.12679737],[0.1337,0.125,0.13029996,0.12654063,0.12906144]],"output":[[0.12739988,0.123741,0.1265005,0.1247988,0.12600287]],"actual":[{"0":-0.07218308746814728,"1":-0.075163833796978,"2":-0.07267202436923981,"3":-0.07608556747436523,"4":-0.07316820323467255}]},{"input":[[0.07019997,0.06733991,0.0688,0.06989,0.06910698],[0.0703998,0.06932,0.06989,0.06981696,0.06984915],[0.0715,0.0695,0.06981197,0.07131701,0.0706701],[0.07169618,0.07077148,0.07144642,0.07109427,0.07127349],[0.071284,0.07005271,0.07109427,0.07037044,0.07057768],[0.07097276,0.06901842,0.07044496,0.06909003,0.0700037],[0.06962373,0.0672,0.06909004,0.0689265,0.06863885],[0.07027997,0.0676,0.06893623,0.06994,0.06900331],[0.07047563,0.06882467,0.06988001,0.069002,0.06976004],[0.0703479,0.068805,0.069002,0.07020104,0.06976346]],"output":[[0.07063,0.06928104,0.07028993,0.07023703,0.07011165]],"actual":[{"0":-0.07218308746814728,"1":-0.075163833796978,"2":-0.07267202436923981,"3":-0.07608556747436523,"4":-0.07316820323467255}]},{"input":[[0.09419604,0.084,0.09275497,0.09219501,0.08915104],[0.095,0.082,0.09219501,0.0899266,0.08999044],[0.0924821,0.08775001,0.09008697,0.0902537,0.08994812],[0.09196097,0.087,0.09025368,0.08709025,0.08880667],[0.08749999,0.08245758,0.08730206,0.08330525,0.08465483],[0.088995,0.083,0.08343991,0.0883,0.08677128],[0.094,0.08738895,0.0883,0.09175901,0.09111274],[0.09232394,0.0887,0.09175901,0.08920011,0.09078489],[0.09111825,0.0882,0.08920017,0.08926139,0.08953625],[0.09049998,0.08833061,0.08926145,0.08945973,0.08952107]],"output":[[0.09171997,0.0889007,0.08947991,0.09149214,0.09035449]],"actual":[{"0":-0.07218308746814728,"1":-0.075163833796978,"2":-0.07267202436923981,"3":-0.07608556747436523,"4":-0.07316820323467255}]},{"input":[[0.08125144,0.07995118,0.08090003,0.08046,0.0804633],[0.08075583,0.07941825,0.08046,0.08035,0.08017089],[0.08052987,0.079501,0.08035,0.0798102,0.0799962],[0.079944,0.07860079,0.0798102,0.0793999,0.07926277],[0.07959486,0.07863499,0.07941164,0.07885407,0.07919755],[0.07972045,0.07851477,0.07885406,0.07900142,0.079031],[0.08195123,0.0784475,0.07900142,0.08096824,0.08023772],[0.08578924,0.08064501,0.08096824,0.08549985,0.08397214],[0.086398,0.08362106,0.08544579,0.08514955,0.0849015],[0.08789053,0.08492802,0.08514955,0.08661057,0.08656063]],"output":[[0.09375,0.08660001,0.08661057,0.09340001,0.09103261]],"actual":[{"0":-0.07218308746814728,"1":-0.075163833796978,"2":-0.07267202436923981,"3":-0.07608556747436523,"4":-0.07316820323467255}]},{"input":[[0.06999998,0.069345,0.06941,0.06978,0.06972373],[0.0701231,0.06935992,0.06978,0.06936,0.06970176],[0.06972563,0.06909502,0.06936,0.06941318,0.06938827],[0.06940801,0.06908738,0.06940801,0.0693647,0.06919867],[0.06960198,0.06927269,0.06928,0.06944126,0.06946277],[0.0704999,0.06944,0.069445,0.0704,0.0699562],[0.070935,0.0701107,0.0704,0.070935,0.07035897],[0.071137,0.07047965,0.070935,0.07077948,0.07070603],[0.0711,0.07058829,0.07072501,0.07073,0.0707913],[0.07081375,0.07016587,0.07075805,0.07044,0.07039812]],"output":[[0.0715,0.07025734,0.07046447,0.07116049,0.07082471]],"actual":[{"0":-0.07218308746814728,"1":-0.075163833796978,"2":-0.07267202436923981,"3":-0.07608556747436523,"4":-0.07316820323467255}]},{"input":[[0.0704999,0.06944,0.069445,0.0704,0.0699562],[0.070935,0.0701107,0.0704,0.070935,0.07035897],[0.071137,0.07047965,0.070935,0.07077948,0.07070603],[0.0711,0.07058829,0.07072501,0.07073,0.0707913],[0.07081375,0.07016587,0.07075805,0.07044,0.07039812],[0.0715,0.07025734,0.07046447,0.07116049,0.07082471],[0.07198012,0.07092701,0.0711595,0.071437,0.07149606],[0.07189,0.07128463,0.07143698,0.07133069,0.07154648],[0.07182208,0.07099694,0.07135536,0.071605,0.07140999],[0.071717,0.07119429,0.071605,0.07128997,0.07133985]],"output":[[0.07138975,0.07087,0.07128996,0.07114976,0.07109976]],"actual":[{"0":-0.07218308746814728,"1":-0.075163833796978,"2":-0.07267202436923981,"3":-0.07608556747436523,"4":-0.07316820323467255}]},{"input":[[0.073374,0.07305778,0.07308,0.0731386,0.07322505],[0.073374,0.07271407,0.07323,0.07310999,0.07311392],[0.07353294,0.07257046,0.07310975,0.07318614,0.07319217],[0.07333823,0.07297076,0.07333803,0.07333823,0.0732999],[0.07347626,0.07218006,0.07333799,0.072925,0.07297005],[0.07344296,0.07263547,0.07276,0.07294524,0.07311424],[0.07315477,0.07240107,0.07309999,0.0729,0.07277241],[0.07335,0.07273671,0.07291,0.07311502,0.07310673],[0.07359229,0.07297151,0.07335,0.07301974,0.07340494],[0.07367,0.073019,0.07301974,0.07366999,0.07341132]],"output":[[0.07495149,0.07344147,0.07365499,0.07414644,0.07415492]],"actual":[{"0":-0.07218308746814728,"1":-0.075163833796978,"2":-0.07267202436923981,"3":-0.07608556747436523,"4":-0.07316820323467255}]},{"input":[[0.08096485,0.0795,0.08045615,0.08044064,0.08009197],[0.08091609,0.079,0.08061,0.079125,0.0801482],[0.07974602,0.07808367,0.07911044,0.07913066,0.07885694],[0.07927978,0.0773839,0.07913066,0.07774929,0.07824503],[0.07823231,0.07575751,0.0777743,0.07795999,0.07691448],[0.07836498,0.07644748,0.077882,0.07694999,0.07744173],[0.078504,0.07679453,0.07679453,0.07832978,0.07793763],[0.0790393,0.0777,0.078315,0.07806218,0.07844144],[0.078275,0.07502,0.07806261,0.07676534,0.07648581],[0.0785,0.0761,0.07676534,0.07841793,0.07732689]],"output":[[0.07862719,0.07717,0.07844021,0.078535,0.07791108]],"actual":[{"0":-0.07218308746814728,"1":-0.075163833796978,"2":-0.07267202436923981,"3":-0.07608556747436523,"4":-0.07316820323467255}]},{"input":[[0.0884888,0.0858,0.08789998,0.08617652,0.08736688],[0.08868661,0.08549152,0.08626049,0.0873725,0.08665339],[0.08899879,0.0866,0.0873725,0.088,0.08772953],[0.09541013,0.08794301,0.088,0.0928,0.09264842],[0.094302,0.09100004,0.09288,0.09191955,0.09270579],[0.0941,0.0915,0.09191955,0.0929001,0.09282261],[0.09899999,0.0926916,0.09290009,0.09894,0.09679552],[0.10001005,0.0968,0.09894,0.09979001,0.09838113],[0.10042999,0.096401,0.09979001,0.09712,0.09856422],[0.09789498,0.09570001,0.09712,0.09570001,0.09648362]],"output":[[0.09634934,0.09456039,0.09570001,0.09500011,0.09535759]],"actual":[{"0":-0.07218308746814728,"1":-0.075163833796978,"2":-0.07267202436923981,"3":-0.07608556747436523,"4":-0.07316820323467255}]},{"input":[[0.0742,0.07357195,0.07399996,0.07374215,0.07391048],[0.0745,0.07369,0.07385849,0.07425663,0.07419337],[0.07455997,0.0737109,0.07425925,0.07415692,0.07409035],[0.07419881,0.07341222,0.07415687,0.07351009,0.07380498],[0.07384981,0.07248576,0.07367258,0.07278758,0.07316733],[0.0737,0.07232062,0.07278752,0.07327039,0.07290896],[0.074,0.0725,0.07327042,0.07392926,0.07310355],[0.07439599,0.07321168,0.07383936,0.07355961,0.07381784],[0.07400237,0.0727,0.07379995,0.07360001,0.07334616],[0.07374735,0.0725,0.07374735,0.0725,0.07273699]],"output":[[0.07278799,0.072,0.07250003,0.07207416,0.07227167]],"actual":[{"0":-0.07218308746814728,"1":-0.075163833796978,"2":-0.07267202436923981,"3":-0.07608556747436523,"4":-0.07316820323467255}]},{"input":[[0.09289055,0.09,0.0922006,0.09242492,0.0915429],[0.09311,0.09193001,0.09242483,0.093109,0.09241538],[0.0945,0.09292426,0.09307546,0.09431306,0.09372209],[0.09431305,0.09199673,0.09431305,0.09293,0.09304307],[0.09409124,0.09217784,0.09293,0.09275509,0.09328318],[0.09373693,0.09186002,0.09275509,0.09200161,0.0924247],[0.09312089,0.09120016,0.09200161,0.09154726,0.09183009],[0.0915474,0.08967695,0.09144792,0.089805,0.09043306],[0.08988392,0.08890131,0.08983227,0.08930112,0.08930723],[0.09100513,0.089115,0.08930113,0.08981894,0.08990834]],"output":[[0.09009745,0.089,0.08981894,0.08963711,0.08950131]],"actual":[{"0":-0.07218308746814728,"1":-0.075163833796978,"2":-0.07267202436923981,"3":-0.07608556747436523,"4":-0.07316820323467255}]},{"input":[[0.08095396,0.07950707,0.07990177,0.08068499,0.08035639],[0.08127295,0.08031616,0.08069946,0.08039109,0.08080819],[0.08060403,0.07676536,0.08039109,0.07835221,0.07805607],[0.079625,0.07768396,0.07835221,0.07937585,0.07821744],[0.0798,0.0781075,0.0793759,0.078965,0.07931894],[0.08046196,0.07880039,0.07920425,0.08027,0.07942626],[0.080875,0.0798213,0.08027,0.08079,0.0804704],[0.08087947,0.07985237,0.08079,0.08074629,0.08038845],[0.08094201,0.08028731,0.08075045,0.0808,0.08068498],[0.0815,0.08058909,0.0808,0.08121262,0.08107005]],"output":[[0.08436723,0.0810817,0.08121262,0.0842823,0.08268328]],"actual":[{"0":-0.07218308746814728,"1":-0.075163833796978,"2":-0.07267202436923981,"3":-0.07608556747436523,"4":-0.07316820323467255}]},{"input":[[0.09479319,0.09232744,0.09469769,0.09255002,0.09322227],[0.09255011,0.08850958,0.09255001,0.09005842,0.09045753],[0.09199411,0.0891,0.09005842,0.08975488,0.09037419],[0.0904501,0.083,0.08970053,0.08770298,0.08730051],[0.09099999,0.0843,0.08770298,0.08448967,0.0878932],[0.08709998,0.07428721,0.08459995,0.08092698,0.08026426],[0.0845,0.07601,0.08092698,0.08418597,0.08093487],[0.08799999,0.0816,0.08418597,0.08334626,0.08508008],[0.08671,0.07954595,0.08334626,0.08073799,0.08288753],[0.0835,0.08025,0.08073799,0.08261191,0.08203355]],"output":[[0.0849,0.078551,0.08261191,0.08340001,0.0818226]],"actual":[{"0":-0.07218308746814728,"1":-0.075163833796978,"2":-0.07267202436923981,"3":-0.07608556747436523,"4":-0.07316820323467255}]},{"input":[[0.06841995,0.06757497,0.06818671,0.06795463,0.06787312],[0.06837589,0.06749256,0.06805754,0.06766788,0.06773223],[0.06832994,0.06760093,0.06772709,0.06804968,0.0680526],[0.06832945,0.06773976,0.06804968,0.06819435,0.06805617],[0.0693,0.06803462,0.06819426,0.06887818,0.06887857],[0.0696,0.06869006,0.06892104,0.069399,0.06936339],[0.06990138,0.06933417,0.06955279,0.06954981,0.06963644],[0.07089294,0.06905234,0.0695,0.06921,0.06955289],[0.06977883,0.06791,0.06921,0.06929996,0.06916618],[0.06957999,0.06906876,0.06929989,0.06935146,0.06923947]],"output":[[0.0697788,0.068386,0.06942812,0.06856,0.06901226]],"actual":[{"0":-0.07218308746814728,"1":-0.075163833796978,"2":-0.07267202436923981,"3":-0.07608556747436523,"4":-0.07316820323467255}]},{"input":[[0.07983,0.0787567,0.07893656,0.07933975,0.07946615],[0.07969,0.079,0.07933975,0.07924799,0.07932957],[0.07956992,0.079,0.07924799,0.07938898,0.07929755],[0.08026185,0.07922475,0.07942254,0.080025,0.07999918],[0.0806113,0.07946219,0.08003974,0.08000552,0.08021608],[0.08007,0.07903503,0.080065,0.079545,0.07955938],[0.07963412,0.07864371,0.07963412,0.078725,0.07903209],[0.07880945,0.07782796,0.078672,0.07799946,0.07803442],[0.0784,0.0779042,0.07799946,0.078309,0.07824485],[0.078309,0.07710001,0.07829203,0.07746159,0.07768054]],"output":[[0.0776147,0.07621656,0.07761392,0.07679,0.07682511]],"actual":[{"0":-0.07218308746814728,"1":-0.075163833796978,"2":-0.07267202436923981,"3":-0.07608556747436523,"4":-0.07316820323467255}]},{"input":[[0.06919517,0.06836725,0.06874,0.068625,0.06874348],[0.06899798,0.06806775,0.06863024,0.06819,0.06863563],[0.06881897,0.0676004,0.06819526,0.06876974,0.06814381],[0.0699,0.06853515,0.06863584,0.06955,0.06913738],[0.06979314,0.06903341,0.06951501,0.06913,0.06938367],[0.06915,0.06861383,0.069085,0.06873974,0.06882686],[0.0699119,0.06871,0.068785,0.06975,0.06915715],[0.069825,0.069192,0.06969,0.06949,0.06942905],[0.07017333,0.0693,0.069495,0.06989733,0.06973104],[0.0702,0.06919509,0.06989733,0.069535,0.06987616]],"output":[[0.06991801,0.06941002,0.069565,0.069703,0.06961364]],"actual":[{"0":-0.07218308746814728,"1":-0.075163833796978,"2":-0.07267202436923981,"3":-0.07608556747436523,"4":-0.07316820323467255}]},{"input":[[0.08137868,0.08024423,0.08134174,0.08043536,0.08097049],[0.08077385,0.08,0.08033899,0.08050219,0.08037247],[0.0819,0.08033001,0.08050648,0.08091729,0.08100987],[0.08141627,0.08026007,0.08091729,0.08029999,0.08087648],[0.08029999,0.07679924,0.08029999,0.07855488,0.07854854],[0.07899898,0.07717286,0.07848131,0.07761557,0.07802205],[0.07842592,0.077,0.07750002,0.07842592,0.07750526],[0.07844479,0.07701411,0.0784,0.07719621,0.07766477],[0.07732246,0.0709224,0.0772,0.073,0.07459255],[0.07550008,0.0714,0.07290002,0.07532002,0.07340376]],"output":[[0.07767869,0.07248059,0.0753656,0.07622799,0.07506432]],"actual":[{"0":-0.07218308746814728,"1":-0.075163833796978,"2":-0.07267202436923981,"3":-0.07608556747436523,"4":-0.07316820323467255}]},{"input":[[0.08915775,0.08625613,0.08764602,0.08782727,0.08769349],[0.08954061,0.08710547,0.08782725,0.08725003,0.08811186],[0.08770807,0.086,0.08735085,0.08658821,0.08670029],[0.08699731,0.08490038,0.08658821,0.08542048,0.08589322],[0.0860824,0.08440002,0.08542048,0.08452118,0.08520323],[0.0848664,0.08380113,0.08452118,0.084086,0.08430906],[0.08408,0.082341,0.08408,0.08264307,0.08298832],[0.08306699,0.082,0.082785,0.08228678,0.08257735],[0.08288117,0.08184538,0.08228675,0.08211496,0.08247164],[0.08211999,0.08141569,0.08206499,0.08148493,0.08170671]],"output":[[0.08147496,0.0789,0.08147491,0.07919999,0.07988337]],"actual":[{"0":-0.07218308746814728,"1":-0.075163833796978,"2":-0.07267202436923981,"3":-0.07608556747436523,"4":-0.07316820323467255}]},{"input":[[0.074839,0.07388396,0.07443419,0.07457065,0.074387],[0.07476199,0.07387895,0.07457066,0.07415898,0.07429317],[0.07485935,0.073855,0.07415973,0.07433399,0.07426556],[0.07787249,0.0743,0.074334,0.07738037,0.07606354],[0.0789429,0.077,0.07757333,0.07813017,0.07807807],[0.07868,0.0769,0.07813017,0.07831427,0.07779594],[0.08051275,0.07831427,0.078315,0.07913999,0.07955841],[0.0806942,0.07793213,0.07913999,0.07867502,0.07944605],[0.08074931,0.07805718,0.07868,0.07988501,0.07972944],[0.08118043,0.0793,0.079915,0.08059789,0.08037963]],"output":[[0.08109627,0.07998346,0.0804,0.08087974,0.08058027]],"actual":[{"0":-0.07218308746814728,"1":-0.075163833796978,"2":-0.07267202436923981,"3":-0.07608556747436523,"4":-0.07316820323467255}]},{"input":[[0.07764157,0.07550001,0.07558681,0.0766781,0.07686652],[0.076942,0.0756799,0.07663947,0.07620959,0.0763114],[0.076854,0.075272,0.07620966,0.075805,0.07624235],[0.0768,0.07505005,0.07580502,0.076315,0.07574931],[0.07649999,0.07463511,0.07631002,0.07552346,0.07575383],[0.07657038,0.07530964,0.07552344,0.07549242,0.07592796],[0.0763,0.07543,0.07548942,0.07619361,0.0758936],[0.0767888,0.07587814,0.07617401,0.07639243,0.07640046],[0.07844278,0.07581806,0.07639243,0.07666478,0.07713821],[0.077258,0.07633301,0.07666477,0.07685,0.07676407]],"output":[[0.07689,0.0762548,0.07688999,0.07663076,0.07655355]],"actual":[{"0":-0.07218308746814728,"1":-0.075163833796978,"2":-0.07267202436923981,"3":-0.07608556747436523,"4":-0.07316820323467255}]},{"input":[[0.1275,0.11562095,0.117,0.12547796,0.12215364],[0.149447,0.1234,0.1254,0.13750001,0.1363197],[0.14601662,0.1352,0.13750001,0.1395001,0.14118496],[0.14,0.1301,0.1395001,0.13651,0.13613009],[0.15123937,0.13571804,0.1365,0.15020004,0.14324863],[0.1529664,0.14250002,0.15020004,0.14602499,0.14798917],[0.14780384,0.13900512,0.146021,0.14059999,0.14291536],[0.14147,0.12849523,0.14059999,0.137,0.13595425],[0.14340388,0.13633835,0.137,0.14141101,0.14025177],[0.14449999,0.13969999,0.14141101,0.14415482,0.14140284]],"output":[[0.1475844,0.14000001,0.1444,0.1436,0.14416023]],"actual":[{"0":-0.07218308746814728,"1":-0.075163833796978,"2":-0.07267202436923981,"3":-0.07608556747436523,"4":-0.07316820323467255}]},{"input":[[0.06941475,0.06748019,0.06941475,0.0679,0.06842964],[0.06823979,0.06688966,0.06794428,0.06817999,0.06761643],[0.06919969,0.06797243,0.06811935,0.06900525,0.06868387],[0.07036,0.06893718,0.06915111,0.07012501,0.06976344],[0.07128205,0.06982,0.07032899,0.07105034,0.07066669],[0.0719321,0.07090294,0.07105033,0.07163839,0.07148583],[0.07215,0.0704,0.07159669,0.07065,0.07140078],[0.07199552,0.07052428,0.07065499,0.07158001,0.07144264],[0.07202813,0.07128786,0.07176453,0.07159,0.07160789],[0.07182164,0.07131332,0.071595,0.07151999,0.07154607]],"output":[[0.0725,0.0712,0.071519,0.07236524,0.07218042]],"actual":[{"0":-0.07218308746814728,"1":-0.075163833796978,"2":-0.07267202436923981,"3":-0.07608556747436523,"4":-0.07316820323467255}]},{"input":[[0.06844899,0.06790213,0.068073,0.068264,0.06814389],[0.0684,0.06801567,0.068332,0.068375,0.06817586],[0.06887722,0.06785,0.068375,0.06799701,0.06825075],[0.06856988,0.06797509,0.06809584,0.06837701,0.06832917],[0.06898937,0.06833401,0.068472,0.068621,0.06874013],[0.06975654,0.06850701,0.068685,0.06941906,0.06924227],[0.071,0.0692878,0.06954776,0.0708,0.07016523],[0.0720001,0.0705636,0.07082499,0.07091201,0.07133116],[0.07134683,0.07042164,0.070931,0.07058929,0.07086853],[0.07096993,0.07034404,0.0706922,0.07055776,0.07065247]],"output":[[0.07132403,0.07032023,0.0705577,0.07126,0.07083743]],"actual":[{"0":-0.07218308746814728,"1":-0.075163833796978,"2":-0.07267202436923981,"3":-0.07608556747436523,"4":-0.07316820323467255}]},{"input":[[0.07646186,0.075,0.07600004,0.07582086,0.07568295],[0.07774158,0.07515,0.07582086,0.07709,0.07654641],[0.07784612,0.07626369,0.07707092,0.07658963,0.07696744],[0.07745033,0.0753053,0.07658,0.07679414,0.07625046],[0.0772355,0.0761,0.07681279,0.07673501,0.07668372],[0.07761079,0.07607756,0.07673501,0.07758344,0.07668732],[0.07905251,0.07461244,0.077563,0.0763586,0.07713714],[0.07711647,0.07559801,0.07631709,0.07630495,0.0763244],[0.07639128,0.07415395,0.07630495,0.0754,0.07534605],[0.07614427,0.07435522,0.0754,0.07558681,0.07512455]],"output":[[0.07764157,0.07550001,0.07558681,0.0766781,0.07686652]],"actual":[{"0":-0.07218308746814728,"1":-0.075163833796978,"2":-0.07267202436923981,"3":-0.07608556747436523,"4":-0.07316820323467255}]},{"input":[[0.10130847,0.0994,0.10050822,0.10068843,0.10036007],[0.10124946,0.1001,0.10068844,0.10038971,0.10071323],[0.10070279,0.09949695,0.10010003,0.09979913,0.10001973],[0.10039152,0.09912143,0.10014988,0.0997,0.099654],[0.100203,0.09916,0.09978788,0.09966733,0.09981203],[0.10035859,0.09940498,0.09982735,0.09967955,0.0998858],[0.10095653,0.09926089,0.09993943,0.10036133,0.10030487],[0.10113793,0.09988669,0.10036133,0.10077769,0.10078788],[0.10111924,0.1000623,0.10077754,0.10054194,0.10057981],[0.10077073,0.10006,0.1005419,0.10027533,0.10058693]],"output":[[0.10059999,0.09883001,0.10051974,0.09944719,0.09968205]],"actual":[{"0":-0.07218308746814728,"1":-0.075163833796978,"2":-0.07267202436923981,"3":-0.07608556747436523,"4":-0.07316820323467255}]},{"input":[[0.07899898,0.07717286,0.07848131,0.07761557,0.07802205],[0.07842592,0.077,0.07750002,0.07842592,0.07750526],[0.07844479,0.07701411,0.0784,0.07719621,0.07766477],[0.07732246,0.0709224,0.0772,0.073,0.07459255],[0.07550008,0.0714,0.07290002,0.07532002,0.07340376],[0.07767869,0.07248059,0.0753656,0.07622799,0.07506432],[0.07716667,0.075,0.07610643,0.07599399,0.07592953],[0.0784807,0.07432561,0.07599399,0.07629661,0.0762986],[0.078,0.0762018,0.07643416,0.07794252,0.07699034],[0.0817,0.0774,0.07794252,0.08004459,0.08007316]],"output":[[0.08079261,0.079,0.08004459,0.0795,0.07983249]],"actual":[{"0":-0.07218308746814728,"1":-0.075163833796978,"2":-0.07267202436923981,"3":-0.07608556747436523,"4":-0.07316820323467255}]},{"input":[[0.08059899,0.0751111,0.08035,0.07610995,0.07825246],[0.07990411,0.07382666,0.07617,0.07682554,0.07771479],[0.07974999,0.07160546,0.0767623,0.07674817,0.07657743],[0.07895001,0.07232222,0.07674817,0.07528619,0.07510019],[0.07724997,0.07425412,0.07528619,0.0752,0.07551422],[0.07849447,0.0734,0.07549999,0.07489364,0.07567494],[0.07739,0.0724,0.07501006,0.07360005,0.07470355],[0.075126,0.07259765,0.07360005,0.07480009,0.07409446],[0.07578142,0.0739415,0.07477659,0.07550012,0.0747343],[0.07671,0.0739,0.07550012,0.075,0.07515774]],"output":[[0.07591619,0.07446003,0.07506987,0.0759,0.07524535]],"actual":[{"0":-0.07218308746814728,"1":-0.075163833796978,"2":-0.07267202436923981,"3":-0.07608556747436523,"4":-0.07316820323467255}]},{"input":[[0.08789053,0.08492802,0.08514955,0.08661057,0.08656063],[0.09375,0.08660001,0.08661057,0.09340001,0.09103261],[0.09372,0.08835003,0.09349,0.08989995,0.09109507],[0.0911912,0.08557729,0.08989995,0.08939848,0.08828032],[0.08999999,0.08602262,0.08943069,0.088,0.08772617],[0.08934163,0.0866,0.088,0.08858829,0.08810325],[0.091,0.08814987,0.08862343,0.08814987,0.08955591],[0.08947931,0.08680005,0.08825053,0.08802298,0.08800859],[0.08867,0.08735291,0.08796,0.08795003,0.08813341],[0.0899,0.08754124,