{"type":"LSTMTimeStep","options":{"inputSize":5,"hiddenLayers":[10,10],"outputSize":5,"learningRate":0.01,"decayRate":0.999,"smoothEps":1e-8,"regc":0.000001,"clipval":5},"hiddenLayers":[{"inputMatrix":{"rows":10,"columns":5,"weights":{"0":-0.3718673586845398,"1":-0.13679742813110352,"2":-0.4860997498035431,"3":-0.0487881675362587,"4":-0.10150956362485886,"5":-0.26072198152542114,"6":-0.3008078336715698,"7":-0.39398694038391113,"8":-0.1893307864665985,"9":-0.25933974981307983,"10":-0.3334706723690033,"11":-0.5412585139274597,"12":-0.7423306703567505,"13":-0.22500896453857422,"14":-0.39936286211013794,"15":-0.24124835431575775,"16":-0.27248111367225647,"17":-0.42214182019233704,"18":-0.13326992094516754,"19":-0.20978662371635437,"20":-0.5458778142929077,"21":-0.6217210292816162,"22":-0.770783543586731,"23":-0.45769003033638,"24":-0.542803943157196,"25":-0.27580344676971436,"26":-0.4373822808265686,"27":-0.5518948435783386,"28":-0.20900891721248627,"29":-0.34052711725234985,"30":-0.7572983503341675,"31":-0.8697984218597412,"32":-0.9656498432159424,"33":-0.7226033210754395,"34":-0.8112176060676575,"35":-0.4293633997440338,"36":-0.4401175379753113,"37":-0.4865367114543915,"38":-0.37578511238098145,"39":-0.41834214329719543,"40":-0.4416823983192444,"41":-0.49921658635139465,"42":-0.6505097150802612,"43":-0.33565494418144226,"44":-0.4316398501396179,"45":-0.6179523468017578,"46":-0.6330645680427551,"47":-0.7206549048423767,"48":-0.5474749803543091,"49":-0.6181195974349976}},"inputHidden":{"rows":10,"columns":10,"weights":{"0":0.5615577101707458,"1":-0.5915074944496155,"2":-0.24918098747730255,"3":0.2989709675312042,"4":-0.09081706404685974,"5":-0.18988534808158875,"6":0.6354085206985474,"7":0.5389382243156433,"8":-0.09493439644575119,"9":0.22108900547027588,"10":0.190520778298378,"11":-0.31664609909057617,"12":-0.18517956137657166,"13":0.07769092917442322,"14":0.5935797691345215,"15":-0.03795113414525986,"16":-0.16073879599571228,"17":0.3816959261894226,"18":-0.16654428839683533,"19":0.3659222722053528,"20":0.822441816329956,"21":-0.845543622970581,"22":-1.2220735549926758,"23":0.6474729180335999,"24":0.10572458803653717,"25":-0.8719989061355591,"26":0.7968956828117371,"27":0.864553689956665,"28":-0.11272735148668289,"29":0.010341900400817394,"30":0.36690640449523926,"31":-0.44812139868736267,"32":0.17376352846622467,"33":0.47535210847854614,"34":0.08241702616214752,"35":-0.10158766061067581,"36":0.6804953813552856,"37":0.27457451820373535,"38":-0.17697259783744812,"39":-0.006339146755635738,"40":0.5475820899009705,"41":-0.09349329769611359,"42":0.13662895560264587,"43":0.6252679228782654,"44":-0.5069263577461243,"45":-0.12478062510490417,"46":0.39846161007881165,"47":0.1280510276556015,"48":0.0775141790509224,"49":-0.18628907203674316,"50":0.4913259446620941,"51":-0.6875417828559875,"52":0.5594835877418518,"53":0.622114896774292,"54":0.31529679894447327,"55":0.6006305813789368,"56":0.30048277974128723,"57":0.4800252914428711,"58":-0.9546388983726501,"59":0.968665599822998,"60":0.6215091347694397,"61":-0.4597605764865875,"62":-0.12150975316762924,"63":0.5266896486282349,"64":0.3693452477455139,"65":0.006611860357224941,"66":0.24407438933849335,"67":0.3049536943435669,"68":-0.20809561014175415,"69":-0.1758500337600708,"70":0.2141198217868805,"71":-0.11836546659469604,"72":-0.17615538835525513,"73":0.05850142985582352,"74":0.4117744565010071,"75":0.5112128853797913,"76":-0.0556458942592144,"77":0.10396292805671692,"78":-0.5012146234512329,"79":0.4093143343925476,"80":0.5495075583457947,"81":-0.4687769412994385,"82":-0.41696107387542725,"83":0.39301303029060364,"84":0.48820385336875916,"85":0.2246580570936203,"86":0.4135342538356781,"87":0.35172030329704285,"88":-0.14762729406356812,"89":0.454582542181015,"90":0.7092493176460266,"91":-0.7141186594963074,"92":0.09255269914865494,"93":0.6781156659126282,"94":-0.014312700368463993,"95":-0.2807345688343048,"96":0.2972007095813751,"97":0.44493064284324646,"98":-0.37913304567337036,"99":0.6456094980239868}},"inputBias":{"rows":10,"columns":1,"weights":{"0":-0.20230019092559814,"1":-0.19452407956123352,"2":-0.1748756319284439,"3":-0.35284045338630676,"4":-0.18732957541942596,"5":-0.03198030963540077,"6":-0.29706382751464844,"7":-0.1230236068367958,"8":0.18788176774978638,"9":0.4929784834384918}},"forgetMatrix":{"rows":10,"columns":5,"weights":{"0":-0.44592949748039246,"1":-0.4253566861152649,"2":-0.4472670555114746,"3":-0.4301430284976959,"4":-0.43560171127319336,"5":-0.3711423873901367,"6":-0.35516858100891113,"7":-0.3738764524459839,"8":-0.35715559124946594,"9":-0.3633570075035095,"10":-0.4894665479660034,"11":-0.5124601125717163,"12":-0.5744432806968689,"13":-0.45763644576072693,"14":-0.4967499375343323,"15":-0.5095399618148804,"16":-0.5008770823478699,"17":-0.5313913226127625,"18":-0.4910276234149933,"19":-0.504490315914154,"20":-0.32575058937072754,"21":-0.3216480016708374,"22":-0.3443087041378021,"23":-0.31354784965515137,"24":-0.32318755984306335,"25":-0.6872686147689819,"26":-0.6980248093605042,"27":-0.7667332887649536,"28":-0.6505657434463501,"29":-0.6884345412254333,"30":-0.35716190934181213,"31":-0.35931459069252014,"32":-0.38881003856658936,"33":-0.341754287481308,"34":-0.35708490014076233,"35":-0.3997035622596741,"36":-0.3901417851448059,"37":-0.40862876176834106,"38":-0.38757866621017456,"39":-0.39479389786720276,"40":-0.42305853962898254,"41":-0.3994331359863281,"42":-0.42487412691116333,"43":-0.40477344393730164,"44":-0.41091156005859375,"45":-0.31602033972740173,"46":-0.30295079946517944,"47":-0.33732184767723083,"48":-0.2929939329624176,"49":-0.30772024393081665}},"forgetHidden":{"rows":10,"columns":10,"weights":{"0":0.7213200330734253,"1":-0.4711652100086212,"2":0.20927006006240845,"3":0.703124463558197,"4":0.06680402904748917,"5":-0.42557787895202637,"6":0.3912617266178131,"7":0.4083668887615204,"8":-0.36853116750717163,"9":0.2235579490661621,"10":0.382151335477829,"11":-0.6344496011734009,"12":0.08721849322319031,"13":0.28714579343795776,"14":0.17743319272994995,"15":-0.43926361203193665,"16":0.11081627011299133,"17":0.6144031882286072,"18":-0.43837594985961914,"19":0.32466575503349304,"20":0.7636511921882629,"21":-0.4647783935070038,"22":1.2664400339126587,"23":0.78765469789505,"24":0.05442677438259125,"25":-0.5243539810180664,"26":0.3199463188648224,"27":0.2915923595428467,"28":-0.9475286602973938,"29":0.7865543365478516,"30":0.78958660364151,"31":-0.46393027901649475,"32":0.25089022517204285,"33":0.6074617505073547,"34":0.15495125949382782,"35":-0.3461858332157135,"36":0.45829257369041443,"37":0.32624635100364685,"38":-0.283644437789917,"39":0.059905000030994415,"40":0.27011939883232117,"41":-0.23620562255382538,"42":0.2479330599308014,"43":0.08190988004207611,"44":0.7085021734237671,"45":-0.15962255001068115,"46":0.070976123213768,"47":0.2631939947605133,"48":-0.27905088663101196,"49":0.2767723798751831,"50":0.8519366383552551,"51":-0.7670683860778809,"52":0.31743308901786804,"53":0.7639005780220032,"54":0.19432349503040314,"55":-1.580095887184143,"56":0.6506777405738831,"57":1.1327203512191772,"58":-0.5516040921211243,"59":0.7852429747581482,"60":0.3983263373374939,"61":-0.27120697498321533,"62":0.17178606986999512,"63":0.41457241773605347,"64":0.06339281797409058,"65":-0.45585450530052185,"66":0.5318150520324707,"67":0.22090944647789001,"68":-0.15748855471611023,"69":0.13735714554786682,"70":0.4378856420516968,"71":-0.5624196529388428,"72":0.0032089140731841326,"73":0.301841676235199,"74":0.16483382880687714,"75":-0.6009229421615601,"76":0.15217389166355133,"77":0.8325207829475403,"78":-0.3903239369392395,"79":0.4162258505821228,"80":0.5370280742645264,"81":-0.570024311542511,"82":0.5878941416740417,"83":0.2874806523323059,"84":0.1295601725578308,"85":-0.3465258777141571,"86":0.20884154736995697,"87":0.44269171357154846,"88":-1.2523292303085327,"89":0.8051487803459167,"90":0.43443402647972107,"91":-0.3715853989124298,"92":0.5372448563575745,"93":0.286850243806839,"94":-0.014729431830346584,"95":-0.3302476704120636,"96":0.0007584167178720236,"97":0.2933576703071594,"98":-0.6027668118476868,"99":0.8021713495254517}},"forgetBias":{"rows":10,"columns":1,"weights":{"0":0,"1":0,"2":0,"3":0,"4":0,"5":0,"6":0,"7":0,"8":0,"9":0}},"outputMatrix":{"rows":10,"columns":5,"weights":{"0":0.1379334032535553,"1":0.06299744546413422,"2":0.01373346522450447,"3":0.16089195013046265,"4":0.10489863902330399,"5":-0.11017438769340515,"6":-0.1971641331911087,"7":-0.25134122371673584,"8":-0.07666291296482086,"9":-0.14865057170391083,"10":-0.05644431710243225,"11":-0.3387162387371063,"12":-0.5072860717773438,"13":0.012602174654603004,"14":-0.17584477365016937,"15":0.016935257241129875,"16":-0.16496916115283966,"17":-0.17718034982681274,"18":-0.012329746969044209,"19":-0.09264122694730759,"20":-0.4331713616847992,"21":-0.5895134806632996,"22":-0.6739885807037354,"23":-0.4122267961502075,"24":-0.5029233694076538,"25":-0.26236167550086975,"26":-0.44225451350212097,"27":-0.5806831121444702,"28":-0.17653533816337585,"29":-0.3312605917453766,"30":-0.7298502922058105,"31":-0.8718709349632263,"32":-0.9654933214187622,"33":-0.7019962072372437,"34":-0.8004671335220337,"35":-0.27906492352485657,"36":-0.3329230844974518,"37":-0.34278830885887146,"38":-0.2622514069080353,"39":-0.30603736639022827,"40":-0.22923558950424194,"41":-0.3588007390499115,"42":-0.4563972055912018,"43":-0.17765849828720093,"44":-0.28218409419059753,"45":-0.5394067764282227,"46":-0.5608268976211548,"47":-0.6589319705963135,"48":-0.46059882640838623,"49":-0.54058837890625}},"outputHidden":{"rows":10,"columns":10,"weights":{"0":0.40628376603126526,"1":-0.43458282947540283,"2":-0.2632349133491516,"3":0.18776799738407135,"4":-0.1313052922487259,"5":-0.16320781409740448,"6":0.5262016654014587,"7":0.4124400317668915,"8":-0.04973015934228897,"9":0.3390679359436035,"10":0.022469529882073402,"11":-0.05018555745482445,"12":-0.20305748283863068,"13":-0.07324288785457611,"14":0.5593928098678589,"15":0.05567009374499321,"16":-0.19997642934322357,"17":0.23050706088542938,"18":-0.0949886217713356,"19":0.3413424789905548,"20":0.6927728056907654,"21":-0.8420141339302063,"22":-1.5746519565582275,"23":0.5183583498001099,"24":0.10353600978851318,"25":-0.9057074785232544,"26":0.7845255732536316,"27":0.9755721092224121,"28":-0.03258662298321724,"29":0.08013086766004562,"30":0.22114436328411102,"31":-0.24876268208026886,"32":0.18642744421958923,"33":0.18552279472351074,"34":0.16146941483020782,"35":-0.13568110764026642,"36":0.5059348344802856,"37":0.17723026871681213,"38":-0.17105931043624878,"39":0.10492873191833496,"40":0.4998377859592438,"41":-0.06162092462182045,"42":0.1216062381863594,"43":0.6550647020339966,"44":-0.6206372976303101,"45":-0.21566209197044373,"46":0.37532004714012146,"47":0.15188199281692505,"48":0.12380997091531754,"49":-0.20192374289035797,"50":0.30685392022132874,"51":-0.5644162893295288,"52":0.5882214903831482,"53":0.5156381130218506,"54":0.31629112362861633,"55":1.2010656595230103,"56":0.17879651486873627,"57":0.2169758677482605,"58":-0.9588308930397034,"59":0.7958546876907349,"60":0.5239916443824768,"61":-0.41301634907722473,"62":-0.16827093064785004,"63":0.4049059748649597,"64":0.3692267835140228,"65":0.09473570436239243,"66":-0.027047131210565567,"67":0.35049787163734436,"68":-0.10033135861158371,"69":-0.22358985245227814,"70":0.09343301504850388,"71":0.004904774483293295,"72":-0.16674810647964478,"73":-0.041086308658123016,"74":0.3094450831413269,"75":0.6132487654685974,"76":-0.09756647050380707,"77":0.0038252680096775293,"78":-0.5116714835166931,"79":0.3872654139995575,"80":0.4372754991054535,"81":-0.37804728746414185,"82":-0.44180330634117126,"83":0.32758015394210815,"84":0.39961451292037964,"85":0.20024466514587402,"86":0.3953075408935547,"87":0.37703922390937805,"88":0.03189860284328461,"89":0.3781977891921997,"90":0.5946336388587952,"91":-0.7067493796348572,"92":0.03846282511949539,"93":0.5277432203292847,"94":-0.08344143629074097,"95":-0.5123094916343689,"96":0.3292365074157715,"97":0.5807299017906189,"98":-0.17965124547481537,"99":0.4878014028072357}},"outputBias":{"rows":10,"columns":1,"weights":{"0":-0.1969490349292755,"1":-0.18571501970291138,"2":-0.11263129860162735,"3":-0.3801466226577759,"4":-0.2282012552022934,"5":-0.027435317635536194,"6":-0.3202333152294159,"7":-0.07479123771190643,"8":0.18734018504619598,"9":0.5597673058509827}},"cellActivationMatrix":{"rows":10,"columns":5,"weights":{"0":-0.398534893989563,"1":-0.41635459661483765,"2":-0.43567389249801636,"3":-0.39135369658470154,"4":-0.4039534628391266,"5":0.4110260307788849,"6":0.3794640898704529,"7":0.316646546125412,"8":0.45778799057006836,"9":0.3983510732650757,"10":-0.3012014925479889,"11":-0.09444209188222885,"12":0.227217435836792,"13":-0.48310744762420654,"14":-0.2240285873413086,"15":-0.3397175967693329,"16":-0.31790363788604736,"17":-0.3089149594306946,"18":-0.34375932812690735,"19":-0.32481488585472107,"20":-0.3928810954093933,"21":-0.06889598816633224,"22":0.33202308416366577,"23":-0.6006904244422913,"24":-0.2670564651489258,"25":0.16147011518478394,"26":0.0991874560713768,"27":-0.029341964051127434,"28":0.24578885734081268,"29":0.14184725284576416,"30":-0.7994365692138672,"31":-0.7153037190437317,"32":-0.5935415625572205,"33":-0.8732887506484985,"34":-0.7671793103218079,"35":-0.36781930923461914,"36":-0.35229846835136414,"37":-0.34681692719459534,"38":-0.3808726668357849,"39":-0.3614301085472107,"40":1.0144474506378174,"41":1.0206831693649292,"42":0.9906489849090576,"43":1.0019967555999756,"44":1.0134137868881226,"45":-0.07130122929811478,"46":-0.05255227908492088,"47":0.09360528737306595,"48":-0.18176178634166718,"49":-0.07205242663621902}},"cellActivationHidden":{"rows":10,"columns":10,"weights":{"0":0.13153646886348724,"1":-0.022873155772686005,"2":0.5044736266136169,"3":-0.20627567172050476,"4":0.16959699988365173,"5":0.017474938184022903,"6":0.18465973436832428,"7":-0.039090659469366074,"8":-0.15657877922058105,"9":0.13138863444328308,"10":-0.28954648971557617,"11":-0.2647266983985901,"12":-0.4894128739833832,"13":-0.3281015455722809,"14":0.04115813970565796,"15":0.25041505694389343,"16":-0.4157102108001709,"17":0.23798112571239471,"18":0.09103282541036606,"19":0.14778845012187958,"20":-0.5697054862976074,"21":-0.15043462812900543,"22":0.20404955744743347,"23":-0.623456597328186,"24":0.07209537923336029,"25":0.4844052493572235,"26":-0.41255924105644226,"27":0.27394986152648926,"28":-0.4476279318332672,"29":0.6587557196617126,"30":-0.07991769164800644,"31":-0.005616224370896816,"32":0.2260994166135788,"33":-0.17193956673145294,"34":0.2489210069179535,"35":-0.2019711285829544,"36":0.0697091817855835,"37":0.18544988334178925,"38":-0.1853117048740387,"39":0.3764464855194092,"40":-0.32202088832855225,"41":0.06555426865816116,"42":-0.38722333312034607,"43":-0.1784161925315857,"44":-0.10065585374832153,"45":-0.52984219789505,"46":0.044757165014743805,"47":0.3974865972995758,"48":-0.4132935106754303,"49":0.46115005016326904,"50":0.039486806839704514,"51":-0.09113539010286331,"52":-0.31105107069015503,"53":0.06497559696435928,"54":0.0627654567360878,"55":-0.037403155118227005,"56":-0.011719010770320892,"57":0.00362039334140718,"58":0.11401242762804031,"59":0.0810890719294548,"60":0.4041856527328491,"61":-0.339530348777771,"62":-0.221008762717247,"63":0.43943658471107483,"64":0.07955821603536606,"65":0.2021523118019104,"66":0.4528645873069763,"67":0.03531031683087349,"68":-0.5945724844932556,"69":-0.05317764729261398,"70":0.0910608172416687,"71":0.10351909697055817,"72":0.4164658188819885,"73":-0.06579360365867615,"74":0.11721248179674149,"75":-0.3430267572402954,"76":0.23937244713306427,"77":-0.08365826308727264,"78":0.022850235924124718,"79":-0.24799661338329315,"80":-0.18138451874256134,"81":0.10166224092245102,"82":-0.6771848797798157,"83":-0.34766849875450134,"84":-0.25767213106155396,"85":-0.27097639441490173,"86":-0.1767551302909851,"87":0.5460186004638672,"88":0.7309713363647461,"89":-0.02640257030725479,"90":-0.3908320665359497,"91":-0.0757368952035904,"92":0.5230392217636108,"93":-0.3056034743785858,"94":-0.020568277686834335,"95":-0.7212545275688171,"96":0.1843338906764984,"97":0.4459429383277893,"98":-0.42196035385131836,"99":0.042811308056116104}},"cellActivationBias":{"rows":10,"columns":1,"weights":{"0":-0.7174694538116455,"1":0.6643997430801392,"2":-0.5444025993347168,"3":-0.4681640863418579,"4":0.2571718394756317,"5":0.6485263109207153,"6":-0.18858152627944946,"7":-0.7889813780784607,"8":0.7635660767555237,"9":-1.0277248620986938}}},{"inputMatrix":{"rows":10,"columns":10,"weights":{"0":0.7952993512153625,"1":-0.7044346332550049,"2":0.9954342842102051,"3":0.3108138144016266,"4":0.07670225203037262,"5":-0.825981855392456,"6":-0.08723806589841843,"7":0.6634515523910522,"8":-0.5080552101135254,"9":0.5351294279098511,"10":-0.0739751011133194,"11":0.019931485876441002,"12":1.0721558332443237,"13":-0.1977599412202835,"14":0.01768709346652031,"15":-0.16867482662200928,"16":-0.03843346983194351,"17":-0.0923963412642479,"18":-0.6493428945541382,"19":0.5450416207313538,"20":0.7287673354148865,"21":-0.7494260668754578,"22":0.7491128444671631,"23":0.5286589860916138,"24":0.08036141097545624,"25":-0.14089150726795197,"26":0.3477451801300049,"27":0.6535292863845825,"28":-0.6281494498252869,"29":0.7111431360244751,"30":0.6839867234230042,"31":-0.7549344301223755,"32":0.4601777195930481,"33":0.7208563089370728,"34":-0.031199675053358078,"35":-0.36050543189048767,"36":0.07477982342243195,"37":1.2122156620025635,"38":-1.0813428163528442,"39":1.2051854133605957,"40":0.689988374710083,"41":-0.8098111152648926,"42":0.8930885791778564,"43":0.4425252079963684,"44":-0.010121390223503113,"45":-1.058983325958252,"46":0.2670907974243164,"47":0.6145580410957336,"48":-0.9282779693603516,"49":0.8539365530014038,"50":-0.2970862090587616,"51":0.5119835734367371,"52":0.20287849009037018,"53":-0.3229008615016937,"54":-0.13059315085411072,"55":0.6808403134346008,"56":0.4077676236629486,"57":-0.49972325563430786,"58":-0.025468258187174797,"59":-0.4810216426849365,"60":-0.6761179566383362,"61":0.2998473048210144,"62":-0.48682743310928345,"63":-0.215623676776886,"64":0.2586728036403656,"65":0.869462251663208,"66":0.18716304004192352,"67":-0.47872990369796753,"68":1.1503366231918335,"69":-0.6308947205543518,"70":0.6978800296783447,"71":-0.5929754376411438,"72":0.4412027597427368,"73":0.29326581954956055,"74":-0.05543046072125435,"75":-1.1504517793655396,"76":-0.2133212834596634,"77":0.6619575619697571,"78":-1.0608857870101929,"79":0.5767958164215088,"80":0.8391165733337402,"81":-0.993988037109375,"82":0.8295091390609741,"83":0.7092581391334534,"84":-0.10444486141204834,"85":0.19824135303497314,"86":0.013362560421228409,"87":0.8526004552841187,"88":-1.1579538583755493,"89":1.0839807987213135,"90":0.658721387386322,"91":-1.0315192937850952,"92":-0.7902727723121643,"93":0.23498521745204926,"94":-0.16364388167858124,"95":-0.7700881361961365,"96":0.11765748262405396,"97":1.5730546712875366,"98":-2.017362594604492,"99":1.9439424276351929}},"inputHidden":{"rows":10,"columns":10,"weights":{"0":0.15091708302497864,"1":-0.017162052914500237,"2":0.010976111516356468,"3":-0.019160214811563492,"4":0.05111488699913025,"5":-0.056301333010196686,"6":-0.008180119097232819,"7":0.033859964460134506,"8":-0.014160510152578354,"9":0.025088805705308914,"10":0.020869627594947815,"11":-0.5125024914741516,"12":-0.030644958838820457,"13":-0.017823806032538414,"14":0.023853177204728127,"15":-0.07758069038391113,"16":0.009125218726694584,"17":0.009279456920921803,"18":-0.06767242401838303,"19":0.057178348302841187,"20":-0.0023614305537194014,"21":-0.030968865379691124,"22":0.0055945091880857944,"23":-0.020571768283843994,"24":0.017126278951764107,"25":-0.04323443025350571,"26":-0.04919256642460823,"27":-0.008946172893047333,"28":-0.06890049576759338,"29":0.0910378023982048,"30":0.059577953070402145,"31":0.009051254950463772,"32":0.006090797483921051,"33":-0.6423627138137817,"34":0.022975418716669083,"35":-0.09640107303857803,"36":-0.006618937477469444,"37":0.052473172545433044,"38":-0.03540888428688049,"39":0.1772753894329071,"40":0.04779127612709999,"41":-0.010297996923327446,"42":-0.0009550836984999478,"43":-0.016579994931817055,"44":-0.007153092417865992,"45":-0.11514709144830704,"46":-0.008625054731965065,"47":0.026342062279582024,"48":-0.029704352840781212,"49":0.024754686281085014,"50":0.04408854618668556,"51":-0.01815873757004738,"52":0.02781868539750576,"53":-0.08978329598903656,"54":0.12308843433856964,"55":-0.7176453471183777,"56":-0.36409562826156616,"57":0.013301882892847061,"58":-0.08704325556755066,"59":0.10639087110757828,"60":-0.009847729466855526,"61":-0.06295395642518997,"62":0.07813914865255356,"63":-0.06940054148435593,"64":0.026337942108511925,"65":-0.38642796874046326,"66":-0.5804777145385742,"67":-0.040187954902648926,"68":-0.11531386524438858,"69":0.21492554247379303,"70":0.03798096999526024,"71":-0.007928351871669292,"72":0.01175262313336134,"73":-0.07306031137704849,"74":0.03305846452713013,"75":-0.05829585716128349,"76":-0.01695353537797928,"77":0.12923884391784668,"78":-0.009098418988287449,"79":0.04122829809784889,"80":-0.0021388723980635405,"81":-0.03818485513329506,"82":0.04896070808172226,"83":-0.01570887118577957,"84":0.02715613692998886,"85":-0.06759516149759293,"86":-0.048703134059906006,"87":-0.016836268827319145,"88":-0.058950312435626984,"89":0.11844316869974136,"90":-0.0071408129297196865,"91":-0.030204735696315765,"92":0.08179724961519241,"93":-0.19795629382133484,"94":0.04514683410525322,"95":-0.10461879521608353,"96":-0.13032880425453186,"97":-0.0012574918800964952,"98":-0.13915219902992249,"99":0.7236399054527283}},"inputBias":{"rows":10,"columns":1,"weights":{"0":-2.5773773193359375,"1":-3.1210148334503174,"2":-2.711871862411499,"3":-2.3554012775421143,"4":-2.3529341220855713,"5":-3.8957808017730713,"6":-4.331038951873779,"7":-2.4243571758270264,"8":-2.438974380493164,"9":-2.292264938354492}},"forgetMatrix":{"rows":10,"columns":10,"weights":{"0":0.10371813178062439,"1":-0.08562551438808441,"2":0.03956056758761406,"3":0.1034286767244339,"4":0.013335327617824078,"5":-0.042582206428050995,"6":0.0859166756272316,"7":0.04187827184796333,"8":-0.11980615556240082,"9":0.03263548016548157,"10":0.27582210302352905,"11":-0.35572224855422974,"12":0.010078852996230125,"13":0.30613651871681213,"14":0.040601491928100586,"15":-0.2896629571914673,"16":0.2787012457847595,"17":0.3609904944896698,"18":-0.20712372660636902,"19":0.1889752894639969,"20":0.0011253143893554807,"21":-0.03519034385681152,"22":0.03777991607785225,"23":0.020824693143367767,"24":0.0029527724254876375,"25":-0.0731159970164299,"26":0.025733590126037598,"27":0.035240329802036285,"28":-0.03623799979686737,"29":0.030291717499494553,"30":0.35185399651527405,"31":-0.17260070145130157,"32":0.4072222113609314,"33":0.23810842633247375,"34":0.10076642036437988,"35":-0.3741692304611206,"36":0.22807356715202332,"37":0.15274429321289062,"38":-0.3454637825489044,"39":0.25784701108932495,"40":0.050551656633615494,"41":-0.04334616661071777,"42":0.04371991008520126,"43":0.022722721099853516,"44":0.0060567548498511314,"45":-0.05984840914607048,"46":0.027316436171531677,"47":0.04134811460971832,"48":-0.05669026076793671,"49":0.026300698518753052,"50":0.36875489354133606,"51":-0.3163226246833801,"52":0.13235095143318176,"53":0.3205762505531311,"54":0.36855819821357727,"55":-0.32513657212257385,"56":0.10663400590419769,"57":0.30048084259033203,"58":-0.2581145167350769,"59":0.26325076818466187,"60":0.433574378490448,"61":-0.429940402507782,"62":0.24277053773403168,"63":0.27847251296043396,"64":0.18804144859313965,"65":-0.4223571717739105,"66":0.13029038906097412,"67":0.4463553726673126,"68":-0.5028337240219116,"69":0.4723777174949646,"70":0.06631883233785629,"71":-0.039471518248319626,"72":0.1685536652803421,"73":0.08442322909832001,"74":0.0183158777654171,"75":-0.0335080660879612,"76":0.014817778952419758,"77":0.032841458916664124,"78":-0.11998382955789566,"79":0.14383257925510406,"80":0.0758049488067627,"81":-0.06728693097829819,"82":0.05410204827785492,"83":0.07052040845155716,"84":0.00474608363583684,"85":-0.23432965576648712,"86":0.10850080102682114,"87":0.10242602974176407,"88":-0.07561752200126648,"89":0.05497509241104126,"90":0.19525286555290222,"91":-0.13625243306159973,"92":0.5395254492759705,"93":0.2035813331604004,"94":0.04869111627340317,"95":-0.29730069637298584,"96":0.16114695370197296,"97":0.10153909027576447,"98":-0.18684586882591248,"99":0.11713826656341553}},"forgetHidden":{"rows":10,"columns":10,"weights":{"0":0.006351614836603403,"1":-0.0006104826461523771,"2":0.0006536348373629153,"3":-0.0006888821371831,"4":0.00199807807803154,"5":-0.0013524226378649473,"6":-0.0003401970607228577,"7":0.0008320055203512311,"8":-0.000040184469980886206,"9":0.0003059915325138718,"10":0.0009585554944351315,"11":-0.07899648696184158,"12":-0.0016749458154663444,"13":-0.0006175320595502853,"14":0.0015399414114654064,"15":-0.003706391202285886,"16":0.001568619511090219,"17":0.000574061821680516,"18":-0.002235172316431999,"19":0.001816026633605361,"20":-0.00048766369582153857,"21":-0.0007280742865987122,"22":-0.00005767986294813454,"23":-0.000599778606556356,"24":0.000712892971932888,"25":-0.0011783074587583542,"26":-0.0011475495994091034,"27":-0.00038979388773441315,"28":-0.0014343842631205916,"29":0.0018232382135465741,"30":0.002381641650572419,"31":0.00033403426641598344,"32":0.0003335598739795387,"33":-0.07204212993383408,"34":0.0007801019819453359,"35":-0.0027116721030324697,"36":0.0003185452660545707,"37":0.0012788124149665236,"38":-0.0009978701127693057,"39":0.0063370754942297935,"40":0.0008698820602148771,"41":-0.00043293825001455843,"42":0.00023078183585312217,"43":-0.00024363705597352237,"44":-0.0014086168957874179,"45":-0.002706898609176278,"46":-0.0002711339038796723,"47":0.0002900469407904893,"48":-0.0004298408457543701,"49":0.0006078339647501707,"50":0.0016346112824976444,"51":-0.000005349354978534393,"52":0.0013562511885538697,"53":-0.003584281774237752,"54":0.008352905511856079,"55":-0.08655589818954468,"56":-0.023235570639371872,"57":0.000832280027680099,"58":-0.0029752133414149284,"59":0.0031869597733020782,"60":-0.0011727095115929842,"61":-0.0034564989618957043,"62":0.004019802436232567,"63":-0.003627820173278451,"64":0.001329003251157701,"65":-0.03925566375255585,"66":-0.09194468706846237,"67":-0.002066814573481679,"68":-0.004329140763729811,"69":0.004778719507157803,"70":0.0013687810860574245,"71":0.0002647067012730986,"72":-0.00007944065873743966,"73":-0.0017977557145059109,"74":0.0004210672341287136,"75":-0.0009502824395895004,"76":-0.0001515224139438942,"77":0.005175100639462471,"78":-0.0005869235028512776,"79":0.0009587974054738879,"80":-0.0006438190466724336,"81":-0.0018243540544062853,"82":0.0018852408975362778,"83":-0.0004592886834871024,"84":0.0012496383860707283,"85":-0.00209167436696589,"86":-0.0018686041003093123,"87":-0.0006934880511835217,"88":0.002786151599138975,"89":0.002833979669958353,"90":-0.0005590806831605732,"91":-0.001122688059695065,"92":0.0032256629783660173,"93":-0.009588313288986683,"94":0.002491631777957082,"95":-0.003667043289169669,"96":-0.004125342704355717,"97":-0.0009099768358282745,"98":-0.004500431939959526,"99":0.07149844616651535}},"forgetBias":{"rows":10,"columns":1,"weights":{"0":0,"1":0,"2":0,"3":0,"4":0,"5":0,"6":0,"7":0,"8":0,"9":0}},"outputMatrix":{"rows":10,"columns":10,"weights":{"0":0.7793287634849548,"1":-0.6995449066162109,"2":1.0062649250030518,"3":0.28985148668289185,"4":0.07538093626499176,"5":-0.8350345492362976,"6":-0.10651712119579315,"7":0.6866746544837952,"8":-0.4947658181190491,"9":0.5412894487380981,"10":-0.1334560215473175,"11":0.08239313960075378,"12":1.056261420249939,"13":-0.25508031249046326,"14":0.011402391828596592,"15":-0.12034489214420319,"16":-0.10250084102153778,"17":-0.136724591255188,"18":-0.6199374794960022,"19":0.5164148807525635,"20":0.7353885173797607,"21":-0.7619832754135132,"22":0.7340776324272156,"23":0.5255767107009888,"24":0.08391211181879044,"25":-0.1209477111697197,"26":0.3561711311340332,"27":0.6722449660301208,"28":-0.6429010629653931,"29":0.727026104927063,"30":0.6603931784629822,"31":-0.7395785450935364,"32":0.43927618861198425,"33":0.697978675365448,"34":-0.021933309733867645,"35":-0.3173942267894745,"36":0.04272548854351044,"37":1.2056879997253418,"38":-1.0720021724700928,"39":1.2005606889724731,"40":0.6610816717147827,"41":-0.8114781975746155,"42":0.8912134170532227,"43":0.41374313831329346,"44":-0.007827641442418098,"45":-1.066698670387268,"46":0.2663286030292511,"47":0.6337945461273193,"48":-0.9364097714424133,"49":0.8674708604812622,"50":-0.3984173834323883,"51":0.5810161232948303,"52":0.1789761483669281,"53":-0.4193992018699646,"54":-0.16589629650115967,"55":0.7387585043907166,"56":0.39934027194976807,"57":-0.5490576028823853,"58":0.0016666656592860818,"59":-0.5320606231689453,"60":-0.7355355024337769,"61":0.35664939880371094,"62":-0.5113903880119324,"63":-0.2581169009208679,"64":0.2595406472682953,"65":0.89792400598526,"66":0.1828366070985794,"67":-0.5318853259086609,"68":1.2199225425720215,"69":-0.689003050327301,"70":0.6729800701141357,"71":-0.5982099771499634,"72":0.3884749114513397,"73":0.2515941560268402,"74":-0.057039059698581696,"75":-1.1674023866653442,"76":-0.22277486324310303,"77":0.6838850975036621,"78":-1.048567533493042,"79":0.5413419604301453,"80":0.8144933581352234,"81":-1.0104931592941284,"82":0.8160111308097839,"83":0.6782165169715881,"84":-0.10723742842674255,"85":0.2792184352874756,"86":-0.018617352470755577,"87":0.8451837301254272,"88":-1.1595882177352905,"89":1.1105194091796875,"90":0.559597373008728,"91":-0.9528924226760864,"92":-1.051206111907959,"93":0.13143080472946167,"94":-0.1195334792137146,"95":-0.5420985221862793,"96":0.08762049674987793,"97":1.5046950578689575,"98":-1.8616282939910889,"99":1.769644856452942}},"outputHidden":{"rows":10,"columns":10,"weights":{"0":0.1607585996389389,"1":-0.017669394612312317,"2":0.011440280824899673,"3":-0.020012516528367996,"4":0.0543256551027298,"5":-0.05805729702115059,"6":-0.008160642348229885,"7":0.03604613617062569,"8":-0.01445370726287365,"9":0.025991272181272507,"10":0.023000339046120644,"11":-0.5278787612915039,"12":-0.03373382240533829,"13":-0.018633611500263214,"14":0.025800146162509918,"15":-0.0825742557644844,"16":0.01228348258882761,"17":0.01051237154752016,"18":-0.07138684391975403,"19":0.05994768068194389,"20":-0.0025569163262844086,"21":-0.03195129707455635,"22":0.005289120599627495,"23":-0.021330146118998528,"24":0.017812130972743034,"25":-0.04488832876086235,"26":-0.05083794519305229,"27":-0.00947952177375555,"28":-0.07193438708782196,"29":0.09442431479692459,"30":0.06290356814861298,"31":0.010019629262387753,"32":0.005984688643366098,"33":-0.6653426289558411,"34":0.02345803566277027,"35":-0.09925737977027893,"36":-0.005544564686715603,"37":0.05393238365650177,"38":-0.03704451024532318,"39":0.18446794152259827,"40":0.049925610423088074,"41":-0.010492358356714249,"42":-0.0012897036504000425,"43":-0.01668519899249077,"44":-0.009132473729550838,"45":-0.11869443207979202,"46":-0.008453426882624626,"47":0.027274342253804207,"48":-0.03082883730530739,"49":0.025978608056902885,"50":0.046898555010557175,"51":-0.017496438696980476,"52":0.02901574783027172,"53":-0.09432828426361084,"54":0.1317962408065796,"55":-0.7432672381401062,"56":-0.3740253746509552,"57":0.014589465223252773,"58":-0.09156548231840134,"59":0.11067340523004532,"60":-0.011146402917802334,"61":-0.06805777549743652,"62":0.08418767154216766,"63":-0.07523078471422195,"64":0.02799035795032978,"65":-0.4051176905632019,"66":-0.5955350399017334,"67":-0.04354104399681091,"68":-0.1224503442645073,"69":0.21990706026554108,"70":0.039627715945243835,"71":-0.007985002361238003,"72":0.012198642827570438,"73":-0.07601772993803024,"74":0.03447349742054939,"75":-0.060344990342855453,"76":-0.017378579825162888,"77":0.1367485374212265,"78":-0.009402765892446041,"79":0.04270327836275101,"80":-0.0024603777565062046,"81":-0.04086756333708763,"82":0.051425933837890625,"83":-0.016627095639705658,"84":0.028636811301112175,"85":-0.07046825438737869,"86":-0.05123487859964371,"87":-0.017801284790039062,"88":-0.06036492809653282,"89":0.12321875244379044,"90":-0.007455053739249706,"91":-0.03168333321809769,"92":0.08503985404968262,"93":-0.20741841197013855,"94":0.048677053302526474,"95":-0.1088673323392868,"96":-0.1317680925130844,"97":-0.0018716679187491536,"98":-0.1420702189207077,"99":0.7829988598823547}},"outputBias":{"rows":10,"columns":1,"weights":{"0":-2.5777575969696045,"1":-3.1188738346099854,"2":-2.716944932937622,"3":-2.3539977073669434,"4":-2.353283166885376,"5":-3.887941837310791,"6":-4.338228702545166,"7":-2.420140027999878,"8":-2.442126750946045,"9":-2.2503671646118164}},"cellActivationMatrix":{"rows":10,"columns":10,"weights":{"0":-0.10591211169958115,"1":0.17279568314552307,"2":-0.6885165572166443,"3":0.2169603556394577,"4":0.8461052775382996,"5":0.7263506054878235,"6":0.41273579001426697,"7":-0.33786699175834656,"8":0.8100618124008179,"9":-0.9936345219612122,"10":-1.8339732885360718,"11":1.3761790990829468,"12":0.3074345588684082,"13":-1.7112256288528442,"14":-0.3930089473724365,"15":1.739187240600586,"16":-1.8044813871383667,"17":-1.148532509803772,"18":0.5515589118003845,"19":-0.6158281564712524,"20":1.1082239151000977,"21":-0.7239122986793518,"22":1.094472050666809,"23":1.1658990383148193,"24":-0.13554202020168304,"25":-0.9313943386077881,"26":0.6279043555259705,"27":0.5563575029373169,"28":-0.7353517413139343,"29":1.0359251499176025,"30":-1.1571130752563477,"31":0.6459620594978333,"32":-1.085195779800415,"33":-1.2470452785491943,"34":0.1348642110824585,"35":1.4887930154800415,"36":-0.6498504877090454,"37":-0.9637678861618042,"38":0.7703883647918701,"39":-1.153024435043335,"40":1.1761118173599243,"41":-1.035865306854248,"42":0.9635345339775085,"43":1.2995678186416626,"44":0.30787938833236694,"45":-1.1703834533691406,"46":1.2584563493728638,"47":0.9732977151870728,"48":-0.7765040993690491,"49":0.8926252126693726,"50":-1.7874411344528198,"51":1.5249083042144775,"52":-0.7585879564285278,"53":-1.739997148513794,"54":-0.7479620575904846,"55":1.3711365461349487,"56":-1.4456192255020142,"57":-1.3180646896362305,"58":0.6883755326271057,"59":-0.8343658447265625,"60":-0.8778379559516907,"61":0.4844333827495575,"62":-1.6962323188781738,"63":-0.6745027303695679,"64":-0.031122777611017227,"65":0.9347897171974182,"66":-0.6881454586982727,"67":-0.31919753551483154,"68":1.3960214853286743,"69":-1.3409980535507202,"70":-0.16095618903636932,"71":0.22584080696105957,"72":-0.21222738921642303,"73":0.17284561693668365,"74":0.32536691427230835,"75":0.9287281036376953,"76":0.2898082137107849,"77":-0.44270142912864685,"78":1.048903465270996,"79":-1.0017259120941162,"80":-0.749588131904602,"81":0.6896900534629822,"82":-1.0202175378799438,"83":-0.6161438226699829,"84":-0.21291601657867432,"85":1.4300745725631714,"86":-0.6227758526802063,"87":-0.7096816301345825,"88":1.2864782810211182,"89":-0.6244733929634094,"90":2.0144331455230713,"91":-1.3335942029953003,"92":3.883484125137329,"93":1.9962037801742554,"94":0.27956560254096985,"95":-2.3414177894592285,"96":1.751259684562683,"97":1.2247117757797241,"98":-1.7984209060668945,"99":1.5468759536743164}},"cellActivationHidden":{"rows":10,"columns":10,"weights":{"0":-0.041089460253715515,"1":0.007695707492530346,"2":0.008178092539310455,"3":-0.006229610648006201,"4":-0.009822838939726353,"5":0.00852514524012804,"6":-0.01462076511234045,"7":-0.01233230996876955,"8":-0.0000031668259907746688,"9":0.016854677349328995,"10":0.0007993098697625101,"11":-0.15717051923274994,"12":0.00834578275680542,"13":0.0015506439376622438,"14":-0.0017740612383931875,"15":0.0105301383882761,"16":-0.011451557278633118,"17":0.002106188563629985,"18":-0.005457758437842131,"19":-0.01805848628282547,"20":0.004786956589668989,"21":-0.015957163646817207,"22":-0.024936534464359283,"23":0.0047076852060854435,"24":0.002521513495594263,"25":0.003375246888026595,"26":0.03545715659856796,"27":0.004467126913368702,"28":0.003796454519033432,"29":-0.026132509112358093,"30":0.006230582483112812,"31":0.0024476246908307076,"32":0.00417244341224432,"33":-0.21541276574134827,"34":0.007177798543125391,"35":-0.027194702997803688,"36":-0.02384604513645172,"37":0.00407350854948163,"38":-0.001660238835029304,"39":0.05965800583362579,"40":-0.014911540783941746,"41":0.005739743821322918,"42":0.0013507814146578312,"43":0.004179902840405703,"44":-0.026511941105127335,"45":0.0350160077214241,"46":0.009883185848593712,"47":-0.010991863906383514,"48":0.013365587219595909,"49":-0.0031169226858764887,"50":0.009173792786896229,"51":-0.004735189490020275,"52":0.0017160329734906554,"53":-0.007467414252460003,"54":0.014291792176663876,"55":-0.13749489188194275,"56":-0.08431244641542435,"57":0.004462636075913906,"58":-0.019785132259130478,"59":0.009995557367801666,"60":-0.0030574353877454996,"61":0.019960176199674606,"62":0.01815563254058361,"63":-0.0027487603947520256,"64":0.005454143974930048,"65":-0.07465969771146774,"66":-0.2670047879219055,"67":-0.003361873561516404,"68":-0.016098275780677795,"69":0.012754014693200588,"70":-0.01023144368082285,"71":0.002817454980686307,"72":0.006809954531490803,"73":0.0003848401247523725,"74":-0.007563235703855753,"75":0.006306413095444441,"76":-0.013884958811104298,"77":-0.02565617673099041,"78":-0.006347114685922861,"79":0.01326561439782381,"80":0.002458496717736125,"81":-0.012050025165081024,"82":0.0028744530864059925,"83":-0.0006201473879627883,"84":0.006308449897915125,"85":-0.023961665108799934,"86":-0.02566210925579071,"87":-0.003428586758673191,"88":-0.07018450647592545,"89":0.016924550756812096,"90":-0.0036866297014057636,"91":0.0010851150145754218,"92":0.0004929528804495931,"93":0.03572528809309006,"94":-0.003224893705919385,"95":0.016071751713752747,"96":0.019815215840935707,"97":-0.010289762169122696,"98":0.018891718238592148,"99":-0.0918288454413414}},"cellActivationBias":{"rows":10,"columns":1,"weights":{"0":0.05959447845816612,"1":-0.4481072425842285,"2":0.06450729817152023,"3":-0.6827161908149719,"4":0.5886881351470947,"5":-0.425462543964386,"6":-0.00465060118585825,"7":-0.07692878693342209,"8":-0.04798639938235283,"9":1.1784695386886597}}}],"outputConnector":{"rows":5,"columns":10,"weights":{"0":0.8237848281860352,"1":1.073361873626709,"2":-1.3345979452133179,"3":0.3687376379966736,"4":-0.008524617180228233,"5":1.2792789936065674,"6":1.5033109188079834,"7":0.35698750615119934,"8":0.9934749603271484,"9":-1.6771025657653809,"10":0.48442384600639343,"11":0.9525518417358398,"12":-1.2085614204406738,"13":0.43469613790512085,"14":-0.62801593542099,"15":1.3068883419036865,"16":1.6331326961517334,"17":0.40174171328544617,"18":1.1909253597259521,"19":-1.4666844606399536,"20":0.05659286677837372,"21":1.3282382488250732,"22":-1.247917890548706,"23":0.7039540410041809,"24":-1.6130568981170654,"25":1.850529670715332,"26":2.5014395713806152,"27":0.6000974774360657,"28":2.0977799892425537,"29":-1.8392119407653809,"30":0.28954312205314636,"31":1.0313633680343628,"32":-1.0673978328704834,"33":0.45993736386299133,"34":-0.8447081446647644,"35":1.3713526725769043,"36":1.7601852416992188,"37":0.3836517035961151,"38":1.3473796844482422,"39":-1.4867981672286987,"40":1.7043373584747314,"41":1.3104867935180664,"42":-2.0832316875457764,"43":0.916204571723938,"44":-0.24803990125656128,"45":1.6997809410095215,"46":1.9677952527999878,"47":0.9800887107849121,"48":1.2574150562286377,"49":-1.7281360626220703}},"output":{"rows":5,"columns":1,"weights":{"0":0.030141478404402733,"1":0.027206696569919586,"2":0.024049559608101845,"3":0.03177488222718239,"4":0.02585243061184883}}}