{"type":"LSTMTimeStep","options":{"inputSize":5,"hiddenLayers":[12,12,12],"outputSize":5,"learningRate":0.01,"decayRate":0.999,"smoothEps":1e-8,"regc":0.000001,"clipval":5},"hiddenLayers":[{"inputMatrix":{"rows":12,"columns":5,"weights":{"0":0.006828177720308304,"1":0.0069943759590387344,"2":0.0075888545252382755,"3":0.007140965200960636,"4":0.00688982056453824,"5":-0.007006344851106405,"6":0.0028813995886594057,"7":-0.008605651557445526,"8":-0.0031696951482445,"9":-0.0060078781098127365,"10":-0.0031379505526274443,"11":0.0014422215754166245,"12":-0.0028265498112887144,"13":-0.0031234838534146547,"14":-0.002976878546178341,"15":0.010929139330983162,"16":0.00875719916075468,"17":0.009138653986155987,"18":0.013127712532877922,"19":0.011952871456742287,"20":-0.0024627349339425564,"21":-0.005114554427564144,"22":-0.001255124807357788,"23":-0.003517099656164646,"24":-0.0032804084476083517,"25":-0.003160275751724839,"26":-0.0033182273618876934,"27":-0.002747970400378108,"28":-0.00291888858191669,"29":-0.0033058670815080404,"30":-0.001425860682502389,"31":0.0006643141969107091,"32":-0.001938001369126141,"33":-0.0010329113574698567,"34":-0.0012892278609797359,"35":-0.3959317207336426,"36":-0.33194926381111145,"37":-0.35568714141845703,"38":-0.38489872217178345,"39":-0.3747977912425995,"40":0.0020933113992214203,"41":0.002581516047939658,"42":0.0036507605109363794,"43":0.0021050674840807915,"44":0.0018871212378144264,"45":-0.0032631796784698963,"46":-0.002566831884905696,"47":-0.003274244023486972,"48":-0.003254287177696824,"49":-0.003578586969524622,"50":-0.0007381970644928515,"51":-0.00024268637935165316,"52":-0.0027226300444453955,"53":0.000580469670239836,"54":-0.0005616088164970279,"55":-0.0013114837929606438,"56":-0.0025715415831655264,"57":-0.002296090591698885,"58":-0.0018268858548253775,"59":-0.0017834124155342579}},"inputHidden":{"rows":12,"columns":12,"weights":{"0":7.284186363220215,"1":-0.10185457766056061,"2":-0.14698761701583862,"3":-1.3913722038269043,"4":-6.539853572845459,"5":1.5809038877487183,"6":3.9843664169311523,"7":-5.307028293609619,"8":-1.2692846059799194,"9":-0.44487717747688293,"10":-0.21058906614780426,"11":-0.39190104603767395,"12":-1.4761461019515991,"13":1.0716758966445923,"14":0.9477339386940002,"15":-2.113077163696289,"16":-0.32621797919273376,"17":-0.9284632205963135,"18":1.8127851486206055,"19":8.372733116149902,"20":0.9859930872917175,"21":1.1557235717773438,"22":-0.6464094519615173,"23":0.153258815407753,"24":-1.6149805784225464,"25":0.5297275185585022,"26":1.0797590017318726,"27":-1.6052589416503906,"28":-0.16298723220825195,"29":-0.6942888498306274,"30":1.2278105020523071,"31":0.7080612182617188,"32":0.409087598323822,"33":-0.8151923418045044,"34":0.9527795314788818,"35":-0.997578501701355,"36":-0.911174476146698,"37":-0.22393162548542023,"38":-0.16578596830368042,"39":-0.14159926772117615,"40":0.8048961758613586,"41":-0.7545984983444214,"42":-1.5869140625,"43":-7.39971923828125,"44":0.008418591693043709,"45":0.6893556714057922,"46":0.42772260308265686,"47":-0.5139572620391846,"48":5.937587261199951,"49":2.4554994106292725,"50":-2.5550341606140137,"51":-0.1586562991142273,"52":-6.848945617675781,"53":0.8335756659507751,"54":5.840783596038818,"55":-37.47654724121094,"56":0.4151897132396698,"57":-3.814767599105835,"58":2.1671063899993896,"59":-4.343853950500488,"60":-4.222716808319092,"61":0.8304117321968079,"62":2.6804821491241455,"63":-2.796754837036133,"64":3.0844593048095703,"65":-1.97794508934021,"66":-2.3180480003356934,"67":-12.463216781616211,"68":-0.07985250651836395,"69":-2.39190411567688,"70":0.7751539945602417,"71":-2.3127589225769043,"72":12.577542304992676,"73":-2.9671432971954346,"74":-6.230067729949951,"75":-0.9398464560508728,"76":-6.705002784729004,"77":-0.15577761828899384,"78":-8.077494621276855,"79":8.121210098266602,"80":0.6524332761764526,"81":1.7375402450561523,"82":-0.5449897050857544,"83":-1.1675890684127808,"84":8.268851280212402,"85":-12.371491432189941,"86":-1.4766875505447388,"87":-1.1459121704101562,"88":-8.044358253479004,"89":0.7987216711044312,"90":-14.276569366455078,"91":3.1427509784698486,"92":-26.974586486816406,"93":-8.207417488098145,"94":14.923807144165039,"95":0.10156956315040588,"96":5.462630748748779,"97":-7.45633602142334,"98":-3.244694709777832,"99":2.949300527572632,"100":-6.907992839813232,"101":1.2022130489349365,"102":-1.0911991596221924,"103":-8.645201683044434,"104":-0.9937472939491272,"105":-1.5968983173370361,"106":6.597967147827148,"107":0.5023882389068604,"108":7.5527873039245605,"109":3.8525023460388184,"110":6.410737037658691,"111":-8.469341278076172,"112":5.638789653778076,"113":-3.3592944145202637,"114":-0.4061416983604431,"115":5.584226608276367,"116":1.680154800415039,"117":-3.6428143978118896,"118":1.129909634590149,"119":-8.015881538391113,"120":-8.044682502746582,"121":-1.4096044301986694,"122":-3.3011577129364014,"123":-2.221095323562622,"124":2.5940659046173096,"125":0.5175228714942932,"126":-1.4273509979248047,"127":2.1065776348114014,"128":-0.7927491664886475,"129":0.5453196167945862,"130":0.8755662441253662,"131":1.8382548093795776,"132":-1.5283995866775513,"133":2.0925867557525635,"134":1.2239185571670532,"135":-0.8906736969947815,"136":1.1272257566452026,"137":-0.3856222629547119,"138":0.5069226026535034,"139":-7.990173816680908,"140":0.13479720056056976,"141":-0.6751450300216675,"142":0.6536515355110168,"143":-1.0156011581420898}},"inputBias":{"rows":12,"columns":1,"weights":{"0":-1.9581470489501953,"1":2.538459539413452,"2":0.7437903881072998,"3":-1.7455066442489624,"4":0.6650792956352234,"5":2.357023239135742,"6":0.28396475315093994,"7":25.79924774169922,"8":-1.8997523784637451,"9":1.6720993518829346,"10":2.512525796890259,"11":0.5831750631332397}},"forgetMatrix":{"rows":12,"columns":5,"weights":{"0":-0.00046177650801837444,"1":0.00014067879237700254,"2":-0.0007779093575663865,"3":-0.000364670529961586,"4":-0.0008750820998102427,"5":0.0061589074321091175,"6":-0.0050113387405872345,"7":-0.00836124736815691,"8":0.009791838936507702,"9":0.015710650011897087,"10":0.02056824415922165,"11":-0.01824895292520523,"12":0.017622387036681175,"13":0.006058397237211466,"14":-0.007344313431531191,"15":-0.15267744660377502,"16":-0.18998056650161743,"17":-0.13955257833003998,"18":-0.22584278881549835,"19":-0.16541548073291779,"20":0.044126130640506744,"21":-0.061984166502952576,"22":0.10514853149652481,"23":-0.13041740655899048,"24":-0.01698453724384308,"25":-0.012609449215233326,"26":0.005184233654290438,"27":-0.016210807487368584,"28":0.04959356039762497,"29":0.005439769942313433,"30":0.017202498391270638,"31":-0.0008474527858197689,"32":0.023652207106351852,"33":-0.014691665768623352,"34":-0.0007645043078809977,"35":-1.5529166460037231,"36":-1.6477930545806885,"37":-1.554075837135315,"38":-1.7134853601455688,"39":-1.6697062253952026,"40":-0.008059841580688953,"41":-0.009667645208537579,"42":-0.0038166805170476437,"43":-0.01660395972430706,"44":-0.009241491556167603,"45":0.00599190779030323,"46":0.005528714973479509,"47":0.00492839515209198,"48":0.005935283377766609,"49":0.00551865017041564,"50":-0.008802657946944237,"51":0.007181776687502861,"52":-0.0019971795845776796,"53":-0.0023820975329726934,"54":-0.001652390114031732,"55":0.0023668475914746523,"56":0.0016599326627328992,"57":0.003155490616336465,"58":0.003358270740136504,"59":0.0077773756347596645}},"forgetHidden":{"rows":12,"columns":12,"weights":{"0":11.624808311462402,"1":-2.6814401149749756,"2":-7.082117557525635,"3":24.92930030822754,"4":3.917977809906006,"5":4.674734115600586,"6":-12.818854331970215,"7":-17.453384399414062,"8":2.4975788593292236,"9":-2.2091574668884277,"10":1.5464426279067993,"11":12.21159553527832,"12":-5.207176208496094,"13":0.1405171900987625,"14":1.8275723457336426,"15":-3.0948808193206787,"16":0.2639613449573517,"17":-2.3188059329986572,"18":1.0514510869979858,"19":5.331655502319336,"20":0.6426865458488464,"21":-3.211949348449707,"22":-0.943189799785614,"23":6.3500237464904785,"24":-8.339591979980469,"25":6.16024923324585,"26":-1.4142138957977295,"27":-2.3787271976470947,"28":0.5236456990242004,"29":2.1455585956573486,"30":2.4082608222961426,"31":-11.158661842346191,"32":-0.6355825662612915,"33":-0.46762722730636597,"34":5.119375705718994,"35":3.2717385292053223,"36":-1.0912697315216064,"37":7.19474458694458,"38":2.003852605819702,"39":2.058206081390381,"40":2.8025689125061035,"41":-13.595629692077637,"42":-4.998490810394287,"43":10.838805198669434,"44":-6.61236572265625,"45":7.567684173583984,"46":0.05630773305892944,"47":1.15058434009552,"48":13.49792766571045,"49":-3.2537012100219727,"50":1.7293236255645752,"51":6.3526105880737305,"52":-1.8037647008895874,"53":0.8373717665672302,"54":-2.745826244354248,"55":0.8050222396850586,"56":-11.473373413085938,"57":-1.0986319780349731,"58":2.63853120803833,"59":-2.300647497177124,"60":-8.826547622680664,"61":1.0994443893432617,"62":0.747543454170227,"63":9.564230918884277,"64":-2.972649574279785,"65":4.722217559814453,"66":7.065344333648682,"67":-6.264955997467041,"68":-11.996445655822754,"69":4.065476417541504,"70":-4.353811264038086,"71":0.25176507234573364,"72":7.68011474609375,"73":-0.7131088972091675,"74":-0.929667055606842,"75":1.2180715799331665,"76":-2.758981943130493,"77":5.349774360656738,"78":-2.962815999984741,"79":15.599774360656738,"80":-2.2806169986724854,"81":-0.6457101106643677,"82":-1.3770591020584106,"83":1.481619954109192,"84":14.54133129119873,"85":-7.031776428222656,"86":-12.239574432373047,"87":4.421470642089844,"88":2.352036714553833,"89":5.663723468780518,"90":4.898585319519043,"91":4.184752464294434,"92":7.989689826965332,"93":10.143253326416016,"94":-6.317098140716553,"95":1.308844804763794,"96":-66.6881103515625,"97":25.03028678894043,"98":-69.38079833984375,"99":82.2182846069336,"100":29.951534271240234,"101":12.720377922058105,"102":98.47090148925781,"103":35.268943786621094,"104":-4.414296627044678,"105":19.353633880615234,"106":-69.00392150878906,"107":83.75932312011719,"108":3.429054021835327,"109":2.214143991470337,"110":2.0440547466278076,"111":-1.1990983486175537,"112":2.693385601043701,"113":0.8652434945106506,"114":3.799877405166626,"115":2.911404609680176,"116":1.510904312133789,"117":0.4303061366081238,"118":0.6360747218132019,"119":-1.2766435146331787,"120":1.6699061393737793,"121":1.6306108236312866,"122":1.191332459449768,"123":-1.4182212352752686,"124":-1.8179172277450562,"125":-1.4254767894744873,"126":2.4962100982666016,"127":2.3373327255249023,"128":1.5696572065353394,"129":-0.14982816576957703,"130":-0.4964969754219055,"131":-2.945664882659912,"132":-18.458820343017578,"133":6.036277770996094,"134":5.146246433258057,"135":3.2746474742889404,"136":2.5107669830322266,"137":-4.713569164276123,"138":8.039102554321289,"139":-7.6514201164245605,"140":-1.908192753791809,"141":-4.248122692108154,"142":-1.912351369857788,"143":-1.599039077758789}},"forgetBias":{"rows":12,"columns":1,"weights":{"0":0,"1":0,"2":0,"3":0,"4":0,"5":0,"6":0,"7":0,"8":0,"9":0,"10":0,"11":0}},"outputMatrix":{"rows":12,"columns":5,"weights":{"0":0.008394618518650532,"1":0.009716966189444065,"2":0.008437343873083591,"3":0.008103987202048302,"4":0.009016448631882668,"5":0.006181220058351755,"6":0.003102084854617715,"7":0.004700581077486277,"8":0.006522283889353275,"9":0.005357048008590937,"10":-0.0021068346686661243,"11":-0.0018232774455100298,"12":-0.0022398424334824085,"13":-0.0018900701543316245,"14":-0.0019924119114875793,"15":-0.005107467994093895,"16":-0.0018068908248096704,"17":-0.004415618255734444,"18":-0.005679856054484844,"19":-0.0029922008980065584,"20":-0.002560451626777649,"21":-0.004775164648890495,"22":-0.005811051931232214,"23":-0.0007753812824375927,"24":-0.0022926535457372665,"25":-0.004555630497634411,"26":-0.006193104665726423,"27":-0.011523236520588398,"28":0.008439973928034306,"29":-0.0032389818225055933,"30":-0.0008625445771031082,"31":-0.0006612720317207277,"32":-0.00046247264253906906,"33":-0.000721339660231024,"34":-0.00044104972039349377,"35":-0.6244291663169861,"36":-0.13082100450992584,"37":-0.4500780403614044,"38":-0.6347437500953674,"39":-0.47022154927253723,"40":0.0031439349986612797,"41":0.0016678364481776953,"42":0.0023211513180285692,"43":0.0030448250472545624,"44":0.0033027618192136288,"45":-0.004626186564564705,"46":-0.004851151257753372,"47":-0.004837551154196262,"48":-0.004238915629684925,"49":-0.00411625299602747,"50":-0.006097473669797182,"51":-0.006352026481181383,"52":-0.005906755104660988,"53":-0.0064170784316957,"54":-0.00637837266549468,"55":-0.002182912779971957,"56":-0.000819695123936981,"57":-0.0018181044142693281,"58":-0.0017358907498419285,"59":-0.002037054393440485}},"outputHidden":{"rows":12,"columns":12,"weights":{"0":6.255537033081055,"1":-7.401464939117432,"2":-1.5590890645980835,"3":3.037004232406616,"4":-7.425326824188232,"5":0.80808424949646,"6":0.5383632183074951,"7":-15.284805297851562,"8":-1.9017812013626099,"9":0.6906868815422058,"10":-0.4663532078266144,"11":-0.7396082878112793,"12":2.0078155994415283,"13":3.224375009536743,"14":2.3098652362823486,"15":0.7328639626502991,"16":8.30126667022705,"17":0.8572703003883362,"18":5.061129570007324,"19":-12.018519401550293,"20":0.2362680733203888,"21":1.2826186418533325,"22":-2.024156332015991,"23":-1.500005841255188,"24":-1.3308290243148804,"25":0.3941882848739624,"26":0.45048144459724426,"27":-0.9399541616439819,"28":-0.04434970021247864,"29":-0.454482764005661,"30":0.8336172699928284,"31":1.883202075958252,"32":0.12534411251544952,"33":-0.5876253843307495,"34":0.5251908898353577,"35":-0.6976158618927002,"36":-0.9933046102523804,"37":-0.09514399617910385,"38":0.7053239345550537,"39":-1.3351781368255615,"40":-0.23688822984695435,"41":-0.9876242876052856,"42":-0.6250724792480469,"43":-4.51375150680542,"44":0.3195980191230774,"45":-0.5907850861549377,"46":-0.013623061589896679,"47":-1.2319778203964233,"48":2.620593309402466,"49":0.3931540548801422,"50":0.031916216015815735,"51":0.15499451756477356,"52":-2.290652275085449,"53":1.1048790216445923,"54":-0.7577530145645142,"55":-20.34246063232422,"56":-0.9308164715766907,"57":-0.8322296142578125,"58":2.1868295669555664,"59":0.489856481552124,"60":-4.358604907989502,"61":0.988181471824646,"62":0.8725594282150269,"63":-1.1712039709091187,"64":-1.1131924390792847,"65":-0.9212676882743835,"66":0.6688187122344971,"67":-1.4708304405212402,"68":1.8134831190109253,"69":0.5909701585769653,"70":-0.8855578899383545,"71":-6.031851291656494,"72":-0.42012664675712585,"73":-1.3144878149032593,"74":-0.4041656255722046,"75":-0.9505346417427063,"76":-3.120628833770752,"77":-0.16845493018627167,"78":-1.3806301355361938,"79":3.2431342601776123,"80":0.2117469608783722,"81":0.27289751172065735,"82":-0.5266950130462646,"83":-0.7076402306556702,"84":12.721007347106934,"85":1.1514852046966553,"86":0.15492089092731476,"87":-8.040608406066895,"88":-5.975244998931885,"89":5.381965637207031,"90":-2.4249870777130127,"91":1.0051779747009277,"92":12.381120681762695,"93":0.6755456328392029,"94":-2.729562520980835,"95":-4.381573677062988,"96":1.755333423614502,"97":-1.5021493434906006,"98":-0.15267601609230042,"99":-0.09994347393512726,"100":-0.7270984053611755,"101":0.3656989336013794,"102":2.3347346782684326,"103":-4.650106430053711,"104":0.20060619711875916,"105":0.8182686567306519,"106":0.04301321879029274,"107":0.5971935391426086,"108":3.3527615070343018,"109":2.6481809616088867,"110":1.459755539894104,"111":-2.804960250854492,"112":3.934565544128418,"113":-0.13917221128940582,"114":2.8160109519958496,"115":-2.9078547954559326,"116":1.2882163524627686,"117":0.016309013590216637,"118":0.3652504086494446,"119":-0.7593401074409485,"120":-1.530137300491333,"121":0.08035877346992493,"122":-0.9404762983322144,"123":-0.6678631901741028,"124":-0.8787494897842407,"125":0.527527391910553,"126":1.0518444776535034,"127":15.201534271240234,"128":1.2483973503112793,"129":1.6722733974456787,"130":-0.7909621596336365,"131":-1.8120291233062744,"132":-1.7087687253952026,"133":1.2623510360717773,"134":0.8036698698997498,"135":-1.0025714635849,"136":1.5325486660003662,"137":-0.21501566469669342,"138":0.6014440655708313,"139":-3.5736300945281982,"140":0.10775112360715866,"141":-0.5523352026939392,"142":-0.37185078859329224,"143":-0.6103010177612305}},"outputBias":{"rows":12,"columns":1,"weights":{"0":-2.0744752883911133,"1":2.140465021133423,"2":0.7287566065788269,"3":0.5115189552307129,"4":1.269626259803772,"5":1.5452284812927246,"6":0.35609912872314453,"7":9.6509428024292,"8":-1.6025476455688477,"9":4.121952533721924,"10":3.7271134853363037,"11":0.6426923871040344}},"cellActivationMatrix":{"rows":12,"columns":5,"weights":{"0":-0.0004208084719721228,"1":0.0018393739592283964,"2":0.000009999841495300643,"3":-0.0007770594675093889,"4":-0.0015756565844640136,"5":-0.00015041277220007032,"6":0.0009260227670893073,"7":0.00004943221574649215,"8":-0.0007372551481239498,"9":-0.00011263736814726144,"10":-0.013087129220366478,"11":0.03109661117196083,"12":-0.016806166619062424,"13":0.016833290457725525,"14":-0.001960322493687272,"15":-0.0025615582708269358,"16":-0.00032618429395370185,"17":-0.0005876576760783792,"18":-0.0034723402932286263,"19":-0.00021457193361129612,"20":-0.00014369878044817597,"21":0.0008293093997053802,"22":0.00001600084033270832,"23":-0.0006476024864241481,"24":-0.0004734609101433307,"25":-0.00003562341589713469,"26":-0.00008262113988166675,"27":-0.00047254961100406945,"28":-0.0008278275490738451,"29":-0.0005852000322192907,"30":-0.000267608993453905,"31":-0.0001301829470321536,"32":0.0006221625953912735,"33":0.00033786907442845404,"34":-0.00003687774369609542,"35":-0.006143080070614815,"36":-0.006658319383859634,"37":-0.0066344598308205605,"38":-0.006616306956857443,"39":-0.006437143310904503,"40":0.0028162605594843626,"41":0.002501365263015032,"42":0.0024994295090436935,"43":0.001951387501321733,"44":0.002295664045959711,"45":0.00036340454244054854,"46":0.0002788434794638306,"47":0.000002845270046236692,"48":-0.00019997118215542287,"49":-0.0003167313407175243,"50":0.0007085534161888063,"51":0.001083866460248828,"52":0.0011791074648499489,"53":0.000647116859909147,"54":0.0013948965352028608,"55":-0.002920279512181878,"56":-0.0016360146692022681,"57":-0.003436395898461342,"58":-0.0027145380154252052,"59":-0.0020597069524228573}},"cellActivationHidden":{"rows":12,"columns":12,"weights":{"0":-0.029607458040118217,"1":0.24438339471817017,"2":0.3120627701282501,"3":-0.223290354013443,"4":0.14946503937244415,"5":-0.023003555834293365,"6":0.11656907945871353,"7":4.610178470611572,"8":0.05181422829627991,"9":0.06224658712744713,"10":-0.1793314665555954,"11":-0.10189329087734222,"12":-0.2840327024459839,"13":-0.013403062708675861,"14":-0.08555950224399567,"15":0.1283745914697647,"16":0.14383752644062042,"17":-0.08080873638391495,"18":0.14443600177764893,"19":1.238148808479309,"20":0.2484617680311203,"21":-0.03582863509654999,"22":-0.17887693643569946,"23":-0.18651685118675232,"24":-7.443861961364746,"25":1.8310929536819458,"26":1.044532060623169,"27":0.4893701672554016,"28":2.318690538406372,"29":1.1131840944290161,"30":1.647050380706787,"31":-3.9285049438476562,"32":-1.0883640050888062,"33":2.8297364711761475,"34":-0.5140823721885681,"35":2.465060234069824,"36":0.8570737838745117,"37":-0.4673869013786316,"38":0.05849602073431015,"39":-0.005902692675590515,"40":-1.7472317218780518,"41":-1.357352375984192,"42":0.09221453964710236,"43":-10.29352855682373,"44":0.19308578968048096,"45":-0.966992974281311,"46":2.392841100692749,"47":0.8116465210914612,"48":0.12648659944534302,"49":-0.14815685153007507,"50":0.004877910017967224,"51":-0.12761691212654114,"52":-0.3328424096107483,"53":-0.21090590953826904,"54":0.24132978916168213,"55":0.08317211270332336,"56":-0.15447066724300385,"57":0.06571868062019348,"58":0.4515269994735718,"59":-0.07819098234176636,"60":2.4825899600982666,"61":-1.1799081563949585,"62":-0.5106827020645142,"63":-0.919238269329071,"64":-1.1710915565490723,"65":-0.044722359627485275,"66":0.5681595802307129,"67":1.6924813985824585,"68":-0.5434079170227051,"69":-0.18747809529304504,"70":0.3348499536514282,"71":-0.3323882222175598,"72":0.12570106983184814,"73":0.18140806257724762,"74":-0.05774948000907898,"75":-0.3448711633682251,"76":0.5876109600067139,"77":-0.021439092233777046,"78":0.04435976594686508,"79":0.9218483567237854,"80":0.021722916513681412,"81":-0.03838324174284935,"82":-0.06012343987822533,"83":0.00658876309171319,"84":-0.20915085077285767,"85":0.1471196860074997,"86":0.06420490890741348,"87":0.09579624235630035,"88":0.506380021572113,"89":0.022861246019601822,"90":0.365751177072525,"91":-0.13738636672496796,"92":-0.10354696959257126,"93":-0.1854579895734787,"94":-0.15467311441898346,"95":0.03264646604657173,"96":-2.73870849609375,"97":2.6364219188690186,"98":0.034139301627874374,"99":0.5146883130073547,"100":1.0853394269943237,"101":0.7424905896186829,"102":1.634314775466919,"103":5.230672359466553,"104":-0.7305334210395813,"105":0.5362443327903748,"106":-2.6353073120117188,"107":1.1840697526931763,"108":-0.2019837498664856,"109":-0.2534783184528351,"110":-0.18960288166999817,"111":0.23985439538955688,"112":0.00506241712719202,"113":0.1330651044845581,"114":-0.21168284118175507,"115":2.9848921298980713,"116":-0.13721206784248352,"117":-0.021622275933623314,"118":-0.4205192029476166,"119":0.1831376552581787,"120":0.2565546929836273,"121":-0.012838538736104965,"122":-0.08051645755767822,"123":0.13874295353889465,"124":-0.014264284633100033,"125":-0.1176929622888565,"126":0.08002597838640213,"127":1.9264898300170898,"128":0.18175892531871796,"129":-0.07365771383047104,"130":0.12251865118741989,"131":-0.16225776076316833,"132":1.1842633485794067,"133":-0.8521848320960999,"134":-0.15505096316337585,"135":0.05805588513612747,"136":-0.7667869329452515,"137":-0.6258441209793091,"138":-0.7731633186340332,"139":-1.3176504373550415,"140":-0.22583726048469543,"141":-0.37566235661506653,"142":0.23584386706352234,"143":-1.009578824043274}},"cellActivationBias":{"rows":12,"columns":1,"weights":{"0":0.07143387943506241,"1":-0.09758938103914261,"2":-0.9930092096328735,"3":-0.1255897879600525,"4":-0.2617203891277313,"5":-0.9282642006874084,"6":-0.07462957501411438,"7":-0.10685450583696365,"8":-0.5199614763259888,"9":-0.09152429550886154,"10":0.11087804287672043,"11":-0.9297752976417542}}},{"inputMatrix":{"rows":12,"columns":12,"weights":{"0":-1.253731369972229,"1":-7.8047099113464355,"2":-1.4809521436691284,"3":9.151057243347168,"4":-5.354799270629883,"5":-0.04163382202386856,"6":-5.132661819458008,"7":6.00093936920166,"8":3.1447088718414307,"9":12.730997085571289,"10":-4.029047966003418,"11":-2.1330366134643555,"12":1.156989574432373,"13":-3.7765212059020996,"14":-14.323537826538086,"15":14.883703231811523,"16":-2.142611026763916,"17":6.127665042877197,"18":1.940964937210083,"19":-15.794742584228516,"20":1.3425456285476685,"21":3.471482992172241,"22":0.8088216781616211,"23":11.256422996520996,"24":-2.6174206733703613,"25":-1.7615368366241455,"26":-2.7018887996673584,"27":0.2050592601299286,"28":0.02976989932358265,"29":-0.6045002341270447,"30":-3.5947306156158447,"31":14.858935356140137,"32":1.1136839389801025,"33":0.9371909499168396,"34":-1.4275872707366943,"35":-0.49424245953559875,"36":-17.208759307861328,"37":-6.199326992034912,"38":-4.340298652648926,"39":3.523752212524414,"40":-10.59029483795166,"41":3.545037269592285,"42":14.424047470092773,"43":11.754273414611816,"44":3.5304417610168457,"45":5.2250075340271,"46":9.012779235839844,"47":-0.4380306005477905,"48":5.353654861450195,"49":-4.327193260192871,"50":-4.591353893280029,"51":1.9404288530349731,"52":-3.470416784286499,"53":1.0957262516021729,"54":-3.4980733394622803,"55":14.421302795410156,"56":2.630640983581543,"57":3.3728818893432617,"58":0.1693258136510849,"59":3.5469300746917725,"60":-3.488328695297241,"61":8.820335388183594,"62":5.169455528259277,"63":-1.879018783569336,"64":2.6755197048187256,"65":-3.2374696731567383,"66":4.946634769439697,"67":-19.30794906616211,"68":6.319558620452881,"69":2.2679591178894043,"70":1.046056866645813,"71":-4.371819019317627,"72":18.381372451782227,"73":-2.100985050201416,"74":-28.800277709960938,"75":22.06719207763672,"76":93.38549041748047,"77":12.002403259277344,"78":-44.64320755004883,"79":4.625288009643555,"80":-6.591919898986816,"81":12.509485244750977,"82":19.55872917175293,"83":5.426346302032471,"84":0.6761904358863831,"85":-5.1663384437561035,"86":-2.453092336654663,"87":0.19975969195365906,"88":-4.757534980773926,"89":4.575099468231201,"90":-8.840874671936035,"91":-12.617941856384277,"92":2.2006170749664307,"93":5.332993507385254,"94":5.243441104888916,"95":1.5852587223052979,"96":-0.5545461177825928,"97":-5.9709625244140625,"98":-8.177410125732422,"99":19.493358612060547,"100":-1.1703126430511475,"101":7.319754600524902,"102":-6.879919528961182,"103":-6.485484600067139,"104":4.347164154052734,"105":9.600818634033203,"106":-0.9444730281829834,"107":0.42807242274284363,"108":3.85941219329834,"109":-1.382501482963562,"110":-2.967724084854126,"111":1.4618037939071655,"112":0.10826843231916428,"113":0.9723185300827026,"114":10.126290321350098,"115":3.944459915161133,"116":1.10696542263031,"117":-8.454963684082031,"118":-6.751583099365234,"119":-4.18723201751709,"120":-2.2144031524658203,"121":-1.4617743492126465,"122":1.0369490385055542,"123":-12.64568042755127,"124":1.881127953529358,"125":-1.2459757328033447,"126":9.056541442871094,"127":-17.408767700195312,"128":0.331236332654953,"129":-0.7203578352928162,"130":5.185038089752197,"131":-7.892277240753174,"132":4.298954963684082,"133":-0.595306396484375,"134":-4.6488494873046875,"135":12.820290565490723,"136":8.310853958129883,"137":0.6683968305587769,"138":9.02921199798584,"139":-26.82354164123535,"140":-0.43708550930023193,"141":0.05418100953102112,"142":7.70928955078125,"143":8.468337059020996}},"inputHidden":{"rows":12,"columns":12,"weights":{"0":0.9701927304267883,"1":-2.496436834335327,"2":-0.6773059368133545,"3":-0.9091233015060425,"4":3.0989744663238525,"5":-1.0111663341522217,"6":1.7226932048797607,"7":-0.6579247117042542,"8":0.9877865314483643,"9":-3.9100027084350586,"10":1.1973559856414795,"11":0.6986982822418213,"12":0.9003557562828064,"13":0.11122545599937439,"14":-0.009797717444598675,"15":-1.0704401731491089,"16":-0.9215962886810303,"17":-2.7340075969696045,"18":0.0874699056148529,"19":-0.23047161102294922,"20":-0.010935486294329166,"21":-2.437962293624878,"22":1.237040638923645,"23":-1.0408766269683838,"24":0.3400445282459259,"25":1.1977441310882568,"26":0.057538505643606186,"27":-0.049831490963697433,"28":1.312334656715393,"29":-0.6324828863143921,"30":0.004529154393821955,"31":0.4925573766231537,"32":0.46969154477119446,"33":2.865813970565796,"34":-0.06974495947360992,"35":1.0773954391479492,"36":-1.7319002151489258,"37":39.05404281616211,"38":-1.7753956317901611,"39":0.3768857419490814,"40":2.594558000564575,"41":1.291429042816162,"42":-1.8121238946914673,"43":-1.7774344682693481,"44":-0.7100067734718323,"45":-2.2523674964904785,"46":0.3540675640106201,"47":-0.9225597381591797,"48":-0.20975397527217865,"49":-0.0017080041579902172,"50":0.24731755256652832,"51":-0.4837435185909271,"52":-0.579893946647644,"53":-0.13314327597618103,"54":-0.7326404452323914,"55":-0.8700937032699585,"56":0.4477016031742096,"57":2.0519726276397705,"58":0.05660628154873848,"59":-0.16064198315143585,"60":-1.5934245586395264,"61":-4.0143561363220215,"62":-2.4992809295654297,"63":-0.8169292211532593,"64":-8.764629364013672,"65":1.0290940999984741,"66":-0.9285557270050049,"67":-5.931725025177002,"68":-0.706008791923523,"69":-9.909466743469238,"70":1.69547700881958,"71":-2.34023380279541,"72":-5.2658185958862305,"73":-4.806963920593262,"74":-7.4609174728393555,"75":5.339866638183594,"76":4.252340793609619,"77":-9.385461807250977,"78":-4.785851001739502,"79":-1.7074881792068481,"80":0.023107385262846947,"81":7.136157512664795,"82":4.943137168884277,"83":2.148118495941162,"84":-3.258314847946167,"85":1.025242805480957,"86":0.24940042197704315,"87":0.9448959231376648,"88":-0.1789713054895401,"89":-3.662412166595459,"90":1.3085510730743408,"91":-1.076304316520691,"92":-2.8791685104370117,"93":-3.045926809310913,"94":-0.4305761158466339,"95":1.1911786794662476,"96":-1.4582993984222412,"97":-0.49099108576774597,"98":0.011182714253664017,"99":0.46745702624320984,"100":-1.2284425497055054,"101":1.5161033868789673,"102":-0.9394065737724304,"103":-5.534347057342529,"104":-2.41705322265625,"105":2.0791401863098145,"106":4.3626298904418945,"107":3.281343460083008,"108":-2.1187872886657715,"109":-3.4551565647125244,"110":-2.678314685821533,"111":0.9801298379898071,"112":-1.97117018699646,"113":-0.7560276985168457,"114":-1.0267492532730103,"115":1.4232865571975708,"116":0.3834497630596161,"117":0.591732919216156,"118":0.7723270058631897,"119":0.032895687967538834,"120":-4.366568088531494,"121":2.1438188552856445,"122":4.579777717590332,"123":2.825421094894409,"124":2.1275527477264404,"125":0.42102953791618347,"126":-0.7324042320251465,"127":0.5849869251251221,"128":-1.410597801208496,"129":-2.3621938228607178,"130":1.1599388122558594,"131":1.8078233003616333,"132":2.659465789794922,"133":-3.083378791809082,"134":-0.4748665988445282,"135":0.4471267759799957,"136":-3.2174971103668213,"137":-0.5864650011062622,"138":0.1669950932264328,"139":2.9109647274017334,"140":1.9447674751281738,"141":-1.5574846267700195,"142":-0.43250977993011475,"143":-3.304779291152954}},"inputBias":{"rows":12,"columns":1,"weights":{"0":2.765122890472412,"1":1.1604915857315063,"2":0.6792318224906921,"3":-0.522702693939209,"4":0.8985500931739807,"5":17.228485107421875,"6":25.883697509765625,"7":-0.2458336055278778,"8":4.7865519523620605,"9":0.9931479096412659,"10":0.5796263217926025,"11":3.1199615001678467}},"forgetMatrix":{"rows":12,"columns":12,"weights":{"0":7.4546217918396,"1":-6.092756271362305,"2":-4.217869758605957,"3":4.046278476715088,"4":-3.0763349533081055,"5":-1.2258011102676392,"6":0.3864014148712158,"7":-1.27591872215271,"8":-0.23500820994377136,"9":1.4062750339508057,"10":-2.1662635803222656,"11":5.887197971343994,"12":-13.789688110351562,"13":-13.94221305847168,"14":-22.01712417602539,"15":10.43732738494873,"16":11.682880401611328,"17":34.01789855957031,"18":3.731411933898926,"19":-39.064571380615234,"20":2.3323075771331787,"21":17.629215240478516,"22":-4.826695919036865,"23":48.37732696533203,"24":-2.5044476985931396,"25":-42.628395080566406,"26":-13.112821578979492,"27":16.86807632446289,"28":2.503122091293335,"29":21.76335906982422,"30":-15.097566604614258,"31":40.87519454956055,"32":3.6660778522491455,"33":33.603546142578125,"34":25.113487243652344,"35":28.278526306152344,"36":7.159755706787109,"37":-3.5572590827941895,"38":-11.988554954528809,"39":-11.940549850463867,"40":9.814459800720215,"41":0.8456869721412659,"42":-12.904409408569336,"43":28.374387741088867,"44":1.6265994310379028,"45":0.9925083518028259,"46":2.6139817237854004,"47":6.700051784515381,"48":-15.286927223205566,"49":-37.562904357910156,"50":17.250703811645508,"51":6.578171730041504,"52":-24.83207130432129,"53":-9.173431396484375,"54":0.29004228115081787,"55":51.59601974487305,"56":9.957083702087402,"57":19.902565002441406,"58":1.377840518951416,"59":31.289608001708984,"60":2.4200332164764404,"61":-33.83763885498047,"62":0.39153844118118286,"63":9.67131519317627,"64":-8.536898612976074,"65":-2.960794687271118,"66":-15.64745044708252,"67":-8.624761581420898,"68":-0.7349393367767334,"69":14.638763427734375,"70":6.119955539703369,"71":17.13863182067871,"72":11.166487693786621,"73":-0.029571108520030975,"74":-0.8191033005714417,"75":4.048028945922852,"76":-6.103385925292969,"77":2.637526512145996,"78":-11.379911422729492,"79":-3.783207893371582,"80":1.2671014070510864,"81":0.6342393755912781,"82":-1.7018028497695923,"83":-0.382643461227417,"84":6.199175834655762,"85":7.8310747146606445,"86":3.1571037769317627,"87":-3.778324604034424,"88":9.240706443786621,"89":-2.74723219871521,"90":16.57075309753418,"91":29.7027587890625,"92":-0.996832013130188,"93":-1.2804850339889526,"94":11.242545127868652,"95":-1.9852591753005981,"96":-3.1646127700805664,"97":-19.371044158935547,"98":-15.522035598754883,"99":20.041959762573242,"100":34.51295471191406,"101":2.645362138748169,"102":-45.18776321411133,"103":31.339984893798828,"104":-0.3639541566371918,"105":27.00895881652832,"106":-6.364744186401367,"107":3.8101565837860107,"108":0.0902693048119545,"109":-6.66525936126709,"110":0.21968011558055878,"111":-6.242844104766846,"112":2.144883155822754,"113":-1.5772066116333008,"114":-2.630208969116211,"115":20.851409912109375,"116":2.611118793487549,"117":2.052001714706421,"118":1.6293830871582031,"119":-0.7512815594673157,"120":-1.663637399673462,"121":-7.760880947113037,"122":-0.15279994904994965,"123":-4.275257587432861,"124":1.6388969421386719,"125":0.5804833173751831,"126":5.924140930175781,"127":-20.751157760620117,"128":-1.0182933807373047,"129":-3.0302605628967285,"130":-2.121858835220337,"131":-7.056369781494141,"132":-23.747535705566406,"133":-51.89790725708008,"134":-4.832724571228027,"135":0.6192271709442139,"136":4.168986797332764,"137":16.072669982910156,"138":-11.588746070861816,"139":-3.3257896900177,"140":0.12306401133537292,"141":-3.368180513381958,"142":-6.380227565765381,"143":12.14871883392334}},"forgetHidden":{"rows":12,"columns":12,"weights":{"0":1.010602355003357,"1":1.599069595336914,"2":-0.8166938424110413,"3":-0.1849624216556549,"4":-1.1290792226791382,"5":0.34701475501060486,"6":-0.36668816208839417,"7":2.217881679534912,"8":2.548171043395996,"9":-2.8387210369110107,"10":-1.477574110031128,"11":-1.068273901939392,"12":-0.8678156137466431,"13":-0.3147595524787903,"14":1.8998682498931885,"15":-1.9047760963439941,"16":-1.6767640113830566,"17":-4.050673484802246,"18":-5.308260440826416,"19":0.43714526295661926,"20":1.5856118202209473,"21":3.2221198081970215,"22":14.413211822509766,"23":-0.043973151594400406,"24":-0.03565691038966179,"25":-4.139670372009277,"26":5.789209842681885,"27":5.482735633850098,"28":8.888813018798828,"29":-6.1392822265625,"30":-6.177708148956299,"31":-12.607914924621582,"32":4.303055763244629,"33":14.782058715820312,"34":2.4919984340667725,"35":4.076815605163574,"36":-3.190589666366577,"37":-1.6531927585601807,"38":-1.7524306774139404,"39":2.090885877609253,"40":2.3912665843963623,"41":1.3961644172668457,"42":1.0859938859939575,"43":-2.4144954681396484,"44":0.4579756259918213,"45":7.067650318145752,"46":4.887964725494385,"47":1.6245551109313965,"48":3.9912803173065186,"49":5.334118366241455,"50":1.073650598526001,"51":1.9230914115905762,"52":-1.6483995914459229,"53":-1.1973434686660767,"54":1.7659858465194702,"55":3.436955213546753,"56":4.209381580352783,"57":4.317086219787598,"58":8.551628112792969,"59":-1.2014201879501343,"60":0.4183633029460907,"61":30.55634117126465,"62":3.2529773712158203,"63":-0.705112874507904,"64":7.480926990509033,"65":4.503906726837158,"66":-1.4001108407974243,"67":5.6112165451049805,"68":0.09401796013116837,"69":-5.479513168334961,"70":4.950735092163086,"71":0.8851334452629089,"72":0.8172292709350586,"73":0.3435518741607666,"74":-1.1811048984527588,"75":-0.5967497229576111,"76":-4.194065570831299,"77":-0.33435189723968506,"78":-0.13297061622142792,"79":2.2602322101593018,"80":-0.23989123106002808,"81":1.147081732749939,"82":0.37455981969833374,"83":-0.2249157875776291,"84":-1.3872976303100586,"85":-5.97956657409668,"86":-2.948883533477783,"87":-2.060450792312622,"88":6.9885454177856445,"89":-0.26246002316474915,"90":0.939769446849823,"91":-2.8491709232330322,"92":0.4587339758872986,"93":-3.8539302349090576,"94":-2.5837855339050293,"95":-0.06845609843730927,"96":1.2320141792297363,"97":2.8055648803710938,"98":3.4050209522247314,"99":1.4817287921905518,"100":-3.4008255004882812,"101":-2.8264002799987793,"102":-4.5326337814331055,"103":4.118873119354248,"104":5.4832444190979,"105":5.0382914543151855,"106":2.774106025695801,"107":2.6386935710906982,"108":-1.203727126121521,"109":5.160698413848877,"110":-0.7325778007507324,"111":2.2738449573516846,"112":6.860873699188232,"113":1.5635749101638794,"114":1.290931224822998,"115":2.522289514541626,"116":-0.8882762789726257,"117":-5.01230001449585,"118":0.11692918092012405,"119":0.9020251631736755,"120":3.063368558883667,"121":3.665449619293213,"122":-0.10900759696960449,"123":0.7240867614746094,"124":-5.415832996368408,"125":-0.5610994100570679,"126":-0.6099014282226562,"127":1.07449471950531,"128":-1.5998812913894653,"129":2.0096185207366943,"130":0.16312944889068604,"131":0.12477228045463562,"132":-1.097423791885376,"133":-0.5921525359153748,"134":0.8304736018180847,"135":1.7563085556030273,"136":0.5596362948417664,"137":7.0498552322387695,"138":-2.130195140838623,"139":2.8486948013305664,"140":-3.1825711727142334,"141":-9.079508781433105,"142":6.376256942749023,"143":-0.7081029415130615}},"forgetBias":{"rows":12,"columns":1,"weights":{"0":0,"1":0,"2":0,"3":0,"4":0,"5":0,"6":0,"7":0,"8":0,"9":0,"10":0,"11":0}},"outputMatrix":{"rows":12,"columns":12,"weights":{"0":-1.8728349208831787,"1":-20.214841842651367,"2":-6.09557580947876,"3":5.327841281890869,"4":0.5701267719268799,"5":1.96065354347229,"6":-6.660401821136475,"7":4.594573974609375,"8":-1.412030816078186,"9":1.2678375244140625,"10":-9.163800239562988,"11":5.894595623016357,"12":3.21199631690979,"13":-11.193634033203125,"14":-34.40753173828125,"15":27.05681800842285,"16":-23.934829711914062,"17":5.661851406097412,"18":-15.552990913391113,"19":-35.61758041381836,"20":1.9046351909637451,"21":-8.409148216247559,"22":-2.6459553241729736,"23":12.576398849487305,"24":5.995091438293457,"25":1.989502191543579,"26":-6.093531608581543,"27":3.345319986343384,"28":-1.7027982473373413,"29":-2.682680606842041,"30":3.9078009128570557,"31":13.041356086730957,"32":1.3137401342391968,"33":0.6600169539451599,"34":1.909201741218567,"35":-4.439730167388916,"36":17.245271682739258,"37":-55.55180358886719,"38":-26.942577362060547,"39":25.08441925048828,"40":-3.9862868785858154,"41":15.771204948425293,"42":-31.973581314086914,"43":35.21279525756836,"44":-4.615135669708252,"45":8.32734203338623,"46":-10.612215042114258,"47":18.67877769470215,"48":-0.0601961649954319,"49":-0.4433562457561493,"50":-1.0283788442611694,"51":4.207019805908203,"52":5.9037065505981445,"53":-0.2306104600429535,"54":-0.5912668108940125,"55":0.2291599065065384,"56":1.5303117036819458,"57":0.5201127529144287,"58":-1.1192878484725952,"59":3.1053988933563232,"60":2.754412889480591,"61":1.955405354499817,"62":-0.4365660548210144,"63":4.983592987060547,"64":-19.145109176635742,"65":-2.2553467750549316,"66":-2.0448966026306152,"67":-88.90480041503906,"68":1.8411768674850464,"69":-0.9214510917663574,"70":0.08537822961807251,"71":-2.014248847961426,"72":46.98989486694336,"73":-5.011419773101807,"74":40.90266418457031,"75":-81.73477935791016,"76":-2.530026912689209,"77":-30.883358001708984,"78":5.310549736022949,"79":-6.96830415725708,"80":-2.1424825191497803,"81":-45.5191650390625,"82":16.474952697753906,"83":-76.45133972167969,"84":0.732306957244873,"85":0.5866970419883728,"86":3.2814738750457764,"87":-0.28182992339134216,"88":2.29990291595459,"89":-0.24723508954048157,"90":-1.3356268405914307,"91":2.2652971744537354,"92":1.370387077331543,"93":0.8274229168891907,"94":-0.18308967351913452,"95":0.26662638783454895,"96":-5.406430721282959,"97":-3.9299089908599854,"98":-1.328560709953308,"99":-2.6244866847991943,"100":10.533853530883789,"101":-10.92136287689209,"102":1.3706647157669067,"103":3.392197847366333,"104":7.901805877685547,"105":3.905928611755371,"106":-3.1743557453155518,"107":-2.498971700668335,"108":-0.4468223750591278,"109":-1.804265022277832,"110":2.8480868339538574,"111":1.5207035541534424,"112":1.177156686782837,"113":-0.5837193727493286,"114":1.983088493347168,"115":-2.275604248046875,"116":-0.42561158537864685,"117":-0.6136123538017273,"118":1.1711968183517456,"119":0.07395880669355392,"120":11.976920127868652,"121":-26.702604293823242,"122":41.46062469482422,"123":-37.30259323120117,"124":-25.638086318969727,"125":-25.894195556640625,"126":-25.817012786865234,"127":13.050641059875488,"128":-1.1309659481048584,"129":-19.964073181152344,"130":11.190336227416992,"131":-46.89528274536133,"132":0.5538874268531799,"133":-2.803682327270508,"134":-4.221739768981934,"135":1.6494852304458618,"136":5.6417341232299805,"137":-1.5655425786972046,"138":3.472001075744629,"139":-8.861811637878418,"140":1.110019326210022,"141":-1.399190902709961,"142":0.024492911994457245,"143":0.9312235713005066}},"outputHidden":{"rows":12,"columns":12,"weights":{"0":0.26402318477630615,"1":-1.9860209226608276,"2":-0.2022554874420166,"3":1.805511236190796,"4":-0.672063946723938,"5":0.8044405579566956,"6":-1.462322473526001,"7":-0.0761755034327507,"8":-2.122802257537842,"9":3.9031667709350586,"10":1.6633843183517456,"11":0.6862367987632751,"12":-0.9099399447441101,"13":1.560960292816162,"14":-0.2370540052652359,"15":-0.177560493350029,"16":-2.2006781101226807,"17":-1.6814016103744507,"18":-0.9165693521499634,"19":3.3562753200531006,"20":0.39892545342445374,"21":0.7850286960601807,"22":2.769829511642456,"23":-1.3523056507110596,"24":5.900062084197998,"25":1.4035357236862183,"26":2.306065320968628,"27":-0.2970407009124756,"28":-1.8417389392852783,"29":-3.171212673187256,"30":-0.5836325883865356,"31":-0.8795062899589539,"32":1.486068606376648,"33":1.148524284362793,"34":2.6931164264678955,"35":1.3876702785491943,"36":-2.8575403690338135,"37":-3.8344123363494873,"38":-1.2286244630813599,"39":-0.27889713644981384,"40":4.615466594696045,"41":-6.2430033683776855,"42":-5.276135444641113,"43":13.415778160095215,"44":-3.6607232093811035,"45":1.8640599250793457,"46":5.5884552001953125,"47":0.4836379885673523,"48":-0.11131598800420761,"49":0.9346960783004761,"50":0.17516562342643738,"51":0.2076607495546341,"52":-0.11960503458976746,"53":0.23426128923892975,"54":-0.2850373685359955,"55":0.6848225593566895,"56":0.41856545209884644,"57":1.7510974407196045,"58":0.35680586099624634,"59":0.34939542412757874,"60":-2.3076744079589844,"61":-1.8678596019744873,"62":0.23039303719997406,"63":-0.8961151838302612,"64":-0.835600733757019,"65":-3.2170140743255615,"66":-0.9098285436630249,"67":0.46604427695274353,"68":-1.396134376525879,"69":-0.2989842891693115,"70":-0.24067170917987823,"71":0.17330367863178253,"72":0.5061020851135254,"73":-1.1915677785873413,"74":-0.7446722388267517,"75":0.9211162328720093,"76":0.7388348579406738,"77":-0.08203216642141342,"78":0.6036440134048462,"79":-3.634908437728882,"80":0.11495576798915863,"81":-6.193073272705078,"82":-11.48085880279541,"83":-0.16332972049713135,"84":-0.9356708526611328,"85":5.5978474617004395,"86":-2.301081657409668,"87":-0.09501971304416656,"88":0.6173163056373596,"89":2.064448833465576,"90":1.899324655532837,"91":2.0592455863952637,"92":6.093234539031982,"93":3.4726531505584717,"94":-0.8484540581703186,"95":-2.1512460708618164,"96":-2.280236005783081,"97":0.4203792214393616,"98":-1.5363696813583374,"99":-0.33940941095352173,"100":-7.877186298370361,"101":1.0869463682174683,"102":-2.449486255645752,"103":-2.1593427658081055,"104":0.2790394723415375,"105":-12.766891479492188,"106":3.0365371704101562,"107":-4.950552940368652,"108":-0.10740034282207489,"109":-0.7050990462303162,"110":-0.1851593255996704,"111":-0.000039258728065760806,"112":-0.25975480675697327,"113":-0.39715343713760376,"114":0.46021783351898193,"115":-1.8168251514434814,"116":-0.6697803139686584,"117":0.06930103152990341,"118":-3.3300509452819824,"119":1.9978197813034058,"120":0.7684578895568848,"121":-1.776840090751648,"122":-2.1353001594543457,"123":0.5752422213554382,"124":-1.0612810850143433,"125":0.6039577722549438,"126":0.5880356431007385,"127":-2.036775827407837,"128":-1.1545946598052979,"129":-0.7911618947982788,"130":-3.9370946884155273,"131":-1.7277134656906128,"132":0.1318240910768509,"133":-0.32484105229377747,"134":0.6615440249443054,"135":-0.06734783947467804,"136":-2.172684907913208,"137":-0.9830803871154785,"138":-0.15437829494476318,"139":0.3740914463996887,"140":-0.5864847302436829,"141":0.6416422724723816,"142":-1.15983247756958,"143":0.42841988801956177}},"outputBias":{"rows":12,"columns":1,"weights":{"0":4.71522331237793,"1":4.026185035705566,"2":0.692841649055481,"3":32.318687438964844,"4":0.6498404741287231,"5":2.6260619163513184,"6":9.657465934753418,"7":1.4555062055587769,"8":-0.7606480717658997,"9":1.9847261905670166,"10":0.16580739617347717,"11":1.4242669343948364}},"cellActivationMatrix":{"rows":12,"columns":12,"weights":{"0":-0.4151531457901001,"1":-2.8564889430999756,"2":0.7877906560897827,"3":-0.5765173435211182,"4":3.1436707973480225,"5":-0.7877712249755859,"6":-1.646921157836914,"7":-11.593792915344238,"8":-0.28938543796539307,"9":-0.6253199577331543,"10":1.4856845140457153,"11":-0.44636261463165283,"12":7.273017883300781,"13":-1.1201505661010742,"14":-3.0577175617218018,"15":2.8200292587280273,"16":-0.23530186712741852,"17":2.0105056762695312,"18":0.29159271717071533,"19":-30.12409210205078,"20":1.416197657585144,"21":1.3729928731918335,"22":-0.6006148457527161,"23":4.443845272064209,"24":0.6052571535110474,"25":-4.62577486038208,"26":11.956095695495605,"27":-18.1713924407959,"28":-4.880037307739258,"29":-4.089715480804443,"30":-9.496859550476074,"31":13.393678665161133,"32":-1.2914884090423584,"33":-6.920504093170166,"34":17.564695358276367,"35":-11.555100440979004,"36":0.0368339978158474,"37":-8.887857437133789,"38":0.13188312947750092,"39":0.2071075737476349,"40":-0.23869042098522186,"41":4.339476108551025,"42":-2.1148674488067627,"43":7.02710485458374,"44":-0.37521785497665405,"45":-0.30600300431251526,"46":4.404911994934082,"47":-0.21161521971225739,"48":3.3406944274902344,"49":-1.97626531124115,"50":-3.027287721633911,"51":1.406283974647522,"52":-19.176753997802734,"53":-0.46226978302001953,"54":6.743562698364258,"55":1.967271089553833,"56":-1.2437472343444824,"57":-0.0043213083408772945,"58":-3.757328987121582,"59":-3.4932825565338135,"60":-0.9911192655563354,"61":0.13027189671993256,"62":0.04614263400435448,"63":0.033890463411808014,"64":0.5941714644432068,"65":0.22987031936645508,"66":-0.2080627828836441,"67":57.97682571411133,"68":0.7839891314506531,"69":0.2698792815208435,"70":-0.1666116565465927,"71":0.87205570936203,"72":-0.7868651747703552,"73":1.0499451160430908,"74":0.3150695860385895,"75":-0.9864754676818848,"76":-0.7397404909133911,"77":0.15827398002147675,"78":-0.049045629799366,"79":3.8504486083984375,"80":2.5006659030914307,"81":0.6503506302833557,"82":-1.8065367937088013,"83":0.3715555965900421,"84":-1.5055553913116455,"85":0.08035144209861755,"86":-2.1615653038024902,"87":1.1054177284240723,"88":-2.8282933235168457,"89":-0.4487251043319702,"90":-0.20186953246593475,"91":4.751236915588379,"92":0.9444438219070435,"93":0.5409651398658752,"94":0.2721964120864868,"95":0.10894951969385147,"96":-0.3399659991264343,"97":-0.09892349690198898,"98":-7.32950496673584,"99":6.190494060516357,"100":-1.3962910175323486,"101":0.9563834071159363,"102":5.643548965454102,"103":-6.344931602478027,"104":0.7645326852798462,"105":1.956533432006836,"106":4.1252336502075195,"107":-0.11868713051080704,"108":0.7007477283477783,"109":-0.5129609704017639,"110":-0.9190356135368347,"111":-0.12015476822853088,"112":1.290126919746399,"113":-0.7705582976341248,"114":-1.3884507417678833,"115":2.3896355628967285,"116":-0.2423693984746933,"117":0.5355210900306702,"118":1.976265549659729,"119":-0.1209639459848404,"120":4.816997528076172,"121":-1.491047739982605,"122":-1.0534615516662598,"123":1.5684870481491089,"124":1.2661176919937134,"125":-0.8366928696632385,"126":1.2129828929901123,"127":-3.5772864818573,"128":-1.8220936059951782,"129":-1.6356152296066284,"130":2.62566876411438,"131":-0.35687389969825745,"132":1.3278497457504272,"133":-1.2514644861221313,"134":-0.057154662907123566,"135":-0.5075969696044922,"136":-1.6165987253189087,"137":-0.03322100639343262,"138":-3.15085506439209,"139":-4.00618314743042,"140":-0.46714073419570923,"141":-0.17583274841308594,"142":-0.3393785059452057,"143":-0.7666906118392944}},"cellActivationHidden":{"rows":12,"columns":12,"weights":{"0":-0.599526584148407,"1":0.6771591305732727,"2":-0.3334081172943115,"3":0.019580913707613945,"4":-1.4373925924301147,"5":0.4533829092979431,"6":0.40056225657463074,"7":-0.1921534538269043,"8":0.07595343887805939,"9":0.7222613096237183,"10":-0.4107799232006073,"11":-0.4531153440475464,"12":0.029332181438803673,"13":-0.538316547870636,"14":0.03253031522035599,"15":0.023506568744778633,"16":-0.6869084239006042,"17":-0.5482112765312195,"18":-0.279041588306427,"19":-0.4417993426322937,"20":0.3263742923736572,"21":-1.0076812505722046,"22":0.41832783818244934,"23":-0.37928545475006104,"24":-0.4596112072467804,"25":-0.8748347759246826,"26":-2.8628058433532715,"27":0.46665871143341064,"28":1.3427996635437012,"29":-0.7281360626220703,"30":-0.16015145182609558,"31":-1.2306301593780518,"32":0.4745338261127472,"33":-1.47957444190979,"34":-0.31881070137023926,"35":1.4335767030715942,"36":-0.2525654137134552,"37":1.6819016933441162,"38":-1.1636359691619873,"39":0.816452145576477,"40":0.3558107018470764,"41":0.3310551345348358,"42":-0.19547560811042786,"43":0.8571440577507019,"44":1.0321823358535767,"45":-0.09889484941959381,"46":1.4774620532989502,"47":0.058820851147174835,"48":-0.8570265769958496,"49":1.183853268623352,"50":-1.4434541463851929,"51":0.14934377372264862,"52":1.1150927543640137,"53":0.011200633831322193,"54":0.7606951594352722,"55":-0.0781799852848053,"56":1.177087426185608,"57":-0.2649146616458893,"58":-1.3541218042373657,"59":0.7321009635925293,"60":0.013529336079955101,"61":0.21826055645942688,"62":0.2380344569683075,"63":0.3514431118965149,"64":0.16236889362335205,"65":-0.18577954173088074,"66":0.22168950736522675,"67":-0.2602989673614502,"68":0.23879161477088928,"69":-0.20059308409690857,"70":-0.12167201936244965,"71":0.4898758828639984,"72":-0.43402597308158875,"73":0.24964800477027893,"74":-0.3212977349758148,"75":-0.17707908153533936,"76":-1.8334639072418213,"77":-0.04753800854086876,"78":-0.31674882769584656,"79":0.1895032525062561,"80":-0.5202822089195251,"81":0.1950557380914688,"82":0.06471669673919678,"83":-0.4173402786254883,"84":-0.07003465294837952,"85":-0.03137274086475372,"86":0.8973827958106995,"87":-0.9375381469726562,"88":0.15961125493049622,"89":-0.4173053205013275,"90":-0.5108901858329773,"91":-1.295318841934204,"92":-1.0691016912460327,"93":0.852712094783783,"94":0.8531407117843628,"95":-0.4049088954925537,"96":0.3366737365722656,"97":1.7131768465042114,"98":0.2013249695301056,"99":-0.23862534761428833,"100":-0.37317538261413574,"101":-0.036553189158439636,"102":-0.15748094022274017,"103":1.019629955291748,"104":-0.34192925691604614,"105":-0.014606453478336334,"106":0.8370341658592224,"107":-0.4095066487789154,"108":0.2046300172805786,"109":0.38242918252944946,"110":0.05383780971169472,"111":0.21620187163352966,"112":0.12134956568479538,"113":-0.46977487206459045,"114":0.24225367605686188,"115":0.6841660141944885,"116":0.41638416051864624,"117":0.37391379475593567,"118":-0.12165464460849762,"119":0.28593844175338745,"120":0.6859806180000305,"121":1.565998911857605,"122":-0.1630469113588333,"123":0.07805231213569641,"124":0.669444739818573,"125":-0.26323968172073364,"126":-0.48289427161216736,"127":0.443002849817276,"128":0.3807118833065033,"129":-0.9679136872291565,"130":-0.5484424829483032,"131":0.7695147395133972,"132":0.27371126413345337,"133":1.1207174062728882,"134":0.4552992582321167,"135":0.2714427709579468,"136":0.11501649767160416,"137":0.06625066697597504,"138":0.5004518032073975,"139":-0.02920994721353054,"140":0.5698004364967346,"141":0.7988771796226501,"142":-0.15536442399024963,"143":0.7874184250831604}},"cellActivationBias":{"rows":12,"columns":1,"weights":{"0":0.1581631898880005,"1":2.988596200942993,"2":-0.4428812861442566,"3":0.2100825160741806,"4":-0.20526190102100372,"5":0.08282749354839325,"6":1.6802036762237549,"7":0.4837513267993927,"8":0.07649306207895279,"9":-0.31224116683006287,"10":-2.5466208457946777,"11":-0.17381508648395538}}},{"inputMatrix":{"rows":12,"columns":12,"weights":{"0":-2.348351001739502,"1":-0.5846324563026428,"2":-1.0595256090164185,"3":-5.173891067504883,"4":-7.330311298370361,"5":0.268392950296402,"6":1.6089130640029907,"7":1.9922995567321777,"8":1.2219024896621704,"9":8.98832893371582,"10":-7.209778785705566,"11":-0.8362361192703247,"12":-4.301758289337158,"13":0.6306121945381165,"14":-6.369134426116943,"15":-3.5833334922790527,"16":-3.4072763919830322,"17":-10.331605911254883,"18":-0.00016456320008728653,"19":-2.8028252124786377,"20":-3.6504156589508057,"21":-0.8527186512947083,"22":-1.456305742263794,"23":-3.396592378616333,"24":1.7441723346710205,"25":10.025272369384766,"26":3.252223014831543,"27":3.445023775100708,"28":-5.147400379180908,"29":-0.633517861366272,"30":-7.338521957397461,"31":-1.3209363222122192,"32":2.023453712463379,"33":1.24064040184021,"34":7.235247611999512,"35":-0.05263042449951172,"36":-2.569068193435669,"37":3.7548253536224365,"38":-0.3849201500415802,"39":-0.5949844717979431,"40":-3.1399574279785156,"41":-7.030024528503418,"42":0.5950230956077576,"43":2.3496060371398926,"44":-2.653201103210449,"45":-4.513359546661377,"46":3.0714375972747803,"47":-4.023962020874023,"48":-3.627509593963623,"49":-0.41794073581695557,"50":-2.811105966567993,"51":-0.5324987769126892,"52":-7.525541305541992,"53":-5.452487468719482,"54":-1.1718599796295166,"55":10.90173625946045,"56":-2.5050485134124756,"57":-2.9771320819854736,"58":-4.879152774810791,"59":-2.298635482788086,"60":-1.6322110891342163,"61":6.695195198059082,"62":-1.769388198852539,"63":-1.7310597896575928,"64":-4.001357078552246,"65":-0.9880736470222473,"66":-0.6840212345123291,"67":2.930051326751709,"68":0.43330758810043335,"69":-0.7475242018699646,"70":-0.3486926257610321,"71":-1.5517038106918335,"72":-2.608447313308716,"73":7.467123031616211,"74":2.859964370727539,"75":-0.410896360874176,"76":-1.8014402389526367,"77":-4.6053924560546875,"78":-4.7766547203063965,"79":-0.07024051994085312,"80":3.473741054534912,"81":1.6449002027511597,"82":7.665342330932617,"83":-6.553931713104248,"84":5.060220718383789,"85":7.402177810668945,"86":2.4774961471557617,"87":-3.079136371612549,"88":-6.767306804656982,"89":2.637974739074707,"90":-2.2789714336395264,"91":-4.264228820800781,"92":-1.0760204792022705,"93":-3.519426107406616,"94":-0.06115582585334778,"95":2.2350027561187744,"96":1.2803658246994019,"97":6.850810527801514,"98":-0.7873374819755554,"99":-0.35990485548973083,"100":-8.087146759033203,"101":-2.590632915496826,"102":-0.4097185432910919,"103":6.840720176696777,"104":-2.514789342880249,"105":-7.6649298667907715,"106":-1.73038649559021,"107":-6.791411399841309,"108":-3.418779134750366,"109":0.7695189714431763,"110":-2.534698486328125,"111":0.5184570550918579,"112":-2.715635299682617,"113":-6.172784805297852,"114":1.3863860368728638,"115":8.74345588684082,"116":-3.1543807983398438,"117":-6.034984588623047,"118":-2.548290491104126,"119":-1.6029367446899414,"120":-5.073990821838379,"121":-2.1911160945892334,"122":-5.910425186157227,"123":-5.533426284790039,"124":1.0322579145431519,"125":-2.9483847618103027,"126":8.295144081115723,"127":-0.4544321596622467,"128":6.460562705993652,"129":6.49582052230835,"130":-3.5137927532196045,"131":-1.2140830755233765,"132":8.648970603942871,"133":8.278595924377441,"134":2.7778525352478027,"135":1.1826764345169067,"136":-4.699639797210693,"137":0.1541949212551117,"138":-1.4349017143249512,"139":7.5997138023376465,"140":7.241074562072754,"141":6.8252034187316895,"142":4.646280288696289,"143":-1.4364086389541626}},"inputHidden":{"rows":12,"columns":12,"weights":{"0":-3.1888632774353027,"1":2.9802606105804443,"2":-2.379415512084961,"3":0.19330082833766937,"4":0.31301453709602356,"5":-4.078489780426025,"6":-0.5138714909553528,"7":7.489953517913818,"8":-0.7665939927101135,"9":-5.217453479766846,"10":2.7685062885284424,"11":2.138385057449341,"12":-1.887866497039795,"13":3.233668804168701,"14":7.145287990570068,"15":-1.5121456384658813,"16":6.746896266937256,"17":2.713667154312134,"18":2.0364394187927246,"19":-0.7952625155448914,"20":-0.884958028793335,"21":5.168508529663086,"22":-1.5905598402023315,"23":5.6966552734375,"24":0.9193058609962463,"25":-0.26775214076042175,"26":-0.46969425678253174,"27":-0.38854557275772095,"28":0.330430269241333,"29":1.2961509227752686,"30":0.7356076836585999,"31":-0.19098162651062012,"32":-0.20032040774822235,"33":-0.4735628366470337,"34":0.6850545406341553,"35":-1.3703029155731201,"36":2.9143686294555664,"37":0.14910006523132324,"38":-5.206225872039795,"39":-2.2488315105438232,"40":-0.5320743918418884,"41":3.4198267459869385,"42":1.5924263000488281,"43":-6.61826229095459,"44":-2.5559847354888916,"45":-9.480276107788086,"46":0.35207048058509827,"47":1.197721004486084,"48":1.2548860311508179,"49":1.2210702896118164,"50":-0.1620660126209259,"51":2.1523728370666504,"52":1.9663976430892944,"53":-6.360904216766357,"54":-0.6041286587715149,"55":5.518861770629883,"56":0.24435077607631683,"57":-1.2978477478027344,"58":1.4814120531082153,"59":0.680688738822937,"60":-1.4000874757766724,"61":0.2671678066253662,"62":0.5151197910308838,"63":-1.1947888135910034,"64":0.47913673520088196,"65":-1.042207956314087,"66":0.2304142266511917,"67":1.438926100730896,"68":0.6591450572013855,"69":1.1239274740219116,"70":-0.8680275082588196,"71":2.6548562049865723,"72":2.6035075187683105,"73":-1.3763535022735596,"74":-2.0810482501983643,"75":1.2157396078109741,"76":0.11365681886672974,"77":-0.004555833991616964,"78":0.7722626328468323,"79":1.743566870689392,"80":1.2872521877288818,"81":0.15034472942352295,"82":-0.5881643295288086,"83":2.4597277641296387,"84":2.2575950622558594,"85":3.5831618309020996,"86":0.9013586044311523,"87":-1.3699724674224854,"88":-1.555802345275879,"89":0.11852871626615524,"90":11.522418022155762,"91":0.4868185520172119,"92":-3.041024684906006,"93":1.4015638828277588,"94":2.9770727157592773,"95":3.4648971557617188,"96":1.8763842582702637,"97":1.425557017326355,"98":-3.5412023067474365,"99":1.4615522623062134,"100":-3.685842275619507,"101":4.704024791717529,"102":7.429720878601074,"103":2.491907835006714,"104":3.4326069355010986,"105":4.5651164054870605,"106":1.8844407796859741,"107":2.107764482498169,"108":-2.424004554748535,"109":-0.0015756649663671851,"110":-2.1633598804473877,"111":-0.7977185249328613,"112":2.4857966899871826,"113":0.8268038034439087,"114":1.0037651062011719,"115":6.051136493682861,"116":-0.2428031861782074,"117":2.847486734390259,"118":0.9885182976722717,"119":1.8328087329864502,"120":-4.847444534301758,"121":0.5666698217391968,"122":-5.281730651855469,"123":-1.8609967231750488,"124":-2.863318920135498,"125":4.66420316696167,"126":-0.40158870816230774,"127":0.4407939910888672,"128":-4.065218925476074,"129":2.0702035427093506,"130":1.114751935005188,"131":4.157354354858398,"132":0.4174874424934387,"133":-2.248202323913574,"134":-0.38822707533836365,"135":2.7124485969543457,"136":1.4549064636230469,"137":0.9670342206954956,"138":1.7815111875534058,"139":-0.46292591094970703,"140":0.16191701591014862,"141":-2.3179519176483154,"142":-1.0001790523529053,"143":-0.18433989584445953}},"inputBias":{"rows":12,"columns":1,"weights":{"0":17.840045928955078,"1":26.088430404663086,"2":4.343459129333496,"3":22.412275314331055,"4":16.046783447265625,"5":3.03752064704895,"6":4.02541971206665,"7":1.1421515941619873,"8":21.970457077026367,"9":17.97690200805664,"10":23.326004028320312,"11":-2.614238739013672}},"forgetMatrix":{"rows":12,"columns":12,"weights":{"0":4.449633598327637,"1":10.37255573272705,"2":5.622621536254883,"3":-5.303899765014648,"4":-8.572311401367188,"5":4.326059818267822,"6":-6.462266445159912,"7":19.638015747070312,"8":4.692012786865234,"9":0.9036837220191956,"10":18.423749923706055,"11":-2.8298144340515137,"12":3.690310478210449,"13":12.47287368774414,"14":4.194647789001465,"15":6.327347755432129,"16":-3.8923637866973877,"17":-11.188708305358887,"18":-67.94256591796875,"19":8.515242576599121,"20":2.6968576908111572,"21":5.1973347663879395,"22":66.57815551757812,"23":-3.6872148513793945,"24":6.642860412597656,"25":26.950786590576172,"26":6.67343807220459,"27":14.784680366516113,"28":-2.097668170928955,"29":-2.2416529655456543,"30":-100.48318481445312,"31":13.724234580993652,"32":6.879210472106934,"33":14.778038024902344,"34":52.827266693115234,"35":0.9161568880081177,"36":0.5430927276611328,"37":3.819078207015991,"38":9.133490562438965,"39":1.4511021375656128,"40":-9.258646965026855,"41":-3.126801013946533,"42":-27.425350189208984,"43":3.6524641513824463,"44":4.19143009185791,"45":-7.844669342041016,"46":19.87047576904297,"47":1.7965877056121826,"48":4.728601455688477,"49":8.687853813171387,"50":1.5832152366638184,"51":6.296908855438232,"52":-5.48914098739624,"53":-1.375113606452942,"54":-16.95332908630371,"55":18.399446487426758,"56":-1.8550004959106445,"57":9.952444076538086,"58":-2.363926649093628,"59":-0.03390366584062576,"60":7.009984970092773,"61":12.984417915344238,"62":0.8733422756195068,"63":2.64719295501709,"64":1.4978916645050049,"65":5.820437431335449,"66":-8.660151481628418,"67":10.08188247680664,"68":2.1079142093658447,"69":-3.2747561931610107,"70":4.91963005065918,"71":3.559969902038574,"72":7.770144462585449,"73":12.019403457641602,"74":4.335205078125,"75":15.646169662475586,"76":-6.5493669509887695,"77":-8.44762134552002,"78":-124.46855926513672,"79":12.236557006835938,"80":10.13928508758545,"81":0.6868959069252014,"82":57.83192825317383,"83":-9.619260787963867,"84":-11.152315139770508,"85":12.80755615234375,"86":-3.003711462020874,"87":-6.8159661293029785,"88":3.3549106121063232,"89":4.2452802658081055,"90":-5.135193824768066,"91":4.086050510406494,"92":4.52798318862915,"93":-0.9400583505630493,"94":3.4382123947143555,"95":5.4118876457214355,"96":9.123917579650879,"97":4.012890338897705,"98":1.102169394493103,"99":-1.5573976039886475,"100":2.379023790359497,"101":2.709594249725342,"102":3.7764081954956055,"103":6.200048923492432,"104":-3.580371141433716,"105":2.005154848098755,"106":8.213976860046387,"107":-2.4011216163635254,"108":-4.495664119720459,"109":7.755068778991699,"110":3.9363067150115967,"111":-3.1581640243530273,"112":-6.899829387664795,"113":-7.890232563018799,"114":-22.645967483520508,"115":20.67869758605957,"116":5.243151664733887,"117":8.182062149047852,"118":61.03293991088867,"119":-4.555261611938477,"120":-4.27484130859375,"121":3.0645089149475098,"122":3.2899580001831055,"123":-3.898556709289551,"124":-4.944171905517578,"125":-0.7673520445823669,"126":-11.40891170501709,"127":7.64093542098999,"128":2.933673858642578,"129":24.47146987915039,"130":28.61677360534668,"131":-8.18040943145752,"132":-3.877042293548584,"133":9.964983940124512,"134":6.307820796966553,"135":4.551633834838867,"136":-1.4308176040649414,"137":-3.361255168914795,"138":-55.039878845214844,"139":3.2988758087158203,"140":1.177079200744629,"141":-2.817173480987549,"142":62.01641845703125,"143":-4.486050605773926}},"forgetHidden":{"rows":12,"columns":12,"weights":{"0":-1.5491582155227661,"1":0.20192407071590424,"2":4.878089904785156,"3":0.9603091478347778,"4":-0.5538129806518555,"5":0.9169613122940063,"6":6.548863410949707,"7":-1.8588961362838745,"8":-2.010045289993286,"9":3.5705347061157227,"10":-0.3000873923301697,"11":-8.011991500854492,"12":0.8069274425506592,"13":-0.5603160858154297,"14":1.0057179927825928,"15":3.3031070232391357,"16":0.5433182716369629,"17":2.3612515926361084,"18":3.0120174884796143,"19":-4.837464332580566,"20":-4.2810797691345215,"21":-1.205313801765442,"22":0.7051467299461365,"23":1.3043036460876465,"24":3.8755578994750977,"25":-4.461667537689209,"26":3.8501830101013184,"27":2.838754177093506,"28":2.8141849040985107,"29":2.420785665512085,"30":3.9826488494873047,"31":0.8958396911621094,"32":1.5852307081222534,"33":-3.256312131881714,"34":-0.7649925351142883,"35":-2.150059700012207,"36":-0.2690137028694153,"37":-2.8638391494750977,"38":-7.5936598777771,"39":-0.34140142798423767,"40":0.27894479036331177,"41":0.41116026043891907,"42":-3.2327284812927246,"43":0.31691277027130127,"44":-1.6906821727752686,"45":-3.169558525085449,"46":-0.11733055859804153,"47":-9.116143226623535,"48":-2.0607824325561523,"49":2.4485137462615967,"50":-0.8439278602600098,"51":-0.2584438920021057,"52":4.030147552490234,"53":-0.6833640933036804,"54":0.9050655364990234,"55":4.169901371002197,"56":2.1864664554595947,"57":-1.8228082656860352,"58":-0.48657655715942383,"59":0.46504834294319153,"60":1.160388469696045,"61":-2.2031874656677246,"62":-1.0561578273773193,"63":0.5426785349845886,"64":0.18091322481632233,"65":-0.8336858749389648,"66":-4.756150722503662,"67":1.5223946571350098,"68":0.45725440979003906,"69":-3.3082847595214844,"70":-2.7147412300109863,"71":-3.5218935012817383,"72":4.639407634735107,"73":-3.36539888381958,"74":2.6886789798736572,"75":4.340110778808594,"76":2.4190425872802734,"77":5.334101676940918,"78":5.844735145568848,"79":-0.43724068999290466,"80":0.8651908040046692,"81":-2.3400967121124268,"82":-2.3822615146636963,"83":-0.3003690838813782,"84":-0.8542554378509521,"85":0.15724042057991028,"86":-7.810277462005615,"87":-1.7287977933883667,"88":-0.05113629996776581,"89":0.9501338005065918,"90":4.882575988769531,"91":-0.023731568828225136,"92":-0.3647932708263397,"93":5.325222969055176,"94":2.1134636402130127,"95":1.6576037406921387,"96":-2.8245158195495605,"97":-1.6440062522888184,"98":1.5094444751739502,"99":-0.5058344006538391,"100":-1.2510749101638794,"101":-6.025502681732178,"102":3.029566526412964,"103":-0.3389206528663635,"104":-3.894160747528076,"105":3.4964308738708496,"106":4.053457260131836,"107":-2.287923574447632,"108":1.5270482301712036,"109":-0.18582679331302643,"110":5.255809783935547,"111":-0.23230619728565216,"112":1.6442196369171143,"113":-0.07241839170455933,"114":-0.8195502161979675,"115":-5.969904899597168,"116":1.121720790863037,"117":-0.38900941610336304,"118":1.70829439163208,"119":2.0916173458099365,"120":-0.6947834491729736,"121":2.4819908142089844,"122":2.649785280227661,"123":0.6590214967727661,"124":0.2798946797847748,"125":-0.18489792943000793,"126":0.23725467920303345,"127":-3.545778274536133,"128":-1.2157256603240967,"129":3.40899658203125,"130":0.15919485688209534,"131":1.7552717924118042,"132":0.23267987370491028,"133":2.538796901702881,"134":1.2396318912506104,"135":3.293527126312256,"136":2.752385377883911,"137":1.2209510803222656,"138":-0.14059828221797943,"139":-1.0547022819519043,"140":-1.1941365003585815,"141":-0.23406478762626648,"142":2.554595947265625,"143":-1.7821646928787231}},"forgetBias":{"rows":12,"columns":1,"weights":{"0":0,"1":0,"2":0,"3":0,"4":0,"5":0,"6":0,"7":0,"8":0,"9":0,"10":0,"11":0}},"outputMatrix":{"rows":12,"columns":12,"weights":{"0":-0.2570462226867676,"1":24.142436981201172,"2":-1.1445906162261963,"3":0.7847961187362671,"4":-2.5123050212860107,"5":1.8112759590148926,"6":0.5134654641151428,"7":3.8426969051361084,"8":1.4393165111541748,"9":-1.8534516096115112,"10":0.6703607439994812,"11":-0.37903985381126404,"12":-3.732325553894043,"13":9.235516548156738,"14":-4.458530426025391,"15":3.6033010482788086,"16":-8.016231536865234,"17":6.419344902038574,"18":-0.001336252549663186,"19":2.3063080310821533,"20":1.3148000240325928,"21":12.698127746582031,"22":2.0818989276885986,"23":-0.7217549681663513,"24":-0.4350217282772064,"25":3.0278477668762207,"26":-0.8868483901023865,"27":-0.04268720746040344,"28":-12.558948516845703,"29":1.3152176141738892,"30":2.16623592376709,"31":7.9971513748168945,"32":1.5079065561294556,"33":-0.8968556523323059,"34":-0.8286296129226685,"35":-2.7353901863098145,"36":1.5471075773239136,"37":15.960440635681152,"38":0.3224836587905884,"39":0.436240017414093,"40":3.752171754837036,"41":1.6800731420516968,"42":-0.15266020596027374,"43":0.7379724383354187,"44":0.47335782647132874,"45":-3.9056098461151123,"46":0.48127952218055725,"47":0.9027661681175232,"48":1.8413259983062744,"49":26.436010360717773,"50":-5.57976770401001,"51":-0.8323752284049988,"52":-10.47365951538086,"53":-0.42228519916534424,"54":-4.130552768707275,"55":-6.1930742263793945,"56":2.9026761054992676,"57":-1.7702462673187256,"58":5.0695672035217285,"59":-1.1234652996063232,"60":0.8296129703521729,"61":1.3488227128982544,"62":1.4301289319992065,"63":5.736379146575928,"64":1.637062430381775,"65":1.5034006834030151,"66":-6.928471565246582,"67":13.96828556060791,"68":-4.306761264801025,"69":-27.671037673950195,"70":0.9974082112312317,"71":-0.5183135867118835,"72":-2.8536767959594727,"73":-1.328357219696045,"74":-0.11537860333919525,"75":-1.3011693954467773,"76":-11.061651229858398,"77":-6.0189104080200195,"78":-3.9911139011383057,"79":-0.7687061429023743,"80":-1.8252928256988525,"81":6.678575038909912,"82":9.748079299926758,"83":-2.9884274005889893,"84":-0.8007373213768005,"85":4.777167797088623,"86":0.2062731832265854,"87":0.7113034725189209,"88":-2.6511263847351074,"89":2.8912715911865234,"90":-2.6540212631225586,"91":5.2336883544921875,"92":0.5155720710754395,"93":5.9616899490356445,"94":0.3085078299045563,"95":-0.7716820240020752,"96":-1.4307383298873901,"97":0.16497230529785156,"98":-0.30175551772117615,"99":0.3860777020454407,"100":-2.0312983989715576,"101":3.8767123222351074,"102":-1.917023777961731,"103":-0.5545834898948669,"104":-5.803987503051758,"105":-1.4609240293502808,"106":-5.174134254455566,"107":2.3678951263427734,"108":0.845321774482727,"109":11.671499252319336,"110":-2.8591506481170654,"111":-0.10385897755622864,"112":-3.175845146179199,"113":-0.653363049030304,"114":-1.16165030002594,"115":1.2763274908065796,"116":-0.6373733878135681,"117":-2.9568593502044678,"118":1.3879625797271729,"119":-0.8389095067977905,"120":2.3598151206970215,"121":2.392629623413086,"122":-1.1308919191360474,"123":-0.9455849528312683,"124":-7.713728904724121,"125":-3.1220574378967285,"126":1.0139343738555908,"127":-0.959295928478241,"128":-3.618561267852783,"129":-1.474452018737793,"130":-2.130556344985962,"131":-2.828705072402954,"132":-0.6416563987731934,"133":4.770347595214844,"134":-1.1910537481307983,"135":-0.8253114819526672,"136":-3.3744444847106934,"137":-2.3420655727386475,"138":-2.2261462211608887,"139":6.331819534301758,"140":2.6332924365997314,"141":-2.076814651489258,"142":2.058476686477661,"143":-1.623180627822876}},"outputHidden":{"rows":12,"columns":12,"weights":{"0":1.1092557907104492,"1":0.9784173369407654,"2":3.855093002319336,"3":0.4871924817562103,"4":0.8299676179885864,"5":1.7147653102874756,"6":4.012408256530762,"7":-2.2706096172332764,"8":-0.9414286017417908,"9":0.7903237342834473,"10":0.29877689480781555,"11":1.5128097534179688,"12":3.9284400939941406,"13":0.5371124744415283,"14":-6.885262489318848,"15":2.0394937992095947,"16":-0.9820812940597534,"17":3.2716903686523438,"18":-2.0945310592651367,"19":-0.16068202257156372,"20":0.7406072616577148,"21":-2.910020589828491,"22":-1.533268928527832,"23":5.032562255859375,"24":-1.4870223999023438,"25":-0.5166407823562622,"26":-0.4909098744392395,"27":-1.0309274196624756,"28":-1.4376575946807861,"29":-2.004838705062866,"30":-0.7198935151100159,"31":0.7069000601768494,"32":0.5094283223152161,"33":-3.0916504859924316,"34":-0.434349000453949,"35":-1.4131375551223755,"36":-1.1111667156219482,"37":-1.4702177047729492,"38":-3.8866539001464844,"39":0.22370591759681702,"40":1.4937330484390259,"41":0.3713604211807251,"42":-0.4368610382080078,"43":-0.5926428437232971,"44":-0.42688310146331787,"45":-0.08931855112314224,"46":0.5418484807014465,"47":1.0464563369750977,"48":0.9978336095809937,"49":-2.4192538261413574,"50":13.49494743347168,"51":0.6147243976593018,"52":2.170238494873047,"53":-5.544129371643066,"54":14.035648345947266,"55":2.4474520683288574,"56":1.56328547000885,"57":-0.27900585532188416,"58":0.7660741806030273,"59":-5.004607677459717,"60":-0.4472094178199768,"61":0.5744291543960571,"62":-0.6343729496002197,"63":0.9365447163581848,"64":-2.761624336242676,"65":5.0343804359436035,"66":0.6170363426208496,"67":6.11004638671875,"68":3.8690550327301025,"69":0.08180233091115952,"70":-2.3452277183532715,"71":2.123884677886963,"72":0.600090742111206,"73":-2.1455271244049072,"74":-2.2792627811431885,"75":1.510001301765442,"76":0.7781340479850769,"77":-1.3355894088745117,"78":6.049832820892334,"79":-6.433791637420654,"80":-1.6894224882125854,"81":1.4490915536880493,"82":-2.4068984985351562,"83":0.7628724575042725,"84":0.48439306020736694,"85":-1.6722817420959473,"86":-2.9170875549316406,"87":-0.5111053586006165,"88":-0.12761330604553223,"89":-1.6633380651474,"90":-2.7732064723968506,"91":0.7264944314956665,"92":2.093245506286621,"93":0.4127561151981354,"94":1.2224996089935303,"95":2.386946439743042,"96":-1.1524568796157837,"97":0.769217848777771,"98":-1.7341835498809814,"99":-1.461627721786499,"100":1.9289945363998413,"101":1.690816044807434,"102":0.0869380459189415,"103":-3.493807315826416,"104":-1.066387414932251,"105":4.473636150360107,"106":1.8506968021392822,"107":-1.6653261184692383,"108":0.5217403769493103,"109":3.3375818729400635,"110":-0.14801032841205597,"111":-0.5422372817993164,"112":1.2720149755477905,"113":3.6545569896698,"114":4.60508394241333,"115":-1.2546812295913696,"116":0.3957814574241638,"117":0.0469699464738369,"118":1.0887830257415771,"119":-0.8308132290840149,"120":-0.7459990978240967,"121":2.60129714012146,"122":-0.4057760238647461,"123":-0.7048506140708923,"124":-0.08964630961418152,"125":1.370093822479248,"126":0.904609203338623,"127":-3.7435245513916016,"128":-0.879085898399353,"129":1.355587363243103,"130":1.5218040943145752,"131":0.4523480236530304,"132":-1.2330220937728882,"133":1.7907190322875977,"134":-1.9940617084503174,"135":1.5141754150390625,"136":3.5179765224456787,"137":2.099656820297241,"138":-2.381232976913452,"139":-3.2755043506622314,"140":-1.703764796257019,"141":1.8879458904266357,"142":2.4324681758880615,"143":1.308595895767212}},"outputBias":{"rows":12,"columns":1,"weights":{"0":2.4327893257141113,"1":13.651090621948242,"2":1.3405424356460571,"3":5.217955112457275,"4":11.438162803649902,"5":21.699684143066406,"6":10.941691398620605,"7":3.3037660121917725,"8":17.181108474731445,"9":3.9548768997192383,"10":4.85258150100708,"11":6.481570720672607}},"cellActivationMatrix":{"rows":12,"columns":12,"weights":{"0":0.34705835580825806,"1":-1.0044790506362915,"2":1.4258252382278442,"3":1.182492733001709,"4":-1.507200837135315,"5":-3.2180233001708984,"6":0.7271047234535217,"7":-0.14699938893318176,"8":1.7257673740386963,"9":5.079819679260254,"10":0.2009529322385788,"11":2.4025468826293945,"12":-0.6749674677848816,"13":0.6570872664451599,"14":-0.5754363536834717,"15":-1.6952173709869385,"16":-2.091658353805542,"17":1.2032710313796997,"18":-2.077690362930298,"19":2.3168230056762695,"20":0.423104465007782,"21":-0.7050057053565979,"22":2.3472721576690674,"23":-1.4217431545257568,"24":1.531286597251892,"25":-4.04709005355835,"26":2.235541582107544,"27":1.7406458854675293,"28":6.919012069702148,"29":-1.8327759504318237,"30":-1.1212570667266846,"31":-0.8576734662055969,"32":1.0425293445587158,"33":-1.46823251247406,"34":-0.6627326607704163,"35":0.542707085609436,"36":-0.8846971392631531,"37":-0.8102090358734131,"38":0.7497664093971252,"39":-0.5168535709381104,"40":1.7484716176986694,"41":-3.4470479488372803,"42":-0.05511463060975075,"43":-2.6595218181610107,"44":1.3881195783615112,"45":1.3204652070999146,"46":0.9449730515480042,"47":1.1475045680999756,"48":-0.31745660305023193,"49":-1.0270135402679443,"50":0.14461758732795715,"51":-0.4182598292827606,"52":3.403132915496826,"53":-2.2117226123809814,"54":0.23575836420059204,"55":-1.52596914768219,"56":0.9920084476470947,"57":-0.1570723056793213,"58":0.32686853408813477,"59":0.852554976940155,"60":-0.18991528451442719,"61":-0.21513450145721436,"62":0.7630020380020142,"63":-0.21674136817455292,"64":2.323030471801758,"65":-2.157099723815918,"66":0.25400593876838684,"67":-1.5393272638320923,"68":0.8001331090927124,"69":0.9123172760009766,"70":-0.29511532187461853,"71":0.6821514964103699,"72":1.2994534969329834,"73":2.101365089416504,"74":4.5392584800720215,"75":0.7134993076324463,"76":-0.8356539607048035,"77":-1.5998878479003906,"78":2.103663444519043,"79":2.5858960151672363,"80":1.7154645919799805,"81":3.3593878746032715,"82":-3.441102981567383,"83":-0.046362653374671936,"84":-0.005288529209792614,"85":-3.158414602279663,"86":0.6141757965087891,"87":-0.7611512541770935,"88":0.5322688817977905,"89":-2.3434348106384277,"90":0.411355584859848,"91":-1.1905114650726318,"92":0.1931825876235962,"93":0.17349210381507874,"94":-0.5913533568382263,"95":1.4383360147476196,"96":0.2940291166305542,"97":-2.52288818359375,"98":0.380278617143631,"99":0.2955302596092224,"100":1.0440713167190552,"101":-2.4629580974578857,"102":-0.37487566471099854,"103":-2.3510680198669434,"104":0.8858593106269836,"105":1.6208702325820923,"106":0.7850688695907593,"107":2.444064140319824,"108":-4.3163652420043945,"109":1.0992746353149414,"110":2.112420082092285,"111":-3.1786727905273438,"112":-1.9585862159729004,"113":0.7025060653686523,"114":-1.2842788696289062,"115":-0.07457246631383896,"116":-0.7964127659797668,"117":-4.958889007568359,"118":6.717452049255371,"119":-1.8790260553359985,"120":-2.455639123916626,"121":1.1754094362258911,"122":-0.07362975180149078,"123":-3.4391984939575195,"124":-1.649848222732544,"125":0.4558210074901581,"126":-0.304752379655838,"127":-0.5155251026153564,"128":-0.7211282253265381,"129":-0.5863916277885437,"130":1.971929669380188,"131":-0.9931665658950806,"132":-3.449627161026001,"133":0.5799036026000977,"134":-1.6278893947601318,"135":-4.210568904876709,"136":-3.5290262699127197,"137":-0.5854982733726501,"138":-2.1679399013519287,"139":0.08897360414266586,"140":-1.481247901916504,"141":1.6591862440109253,"142":7.525897026062012,"143":-3.4851059913635254}},"cellActivationHidden":{"rows":12,"columns":12,"weights":{"0":1.1008501052856445,"1":0.5955763459205627,"2":-0.3499438762664795,"3":2.175938367843628,"4":1.99570631980896,"5":1.5396491289138794,"6":-3.704322338104248,"7":-1.1302796602249146,"8":0.916061520576477,"9":-1.6102609634399414,"10":-0.6128876805305481,"11":0.6647737622261047,"12":0.4412735104560852,"13":-0.0364527553319931,"14":1.1406623125076294,"15":-0.012143305502831936,"16":-1.3155020475387573,"17":-0.12789931893348694,"18":-0.14569024741649628,"19":-0.27133214473724365,"20":-0.5379440784454346,"21":-0.12075744569301605,"22":0.532390832901001,"23":-0.21320083737373352,"24":2.9054853916168213,"25":0.8387652635574341,"26":-0.7206712365150452,"27":0.6620029211044312,"28":-0.4634934961795807,"29":2.8300468921661377,"30":1.2629485130310059,"31":-1.3431296348571777,"32":-1.6433138847351074,"33":-0.09466072171926498,"34":-1.3321222066879272,"35":-3.217575788497925,"36":0.2638053297996521,"37":0.15902385115623474,"38":0.44543394446372986,"39":1.7287110090255737,"40":-0.8692039847373962,"41":0.47121891379356384,"42":-2.8723862171173096,"43":0.4168614149093628,"44":1.2537962198257446,"45":-1.1725369691848755,"46":0.044407326728105545,"47":-1.448478102684021,"48":0.20328935980796814,"49":0.7564865350723267,"50":0.9280717372894287,"51":-0.27882125973701477,"52":0.6726663708686829,"53":0.10850102454423904,"54":2.7421178817749023,"55":-0.9848974943161011,"56":-0.3413574695587158,"57":0.32227757573127747,"58":1.023706316947937,"59":0.01579113118350506,"60":0.14274242520332336,"61":-0.08264917135238647,"62":0.9490175247192383,"63":0.3220571279525757,"64":0.36654743552207947,"65":1.2152559757232666,"66":1.1415544748306274,"67":-0.7967556715011597,"68":0.06866180151700974,"69":-0.7382718324661255,"70":0.4129498600959778,"71":-1.0638134479522705,"72":1.083765983581543,"73":-0.8025950789451599,"74":1.5240693092346191,"75":0.7775425910949707,"76":0.8456956148147583,"77":1.2313412427902222,"78":1.590937614440918,"79":-0.5965811014175415,"80":1.4459854364395142,"81":-0.8331370949745178,"82":-0.9985766410827637,"83":-0.5132777690887451,"84":-0.6592831015586853,"85":0.43041667342185974,"86":-1.432444453239441,"87":-0.22130803763866425,"88":-0.529055118560791,"89":0.24471700191497803,"90":-0.7314587831497192,"91":-0.1444626748561859,"92":-0.4727877974510193,"93":-0.13339318335056305,"94":-0.10331040620803833,"95":0.3456997871398926,"96":0.2842338979244232,"97":0.2053239941596985,"98":0.32051050662994385,"99":0.1445837765932083,"100":1.0547773838043213,"101":-0.8674389719963074,"102":2.969118356704712,"103":-0.6339345574378967,"104":1.3734228610992432,"105":1.9134674072265625,"106":-1.6734007596969604,"107":0.3662591576576233,"108":-2.3785741329193115,"109":0.3742378354072571,"110":1.6044139862060547,"111":-1.135048747062683,"112":-4.115099906921387,"113":-2.1451735496520996,"114":-3.5981922149658203,"115":0.45864906907081604,"116":-2.615450620651245,"117":-3.0236361026763916,"118":-0.4030761420726776,"119":-2.439167022705078,"120":-1.446694254875183,"121":1.232103943824768,"122":-1.7473740577697754,"123":-2.309922218322754,"124":-0.7048548460006714,"125":-0.739510178565979,"126":-0.3380611836910248,"127":-0.011378305032849312,"128":-1.6975749731063843,"129":-0.14400269091129303,"130":1.2920738458633423,"131":-0.9932740330696106,"132":-0.4796484112739563,"133":-0.553292453289032,"134":-0.8336455821990967,"135":-0.7807646989822388,"136":0.2889086604118347,"137":0.2990732789039612,"138":0.11570068448781967,"139":0.0704384446144104,"140":-1.1371865272521973,"141":2.3726842403411865,"142":0.9471855759620667,"143":0.01725373975932598}},"cellActivationBias":{"rows":12,"columns":1,"weights":{"0":-1.1476188898086548,"1":0.7369646430015564,"2":0.0560888908803463,"3":0.7873194217681885,"4":-0.6260111331939697,"5":-1.8724792003631592,"6":-6.213424205780029,"7":-0.5506814122200012,"8":0.41504788398742676,"9":2.2223825454711914,"10":2.2869699001312256,"11":2.912973403930664}}}],"outputConnector":{"rows":5,"columns":12,"weights":{"0":-17.32377815246582,"1":15.61212158203125,"2":-15.766936302185059,"3":-16.901906967163086,"4":-16.87712287902832,"5":-17.41071891784668,"6":-15.04254150390625,"7":-15.97697925567627,"8":-17.095996856689453,"9":16.623241424560547,"10":17.107919692993164,"11":13.84282398223877,"12":-16.502830505371094,"13":15.406062126159668,"14":-15.581814765930176,"15":-15.864118576049805,"16":-16.158668518066406,"17":-16.67388153076172,"18":-14.915555953979492,"19":-15.74885082244873,"20":-16.28250503540039,"21":16.401975631713867,"22":16.557533264160156,"23":14.126099586486816,"24":-16.890445709228516,"25":15.572378158569336,"26":-15.802968978881836,"27":-16.383787155151367,"28":-16.462478637695312,"29":-17.019033432006836,"30":-15.07624626159668,"31":-15.929521560668945,"32":-16.612573623657227,"33":16.518308639526367,"34":16.800046920776367,"35":14.234668731689453,"36":-16.895761489868164,"37":15.454781532287598,"38":-15.684890747070312,"39":-16.417890548706055,"40":-16.56782341003418,"41":-17.055410385131836,"42":-15.083497047424316,"43":-15.850019454956055,"44":-16.732465744018555,"45":16.45148277282715,"46":16.860334396362305,"47":14.029626846313477,"48":-16.886030197143555,"49":15.48813247680664,"50":-15.702649116516113,"51":-16.39875030517578,"52":-16.537233352661133,"53":-17.052242279052734,"54":-15.044222831726074,"55":-15.862239837646484,"56":-16.726472854614258,"57":16.49007225036621,"58":16.856229782104492,"59":14.042948722839355}},"output":{"rows":5,"columns":1,"weights":{"0":138.355712890625,"1":134.1979217529297,"2":136.43785095214844,"3":136.45816040039062,"4":136.3989715576172}}}